{"learner":{"attributes":{"best_iteration":"999","best_score":"15.894978494524564","scikit_learn":"{\"_estimator_type\": \"regressor\"}"},"feature_names":["dayofyear","hour","dayofweek","quarter","month"],"feature_types":["int","int","int","int","int"],"gradient_booster":{"model":{"gbtree_model_param":{"num_parallel_tree":"1","num_trees":"1000"},"iteration_indptr":[0,1,2,3,4,5,6,7,8,9,10,11,12,13,14,15,16,17,18,19,20,21,22,23,24,25,26,27,28,29,30,31,32,33,34,35,36,37,38,39,40,41,42,43,44,45,46,47,48,49,50,51,52,53,54,55,56,57,58,59,60,61,62,63,64,65,66,67,68,69,70,71,72,73,74,75,76,77,78,79,80,81,82,83,84,85,86,87,88,89,90,91,92,93,94,95,96,97,98,99,100,101,102,103,104,105,106,107,108,109,110,111,112,113,114,115,116,117,118,119,120,121,122,123,124,125,126,127,128,129,130,131,132,133,134,135,136,137,138,139,140,141,142,143,144,145,146,147,148,149,150,151,152,153,154,155,156,157,158,159,160,161,162,163,164,165,166,167,168,169,170,171,172,173,174,175,176,177,178,179,180,181,182,183,184,185,186,187,188,189,190,191,192,193,194,195,196,197,198,199,200,201,202,203,204,205,206,207,208,209,210,211,212,213,214,215,216,217,218,219,220,221,222,223,224,225,226,227,228,229,230,231,232,233,234,235,236,237,238,239,240,241,242,243,244,245,246,247,248,249,250,251,252,253,254,255,256,257,258,259,260,261,262,263,264,265,266,267,268,269,270,271,272,273,274,275,276,277,278,279,280,281,282,283,284,285,286,287,288,289,290,291,292,293,294,295,296,297,298,299,300,301,302,303,304,305,306,307,308,309,310,311,312,313,314,315,316,317,318,319,320,321,322,323,324,325,326,327,328,329,330,331,332,333,334,335,336,337,338,339,340,341,342,343,344,345,346,347,348,349,350,351,352,353,354,355,356,357,358,359,360,361,362,363,364,365,366,367,368,369,370,371,372,373,374,375,376,377,378,379,380,381,382,383,384,385,386,387,388,389,390,391,392,393,394,395,396,397,398,399,400,401,402,403,404,405,406,407,408,409,410,411,412,413,414,415,416,417,418,419,420,421,422,423,424,425,426,427,428,429,430,431,432,433,434,435,436,437,438,439,440,441,442,443,444,445,446,447,448,449,450,451,452,453,454,455,456,457,458,459,460,461,462,463,464,465,466,467,468,469,470,471,472,473,474,475,476,477,478,479,480,481,482,483,484,485,486,487,488,489,490,491,492,493,494,495,496,497,498,499,500,501,502,503,504,505,506,507,508,509,510,511,512,513,514,515,516,517,518,519,520,521,522,523,524,525,526,527,528,529,530,531,532,533,534,535,536,537,538,539,540,541,542,543,544,545,546,547,548,549,550,551,552,553,554,555,556,557,558,559,560,561,562,563,564,565,566,567,568,569,570,571,572,573,574,575,576,577,578,579,580,581,582,583,584,585,586,587,588,589,590,591,592,593,594,595,596,597,598,599,600,601,602,603,604,605,606,607,608,609,610,611,612,613,614,615,616,617,618,619,620,621,622,623,624,625,626,627,628,629,630,631,632,633,634,635,636,637,638,639,640,641,642,643,644,645,646,647,648,649,650,651,652,653,654,655,656,657,658,659,660,661,662,663,664,665,666,667,668,669,670,671,672,673,674,675,676,677,678,679,680,681,682,683,684,685,686,687,688,689,690,691,692,693,694,695,696,697,698,699,700,701,702,703,704,705,706,707,708,709,710,711,712,713,714,715,716,717,718,719,720,721,722,723,724,725,726,727,728,729,730,731,732,733,734,735,736,737,738,739,740,741,742,743,744,745,746,747,748,749,750,751,752,753,754,755,756,757,758,759,760,761,762,763,764,765,766,767,768,769,770,771,772,773,774,775,776,777,778,779,780,781,782,783,784,785,786,787,788,789,790,791,792,793,794,795,796,797,798,799,800,801,802,803,804,805,806,807,808,809,810,811,812,813,814,815,816,817,818,819,820,821,822,823,824,825,826,827,828,829,830,831,832,833,834,835,836,837,838,839,840,841,842,843,844,845,846,847,848,849,850,851,852,853,854,855,856,857,858,859,860,861,862,863,864,865,866,867,868,869,870,871,872,873,874,875,876,877,878,879,880,881,882,883,884,885,886,887,888,889,890,891,892,893,894,895,896,897,898,899,900,901,902,903,904,905,906,907,908,909,910,911,912,913,914,915,916,917,918,919,920,921,922,923,924,925,926,927,928,929,930,931,932,933,934,935,936,937,938,939,940,941,942,943,944,945,946,947,948,949,950,951,952,953,954,955,956,957,958,959,960,961,962,963,964,965,966,967,968,969,970,971,972,973,974,975,976,977,978,979,980,981,982,983,984,985,986,987,988,989,990,991,992,993,994,995,996,997,998,999,1000],"tree_info":[0,0,0,0,0,0,0,0,0,0,0,0,0,0,0,0,0,0,0,0,0,0,0,0,0,0,0,0,0,0,0,0,0,0,0,0,0,0,0,0,0,0,0,0,0,0,0,0,0,0,0,0,0,0,0,0,0,0,0,0,0,0,0,0,0,0,0,0,0,0,0,0,0,0,0,0,0,0,0,0,0,0,0,0,0,0,0,0,0,0,0,0,0,0,0,0,0,0,0,0,0,0,0,0,0,0,0,0,0,0,0,0,0,0,0,0,0,0,0,0,0,0,0,0,0,0,0,0,0,0,0,0,0,0,0,0,0,0,0,0,0,0,0,0,0,0,0,0,0,0,0,0,0,0,0,0,0,0,0,0,0,0,0,0,0,0,0,0,0,0,0,0,0,0,0,0,0,0,0,0,0,0,0,0,0,0,0,0,0,0,0,0,0,0,0,0,0,0,0,0,0,0,0,0,0,0,0,0,0,0,0,0,0,0,0,0,0,0,0,0,0,0,0,0,0,0,0,0,0,0,0,0,0,0,0,0,0,0,0,0,0,0,0,0,0,0,0,0,0,0,0,0,0,0,0,0,0,0,0,0,0,0,0,0,0,0,0,0,0,0,0,0,0,0,0,0,0,0,0,0,0,0,0,0,0,0,0,0,0,0,0,0,0,0,0,0,0,0,0,0,0,0,0,0,0,0,0,0,0,0,0,0,0,0,0,0,0,0,0,0,0,0,0,0,0,0,0,0,0,0,0,0,0,0,0,0,0,0,0,0,0,0,0,0,0,0,0,0,0,0,0,0,0,0,0,0,0,0,0,0,0,0,0,0,0,0,0,0,0,0,0,0,0,0,0,0,0,0,0,0,0,0,0,0,0,0,0,0,0,0,0,0,0,0,0,0,0,0,0,0,0,0,0,0,0,0,0,0,0,0,0,0,0,0,0,0,0,0,0,0,0,0,0,0,0,0,0,0,0,0,0,0,0,0,0,0,0,0,0,0,0,0,0,0,0,0,0,0,0,0,0,0,0,0,0,0,0,0,0,0,0,0,0,0,0,0,0,0,0,0,0,0,0,0,0,0,0,0,0,0,0,0,0,0,0,0,0,0,0,0,0,0,0,0,0,0,0,0,0,0,0,0,0,0,0,0,0,0,0,0,0,0,0,0,0,0,0,0,0,0,0,0,0,0,0,0,0,0,0,0,0,0,0,0,0,0,0,0,0,0,0,0,0,0,0,0,0,0,0,0,0,0,0,0,0,0,0,0,0,0,0,0,0,0,0,0,0,0,0,0,0,0,0,0,0,0,0,0,0,0,0,0,0,0,0,0,0,0,0,0,0,0,0,0,0,0,0,0,0,0,0,0,0,0,0,0,0,0,0,0,0,0,0,0,0,0,0,0,0,0,0,0,0,0,0,0,0,0,0,0,0,0,0,0,0,0,0,0,0,0,0,0,0,0,0,0,0,0,0,0,0,0,0,0,0,0,0,0,0,0,0,0,0,0,0,0,0,0,0,0,0,0,0,0,0,0,0,0,0,0,0,0,0,0,0,0,0,0,0,0,0,0,0,0,0,0,0,0,0,0,0,0,0,0,0,0,0,0,0,0,0,0,0,0,0,0,0,0,0,0,0,0,0,0,0,0,0,0,0,0,0,0,0,0,0,0,0,0,0,0,0,0,0,0,0,0,0,0,0,0,0,0,0,0,0,0,0,0,0,0,0,0,0,0,0,0,0,0,0,0,0,0,0,0,0,0,0,0,0,0,0,0,0,0,0,0,0,0,0,0,0,0,0,0,0,0,0,0,0,0,0,0,0,0,0,0,0,0,0,0,0,0,0,0,0,0,0,0,0,0,0,0,0,0,0,0,0,0,0,0,0,0,0,0,0,0,0,0,0,0,0,0,0,0,0,0,0,0,0,0,0,0,0,0,0,0,0,0,0,0,0,0,0,0,0,0,0,0,0,0,0,0,0,0,0,0,0,0,0,0,0,0,0,0,0,0,0,0,0,0,0,0,0,0,0,0,0,0,0,0,0,0,0,0,0,0,0,0,0,0,0,0,0,0,0,0,0,0,0,0,0,0,0,0,0,0,0,0,0,0,0,0,0,0,0,0,0,0,0,0,0,0,0,0,0,0,0,0,0,0,0,0,0,0,0,0,0,0,0,0,0,0,0,0,0,0,0,0,0,0,0,0,0,0,0,0,0,0,0,0,0,0,0,0,0,0,0,0,0,0,0,0,0,0,0,0,0,0,0,0],"trees":[{"base_weights":[5.58706E2,4.4379947E2,6.161315E2,4.331563E2,5.1785205E2,6.3643835E2,5.279729E2,4.445072E2,3.9597134E2,5.296155E2,3.3518906E0,5.728764E2,6.5545447E2,5.580599E2,4.6735803E2,4.033412E2,4.6304825E2,2.8749843E0,2.726598E0,3.3955853E0,3.8327756E0,5.84553E2,5.3527814E2,6.6676587E2,6.1782635E2,5.693074E2,3.639085E0,4.783811E2,2.983893E0,2.7493684E0,2.9351075E0,3.2814164E0,3.043699E0,3.793669E0,4.226067E0,3.529618E0,3.848911E0,4.3790026E0,4.7965364E0,4.3967767E0,4.0289907E0,3.6661587E0,4.1037273E0,3.0449517E0,3.46666E0],"categories":[],"categories_nodes":[],"categories_segments":[],"categories_sizes":[],"default_left":[0,0,0,0,0,0,0,0,0,0,0,0,0,0,0,0,0,0,0,0,0,0,0,0,0,0,0,0,0,0,0,0,0,0,0,0,0,0,0,0,0,0,0,0,0],"id":0,"left_children":[1,3,5,7,9,11,13,15,17,19,-1,21,23,25,27,29,31,-1,-1,-1,-1,33,35,37,39,41,-1,43,-1,-1,-1,-1,-1,-1,-1,-1,-1,-1,-1,-1,-1,-1,-1,-1,-1],"loss_changes":[1.7836851E8,6.888832E6,3.1975936E7,3.15712E6,2.6448E5,1.7350144E7,5.912512E6,4.424832E6,1.6672E4,4.19232E5,0E0,1.17312E6,4.389376E6,6.73536E5,3.07392E5,1.5328E5,4.68544E5,0E0,0E0,0E0,0E0,1.773376E6,9.0896E4,6.155264E6,7.77536E5,1.03072E6,0E0,4.29632E5,0E0,0E0,0E0,0E0,0E0,0E0,0E0,0E0,0E0,0E0,0E0,0E0,0E0,0E0,0E0,0E0,0E0],"parents":[2147483647,0,0,1,1,2,2,3,3,4,4,5,5,6,6,7,7,8,8,9,9,11,11,12,12,13,13,14,14,15,15,16,16,21,21,22,22,23,23,24,24,25,25,27,27],"right_children":[2,4,6,8,10,12,14,16,18,20,-1,22,24,26,28,30,32,-1,-1,-1,-1,34,36,38,40,42,-1,44,-1,-1,-1,-1,-1,-1,-1,-1,-1,-1,-1,-1,-1,-1,-1,-1,-1],"split_conditions":[8E0,7E0,2.1E1,2.78E2,2.76E2,1.1E1,2.3E1,8E1,3.04E2,7.5E1,3.3518906E0,2.76E2,2.79E2,2.79E2,2.84E2,4.5E1,2.44E2,2.8749843E0,2.726598E0,3.3955853E0,3.8327756E0,8E1,9E0,8E1,1.9E1,7E1,3.639085E0,7.5E1,2.983893E0,2.7493684E0,2.9351075E0,3.2814164E0,3.043699E0,3.793669E0,4.226067E0,3.529618E0,3.848911E0,4.3790026E0,4.7965364E0,4.3967767E0,4.0289907E0,3.6661587E0,4.1037273E0,3.0449517E0,3.46666E0],"split_indices":[1,1,1,0,0,1,1,0,0,0,0,0,0,0,0,0,0,0,0,0,0,0,1,0,1,0,0,0,0,0,0,0,0,0,0,0,0,0,0,0,0,0,0,0,0],"split_type":[0,0,0,0,0,0,0,0,0,0,0,0,0,0,0,0,0,0,0,0,0,0,0,0,0,0,0,0,0,0,0,0,0,0,0,0,0,0,0,0,0,0,0,0,0],"sum_hessian":[2.7072E4,9.024E3,1.8048E4,7.896E3,1.128E3,1.4664E4,3.384E3,6.041E3,1.855E3,8.57E2,2.71E2,3.384E3,1.128E4,2.256E3,1.128E3,1.883E3,4.158E3,5.46E2,1.309E3,2.54E2,6.03E2,2.571E3,8.13E2,8.66E3,2.62E3,1.732E3,5.24E2,8.81E2,2.47E2,1.148E3,7.35E2,3.444E3,7.14E2,8.07E2,1.764E3,2.71E2,5.42E2,2.69E3,5.97E3,2.096E3,5.24E2,4.78E2,1.254E3,2.54E2,6.27E2],"tree_param":{"num_deleted":"0","num_feature":"5","num_nodes":"45","size_leaf_vector":"1"}},{"base_weights":[5.547981E2,4.40696E2,6.1182153E2,4.3012643E2,5.1423645E2,6.319856E2,5.2428326E2,4.4139764E2,3.9320258E2,5.259166E2,3.3285136E0,5.6887085E2,6.5086786E2,5.541585E2,4.640949E2,4.0018805E2,4.596589E2,2.8548965E0,2.7075264E0,3.3719091E0,3.8059907E0,5.8046423E2,5.315402E2,6.620996E2,6.135048E2,5.653267E2,3.6136599E0,4.7503983E2,2.96309E0,2.7301397E0,2.9117792E0,3.2569497E0,3.022423E0,3.7671459E0,4.196501E0,3.5050015E0,3.8220184E0,4.348361E0,4.7629666E0,4.366014E0,4.0008416E0,3.6405492E0,4.0750246E0,3.0237205E0,3.442432E0],"categories":[],"categories_nodes":[],"categories_segments":[],"categories_sizes":[],"default_left":[0,0,0,0,0,0,0,0,0,0,0,0,0,0,0,0,0,0,0,0,0,0,0,0,0,0,0,0,0,0,0,0,0,0,0,0,0,0,0,0,0,0,0,0,0],"id":1,"left_children":[1,3,5,7,9,11,13,15,17,19,-1,21,23,25,27,29,31,-1,-1,-1,-1,33,35,37,39,41,-1,43,-1,-1,-1,-1,-1,-1,-1,-1,-1,-1,-1,-1,-1,-1,-1,-1,-1],"loss_changes":[1.758807E8,6.793856E6,3.1526912E7,3.11296E6,2.60736E5,1.7106944E7,5.829568E6,4.363008E6,1.6512E4,4.13216E5,0E0,1.15648E6,4.327424E6,6.64E5,3.03024E5,1.36672E5,4.5408E5,0E0,0E0,0E0,0E0,1.748416E6,8.9504E4,6.069504E6,7.66464E5,1.016192E6,0E0,4.23488E5,0E0,0E0,0E0,0E0,0E0,0E0,0E0,0E0,0E0,0E0,0E0,0E0,0E0,0E0,0E0,0E0,0E0],"parents":[2147483647,0,0,1,1,2,2,3,3,4,4,5,5,6,6,7,7,8,8,9,9,11,11,12,12,13,13,14,14,15,15,16,16,21,21,22,22,23,23,24,24,25,25,27,27],"right_children":[2,4,6,8,10,12,14,16,18,20,-1,22,24,26,28,30,32,-1,-1,-1,-1,34,36,38,40,42,-1,44,-1,-1,-1,-1,-1,-1,-1,-1,-1,-1,-1,-1,-1,-1,-1,-1,-1],"split_conditions":[8E0,7E0,2.1E1,2.78E2,2.76E2,1.1E1,2.3E1,7.9E1,3.04E2,7.5E1,3.3285136E0,2.76E2,2.79E2,2.79E2,2.84E2,4.5E1,2.44E2,2.8548965E0,2.7075264E0,3.3719091E0,3.8059907E0,8E1,9E0,8E1,1.9E1,7E1,3.6136599E0,7.5E1,2.96309E0,2.7301397E0,2.9117792E0,3.2569497E0,3.022423E0,3.7671459E0,4.196501E0,3.5050015E0,3.8220184E0,4.348361E0,4.7629666E0,4.366014E0,4.0008416E0,3.6405492E0,4.0750246E0,3.0237205E0,3.442432E0],"split_indices":[1,1,1,0,0,1,1,0,0,0,0,0,0,0,0,0,0,0,0,0,0,0,1,0,1,0,0,0,0,0,0,0,0,0,0,0,0,0,0,0,0,0,0,0,0],"split_type":[0,0,0,0,0,0,0,0,0,0,0,0,0,0,0,0,0,0,0,0,0,0,0,0,0,0,0,0,0,0,0,0,0,0,0,0,0,0,0,0,0,0,0,0,0],"sum_hessian":[2.7072E4,9.024E3,1.8048E4,7.896E3,1.128E3,1.4664E4,3.384E3,6.041E3,1.855E3,8.57E2,2.71E2,3.384E3,1.128E4,2.256E3,1.128E3,1.862E3,4.179E3,5.46E2,1.309E3,2.54E2,6.03E2,2.571E3,8.13E2,8.66E3,2.62E3,1.732E3,5.24E2,8.81E2,2.47E2,1.148E3,7.14E2,3.465E3,7.14E2,8.07E2,1.764E3,2.71E2,5.42E2,2.69E3,5.97E3,2.096E3,5.24E2,4.78E2,1.254E3,2.54E2,6.27E2],"tree_param":{"num_deleted":"0","num_feature":"5","num_nodes":"45","size_leaf_vector":"1"}},{"base_weights":[5.509175E2,4.3761423E2,6.0754175E2,4.2711777E2,5.106461E2,6.275639E2,5.206194E2,4.383098E2,3.9045316E2,5.222435E2,3.3052998E0,5.6489325E2,6.4631335E2,5.5028436E2,4.608546E2,3.9771738E2,4.5659253E2,2.8349485E0,2.6885881E0,3.3483987E0,3.7793925E0,5.758965E2,5.261309E2,6.5746594E2,6.0921344E2,5.613739E2,3.5884123E0,4.7242337E2,2.9586735E0,2.7110453E0,2.894166E0,3.2356613E0,3.0012956E0,3.7334921E0,4.1550775E0,3.4708266E0,3.7819068E0,4.300906E0,4.7224784E0,4.3354664E0,3.972889E0,3.6151185E0,4.0465217E0,3.0026374E0,3.4299707E0],"categories":[],"categories_nodes":[],"categories_segments":[],"categories_sizes":[],"default_left":[0,0,0,0,0,0,0,0,0,0,0,0,0,0,0,0,0,0,0,0,0,0,0,0,0,0,0,0,0,0,0,0,0,0,0,0,0,0,0,0,0,0,0,0,0],"id":2,"left_children":[1,3,5,7,9,11,13,15,17,19,-1,21,23,25,27,29,31,-1,-1,-1,-1,33,35,37,39,41,-1,43,-1,-1,-1,-1,-1,-1,-1,-1,-1,-1,-1,-1,-1,-1,-1,-1,-1],"loss_changes":[1.7342669E8,6.700288E6,3.1085056E7,3.06944E6,2.56992E5,1.6867328E7,5.747712E6,4.302336E6,1.632E4,4.07312E5,0E0,1.140736E6,4.266496E6,6.54656E5,2.99088E5,1.48928E5,4.5536E5,0E0,0E0,0E0,0E0,1.659136E6,5.7744E4,5.988864E6,7.55584E5,1.001792E6,0E0,4.45296E5,0E0,0E0,0E0,0E0,0E0,0E0,0E0,0E0,0E0,0E0,0E0,0E0,0E0,0E0,0E0,0E0,0E0],"parents":[2147483647,0,0,1,1,2,2,3,3,4,4,5,5,6,6,7,7,8,8,9,9,11,11,12,12,13,13,14,14,15,15,16,16,21,21,22,22,23,23,24,24,25,25,27,27],"right_children":[2,4,6,8,10,12,14,16,18,20,-1,22,24,26,28,30,32,-1,-1,-1,-1,34,36,38,40,42,-1,44,-1,-1,-1,-1,-1,-1,-1,-1,-1,-1,-1,-1,-1,-1,-1,-1,-1],"split_conditions":[8E0,7E0,2.1E1,2.78E2,2.76E2,1.1E1,2.3E1,8E1,3.04E2,7.5E1,3.3052998E0,2.82E2,2.79E2,2.79E2,2.76E2,4.5E1,2.44E2,2.8349485E0,2.6885881E0,3.3483987E0,3.7793925E0,7.7E1,9E0,7.3E1,1.9E1,7E1,3.5884123E0,7.5E1,2.9586735E0,2.7110453E0,2.894166E0,3.2356613E0,3.0012956E0,3.7334921E0,4.1550775E0,3.4708266E0,3.7819068E0,4.300906E0,4.7224784E0,4.3354664E0,3.972889E0,3.6151185E0,4.0465217E0,3.0026374E0,3.4299707E0],"split_indices":[1,1,1,0,0,1,1,0,0,0,0,0,0,0,0,0,0,0,0,0,0,0,1,0,1,0,0,0,0,0,0,0,0,0,0,0,0,0,0,0,0,0,0,0,0],"split_type":[0,0,0,0,0,0,0,0,0,0,0,0,0,0,0,0,0,0,0,0,0,0,0,0,0,0,0,0,0,0,0,0,0,0,0,0,0,0,0,0,0,0,0,0,0],"sum_hessian":[2.7072E4,9.024E3,1.8048E4,7.896E3,1.128E3,1.4664E4,3.384E3,6.041E3,1.855E3,8.57E2,2.71E2,3.384E3,1.128E4,2.256E3,1.128E3,1.883E3,4.158E3,5.46E2,1.309E3,2.54E2,6.03E2,2.625E3,7.59E2,8.66E3,2.62E3,1.732E3,5.24E2,8.57E2,2.71E2,1.148E3,7.35E2,3.444E3,7.14E2,7.8E2,1.845E3,2.53E2,5.06E2,2.48E3,6.18E3,2.096E3,5.24E2,4.78E2,1.254E3,2.54E2,6.03E2],"tree_param":{"num_deleted":"0","num_feature":"5","num_nodes":"45","size_leaf_vector":"1"}},{"base_weights":[5.470641E2,4.3455402E2,6.0329193E2,4.2413016E2,5.070808E2,6.2317316E2,5.169812E2,4.3524362E2,3.8772296E2,5.185961E2,3.2822475E0,5.609435E2,6.417907E2,5.464374E2,4.5763696E2,3.9493634E2,4.533979E2,2.8151405E0,2.6697826E0,3.3250515E0,3.7529807E0,5.725215E2,5.245552E2,6.5190216E2,6.010738E2,5.5744867E2,3.5633414E0,4.684317E2,2.9218047E0,2.6969714E0,2.8821566E0,3.213018E0,2.980316E0,3.714608E0,4.1406627E0,3.4592125E0,3.7717757E0,4.6396637E0,4.301116E0,4.282936E0,3.938745E0,3.5898654E0,4.018219E0,2.9817011E0,3.394528E0],"categories":[],"categories_nodes":[],"categories_segments":[],"categories_sizes":[],"default_left":[0,0,0,0,0,0,0,0,0,0,0,0,0,0,0,0,0,0,0,0,0,0,0,0,0,0,0,0,0,0,0,0,0,0,0,0,0,0,0,0,0,0,0,0,0],"id":3,"left_children":[1,3,5,7,9,11,13,15,17,19,-1,21,23,25,27,29,31,-1,-1,-1,-1,33,35,37,39,41,-1,43,-1,-1,-1,-1,-1,-1,-1,-1,-1,-1,-1,-1,-1,-1,-1,-1,-1],"loss_changes":[1.7100698E8,6.608E6,3.0649344E7,3.02656E6,2.5328E5,1.6630784E7,5.667072E6,4.242048E6,1.616E4,4.01472E5,0E0,1.12576E6,4.25216E6,6.45504E5,2.94848E5,1.46944E5,4.48896E5,0E0,0E0,0E0,0E0,1.720128E6,9.3136E4,3.279872E6,5.89376E5,9.87584E5,0E0,4.11584E5,0E0,0E0,0E0,0E0,0E0,0E0,0E0,0E0,0E0,0E0,0E0,0E0,0E0,0E0,0E0,0E0,0E0],"parents":[2147483647,0,0,1,1,2,2,3,3,4,4,5,5,6,6,7,7,8,8,9,9,11,11,12,12,13,13,14,14,15,15,16,16,21,21,22,22,23,23,24,24,25,25,27,27],"right_children":[2,4,6,8,10,12,14,16,18,20,-1,22,24,26,28,30,32,-1,-1,-1,-1,34,36,38,40,42,-1,44,-1,-1,-1,-1,-1,-1,-1,-1,-1,-1,-1,-1,-1,-1,-1,-1,-1],"split_conditions":[8E0,7E0,2.1E1,2.78E2,2.76E2,1.1E1,2.3E1,8E1,3.04E2,7.5E1,3.2822475E0,4E0,1.9E1,2.79E2,2.84E2,4.8E1,2.44E2,2.8151405E0,2.6697826E0,3.3250515E0,3.7529807E0,8E1,9E0,2.81E2,2.82E2,7E1,3.5633414E0,7.5E1,2.9218047E0,2.6969714E0,2.8821566E0,3.213018E0,2.980316E0,3.714608E0,4.1406627E0,3.4592125E0,3.7717757E0,4.6396637E0,4.301116E0,4.282936E0,3.938745E0,3.5898654E0,4.018219E0,2.9817011E0,3.394528E0],"split_indices":[1,1,1,0,0,1,1,0,0,0,0,3,1,0,0,0,0,0,0,0,0,0,1,0,0,0,0,0,0,0,0,0,0,0,0,0,0,0,0,0,0,0,0,0,0],"split_type":[0,0,0,0,0,0,0,0,0,0,0,0,0,0,0,0,0,0,0,0,0,0,0,0,0,0,0,0,0,0,0,0,0,0,0,0,0,0,0,0,0,0,0,0,0],"sum_hessian":[2.7072E4,9.024E3,1.8048E4,7.896E3,1.128E3,1.4664E4,3.384E3,6.041E3,1.855E3,8.57E2,2.71E2,3.384E3,1.128E4,2.256E3,1.128E3,1.883E3,4.158E3,5.46E2,1.309E3,2.54E2,6.03E2,2.556E3,8.28E2,9.024E3,2.256E3,1.732E3,5.24E2,8.81E2,2.47E2,1.211E3,6.72E2,3.444E3,7.14E2,8.07E2,1.749E3,2.76E2,5.52E2,6.976E3,2.048E3,1.75E3,5.06E2,4.78E2,1.254E3,2.54E2,6.27E2],"tree_param":{"num_deleted":"0","num_feature":"5","num_nodes":"45","size_leaf_vector":"1"}},{"base_weights":[5.432376E2,4.315152E2,5.990718E2,4.2116342E2,5.0354044E2,6.188132E2,5.1336835E2,4.3162482E2,2.6812234E0,5.1497424E2,3.2593565E0,5.5702136E2,6.372997E2,5.426173E2,4.5444174E2,3.8873584E2,4.474274E2,3.3314903E0,3.7406673E0,5.685169E2,5.20892E2,6.473399E2,5.9686993E2,5.528835E2,3.5220373E0,4.6585556E2,2.9173696E0,2.6732223E0,2.8206735E0,3.174072E0,2.9322605E0,3.6886377E0,4.1116943E0,3.4350855E0,3.745421E0,4.607191E0,4.271023E0,4.2529726E0,3.9112284E0,3.5647888E0,3.9794822E0,2.9609113E0,3.3822784E0],"categories":[],"categories_nodes":[],"categories_segments":[],"categories_sizes":[],"default_left":[0,0,0,0,0,0,0,0,0,0,0,0,0,0,0,0,0,0,0,0,0,0,0,0,0,0,0,0,0,0,0,0,0,0,0,0,0,0,0,0,0,0,0],"id":4,"left_children":[1,3,5,7,9,11,13,15,-1,17,-1,19,21,23,25,27,29,-1,-1,31,33,35,37,39,-1,41,-1,-1,-1,-1,-1,-1,-1,-1,-1,-1,-1,-1,-1,-1,-1,-1,-1],"loss_changes":[1.6862054E8,6.516864E6,3.0219264E7,2.98496E6,2.49696E5,1.6397312E7,5.587584E6,4.020608E6,0E0,3.95856E5,0E0,1.10976E6,4.19328E6,6.36352E5,2.91328E5,9.088E3,5.84704E5,0E0,0E0,1.695936E6,9.1728E4,3.23328E6,5.80928E5,9.23712E5,0E0,4.32928E5,0E0,0E0,0E0,0E0,0E0,0E0,0E0,0E0,0E0,0E0,0E0,0E0,0E0,0E0,0E0,0E0,0E0],"parents":[2147483647,0,0,1,1,2,2,3,3,4,4,5,5,6,6,7,7,9,9,11,11,12,12,13,13,14,14,15,15,16,16,19,19,20,20,21,21,22,22,23,23,25,25],"right_children":[2,4,6,8,10,12,14,16,-1,18,-1,20,22,24,26,28,30,-1,-1,32,34,36,38,40,-1,42,-1,-1,-1,-1,-1,-1,-1,-1,-1,-1,-1,-1,-1,-1,-1,-1,-1],"split_conditions":[8E0,7E0,2.1E1,2.85E2,2.76E2,1.1E1,2.3E1,7E1,2.6812234E0,8.8E1,3.2593565E0,4E0,1.9E1,2.87E2,2.76E2,4.5E1,2.47E2,3.3314903E0,3.7406673E0,8E1,9E0,2.81E2,2.82E2,7E1,3.5220373E0,7.5E1,2.9173696E0,2.6732223E0,2.8206735E0,3.174072E0,2.9322605E0,3.6886377E0,4.1116943E0,3.4350855E0,3.745421E0,4.607191E0,4.271023E0,4.2529726E0,3.9112284E0,3.5647888E0,3.9794822E0,2.9609113E0,3.3822784E0],"split_indices":[1,1,1,0,0,1,1,0,0,0,0,3,1,0,0,0,0,0,0,0,1,0,0,0,0,0,0,0,0,0,0,0,0,0,0,0,0,0,0,0,0,0,0],"split_type":[0,0,0,0,0,0,0,0,0,0,0,0,0,0,0,0,0,0,0,0,0,0,0,0,0,0,0,0,0,0,0,0,0,0,0,0,0,0,0,0,0,0,0],"sum_hessian":[2.7072E4,9.024E3,1.8048E4,7.896E3,1.128E3,1.4664E4,3.384E3,6.188E3,1.708E3,8.57E2,2.71E2,3.384E3,1.128E4,2.256E3,1.128E3,1.673E3,4.515E3,2.93E2,5.64E2,2.556E3,8.28E2,9.024E3,2.256E3,1.78E3,4.76E2,8.57E2,2.71E2,1.148E3,5.25E2,3.717E3,7.98E2,8.07E2,1.749E3,2.76E2,5.52E2,6.976E3,2.048E3,1.75E3,5.06E2,4.78E2,1.302E3,2.54E2,6.03E2],"tree_param":{"num_deleted":"0","num_feature":"5","num_nodes":"43","size_leaf_vector":"1"}},{"base_weights":[5.394378E2,4.284973E2,5.9488116E2,4.1821707E2,5.000248E2,6.1448364E2,5.097808E2,4.2917725E2,3.8231216E2,5.1137766E2,3.2366247E0,5.531266E2,6.328401E2,5.3882385E2,4.5126883E2,3.8940604E2,4.4709012E2,2.7503653E0,2.6176353E0,3.2786386E0,3.7007968E0,5.2409424E2,5.674042E2,6.4280945E2,5.926955E2,5.496882E2,3.5135455E0,4.6260196E2,2.8970232E0,2.6545258E0,2.833474E0,3.1683214E0,2.9388368E0,3.7470329E0,3.4079506E0,4.047409E0,3.7029693E0,4.5749454E0,4.24114E0,4.2232194E0,3.8839037E0,3.5398874E0,3.9622796E0,2.9402664E0,3.3586416E0],"categories":[],"categories_nodes":[],"categories_segments":[],"categories_sizes":[],"default_left":[0,0,0,0,0,0,0,0,0,0,0,0,0,0,0,0,0,0,0,0,0,0,0,0,0,0,0,0,0,0,0,0,0,0,0,0,0,0,0,0,0,0,0,0,0],"id":5,"left_children":[1,3,5,7,9,11,13,15,17,19,-1,21,23,25,27,29,31,-1,-1,-1,-1,33,35,37,39,41,-1,43,-1,-1,-1,-1,-1,-1,-1,-1,-1,-1,-1,-1,-1,-1,-1,-1,-1],"loss_changes":[1.6626893E8,6.427136E6,2.979584E7,2.943488E6,2.46112E5,1.6167424E7,5.509248E6,4.130432E6,1.7568E4,3.90944E5,0E0,1.105856E6,4.133376E6,6.28608E5,2.872E5,1.41632E5,4.36544E5,0E0,0E0,0E0,0E0,2.10176E5,6.3008E5,3.18848E6,5.72672E5,9.60288E5,0E0,4.26736E5,0E0,0E0,0E0,0E0,0E0,0E0,0E0,0E0,0E0,0E0,0E0,0E0,0E0,0E0,0E0,0E0,0E0],"parents":[2147483647,0,0,1,1,2,2,3,3,4,4,5,5,6,6,7,7,8,8,9,9,11,11,12,12,13,13,14,14,15,15,16,16,21,21,22,22,23,23,24,24,25,25,27,27],"right_children":[2,4,6,8,10,12,14,16,18,20,-1,22,24,26,28,30,32,-1,-1,-1,-1,34,36,38,40,42,-1,44,-1,-1,-1,-1,-1,-1,-1,-1,-1,-1,-1,-1,-1,-1,-1,-1,-1],"split_conditions":[8E0,7E0,2.1E1,2.78E2,2.76E2,1.1E1,2.3E1,8E1,3.16E2,7.5E1,3.2366247E0,9E0,1.9E1,2.79E2,2.76E2,4.5E1,2.44E2,2.7503653E0,2.6176353E0,3.2786386E0,3.7007968E0,2.76E2,2.82E2,2.81E2,2.82E2,7E1,3.5135455E0,7.5E1,2.8970232E0,2.6545258E0,2.833474E0,3.1683214E0,2.9388368E0,3.7470329E0,3.4079506E0,4.047409E0,3.7029693E0,4.5749454E0,4.24114E0,4.2232194E0,3.8839037E0,3.5398874E0,3.9622796E0,2.9402664E0,3.3586416E0],"split_indices":[1,1,1,0,0,1,1,0,0,0,0,1,1,0,0,0,0,0,0,0,0,0,0,0,0,0,0,0,0,0,0,0,0,0,0,0,0,0,0,0,0,0,0,0,0],"split_type":[0,0,0,0,0,0,0,0,0,0,0,0,0,0,0,0,0,0,0,0,0,0,0,0,0,0,0,0,0,0,0,0,0,0,0,0,0,0,0,0,0,0,0,0,0],"sum_hessian":[2.7072E4,9.024E3,1.8048E4,7.896E3,1.128E3,1.4664E4,3.384E3,6.041E3,1.855E3,8.57E2,2.71E2,3.384E3,1.128E4,2.256E3,1.128E3,1.883E3,4.158E3,7.98E2,1.057E3,2.54E2,6.03E2,1.128E3,2.256E3,9.024E3,2.256E3,1.732E3,5.24E2,8.57E2,2.71E2,1.148E3,7.35E2,3.444E3,7.14E2,8.57E2,2.71E2,1.75E3,5.06E2,6.976E3,2.048E3,1.75E3,5.06E2,4.78E2,1.254E3,2.54E2,6.03E2],"tree_param":{"num_deleted":"0","num_feature":"5","num_nodes":"45","size_leaf_vector":"1"}},{"base_weights":[5.356646E2,4.2550085E2,5.907199E2,4.1529172E2,4.9653366E2,6.1018445E2,5.062183E2,4.2560898E2,2.643799E0,5.0780612E2,3.2140515E0,5.4925916E2,6.284117E2,5.3505695E2,4.481181E2,3.833089E2,4.411946E2,3.2849844E0,3.6886694E0,5.347499E2,5.777783E2,6.383108E2,5.885502E2,5.4623047E2,3.4974759E0,4.5869366E2,2.860898E0,2.6359603E0,2.7811697E0,3.1298468E0,2.891457E0,3.8175418E0,3.4792867E0,4.117765E0,3.763102E0,4.5429254E0,4.211467E0,4.1936736E0,3.8567703E0,3.5277004E0,3.9462504E0,2.919765E0,3.3239405E0],"categories":[],"categories_nodes":[],"categories_segments":[],"categories_sizes":[],"default_left":[0,0,0,0,0,0,0,0,0,0,0,0,0,0,0,0,0,0,0,0,0,0,0,0,0,0,0,0,0,0,0,0,0,0,0,0,0,0,0,0,0,0,0],"id":6,"left_children":[1,3,5,7,9,11,13,15,-1,17,-1,19,21,23,25,27,29,-1,-1,31,33,35,37,39,-1,41,-1,-1,-1,-1,-1,-1,-1,-1,-1,-1,-1,-1,-1,-1,-1,-1,-1],"loss_changes":[1.6394957E8,6.33856E6,2.9378048E7,2.903168E6,2.42592E5,1.5939584E7,5.431936E6,3.911168E6,0E0,3.85552E5,0E0,1.091712E6,4.076032E6,6.20224E5,2.83184E5,8.432E3,5.68192E5,0E0,0E0,6.32192E5,1.59072E5,3.14368E6,5.6448E5,9.78656E5,0E0,3.94448E5,0E0,0E0,0E0,0E0,0E0,0E0,0E0,0E0,0E0,0E0,0E0,0E0,0E0,0E0,0E0,0E0,0E0],"parents":[2147483647,0,0,1,1,2,2,3,3,4,4,5,5,6,6,7,7,9,9,11,11,12,12,13,13,14,14,15,15,16,16,19,19,20,20,21,21,22,22,23,23,25,25],"right_children":[2,4,6,8,10,12,14,16,-1,18,-1,20,22,24,26,28,30,-1,-1,32,34,36,38,40,-1,42,-1,-1,-1,-1,-1,-1,-1,-1,-1,-1,-1,-1,-1,-1,-1,-1,-1],"split_conditions":[8E0,7E0,2.1E1,2.85E2,2.76E2,1.1E1,2.3E1,7E1,2.643799E0,8.8E1,3.2140515E0,1E1,1.9E1,4E0,2.84E2,4.5E1,2.47E2,3.2849844E0,3.6886694E0,2.82E2,2.85E2,2.81E2,2.82E2,7.5E1,3.4974759E0,7.5E1,2.860898E0,2.6359603E0,2.7811697E0,3.1298468E0,2.891457E0,3.8175418E0,3.4792867E0,4.117765E0,3.763102E0,4.5429254E0,4.211467E0,4.1936736E0,3.8567703E0,3.5277004E0,3.9462504E0,2.919765E0,3.3239405E0],"split_indices":[1,1,1,0,0,1,1,0,0,0,0,1,1,3,0,0,0,0,0,0,0,0,0,0,0,0,0,0,0,0,0,0,0,0,0,0,0,0,0,0,0,0,0],"split_type":[0,0,0,0,0,0,0,0,0,0,0,0,0,0,0,0,0,0,0,0,0,0,0,0,0,0,0,0,0,0,0,0,0,0,0,0,0,0,0,0,0,0,0],"sum_hessian":[2.7072E4,9.024E3,1.8048E4,7.896E3,1.128E3,1.4664E4,3.384E3,6.188E3,1.708E3,8.57E2,2.71E2,3.384E3,1.128E4,2.256E3,1.128E3,1.673E3,4.515E3,2.93E2,5.64E2,2.256E3,1.128E3,9.024E3,2.256E3,1.704E3,5.52E2,8.81E2,2.47E2,1.148E3,5.25E2,3.717E3,7.98E2,1.75E3,5.06E2,8.84E2,2.44E2,6.976E3,2.048E3,1.75E3,5.06E2,5.08E2,1.196E3,2.54E2,6.27E2],"tree_param":{"num_deleted":"0","num_feature":"5","num_nodes":"43","size_leaf_vector":"1"}},{"base_weights":[5.319178E2,4.2252502E2,5.8658777E2,4.1238644E2,4.9306696E2,6.059153E2,5.026807E2,4.231954E2,3.769769E2,5.0333136E2,3.1691654E0,5.454188E2,6.240143E2,5.313164E2,4.4498932E2,3.8395303E2,4.4087018E2,2.7123344E0,2.58084E0,3.2328734E0,3.6340585E0,5.1669354E2,5.5954614E2,6.3384357E2,5.844339E2,5.4121564E2,3.4440224E0,4.5617065E2,2.8565798E0,2.6222367E0,2.8015184E0,3.124247E0,2.8979344E0,3.6941423E0,3.3597605E0,3.9913356E0,3.651757E0,4.5111294E0,4.182001E0,4.166637E0,3.8374567E0,3.4905176E0,3.8941748E0,2.899407E0,3.311941E0],"categories":[],"categories_nodes":[],"categories_segments":[],"categories_sizes":[],"default_left":[0,0,0,0,0,0,0,0,0,0,0,0,0,0,0,0,0,0,0,0,0,0,0,0,0,0,0,0,0,0,0,0,0,0,0,0,0,0,0,0,0,0,0,0,0],"id":7,"left_children":[1,3,5,7,9,11,13,15,17,19,-1,21,23,25,27,29,31,-1,-1,-1,-1,33,35,37,39,41,-1,43,-1,-1,-1,-1,-1,-1,-1,-1,-1,-1,-1,-1,-1,-1,-1,-1,-1],"loss_changes":[1.6166246E8,6.251136E6,2.8965376E7,2.862976E6,2.39488E5,1.5716864E7,5.355648E6,4.021504E6,1.8624E4,3.45088E5,0E0,1.08448E6,4.018176E6,6.12032E5,2.79744E5,1.36512E5,4.24576E5,0E0,0E0,0E0,0E0,2.04512E5,6.12352E5,3.099648E6,5.56672E5,8.74784E5,0E0,4.1488E5,0E0,0E0,0E0,0E0,0E0,0E0,0E0,0E0,0E0,0E0,0E0,0E0,0E0,0E0,0E0,0E0,0E0],"parents":[2147483647,0,0,1,1,2,2,3,3,4,4,5,5,6,6,7,7,8,8,9,9,11,11,12,12,13,13,14,14,15,15,16,16,21,21,22,22,23,23,24,24,25,25,27,27],"right_children":[2,4,6,8,10,12,14,16,18,20,-1,22,24,26,28,30,32,-1,-1,-1,-1,34,36,38,40,42,-1,44,-1,-1,-1,-1,-1,-1,-1,-1,-1,-1,-1,-1,-1,-1,-1,-1,-1],"split_conditions":[8E0,7E0,2.1E1,2.78E2,2.87E2,1.1E1,2.3E1,8E1,3.16E2,7.5E1,3.1691654E0,9E0,1.9E1,2.89E2,2.76E2,4.8E1,2.44E2,2.7123344E0,2.58084E0,3.2328734E0,3.6340585E0,2.76E2,2.82E2,2.81E2,2.78E2,7E1,3.4440224E0,7.5E1,2.8565798E0,2.6222367E0,2.8015184E0,3.124247E0,2.8979344E0,3.6941423E0,3.3597605E0,3.9913356E0,3.651757E0,4.5111294E0,4.182001E0,4.166637E0,3.8374567E0,3.4905176E0,3.8941748E0,2.899407E0,3.311941E0],"split_indices":[1,1,1,0,0,1,1,0,0,0,0,1,1,0,0,0,0,0,0,0,0,0,0,0,0,0,0,0,0,0,0,0,0,0,0,0,0,0,0,0,0,0,0,0,0],"split_type":[0,0,0,0,0,0,0,0,0,0,0,0,0,0,0,0,0,0,0,0,0,0,0,0,0,0,0,0,0,0,0,0,0,0,0,0,0,0,0,0,0,0,0,0,0],"sum_hessian":[2.7072E4,9.024E3,1.8048E4,7.896E3,1.128E3,1.4664E4,3.384E3,6.041E3,1.855E3,8.9E2,2.38E2,3.384E3,1.128E4,2.256E3,1.128E3,1.883E3,4.158E3,7.98E2,1.057E3,2.54E2,6.36E2,1.128E3,2.256E3,9.024E3,2.256E3,1.792E3,4.64E2,8.57E2,2.71E2,1.211E3,6.72E2,3.444E3,7.14E2,8.57E2,2.71E2,1.75E3,5.06E2,6.976E3,2.048E3,1.726E3,5.3E2,4.78E2,1.314E3,2.54E2,6.03E2],"tree_param":{"num_deleted":"0","num_feature":"5","num_nodes":"45","size_leaf_vector":"1"}},{"base_weights":[5.2819727E2,4.195703E2,5.824845E2,4.0950186E2,4.896244E2,6.01676E2,4.9916782E2,4.1967697E2,2.6068974E0,5.0074857E2,3.1691387E0,5.416052E2,6.196477E2,5.27602E2,4.4188245E2,3.803204E2,4.3598474E2,3.2391422E0,3.6375012E0,5.272471E2,5.698291E2,6.2940765E2,5.8034644E2,5.386325E2,3.4484718E0,4.529847E2,2.8366573E0,2.599185E0,2.7659445E0,3.0959384E0,2.8512208E0,3.7639742E0,3.430488E0,4.066434E0,3.7292626E0,4.4806857E0,4.156489E0,4.135216E0,3.8030167E0,3.478503E0,3.891413E0,2.8791907E0,3.288796E0],"categories":[],"categories_nodes":[],"categories_segments":[],"categories_sizes":[],"default_left":[0,0,0,0,0,0,0,0,0,0,0,0,0,0,0,0,0,0,0,0,0,0,0,0,0,0,0,0,0,0,0,0,0,0,0,0,0,0,0,0,0,0,0],"id":8,"left_children":[1,3,5,7,9,11,13,15,-1,17,-1,19,21,23,25,27,29,-1,-1,31,33,35,37,39,-1,41,-1,-1,-1,-1,-1,-1,-1,-1,-1,-1,-1,-1,-1,-1,-1,-1,-1],"loss_changes":[1.594071E8,6.16512E6,2.855936E7,2.823808E6,2.36608E5,1.5496704E7,5.280576E6,3.806464E6,0E0,3.75824E5,0E0,1.071296E6,3.961856E6,6.05056E5,2.7576E5,9.632E4,6.07936E5,0E0,0E0,6.14464E5,1.54752E5,3.056896E6,5.488E5,9.52704E5,0E0,4.08976E5,0E0,0E0,0E0,0E0,0E0,0E0,0E0,0E0,0E0,0E0,0E0,0E0,0E0,0E0,0E0,0E0,0E0],"parents":[2147483647,0,0,1,1,2,2,3,3,4,4,5,5,6,6,7,7,9,9,11,11,12,12,13,13,14,14,15,15,16,16,19,19,20,20,21,21,22,22,23,23,25,25],"right_children":[2,4,6,8,10,12,14,16,-1,18,-1,20,22,24,26,28,30,-1,-1,32,34,36,38,40,-1,42,-1,-1,-1,-1,-1,-1,-1,-1,-1,-1,-1,-1,-1,-1,-1,-1,-1],"split_conditions":[8E0,7E0,2.1E1,2.85E2,2.76E2,1.1E1,2.3E1,7.7E1,2.6068974E0,8.8E1,3.1691387E0,1E1,1.9E1,4E0,2.76E2,4.5E1,2.47E2,3.2391422E0,3.6375012E0,2.82E2,2.76E2,2.79E2,2.82E2,7.5E1,3.4484718E0,7.5E1,2.8366573E0,2.599185E0,2.7659445E0,3.0959384E0,2.8512208E0,3.7639742E0,3.430488E0,4.066434E0,3.7292626E0,4.4806857E0,4.156489E0,4.135216E0,3.8030167E0,3.478503E0,3.891413E0,2.8791907E0,3.288796E0],"split_indices":[1,1,1,0,0,1,1,0,0,0,0,1,1,3,0,0,0,0,0,0,0,0,0,0,0,0,0,0,0,0,0,0,0,0,0,0,0,0,0,0,0,0,0],"split_type":[0,0,0,0,0,0,0,0,0,0,0,0,0,0,0,0,0,0,0,0,0,0,0,0,0,0,0,0,0,0,0,0,0,0,0,0,0,0,0,0,0,0,0],"sum_hessian":[2.7072E4,9.024E3,1.8048E4,7.896E3,1.128E3,1.4664E4,3.384E3,6.188E3,1.708E3,8.57E2,2.71E2,3.384E3,1.128E4,2.256E3,1.128E3,1.82E3,4.368E3,2.93E2,5.64E2,2.256E3,1.128E3,9.024E3,2.256E3,1.704E3,5.52E2,8.57E2,2.71E2,1.148E3,6.72E2,3.57E3,7.98E2,1.75E3,5.06E2,8.57E2,2.71E2,6.928E3,2.096E3,1.75E3,5.06E2,5.08E2,1.196E3,2.54E2,6.03E2],"tree_param":{"num_deleted":"0","num_feature":"5","num_nodes":"43","size_leaf_vector":"1"}},{"base_weights":[5.245027E2,4.16636E2,5.784099E2,4.0663712E2,4.8620593E2,5.974665E2,4.9567947E2,4.1729697E2,3.7171606E2,4.9725134E2,3.1470363E0,5.378184E2,6.1531165E2,5.239136E2,4.3879724E2,3.7859436E2,4.3472867E2,2.7004817E0,2.55891E0,3.1877468E0,3.5987024E0,5.0939703E2,5.517971E2,6.250027E2,5.7628754E2,5.348664E2,3.4243762E0,4.4915808E2,2.8012605E0,2.5856562E0,2.7623882E0,3.0807183E0,2.857596E0,3.6419966E0,3.312249E0,3.936046E0,3.6012356E0,4.451563E0,4.134527E0,4.1085577E0,3.7839687E0,3.454201E0,3.8641958E0,2.8591151E0,3.254821E0],"categories":[],"categories_nodes":[],"categories_segments":[],"categories_sizes":[],"default_left":[0,0,0,0,0,0,0,0,0,0,0,0,0,0,0,0,0,0,0,0,0,0,0,0,0,0,0,0,0,0,0,0,0,0,0,0,0,0,0,0,0,0,0,0,0],"id":9,"left_children":[1,3,5,7,9,11,13,15,17,19,-1,21,23,25,27,29,31,-1,-1,-1,-1,33,35,37,39,41,-1,43,-1,-1,-1,-1,-1,-1,-1,-1,-1,-1,-1,-1,-1,-1,-1,-1,-1],"loss_changes":[1.5718349E8,6.080128E6,2.8158976E7,2.78464E6,2.33232E5,1.5278592E7,5.206528E6,3.91168E6,1.9712E4,3.71008E5,0E0,1.06368E6,3.906304E6,5.96544E5,2.71968E5,1.32608E5,4.12608E5,0E0,0E0,0E0,0E0,1.9904E5,5.95072E5,3.014656E6,5.41312E5,9.39232E5,0E0,3.78048E5,0E0,0E0,0E0,0E0,0E0,0E0,0E0,0E0,0E0,0E0,0E0,0E0,0E0,0E0,0E0,0E0,0E0],"parents":[2147483647,0,0,1,1,2,2,3,3,4,4,5,5,6,6,7,7,8,8,9,9,11,11,12,12,13,13,14,14,15,15,16,16,21,21,22,22,23,23,24,24,25,25,27,27],"right_children":[2,4,6,8,10,12,14,16,18,20,-1,22,24,26,28,30,32,-1,-1,-1,-1,34,36,38,40,42,-1,44,-1,-1,-1,-1,-1,-1,-1,-1,-1,-1,-1,-1,-1,-1,-1,-1,-1],"split_conditions":[8E0,7E0,2.1E1,2.78E2,2.76E2,1.1E1,2.3E1,8E1,3.04E2,7.5E1,3.1470363E0,9E0,1.9E1,4E0,2.84E2,4.8E1,2.44E2,2.7004817E0,2.55891E0,3.1877468E0,3.5987024E0,2.76E2,2.82E2,2.75E2,2.78E2,7.5E1,3.4243762E0,7.5E1,2.8012605E0,2.5856562E0,2.7623882E0,3.0807183E0,2.857596E0,3.6419966E0,3.312249E0,3.936046E0,3.6012356E0,4.451563E0,4.134527E0,4.1085577E0,3.7839687E0,3.454201E0,3.8641958E0,2.8591151E0,3.254821E0],"split_indices":[1,1,1,0,0,1,1,0,0,0,0,1,1,3,0,0,0,0,0,0,0,0,0,0,0,0,0,0,0,0,0,0,0,0,0,0,0,0,0,0,0,0,0,0,0],"split_type":[0,0,0,0,0,0,0,0,0,0,0,0,0,0,0,0,0,0,0,0,0,0,0,0,0,0,0,0,0,0,0,0,0,0,0,0,0,0,0,0,0,0,0,0,0],"sum_hessian":[2.7072E4,9.024E3,1.8048E4,7.896E3,1.128E3,1.4664E4,3.384E3,6.041E3,1.855E3,8.57E2,2.71E2,3.384E3,1.128E4,2.256E3,1.128E3,1.883E3,4.158E3,5.46E2,1.309E3,2.54E2,6.03E2,1.128E3,2.256E3,9.024E3,2.256E3,1.704E3,5.52E2,8.81E2,2.47E2,1.211E3,6.72E2,3.444E3,7.14E2,8.57E2,2.71E2,1.75E3,5.06E2,6.832E3,2.192E3,1.726E3,5.3E2,5.08E2,1.196E3,2.54E2,6.27E2],"tree_param":{"num_deleted":"0","num_feature":"5","num_nodes":"45","size_leaf_vector":"1"}},{"base_weights":[5.20834E2,4.1372247E2,5.743639E2,4.0379276E2,4.8281128E2,5.932863E2,4.9221555E2,4.1382706E2,2.5705264E0,4.928699E2,3.103046E0,5.34058E2,6.110059E2,5.20251E2,4.3573355E2,3.72676E2,4.2898938E2,3.1655202E0,3.5585902E0,5.198493E2,5.619897E2,6.2062866E2,5.7225696E2,5.299565E2,3.3719597E0,4.4668713E2,2.7970567E0,2.5629227E0,2.7038388E0,3.0432532E0,2.8115115E0,3.711157E0,3.3823724E0,4.0104814E0,3.6779823E0,4.4171004E0,4.0947328E0,4.0798144E0,3.757531E0,3.4177074E0,3.8132334E0,2.83918E0,3.2430663E0],"categories":[],"categories_nodes":[],"categories_segments":[],"categories_sizes":[],"default_left":[0,0,0,0,0,0,0,0,0,0,0,0,0,0,0,0,0,0,0,0,0,0,0,0,0,0,0,0,0,0,0,0,0,0,0,0,0,0,0,0,0,0,0],"id":10,"left_children":[1,3,5,7,9,11,13,15,-1,17,-1,19,21,23,25,27,29,-1,-1,31,33,35,37,39,-1,41,-1,-1,-1,-1,-1,-1,-1,-1,-1,-1,-1,-1,-1,-1,-1,-1,-1],"loss_changes":[1.5499008E8,5.996416E6,2.7763712E7,2.74624E6,2.30288E5,1.5065088E7,5.13344E6,3.701696E6,0E0,3.31536E5,0E0,1.051328E6,3.850752E6,5.88992E5,2.68624E5,7.44E3,5.36896E5,0E0,0E0,5.97184E5,1.50432E5,2.973952E6,5.33632E5,8.40288E5,0E0,3.97616E5,0E0,0E0,0E0,0E0,0E0,0E0,0E0,0E0,0E0,0E0,0E0,0E0,0E0,0E0,0E0,0E0,0E0],"parents":[2147483647,0,0,1,1,2,2,3,3,4,4,5,5,6,6,7,7,9,9,11,11,12,12,13,13,14,14,15,15,16,16,19,19,20,20,21,21,22,22,23,23,25,25],"right_children":[2,4,6,8,10,12,14,16,-1,18,-1,20,22,24,26,28,30,-1,-1,32,34,36,38,40,-1,42,-1,-1,-1,-1,-1,-1,-1,-1,-1,-1,-1,-1,-1,-1,-1,-1,-1],"split_conditions":[8E0,7E0,2.1E1,2.85E2,2.87E2,1.1E1,2.3E1,7E1,2.5705264E0,7.5E1,3.103046E0,1E1,1.9E1,2.89E2,2.76E2,4.5E1,2.47E2,3.1655202E0,3.5585902E0,2.82E2,2.76E2,2.81E2,2.78E2,7E1,3.3719597E0,7.5E1,2.7970567E0,2.5629227E0,2.7038388E0,3.0432532E0,2.8115115E0,3.711157E0,3.3823724E0,4.0104814E0,3.6779823E0,4.4171004E0,4.0947328E0,4.0798144E0,3.757531E0,3.4177074E0,3.8132334E0,2.83918E0,3.2430663E0],"split_indices":[1,1,1,0,0,1,1,0,0,0,0,1,1,0,0,0,0,0,0,0,0,0,0,0,0,0,0,0,0,0,0,0,0,0,0,0,0,0,0,0,0,0,0],"split_type":[0,0,0,0,0,0,0,0,0,0,0,0,0,0,0,0,0,0,0,0,0,0,0,0,0,0,0,0,0,0,0,0,0,0,0,0,0,0,0,0,0,0,0],"sum_hessian":[2.7072E4,9.024E3,1.8048E4,7.896E3,1.128E3,1.4664E4,3.384E3,6.188E3,1.708E3,8.9E2,2.38E2,3.384E3,1.128E4,2.256E3,1.128E3,1.673E3,4.515E3,2.54E2,6.36E2,2.256E3,1.128E3,9.024E3,2.256E3,1.792E3,4.64E2,8.57E2,2.71E2,1.148E3,5.25E2,3.717E3,7.98E2,1.75E3,5.06E2,8.57E2,2.71E2,6.976E3,2.048E3,1.726E3,5.3E2,4.78E2,1.314E3,2.54E2,6.03E2],"tree_param":{"num_deleted":"0","num_feature":"5","num_nodes":"43","size_leaf_vector":"1"}},{"base_weights":[5.171909E2,4.10829E2,5.703461E2,4.0096793E2,4.794403E2,5.8913544E2,4.887758E2,4.117154E2,3.672733E2,4.9034042E2,3.1030595E0,5.303239E2,6.067303E2,5.166139E2,4.3269128E2,3.750697E2,4.301653E2,2.6695266E0,2.5230312E0,3.171477E0,3.5620713E0,5.0220322E2,5.441555E2,6.162852E2,5.6825464E2,5.274265E2,3.3763964E0,4.435674E2,2.7775493E0,2.554377E0,2.7451088E0,3.0549102E0,2.8593857E0,3.5915418E0,3.2683284E0,3.8815227E0,3.551414E0,4.3894916E0,4.076801E0,4.0490623E0,3.7237618E0,3.4060292E0,3.8104987E0,2.8193836E0,3.2204025E0],"categories":[],"categories_nodes":[],"categories_segments":[],"categories_sizes":[],"default_left":[0,0,0,0,0,0,0,0,0,0,0,0,0,0,0,0,0,0,0,0,0,0,0,0,0,0,0,0,0,0,0,0,0,0,0,0,0,0,0,0,0,0,0,0,0],"id":11,"left_children":[1,3,5,7,9,11,13,15,17,19,-1,21,23,25,27,29,31,-1,-1,-1,-1,33,35,37,39,41,-1,43,-1,-1,-1,-1,-1,-1,-1,-1,-1,-1,-1,-1,-1,-1,-1,-1,-1],"loss_changes":[1.528279E8,5.913728E6,2.7375104E7,2.708608E6,2.27456E5,1.4853632E7,5.06144E6,3.881088E6,4.7472E4,3.61936E5,0E0,1.043264E6,3.796736E6,5.81888E5,2.64784E5,2.05824E5,3.59744E5,0E0,0E0,0E0,0E0,1.93792E5,5.78368E5,2.932992E6,5.26336E5,9.14368E5,0E0,3.91936E5,0E0,0E0,0E0,0E0,0E0,0E0,0E0,0E0,0E0,0E0,0E0,0E0,0E0,0E0,0E0,0E0,0E0],"parents":[2147483647,0,0,1,1,2,2,3,3,4,4,5,5,6,6,7,7,8,8,9,9,11,11,12,12,13,13,14,14,15,15,16,16,21,21,22,22,23,23,24,24,25,25,27,27],"right_children":[2,4,6,8,10,12,14,16,18,20,-1,22,24,26,28,30,32,-1,-1,-1,-1,34,36,38,40,42,-1,44,-1,-1,-1,-1,-1,-1,-1,-1,-1,-1,-1,-1,-1,-1,-1,-1,-1],"split_conditions":[8E0,7E0,2.1E1,2.75E2,2.76E2,1.1E1,2.3E1,8.6E1,3.04E2,8.8E1,3.1030595E0,9E0,1.9E1,4E0,2.76E2,5.1E1,2.32E2,2.6695266E0,2.5230312E0,3.171477E0,3.5620713E0,4E0,2.82E2,2.75E2,2.82E2,7.5E1,3.3763964E0,7.5E1,2.7775493E0,2.554377E0,2.7451088E0,3.0549102E0,2.8593857E0,3.5915418E0,3.2683284E0,3.8815227E0,3.551414E0,4.3894916E0,4.076801E0,4.0490623E0,3.7237618E0,3.4060292E0,3.8104987E0,2.8193836E0,3.2204025E0],"split_indices":[1,1,1,0,0,1,1,0,0,0,0,1,1,3,0,0,0,0,0,0,0,3,0,0,0,0,0,0,0,0,0,0,0,0,0,0,0,0,0,0,0,0,0,0,0],"split_type":[0,0,0,0,0,0,0,0,0,0,0,0,0,0,0,0,0,0,0,0,0,0,0,0,0,0,0,0,0,0,0,0,0,0,0,0,0,0,0,0,0,0,0,0,0],"sum_hessian":[2.7072E4,9.024E3,1.8048E4,7.896E3,1.128E3,1.4664E4,3.384E3,5.978E3,1.918E3,8.57E2,2.71E2,3.384E3,1.128E4,2.256E3,1.128E3,2.009E3,3.969E3,6.09E2,1.309E3,2.93E2,5.64E2,1.128E3,2.256E3,9.024E3,2.256E3,1.704E3,5.52E2,8.57E2,2.71E2,1.274E3,7.35E2,3.066E3,9.03E2,8.52E2,2.76E2,1.75E3,5.06E2,6.832E3,2.192E3,1.75E3,5.06E2,5.08E2,1.196E3,2.54E2,6.03E2],"tree_param":{"num_deleted":"0","num_feature":"5","num_nodes":"45","size_leaf_vector":"1"}},{"base_weights":[5.1357336E2,4.0795612E2,5.6635645E2,3.9816324E2,4.7609293E2,5.8501355E2,4.8536008E2,4.0805908E2,3.620933E2,4.860147E2,3.059785E0,5.2661584E2,6.024847E2,5.130023E2,4.2967026E2,3.7037653E2,4.241891E2,2.6300178E0,2.4943848E0,3.121335E0,3.5091577E0,5.125551E2,5.542585E2,6.1197217E2,5.6428033E2,5.237388E2,3.3528044E0,4.3982077E2,2.742866E0,2.527133E0,2.6942725E0,3.01311E0,2.7722142E0,3.6633406E0,3.3487573E0,3.950144E0,3.6099067E0,4.3555083E0,4.0375595E0,4.0229454E0,3.7051578E0,3.4062443E0,3.795077E0,2.7997253E0,3.1871393E0],"categories":[],"categories_nodes":[],"categories_segments":[],"categories_sizes":[],"default_left":[0,0,0,0,0,0,0,0,0,0,0,0,0,0,0,0,0,0,0,0,0,0,0,0,0,0,0,0,0,0,0,0,0,0,0,0,0,0,0,0,0,0,0,0,0],"id":12,"left_children":[1,3,5,7,9,11,13,15,17,19,-1,21,23,25,27,29,31,-1,-1,-1,-1,33,35,37,39,41,-1,43,-1,-1,-1,-1,-1,-1,-1,-1,-1,-1,-1,-1,-1,-1,-1,-1,-1],"loss_changes":[1.5069594E8,5.832448E6,2.6991104E7,2.671104E6,2.24208E5,1.4644736E7,4.9904E6,3.604608E6,4.8E1,3.23008E5,0E0,1.031552E6,3.743232E6,5.7376E5,2.61248E5,1.14144E5,5.9168E5,0E0,0E0,0E0,0E0,5.80736E5,1.46368E5,2.893056E6,5.1872E5,9.02048E5,0E0,3.62272E5,0E0,0E0,0E0,0E0,0E0,0E0,0E0,0E0,0E0,0E0,0E0,0E0,0E0,0E0,0E0,0E0,0E0],"parents":[2147483647,0,0,1,1,2,2,3,3,4,4,5,5,6,6,7,7,8,8,9,9,11,11,12,12,13,13,14,14,15,15,16,16,21,21,22,22,23,23,24,24,25,25,27,27],"right_children":[2,4,6,8,10,12,14,16,18,20,-1,22,24,26,28,30,32,-1,-1,-1,-1,34,36,38,40,42,-1,44,-1,-1,-1,-1,-1,-1,-1,-1,-1,-1,-1,-1,-1,-1,-1,-1,-1],"split_conditions":[8E0,7E0,2.1E1,2.85E2,2.87E2,1.1E1,2.3E1,7.9E1,2E0,7.5E1,3.059785E0,1E1,1.9E1,4E0,2.84E2,4.5E1,2.47E2,2.6300178E0,2.4943848E0,3.121335E0,3.5091577E0,4E0,2.85E2,2.81E2,2.78E2,8.6E1,3.3528044E0,7.5E1,2.742866E0,2.527133E0,2.6942725E0,3.01311E0,2.7722142E0,3.6633406E0,3.3487573E0,3.950144E0,3.6099067E0,4.3555083E0,4.0375595E0,4.0229454E0,3.7051578E0,3.4062443E0,3.795077E0,2.7997253E0,3.1871393E0],"split_indices":[1,1,1,0,0,1,1,0,1,0,0,1,1,3,0,0,0,0,0,0,0,3,0,0,0,0,0,0,0,0,0,0,0,0,0,0,0,0,0,0,0,0,0,0,0],"split_type":[0,0,0,0,0,0,0,0,0,0,0,0,0,0,0,0,0,0,0,0,0,0,0,0,0,0,0,0,0,0,0,0,0,0,0,0,0,0,0,0,0,0,0,0,0],"sum_hessian":[2.7072E4,9.024E3,1.8048E4,7.896E3,1.128E3,1.4664E4,3.384E3,6.188E3,1.708E3,8.9E2,2.38E2,3.384E3,1.128E4,2.256E3,1.128E3,1.862E3,4.326E3,4.88E2,1.22E3,2.54E2,6.36E2,2.256E3,1.128E3,9.024E3,2.256E3,1.704E3,5.52E2,8.81E2,2.47E2,1.148E3,7.14E2,3.528E3,7.98E2,1.704E3,5.52E2,8.84E2,2.44E2,6.976E3,2.048E3,1.726E3,5.3E2,5.74E2,1.13E3,2.54E2,6.27E2],"tree_param":{"num_deleted":"0","num_feature":"5","num_nodes":"45","size_leaf_vector":"1"}},{"base_weights":[5.0998117E2,4.051033E2,5.623947E2,3.9537814E2,4.7276886E2,5.809206E2,4.8196826E2,4.0597772E2,3.621471E2,4.835256E2,3.0596967E0,5.2293384E2,5.982687E2,5.0941595E2,4.266703E2,3.7038193E2,4.2446976E2,2.6325915E0,2.487665E0,3.1272173E0,3.5126603E0,4.951107E2,5.3661993E2,6.076893E2,5.603338E2,5.189316E2,3.3014035E0,4.3740073E2,2.7387743E0,2.5187187E0,2.7105393E0,3.0156906E0,2.8194206E0,3.5443738E0,3.2326086E0,3.8277645E0,3.5022535E0,4.329916E0,4.0248165E0,3.9926212E0,3.671862E0,3.3437922E0,3.7331543E0,2.7802043E0,3.175624E0],"categories":[],"categories_nodes":[],"categories_segments":[],"categories_sizes":[],"default_left":[0,0,0,0,0,0,0,0,0,0,0,0,0,0,0,0,0,0,0,0,0,0,0,0,0,0,0,0,0,0,0,0,0,0,0,0,0,0,0,0,0,0,0,0,0],"id":13,"left_children":[1,3,5,7,9,11,13,15,17,19,-1,21,23,25,27,29,31,-1,-1,-1,-1,33,35,37,39,41,-1,43,-1,-1,-1,-1,-1,-1,-1,-1,-1,-1,-1,-1,-1,-1,-1,-1,-1],"loss_changes":[1.4859366E8,5.752064E6,2.6611712E7,2.634624E6,2.21824E5,1.4439936E7,4.920448E6,3.778368E6,4.7312E4,3.52784E5,0E0,1.023296E6,3.691008E6,5.66784E5,2.5792E5,2.25696E5,3.6704E5,0E0,0E0,0E0,0E0,1.88416E5,5.62304E5,2.853632E6,5.1168E5,8.08448E5,0E0,3.8104E5,0E0,0E0,0E0,0E0,0E0,0E0,0E0,0E0,0E0,0E0,0E0,0E0,0E0,0E0,0E0,0E0,0E0],"parents":[2147483647,0,0,1,1,2,2,3,3,4,4,5,5,6,6,7,7,8,8,9,9,11,11,12,12,13,13,14,14,15,15,16,16,21,21,22,22,23,23,24,24,25,25,27,27],"right_children":[2,4,6,8,10,12,14,16,18,20,-1,22,24,26,28,30,32,-1,-1,-1,-1,34,36,38,40,42,-1,44,-1,-1,-1,-1,-1,-1,-1,-1,-1,-1,-1,-1,-1,-1,-1,-1,-1],"split_conditions":[8E0,7E0,2.1E1,2.75E2,2.76E2,1.1E1,2.3E1,8.8E1,3.04E2,8.8E1,3.0596967E0,9E0,1.9E1,2.89E2,2.76E2,5.1E1,2.32E2,2.6325915E0,2.487665E0,3.1272173E0,3.5126603E0,2.68E2,2.82E2,2.72E2,2.82E2,6.9E1,3.3014035E0,7.5E1,2.7387743E0,2.5187187E0,2.7105393E0,3.0156906E0,2.8194206E0,3.5443738E0,3.2326086E0,3.8277645E0,3.5022535E0,4.329916E0,4.0248165E0,3.9926212E0,3.671862E0,3.3437922E0,3.7331543E0,2.7802043E0,3.175624E0],"split_indices":[1,1,1,0,0,1,1,0,0,0,0,1,1,0,0,0,0,0,0,0,0,0,0,0,0,0,0,0,0,0,0,0,0,0,0,0,0,0,0,0,0,0,0,0,0],"split_type":[0,0,0,0,0,0,0,0,0,0,0,0,0,0,0,0,0,0,0,0,0,0,0,0,0,0,0,0,0,0,0,0,0,0,0,0,0,0,0,0,0,0,0,0,0],"sum_hessian":[2.7072E4,9.024E3,1.8048E4,7.896E3,1.128E3,1.4664E4,3.384E3,5.978E3,1.918E3,8.57E2,2.71E2,3.384E3,1.128E4,2.256E3,1.128E3,2.051E3,3.927E3,6.09E2,1.309E3,2.93E2,5.64E2,1.128E3,2.256E3,9.024E3,2.256E3,1.792E3,4.64E2,8.57E2,2.71E2,1.274E3,7.77E2,3.024E3,9.03E2,8.33E2,2.95E2,1.75E3,5.06E2,6.76E3,2.264E3,1.75E3,5.06E2,4.72E2,1.32E3,2.54E2,6.03E2],"tree_param":{"num_deleted":"0","num_feature":"5","num_nodes":"45","size_leaf_vector":"1"}},{"base_weights":[5.0641406E2,4.0227042E2,5.584607E2,3.9261255E2,4.6946808E2,5.768562E2,4.7860013E2,4.0313773E2,3.5961475E2,4.8014868E2,3.0383575E0,5.1927747E2,5.940822E2,5.0585464E2,4.236913E2,3.6779178E2,4.2149994E2,2.6141934E0,2.4702647E0,3.105401E0,3.488115E0,5.0536316E2,5.466339E2,6.034364E2,5.5641486E2,5.164537E2,3.3058283E0,4.3458868E2,2.724811E0,2.5011015E0,2.69159E0,2.994588E0,2.7997065E0,3.6066945E0,3.284102E0,3.9009202E0,3.5774205E0,4.294785E0,3.9811506E0,3.966869E0,3.6535144E0,3.3565834E0,3.7414062E0,2.760819E0,3.1575663E0],"categories":[],"categories_nodes":[],"categories_segments":[],"categories_sizes":[],"default_left":[0,0,0,0,0,0,0,0,0,0,0,0,0,0,0,0,0,0,0,0,0,0,0,0,0,0,0,0,0,0,0,0,0,0,0,0,0,0,0,0,0,0,0,0,0],"id":14,"left_children":[1,3,5,7,9,11,13,15,17,19,-1,21,23,25,27,29,31,-1,-1,-1,-1,33,35,37,39,41,-1,43,-1,-1,-1,-1,-1,-1,-1,-1,-1,-1,-1,-1,-1,-1,-1,-1,-1],"loss_changes":[1.4652006E8,5.672704E6,2.6238976E7,2.59776E6,2.18672E5,1.4237184E7,4.851392E6,3.725568E6,4.6688E4,3.4776E5,0E0,1.012288E6,3.638784E6,5.59744E5,2.54464E5,2.22592E5,3.61792E5,0E0,0E0,0E0,0E0,5.65504E5,1.42528E5,2.815744E6,5.04448E5,8.79552E5,0E0,3.84768E5,0E0,0E0,0E0,0E0,0E0,0E0,0E0,0E0,0E0,0E0,0E0,0E0,0E0,0E0,0E0,0E0,0E0],"parents":[2147483647,0,0,1,1,2,2,3,3,4,4,5,5,6,6,7,7,8,8,9,9,11,11,12,12,13,13,14,14,15,15,16,16,21,21,22,22,23,23,24,24,25,25,27,27],"right_children":[2,4,6,8,10,12,14,16,18,20,-1,22,24,26,28,30,32,-1,-1,-1,-1,34,36,38,40,42,-1,44,-1,-1,-1,-1,-1,-1,-1,-1,-1,-1,-1,-1,-1,-1,-1,-1,-1],"split_conditions":[8E0,7E0,2.1E1,2.75E2,2.76E2,1.1E1,2.3E1,8.8E1,3.04E2,8.8E1,3.0383575E0,1E1,1.9E1,4E0,2.73E2,5.1E1,2.32E2,2.6141934E0,2.4702647E0,3.105401E0,3.488115E0,2.84E2,2.76E2,2.81E2,2.78E2,8.5E1,3.3058283E0,7.5E1,2.724811E0,2.5011015E0,2.69159E0,2.994588E0,2.7997065E0,3.6066945E0,3.284102E0,3.9009202E0,3.5774205E0,4.294785E0,3.9811506E0,3.966869E0,3.6535144E0,3.3565834E0,3.7414062E0,2.760819E0,3.1575663E0],"split_indices":[1,1,1,0,0,1,1,0,0,0,0,1,1,3,0,0,0,0,0,0,0,0,0,0,0,0,0,0,0,0,0,0,0,0,0,0,0,0,0,0,0,0,0,0,0],"split_type":[0,0,0,0,0,0,0,0,0,0,0,0,0,0,0,0,0,0,0,0,0,0,0,0,0,0,0,0,0,0,0,0,0,0,0,0,0,0,0,0,0,0,0,0,0],"sum_hessian":[2.7072E4,9.024E3,1.8048E4,7.896E3,1.128E3,1.4664E4,3.384E3,5.978E3,1.918E3,8.57E2,2.71E2,3.384E3,1.128E4,2.256E3,1.128E3,2.051E3,3.927E3,6.09E2,1.309E3,2.93E2,5.64E2,2.256E3,1.128E3,9.024E3,2.256E3,1.704E3,5.52E2,8.48E2,2.8E2,1.274E3,7.77E2,3.024E3,9.03E2,1.762E3,4.94E2,8.57E2,2.71E2,6.976E3,2.048E3,1.726E3,5.3E2,5.68E2,1.136E3,2.54E2,5.94E2],"tree_param":{"num_deleted":"0","num_feature":"5","num_nodes":"45","size_leaf_vector":"1"}},{"base_weights":[5.0287192E2,3.994574E2,5.545542E2,3.8986627E2,4.6619034E2,5.7282025E2,4.7525555E2,3.9955835E2,3.5453915E2,4.7591318E2,2.995948E0,5.156468E2,5.8992505E2,5.0231827E2,4.2073312E2,3.629427E2,4.1548596E2,2.576539E0,2.4417892E0,3.0561142E0,3.4363604E0,4.8811798E2,5.2918884E2,5.9921326E2,5.525233E2,5.1170694E2,3.2552524E0,4.30679E2,2.6856523E0,2.4743502E0,2.6405709E0,2.9539268E0,2.7230864E0,3.4943762E0,3.1867795E0,3.7747471E0,3.4537916E0,4.2695518E0,3.96859E0,3.9369664E0,3.620685E0,3.2969885E0,3.6812708E0,2.741569E0,3.1208792E0],"categories":[],"categories_nodes":[],"categories_segments":[],"categories_sizes":[],"default_left":[0,0,0,0,0,0,0,0,0,0,0,0,0,0,0,0,0,0,0,0,0,0,0,0,0,0,0,0,0,0,0,0,0,0,0,0,0,0,0,0,0,0,0,0,0],"id":15,"left_children":[1,3,5,7,9,11,13,15,17,19,-1,21,23,25,27,29,31,-1,-1,-1,-1,33,35,37,39,41,-1,43,-1,-1,-1,-1,-1,-1,-1,-1,-1,-1,-1,-1,-1,-1,-1,-1,-1],"loss_changes":[1.4447565E8,5.594624E6,2.5870336E7,2.562176E6,2.15616E5,1.4037504E7,4.783232E6,3.45856E6,3.744E3,3.11104E5,0E0,1.00352E6,3.58784E6,5.52128E5,2.50992E5,1.21312E5,5.77216E5,0E0,0E0,0E0,0E0,1.83808E5,5.46688E5,2.777088E6,4.97536E5,7.87936E5,0E0,3.47248E5,0E0,0E0,0E0,0E0,0E0,0E0,0E0,0E0,0E0,0E0,0E0,0E0,0E0,0E0,0E0,0E0,0E0],"parents":[2147483647,0,0,1,1,2,2,3,3,4,4,5,5,6,6,7,7,8,8,9,9,11,11,12,12,13,13,14,14,15,15,16,16,21,21,22,22,23,23,24,24,25,25,27,27],"right_children":[2,4,6,8,10,12,14,16,18,20,-1,22,24,26,28,30,32,-1,-1,-1,-1,34,36,38,40,42,-1,44,-1,-1,-1,-1,-1,-1,-1,-1,-1,-1,-1,-1,-1,-1,-1,-1,-1],"split_conditions":[8E0,7E0,2.1E1,2.85E2,2.87E2,1.1E1,2.3E1,8E1,2E0,7.5E1,2.995948E0,9E0,1.9E1,2.89E2,2.84E2,4.5E1,2.44E2,2.576539E0,2.4417892E0,3.0561142E0,3.4363604E0,2.68E2,2.82E2,2.72E2,2.82E2,6.9E1,3.2552524E0,7.5E1,2.6856523E0,2.4743502E0,2.6405709E0,2.9539268E0,2.7230864E0,3.4943762E0,3.1867795E0,3.7747471E0,3.4537916E0,4.2695518E0,3.96859E0,3.9369664E0,3.620685E0,3.2969885E0,3.6812708E0,2.741569E0,3.1208792E0],"split_indices":[1,1,1,0,0,1,1,0,1,0,0,1,1,0,0,0,0,0,0,0,0,0,0,0,0,0,0,0,0,0,0,0,0,0,0,0,0,0,0,0,0,0,0,0,0],"split_type":[0,0,0,0,0,0,0,0,0,0,0,0,0,0,0,0,0,0,0,0,0,0,0,0,0,0,0,0,0,0,0,0,0,0,0,0,0,0,0,0,0,0,0,0,0],"sum_hessian":[2.7072E4,9.024E3,1.8048E4,7.896E3,1.128E3,1.4664E4,3.384E3,6.188E3,1.708E3,8.9E2,2.38E2,3.384E3,1.128E4,2.256E3,1.128E3,1.883E3,4.305E3,4.88E2,1.22E3,2.54E2,6.36E2,1.128E3,2.256E3,9.024E3,2.256E3,1.792E3,4.64E2,8.81E2,2.47E2,1.148E3,7.35E2,3.444E3,8.61E2,8.33E2,2.95E2,1.75E3,5.06E2,6.76E3,2.264E3,1.75E3,5.06E2,4.72E2,1.32E3,2.54E2,6.27E2],"tree_param":{"num_deleted":"0","num_feature":"5","num_nodes":"45","size_leaf_vector":"1"}},{"base_weights":[4.9935455E2,3.96664E2,5.5067505E2,3.8713922E2,4.629354E2,5.6881256E2,4.719343E2,3.9751993E2,3.545945E2,4.7347552E2,2.9958987E0,5.120414E2,5.85797E2,4.9880655E2,4.1779556E2,3.6264783E2,4.15636E2,2.5780056E0,2.4356372E0,3.0620642E0,3.4397295E0,4.9827188E2,5.391146E2,5.9501965E2,5.48659E2,5.092699E2,3.259509E0,4.2854984E2,2.6867146E0,2.4661856E0,2.653839E0,2.952962E0,2.7606392E0,3.5561006E0,3.2379646E0,3.8472528E0,3.5282342E0,4.2349086E0,3.9255295E0,3.911574E0,3.6025906E0,3.3115933E0,3.690513E0,2.7224534E0,3.1136909E0],"categories":[],"categories_nodes":[],"categories_segments":[],"categories_sizes":[],"default_left":[0,0,0,0,0,0,0,0,0,0,0,0,0,0,0,0,0,0,0,0,0,0,0,0,0,0,0,0,0,0,0,0,0,0,0,0,0,0,0,0,0,0,0,0,0],"id":16,"left_children":[1,3,5,7,9,11,13,15,17,19,-1,21,23,25,27,29,31,-1,-1,-1,-1,33,35,37,39,41,-1,43,-1,-1,-1,-1,-1,-1,-1,-1,-1,-1,-1,-1,-1,-1,-1,-1,-1],"loss_changes":[1.4246042E8,5.51744E6,2.5508352E7,2.527104E6,2.13232E5,1.3840384E7,4.716224E6,3.626432E6,4.6496E4,3.38976E5,0E0,9.93216E5,3.537408E6,5.46048E5,2.4808E5,2.15776E5,3.5264E5,0E0,0E0,0E0,0E0,5.50144E5,1.3856E5,2.739712E6,4.90368E5,8.5776E5,0E0,3.74144E5,0E0,0E0,0E0,0E0,0E0,0E0,0E0,0E0,0E0,0E0,0E0,0E0,0E0,0E0,0E0,0E0,0E0],"parents":[2147483647,0,0,1,1,2,2,3,3,4,4,5,5,6,6,7,7,8,8,9,9,11,11,12,12,13,13,14,14,15,15,16,16,21,21,22,22,23,23,24,24,25,25,27,27],"right_children":[2,4,6,8,10,12,14,16,18,20,-1,22,24,26,28,30,32,-1,-1,-1,-1,34,36,38,40,42,-1,44,-1,-1,-1,-1,-1,-1,-1,-1,-1,-1,-1,-1,-1,-1,-1,-1,-1],"split_conditions":[8E0,7E0,2.1E1,2.75E2,2.76E2,1.1E1,2.3E1,8.8E1,3.04E2,8.8E1,2.9958987E0,1E1,1.9E1,4E0,2.73E2,5.1E1,2.32E2,2.5780056E0,2.4356372E0,3.0620642E0,3.4397295E0,2.84E2,2.76E2,2.81E2,2.78E2,8.6E1,3.259509E0,7.5E1,2.6867146E0,2.4661856E0,2.653839E0,2.952962E0,2.7606392E0,3.5561006E0,3.2379646E0,3.8472528E0,3.5282342E0,4.2349086E0,3.9255295E0,3.911574E0,3.6025906E0,3.3115933E0,3.690513E0,2.7224534E0,3.1136909E0],"split_indices":[1,1,1,0,0,1,1,0,0,0,0,1,1,3,0,0,0,0,0,0,0,0,0,0,0,0,0,0,0,0,0,0,0,0,0,0,0,0,0,0,0,0,0,0,0],"split_type":[0,0,0,0,0,0,0,0,0,0,0,0,0,0,0,0,0,0,0,0,0,0,0,0,0,0,0,0,0,0,0,0,0,0,0,0,0,0,0,0,0,0,0,0,0],"sum_hessian":[2.7072E4,9.024E3,1.8048E4,7.896E3,1.128E3,1.4664E4,3.384E3,5.978E3,1.918E3,8.57E2,2.71E2,3.384E3,1.128E4,2.256E3,1.128E3,2.051E3,3.927E3,6.09E2,1.309E3,2.93E2,5.64E2,2.256E3,1.128E3,9.024E3,2.256E3,1.704E3,5.52E2,8.48E2,2.8E2,1.274E3,7.77E2,3.024E3,9.03E2,1.762E3,4.94E2,8.57E2,2.71E2,6.976E3,2.048E3,1.726E3,5.3E2,5.74E2,1.13E3,2.54E2,5.94E2],"tree_param":{"num_deleted":"0","num_feature":"5","num_nodes":"45","size_leaf_vector":"1"}},{"base_weights":[4.9586182E2,3.9389014E2,5.46823E2,3.8443124E2,4.5970325E2,5.648329E2,4.6863632E2,3.9398923E2,3.495929E2,4.701688E2,2.9750044E0,5.0846127E2,5.816978E2,4.9531946E2,4.1487854E2,3.5475168E2,4.0844666E2,2.5412934E0,2.4074426E0,3.013455E0,3.4029846E0,4.8122372E2,5.218608E2,5.908554E2,5.448217E2,5.058887E2,3.2404726E0,4.2555682E2,2.6679747E0,2.4346035E0,2.5641434E0,2.897662E0,2.6762314E0,3.4450822E0,3.141597E0,3.722465E0,3.4060013E0,4.210029E0,3.913149E0,3.882088E0,3.5702221E0,3.2884526E0,3.6681685E0,2.703471E0,3.0919316E0],"categories":[],"categories_nodes":[],"categories_segments":[],"categories_sizes":[],"default_left":[0,0,0,0,0,0,0,0,0,0,0,0,0,0,0,0,0,0,0,0,0,0,0,0,0,0,0,0,0,0,0,0,0,0,0,0,0,0,0,0,0,0,0,0,0],"id":17,"left_children":[1,3,5,7,9,11,13,15,17,19,-1,21,23,25,27,29,31,-1,-1,-1,-1,33,35,37,39,41,-1,43,-1,-1,-1,-1,-1,-1,-1,-1,-1,-1,-1,-1,-1,-1,-1,-1,-1],"loss_changes":[1.404718E8,5.441536E6,2.5150976E7,2.491904E6,2.10224E5,1.3646336E7,4.650048E6,3.365952E6,5.52E3,3.34432E5,0E0,9.84256E5,3.487744E6,5.3856E5,2.4456E5,7.056E3,4.912E5,0E0,0E0,0E0,0E0,1.79264E5,5.31392E5,2.702592E6,4.83648E5,8.61216E5,0E0,3.68832E5,0E0,0E0,0E0,0E0,0E0,0E0,0E0,0E0,0E0,0E0,0E0,0E0,0E0,0E0,0E0,0E0,0E0],"parents":[2147483647,0,0,1,1,2,2,3,3,4,4,5,5,6,6,7,7,8,8,9,9,11,11,12,12,13,13,14,14,15,15,16,16,21,21,22,22,23,23,24,24,25,25,27,27],"right_children":[2,4,6,8,10,12,14,16,18,20,-1,22,24,26,28,30,32,-1,-1,-1,-1,34,36,38,40,42,-1,44,-1,-1,-1,-1,-1,-1,-1,-1,-1,-1,-1,-1,-1,-1,-1,-1,-1],"split_conditions":[8E0,7E0,2.1E1,2.85E2,2.76E2,1.1E1,2.3E1,7E1,2E0,7.5E1,2.9750044E0,9E0,1.9E1,2.72E2,2.73E2,4.1E1,2.47E2,2.5412934E0,2.4074426E0,3.013455E0,3.4029846E0,2.68E2,2.82E2,2.72E2,2.82E2,8.6E1,3.2404726E0,7.5E1,2.6679747E0,2.4346035E0,2.5641434E0,2.897662E0,2.6762314E0,3.4450822E0,3.141597E0,3.722465E0,3.4060013E0,4.210029E0,3.913149E0,3.882088E0,3.5702221E0,3.2884526E0,3.6681685E0,2.703471E0,3.0919316E0],"split_indices":[1,1,1,0,0,1,1,0,1,0,0,1,1,0,0,0,0,0,0,0,0,0,0,0,0,0,0,0,0,0,0,0,0,0,0,0,0,0,0,0,0,0,0,0,0],"split_type":[0,0,0,0,0,0,0,0,0,0,0,0,0,0,0,0,0,0,0,0,0,0,0,0,0,0,0,0,0,0,0,0,0,0,0,0,0,0,0,0,0,0,0,0,0],"sum_hessian":[2.7072E4,9.024E3,1.8048E4,7.896E3,1.128E3,1.4664E4,3.384E3,6.188E3,1.708E3,8.57E2,2.71E2,3.384E3,1.128E4,2.256E3,1.128E3,1.673E3,4.515E3,4.88E2,1.22E3,2.54E2,6.03E2,1.128E3,2.256E3,9.024E3,2.256E3,1.69E3,5.66E2,8.48E2,2.8E2,1.064E3,6.09E2,3.717E3,7.98E2,8.33E2,2.95E2,1.75E3,5.06E2,6.76E3,2.264E3,1.75E3,5.06E2,5.74E2,1.116E3,2.54E2,5.94E2],"tree_param":{"num_deleted":"0","num_feature":"5","num_nodes":"45","size_leaf_vector":"1"}},{"base_weights":[4.9239346E2,3.9113568E2,5.4299786E2,3.8174222E2,4.5649365E2,5.6088104E2,4.653614E2,3.9202982E2,3.4979843E2,4.6602158E2,2.9334428E0,5.049061E2,5.776273E2,4.9185675E2,4.119819E2,3.5755463E2,4.1000403E2,2.5435345E0,2.4014943E0,2.9924438E0,3.3649976E0,4.9127997E2,5.316991E2,5.8672034E2,5.410113E2,5.0106268E2,3.1871126E0,4.217287E2,2.6295967E0,2.4317577E0,2.616226E0,2.9120212E0,2.7240744E0,3.511388E0,3.2094314E0,3.7871752E0,3.4546E0,4.175867E0,3.8706856E0,3.8495984E0,3.5253124E0,3.227856E0,3.604892E0,2.6846209E0,3.0560107E0],"categories":[],"categories_nodes":[],"categories_segments":[],"categories_sizes":[],"default_left":[0,0,0,0,0,0,0,0,0,0,0,0,0,0,0,0,0,0,0,0,0,0,0,0,0,0,0,0,0,0,0,0,0,0,0,0,0,0,0,0,0,0,0,0,0],"id":18,"left_children":[1,3,5,7,9,11,13,15,17,19,-1,21,23,25,27,29,31,-1,-1,-1,-1,33,35,37,39,41,-1,43,-1,-1,-1,-1,-1,-1,-1,-1,-1,-1,-1,-1,-1,-1,-1,-1,-1],"loss_changes":[1.3851238E8,5.366656E6,2.4797696E7,2.457984E6,2.07328E5,1.3454848E7,4.584832E6,3.549632E6,5.1744E4,2.98896E5,0E0,9.74592E5,3.438592E6,5.31392E5,2.41296E5,2.0776E5,3.27744E5,0E0,0E0,0E0,0E0,5.35744E5,1.3504E5,2.666496E6,4.76864E5,7.59488E5,0E0,3.32864E5,0E0,0E0,0E0,0E0,0E0,0E0,0E0,0E0,0E0,0E0,0E0,0E0,0E0,0E0,0E0,0E0,0E0],"parents":[2147483647,0,0,1,1,2,2,3,3,4,4,5,5,6,6,7,7,8,8,9,9,11,11,12,12,13,13,14,14,15,15,16,16,21,21,22,22,23,23,24,24,25,25,27,27],"right_children":[2,4,6,8,10,12,14,16,18,20,-1,22,24,26,28,30,32,-1,-1,-1,-1,34,36,38,40,42,-1,44,-1,-1,-1,-1,-1,-1,-1,-1,-1,-1,-1,-1,-1,-1,-1,-1,-1],"split_conditions":[8E0,7E0,2.1E1,4E0,2.87E2,1.1E1,2.3E1,8.8E1,3.04E2,7.5E1,2.9334428E0,1E1,1.9E1,2.89E2,2.84E2,5.1E1,2.32E2,2.5435345E0,2.4014943E0,2.9924438E0,3.3649976E0,4E0,2.89E2,2.81E2,2.92E2,6.9E1,3.1871126E0,7.5E1,2.6295967E0,2.4317577E0,2.616226E0,2.9120212E0,2.7240744E0,3.511388E0,3.2094314E0,3.7871752E0,3.4546E0,4.175867E0,3.8706856E0,3.8495984E0,3.5253124E0,3.227856E0,3.604892E0,2.6846209E0,3.0560107E0],"split_indices":[1,1,1,3,0,1,1,0,0,0,0,1,1,0,0,0,0,0,0,0,0,3,0,0,0,0,0,0,0,0,0,0,0,0,0,0,0,0,0,0,0,0,0,0,0],"split_type":[0,0,0,0,0,0,0,0,0,0,0,0,0,0,0,0,0,0,0,0,0,0,0,0,0,0,0,0,0,0,0,0,0,0,0,0,0,0,0,0,0,0,0,0,0],"sum_hessian":[2.7072E4,9.024E3,1.8048E4,7.896E3,1.128E3,1.4664E4,3.384E3,5.964E3,1.932E3,8.9E2,2.38E2,3.384E3,1.128E4,2.256E3,1.128E3,2.051E3,3.913E3,6.23E2,1.309E3,2.54E2,6.36E2,2.256E3,1.128E3,9.024E3,2.256E3,1.792E3,4.64E2,8.81E2,2.47E2,1.274E3,7.77E2,3.024E3,8.89E2,1.704E3,5.52E2,8.96E2,2.32E2,6.976E3,2.048E3,1.81E3,4.46E2,4.72E2,1.32E3,2.54E2,6.27E2],"tree_param":{"num_deleted":"0","num_feature":"5","num_nodes":"45","size_leaf_vector":"1"}},{"base_weights":[4.889494E2,3.8840048E2,5.391995E2,3.79072E2,4.5330643E2,5.569569E2,4.6210928E2,3.8901666E2,3.4649396E2,4.6371344E2,2.9351122E0,5.013759E2,5.7358527E2,4.884182E2,4.0910544E2,3.550542E2,4.0638123E2,2.4953554E0,2.3703785E0,2.9980967E0,3.3699014E0,4.7442654E2,5.146344E2,5.826142E2,5.372275E2,4.9885406E2,3.1950328E0,4.1964346E2,2.6306732E0,2.4101207E0,2.5908828E0,2.8916438E0,2.694778E0,3.3921452E0,3.0843105E0,3.67092E0,3.358832E0,4.1513367E0,3.8584826E0,3.8301182E0,3.527387E0,3.2424498E0,3.6173027E0,2.6659021E0,3.048968E0],"categories":[],"categories_nodes":[],"categories_segments":[],"categories_sizes":[],"default_left":[0,0,0,0,0,0,0,0,0,0,0,0,0,0,0,0,0,0,0,0,0,0,0,0,0,0,0,0,0,0,0,0,0,0,0,0,0,0,0,0,0,0,0,0,0],"id":19,"left_children":[1,3,5,7,9,11,13,15,17,19,-1,21,23,25,27,29,31,-1,-1,-1,-1,33,35,37,39,41,-1,43,-1,-1,-1,-1,-1,-1,-1,-1,-1,-1,-1,-1,-1,-1,-1,-1,-1],"loss_changes":[1.365801E8,5.292544E6,2.4449536E7,2.42368E6,2.05104E5,1.3266432E7,4.520512E6,3.419008E6,2.512E4,3.29776E5,0E0,9.65312E5,3.389952E6,5.25632E5,2.38416E5,2.05056E5,4.14464E5,0E0,0E0,0E0,0E0,1.74528E5,5.16736E5,2.630144E6,4.71104E5,8.3984E5,0E0,3.58656E5,0E0,0E0,0E0,0E0,0E0,0E0,0E0,0E0,0E0,0E0,0E0,0E0,0E0,0E0,0E0,0E0,0E0],"parents":[2147483647,0,0,1,1,2,2,3,3,4,4,5,5,6,6,7,7,8,8,9,9,11,11,12,12,13,13,14,14,15,15,16,16,21,21,22,22,23,23,24,24,25,25,27,27],"right_children":[2,4,6,8,10,12,14,16,18,20,-1,22,24,26,28,30,32,-1,-1,-1,-1,34,36,38,40,42,-1,44,-1,-1,-1,-1,-1,-1,-1,-1,-1,-1,-1,-1,-1,-1,-1,-1,-1],"split_conditions":[8E0,7E0,2.1E1,2.78E2,2.75E2,1.1E1,2.3E1,8.8E1,3.16E2,8.8E1,2.9351122E0,9E0,1.9E1,2.72E2,2.73E2,4.8E1,2.32E2,2.4953554E0,2.3703785E0,2.9980967E0,3.3699014E0,2.76E2,2.82E2,2.72E2,2.78E2,8.6E1,3.1950328E0,7.5E1,2.6306732E0,2.4101207E0,2.5908828E0,2.8916438E0,2.694778E0,3.3921452E0,3.0843105E0,3.67092E0,3.358832E0,4.1513367E0,3.8584826E0,3.8301182E0,3.527387E0,3.2424498E0,3.6173027E0,2.6659021E0,3.048968E0],"split_indices":[1,1,1,0,0,1,1,0,0,0,0,1,1,0,0,0,0,0,0,0,0,0,0,0,0,0,0,0,0,0,0,0,0,0,0,0,0,0,0,0,0,0,0,0,0],"split_type":[0,0,0,0,0,0,0,0,0,0,0,0,0,0,0,0,0,0,0,0,0,0,0,0,0,0,0,0,0,0,0,0,0,0,0,0,0,0,0,0,0,0,0,0,0],"sum_hessian":[2.7072E4,9.024E3,1.8048E4,7.896E3,1.128E3,1.4664E4,3.384E3,6.041E3,1.855E3,8.54E2,2.74E2,3.384E3,1.128E4,2.256E3,1.128E3,2.051E3,3.99E3,7.98E2,1.057E3,2.93E2,5.61E2,1.128E3,2.256E3,9.024E3,2.256E3,1.69E3,5.66E2,8.48E2,2.8E2,1.211E3,8.4E2,3.024E3,9.66E2,8.57E2,2.71E2,1.75E3,5.06E2,6.76E3,2.264E3,1.726E3,5.3E2,5.74E2,1.116E3,2.54E2,5.94E2],"tree_param":{"num_deleted":"0","num_feature":"5","num_nodes":"45","size_leaf_vector":"1"}},{"base_weights":[4.8552942E2,3.8568442E2,5.354278E2,3.7642044E2,4.5014154E2,5.530602E2,4.5887994E2,3.8656567E2,3.4491873E2,4.6047488E2,2.9146411E0,4.9787024E2,5.6957153E2,4.8500372E2,4.0624908E2,3.5257126E2,4.042892E2,2.5081465E0,2.367948E0,2.9771814E0,3.346354E0,4.8438596E2,5.2438586E2,5.7853674E2,5.334701E2,4.9536615E2,3.172707E0,4.167127E2,2.612324E0,2.3978286E0,2.579823E0,2.871409E0,2.6861851E0,3.4570491E0,3.1475484E0,3.742181E0,3.4317293E0,4.113512E0,3.80145E0,3.4653912E0,3.7938838E0,3.1967106E0,3.5811696E0,2.647314E0,3.0276613E0],"categories":[],"categories_nodes":[],"categories_segments":[],"categories_sizes":[],"default_left":[0,0,0,0,0,0,0,0,0,0,0,0,0,0,0,0,0,0,0,0,0,0,0,0,0,0,0,0,0,0,0,0,0,0,0,0,0,0,0,0,0,0,0,0,0],"id":20,"left_children":[1,3,5,7,9,11,13,15,17,19,-1,21,23,25,27,29,31,-1,-1,-1,-1,33,35,37,39,41,-1,43,-1,-1,-1,-1,-1,-1,-1,-1,-1,-1,-1,-1,-1,-1,-1,-1,-1],"loss_changes":[1.3467392E8,5.219584E6,2.410752E7,2.390528E6,2.02192E5,1.3080064E7,4.457088E6,3.451328E6,5.064E4,3.25072E5,0E0,9.56288E5,3.342592E6,5.18272E5,2.35024E5,2.02352E5,3.18144E5,0E0,0E0,0E0,0E0,5.21056E5,1.31488E5,2.596608E6,4.69824E5,8.28288E5,0E0,3.53552E5,0E0,0E0,0E0,0E0,0E0,0E0,0E0,0E0,0E0,0E0,0E0,0E0,0E0,0E0,0E0,0E0,0E0],"parents":[2147483647,0,0,1,1,2,2,3,3,4,4,5,5,6,6,7,7,8,8,9,9,11,11,12,12,13,13,14,14,15,15,16,16,21,21,22,22,23,23,24,24,25,25,27,27],"right_children":[2,4,6,8,10,12,14,16,18,20,-1,22,24,26,28,30,32,-1,-1,-1,-1,34,36,38,40,42,-1,44,-1,-1,-1,-1,-1,-1,-1,-1,-1,-1,-1,-1,-1,-1,-1,-1,-1],"split_conditions":[8E0,7E0,2.1E1,4E0,2.75E2,1.1E1,2.3E1,8.8E1,3.04E2,8.8E1,2.9146411E0,1E1,1.9E1,2.72E2,2.73E2,5.1E1,2.32E2,2.5081465E0,2.367948E0,2.9771814E0,3.346354E0,2.84E2,2.76E2,2.89E2,3E0,7.5E1,3.172707E0,7.5E1,2.612324E0,2.3978286E0,2.579823E0,2.871409E0,2.6861851E0,3.4570491E0,3.1475484E0,3.742181E0,3.4317293E0,4.113512E0,3.80145E0,3.4653912E0,3.7938838E0,3.1967106E0,3.5811696E0,2.647314E0,3.0276613E0],"split_indices":[1,1,1,3,0,1,1,0,0,0,0,1,1,0,0,0,0,0,0,0,0,0,0,0,4,0,0,0,0,0,0,0,0,0,0,0,0,0,0,0,0,0,0,0,0],"split_type":[0,0,0,0,0,0,0,0,0,0,0,0,0,0,0,0,0,0,0,0,0,0,0,0,0,0,0,0,0,0,0,0,0,0,0,0,0,0,0,0,0,0,0,0,0],"sum_hessian":[2.7072E4,9.024E3,1.8048E4,7.896E3,1.128E3,1.4664E4,3.384E3,5.964E3,1.932E3,8.54E2,2.74E2,3.384E3,1.128E4,2.256E3,1.128E3,2.051E3,3.913E3,6.23E2,1.309E3,2.93E2,5.61E2,2.256E3,1.128E3,9.024E3,2.256E3,1.69E3,5.66E2,8.48E2,2.8E2,1.274E3,7.77E2,3.024E3,8.89E2,1.762E3,4.94E2,8.57E2,2.71E2,7.168E3,1.856E3,4.2E2,1.836E3,5.08E2,1.182E3,2.54E2,5.94E2],"tree_param":{"num_deleted":"0","num_feature":"5","num_nodes":"45","size_leaf_vector":"1"}},{"base_weights":[4.8213336E2,3.8298737E2,5.316824E2,3.7378745E2,4.4699872E2,5.491907E2,4.556732E2,3.8308472E2,3.3989948E2,4.5633652E2,2.8722177E0,4.9438922E2,5.655859E2,4.8161313E2,4.034127E2,3.4489877E2,3.9715472E2,2.4728708E0,2.3398721E0,2.9254837E0,3.2935078E0,4.67725E2,5.0750818E2,5.756059E2,5.3369824E2,4.9064078E2,3.1203725E0,4.129644E2,2.5747108E0,2.5101206E0,2.3738933E0,2.8176446E0,2.6018176E0,3.3485584E0,3.0531528E0,3.2884002E0,3.6139984E0,3.745418E0,4.158427E0,3.7982461E0,3.4799194E0,3.1603298E0,3.5300505E0,2.6288555E0,2.9924905E0],"categories":[],"categories_nodes":[],"categories_segments":[],"categories_sizes":[],"default_left":[0,0,0,0,0,0,0,0,0,0,0,0,0,0,0,0,0,0,0,0,0,0,0,0,0,0,0,0,0,0,0,0,0,0,0,0,0,0,0,0,0,0,0,0,0],"id":21,"left_children":[1,3,5,7,9,11,13,15,17,19,-1,21,23,25,27,29,31,-1,-1,-1,-1,33,35,37,39,41,-1,43,-1,-1,-1,-1,-1,-1,-1,-1,-1,-1,-1,-1,-1,-1,-1,-1,-1],"loss_changes":[1.3279437E8,5.147904E6,2.3769088E7,2.357888E6,1.99472E5,1.2896256E7,4.39456E6,3.18816E6,1.0592E4,2.88112E5,0E0,9.46688E5,3.297536E6,5.11616E5,2.31984E5,1.0656E4,4.6752E5,0E0,0E0,0E0,0E0,1.7048E5,5.05024E5,6.095616E6,6.13376E5,7.31008E5,0E0,3.19056E5,0E0,0E0,0E0,0E0,0E0,0E0,0E0,0E0,0E0,0E0,0E0,0E0,0E0,0E0,0E0,0E0,0E0],"parents":[2147483647,0,0,1,1,2,2,3,3,4,4,5,5,6,6,7,7,8,8,9,9,11,11,12,12,13,13,14,14,15,15,16,16,21,21,22,22,23,23,24,24,25,25,27,27],"right_children":[2,4,6,8,10,12,14,16,18,20,-1,22,24,26,28,30,32,-1,-1,-1,-1,34,36,38,40,42,-1,44,-1,-1,-1,-1,-1,-1,-1,-1,-1,-1,-1,-1,-1,-1,-1,-1,-1],"split_conditions":[8E0,7E0,2.1E1,2.85E2,2.87E2,1.1E1,2.3E1,7E1,2E0,7.3E1,2.8722177E0,9E0,2.76E2,2.89E2,2.84E2,2E0,2.47E2,2.4728708E0,2.3398721E0,2.9254837E0,3.2935078E0,2.68E2,6.3E1,8E1,1.9E1,6.9E1,3.1203725E0,7.5E1,2.5747108E0,2.5101206E0,2.3738933E0,2.8176446E0,2.6018176E0,3.3485584E0,3.0531528E0,3.2884002E0,3.6139984E0,3.745418E0,4.158427E0,3.7982461E0,3.4799194E0,3.1603298E0,3.5300505E0,2.6288555E0,2.9924905E0],"split_indices":[1,1,1,0,0,1,1,0,1,0,0,1,0,0,0,1,0,0,0,0,0,0,0,0,1,0,0,0,0,0,0,0,0,0,0,0,0,0,0,0,0,0,0,0,0],"split_type":[0,0,0,0,0,0,0,0,0,0,0,0,0,0,0,0,0,0,0,0,0,0,0,0,0,0,0,0,0,0,0,0,0,0,0,0,0,0,0,0,0,0,0,0,0],"sum_hessian":[2.7072E4,9.024E3,1.8048E4,7.896E3,1.128E3,1.4664E4,3.384E3,6.188E3,1.708E3,8.9E2,2.38E2,3.384E3,1.128E4,2.256E3,1.128E3,1.673E3,4.515E3,4.88E2,1.22E3,2.48E2,6.42E2,1.128E3,2.256E3,8.57E3,2.71E3,1.792E3,4.64E2,8.81E2,2.47E2,4.78E2,1.195E3,3.717E3,7.98E2,8.33E2,2.95E2,4.36E2,1.82E3,2.69E3,5.88E3,2.168E3,5.42E2,4.72E2,1.32E3,2.54E2,6.27E2],"tree_param":{"num_deleted":"0","num_feature":"5","num_nodes":"45","size_leaf_vector":"1"}},{"base_weights":[4.7876105E2,3.8030914E2,5.279632E2,3.7117285E2,4.4387778E2,5.453483E2,4.5248877E2,3.8117862E2,3.4010422E2,4.5407605E2,2.8738945E0,4.9093243E2,5.616281E2,4.7824615E2,4.0059604E2,3.4761948E2,3.9867535E2,2.4734364E0,2.3347528E0,2.935609E0,3.2999578E0,4.775885E2,5.171736E2,5.7051495E2,5.258439E2,4.884778E2,3.1282175E0,4.109222E2,2.5758004E0,2.359617E0,2.536683E0,2.8315985E0,2.6486757E0,3.4138913E0,3.1188722E0,3.6842906E0,3.3580022E0,4.065307E0,3.7778106E0,3.4150355E0,3.739835E0,3.1746023E0,3.5422704E0,2.6105256E0,2.9855912E0],"categories":[],"categories_nodes":[],"categories_segments":[],"categories_sizes":[],"default_left":[0,0,0,0,0,0,0,0,0,0,0,0,0,0,0,0,0,0,0,0,0,0,0,0,0,0,0,0,0,0,0,0,0,0,0,0,0,0,0,0,0,0,0,0,0],"id":22,"left_children":[1,3,5,7,9,11,13,15,17,19,-1,21,23,25,27,29,31,-1,-1,-1,-1,33,35,37,39,41,-1,43,-1,-1,-1,-1,-1,-1,-1,-1,-1,-1,-1,-1,-1,-1,-1,-1,-1],"loss_changes":[1.3094246E8,5.076864E6,2.3435776E7,2.325248E6,1.97248E5,1.271552E7,4.332864E6,3.363904E6,5.0288E4,3.16976E5,0E0,9.38304E5,3.287296E6,5.05824E5,2.29152E5,1.96896E5,3.10656E5,0E0,0E0,0E0,0E0,5.13728E5,1.34624E5,2.536704E6,4.60992E5,8.08768E5,0E0,3.43792E5,0E0,0E0,0E0,0E0,0E0,0E0,0E0,0E0,0E0,0E0,0E0,0E0,0E0,0E0,0E0,0E0,0E0],"parents":[2147483647,0,0,1,1,2,2,3,3,4,4,5,5,6,6,7,7,8,8,9,9,11,11,12,12,13,13,14,14,15,15,16,16,21,21,22,22,23,23,24,24,25,25,27,27],"right_children":[2,4,6,8,10,12,14,16,18,20,-1,22,24,26,28,30,32,-1,-1,-1,-1,34,36,38,40,42,-1,44,-1,-1,-1,-1,-1,-1,-1,-1,-1,-1,-1,-1,-1,-1,-1,-1,-1],"split_conditions":[8E0,7E0,2.1E1,4E0,2.75E2,1.1E1,2.3E1,8.8E1,3.04E2,8.8E1,2.8738945E0,1E1,1.9E1,2.72E2,2.73E2,4.8E1,2.32E2,2.4734364E0,2.3347528E0,2.935609E0,3.2999578E0,4E0,2.89E2,2.72E2,3E0,8.6E1,3.1282175E0,7.5E1,2.5758004E0,2.359617E0,2.536683E0,2.8315985E0,2.6486757E0,3.4138913E0,3.1188722E0,3.6842906E0,3.3580022E0,4.065307E0,3.7778106E0,3.4150355E0,3.739835E0,3.1746023E0,3.5422704E0,2.6105256E0,2.9855912E0],"split_indices":[1,1,1,3,0,1,1,0,0,0,0,1,1,0,0,0,0,0,0,0,0,3,0,0,4,0,0,0,0,0,0,0,0,0,0,0,0,0,0,0,0,0,0,0,0],"split_type":[0,0,0,0,0,0,0,0,0,0,0,0,0,0,0,0,0,0,0,0,0,0,0,0,0,0,0,0,0,0,0,0,0,0,0,0,0,0,0,0,0,0,0,0,0],"sum_hessian":[2.7072E4,9.024E3,1.8048E4,7.896E3,1.128E3,1.4664E4,3.384E3,5.964E3,1.932E3,8.54E2,2.74E2,3.384E3,1.128E4,2.256E3,1.128E3,2.051E3,3.913E3,6.23E2,1.309E3,2.93E2,5.61E2,2.256E3,1.128E3,9.024E3,2.256E3,1.69E3,5.66E2,8.48E2,2.8E2,1.211E3,8.4E2,3.024E3,8.89E2,1.704E3,5.52E2,8.96E2,2.32E2,6.76E3,2.264E3,4.2E2,1.836E3,5.74E2,1.116E3,2.54E2,5.94E2],"tree_param":{"num_deleted":"0","num_feature":"5","num_nodes":"45","size_leaf_vector":"1"}},{"base_weights":[4.7541232E2,3.7764966E2,5.2427E2,3.6857657E2,4.4077872E2,5.4153284E2,4.493267E2,3.7774524E2,3.3515723E2,4.5090482E2,2.8538501E0,4.874999E2,5.5769806E2,4.7490283E2,3.9779913E2,3.4305548E2,3.928353E2,2.43906E0,2.3069499E0,2.9151297E0,3.276899E0,4.6111786E2,5.0048077E2,5.665222E2,5.2216614E2,4.8506247E2,3.1063583E0,4.0805237E2,2.557834E0,2.338691E0,2.4960055E0,2.7910616E0,2.565454E0,3.3012779E0,3.0099618E0,3.240647E0,3.5644884E0,4.028256E0,3.7218502E0,3.7163396E0,3.399131E0,3.1524186E0,3.5174968E0,2.5923235E0,2.9647272E0],"categories":[],"categories_nodes":[],"categories_segments":[],"categories_sizes":[],"default_left":[0,0,0,0,0,0,0,0,0,0,0,0,0,0,0,0,0,0,0,0,0,0,0,0,0,0,0,0,0,0,0,0,0,0,0,0,0,0,0,0,0,0,0,0,0],"id":23,"left_children":[1,3,5,7,9,11,13,15,17,19,-1,21,23,25,27,29,31,-1,-1,-1,-1,33,35,37,39,41,-1,43,-1,-1,-1,-1,-1,-1,-1,-1,-1,-1,-1,-1,-1,-1,-1,-1,-1],"loss_changes":[1.2911514E8,5.006848E6,2.3107584E7,2.293184E6,1.944E5,1.2536832E7,4.272064E6,3.105024E6,1.2096E4,3.12496E5,0E0,9.28448E5,3.241472E6,4.98752E5,2.25888E5,1.08944E5,5.21728E5,0E0,0E0,0E0,0E0,1.6592E5,5.03936E5,2.50496E6,4.6368E5,7.97344E5,0E0,3.38896E5,0E0,0E0,0E0,0E0,0E0,0E0,0E0,0E0,0E0,0E0,0E0,0E0,0E0,0E0,0E0,0E0,0E0],"parents":[2147483647,0,0,1,1,2,2,3,3,4,4,5,5,6,6,7,7,8,8,9,9,11,11,12,12,13,13,14,14,15,15,16,16,21,21,22,22,23,23,24,24,25,25,27,27],"right_children":[2,4,6,8,10,12,14,16,18,20,-1,22,24,26,28,30,32,-1,-1,-1,-1,34,36,38,40,42,-1,44,-1,-1,-1,-1,-1,-1,-1,-1,-1,-1,-1,-1,-1,-1,-1,-1,-1],"split_conditions":[8E0,7E0,2.1E1,2.85E2,2.75E2,1.1E1,2.3E1,8E1,2E0,8.8E1,2.8538501E0,9E0,1.9E1,2.72E2,2.73E2,4.5E1,2.47E2,2.43906E0,2.3069499E0,2.9151297E0,3.276899E0,2.68E2,6.3E1,2.89E2,2.92E2,8.6E1,3.1063583E0,7.5E1,2.557834E0,2.338691E0,2.4960055E0,2.7910616E0,2.565454E0,3.3012779E0,3.0099618E0,3.240647E0,3.5644884E0,4.028256E0,3.7218502E0,3.7163396E0,3.399131E0,3.1524186E0,3.5174968E0,2.5923235E0,2.9647272E0],"split_indices":[1,1,1,0,0,1,1,0,1,0,0,1,1,0,0,0,0,0,0,0,0,0,0,0,0,0,0,0,0,0,0,0,0,0,0,0,0,0,0,0,0,0,0,0,0],"split_type":[0,0,0,0,0,0,0,0,0,0,0,0,0,0,0,0,0,0,0,0,0,0,0,0,0,0,0,0,0,0,0,0,0,0,0,0,0,0,0,0,0,0,0,0,0],"sum_hessian":[2.7072E4,9.024E3,1.8048E4,7.896E3,1.128E3,1.4664E4,3.384E3,6.188E3,1.708E3,8.54E2,2.74E2,3.384E3,1.128E4,2.256E3,1.128E3,1.883E3,4.305E3,4.88E2,1.22E3,2.93E2,5.61E2,1.128E3,2.256E3,9.024E3,2.256E3,1.69E3,5.66E2,8.48E2,2.8E2,1.148E3,7.35E2,3.507E3,7.98E2,8.33E2,2.95E2,4.36E2,1.82E3,7.168E3,1.856E3,1.81E3,4.46E2,5.74E2,1.116E3,2.54E2,5.94E2],"tree_param":{"num_deleted":"0","num_feature":"5","num_nodes":"45","size_leaf_vector":"1"}},{"base_weights":[4.7208704E2,3.750088E2,5.2060266E2,3.659984E2,4.3770126E2,5.37744E2,4.4618668E2,3.7586664E2,3.3535693E2,4.4685275E2,2.81227E0,4.8409128E2,5.537955E2,4.7158282E2,3.950217E2,3.427576E2,3.9312875E2,2.4168153E0,2.287887E0,2.864297E0,3.225211E0,4.7088626E2,5.1006082E2,5.1703156E2,5.622468E2,4.8043573E2,3.0550287E0,4.0438223E2,2.52097E0,2.3266988E0,2.5010836E0,2.792253E0,2.611659E0,3.032047E0,3.3549485E0,3.6412208E0,3.333984E0,3.6802342E0,3.3670819E0,4.0633974E0,3.6736112E0,3.0940588E0,3.4568198E0,2.5742486E0,2.930291E0],"categories":[],"categories_nodes":[],"categories_segments":[],"categories_sizes":[],"default_left":[0,0,0,0,0,0,0,0,0,0,0,0,0,0,0,0,0,0,0,0,0,0,0,0,0,0,0,0,0,0,0,0,0,0,0,0,0,0,0,0,0,0,0,0,0],"id":24,"left_children":[1,3,5,7,9,11,13,15,17,19,-1,21,23,25,27,29,31,-1,-1,-1,-1,33,35,37,39,41,-1,43,-1,-1,-1,-1,-1,-1,-1,-1,-1,-1,-1,-1,-1,-1,-1,-1,-1],"loss_changes":[1.2731392E8,4.937856E6,2.2782976E7,2.261824E6,1.91904E5,1.2361216E7,4.21216E6,3.274496E6,5.016E4,2.77712E5,0E0,9.2064E5,3.214336E6,4.9264E5,2.23008E5,1.90704E5,3.03168E5,0E0,0E0,0E0,0E0,5.07232E5,1.3792E5,4.12992E5,5.952E6,7.04672E5,0E0,3.0584E5,0E0,0E0,0E0,0E0,0E0,0E0,0E0,0E0,0E0,0E0,0E0,0E0,0E0,0E0,0E0,0E0,0E0],"parents":[2147483647,0,0,1,1,2,2,3,3,4,4,5,5,6,6,7,7,8,8,9,9,11,11,12,12,13,13,14,14,15,15,16,16,21,21,22,22,23,23,24,24,25,25,27,27],"right_children":[2,4,6,8,10,12,14,16,18,20,-1,22,24,26,28,30,32,-1,-1,-1,-1,34,36,38,40,42,-1,44,-1,-1,-1,-1,-1,-1,-1,-1,-1,-1,-1,-1,-1,-1,-1,-1,-1],"split_conditions":[8E0,7E0,2.1E1,4E0,2.87E2,1.1E1,2.3E1,8.8E1,3.16E2,7.3E1,2.81227E0,1E1,6.1E1,2.89E2,2.84E2,4.8E1,2.32E2,2.4168153E0,2.287887E0,2.864297E0,3.225211E0,3E0,2.76E2,1.9E1,2.66E2,6.9E1,3.0550287E0,7.5E1,2.52097E0,2.3266988E0,2.5010836E0,2.792253E0,2.611659E0,3.032047E0,3.3549485E0,3.6412208E0,3.333984E0,3.6802342E0,3.3670819E0,4.0633974E0,3.6736112E0,3.0940588E0,3.4568198E0,2.5742486E0,2.930291E0],"split_indices":[1,1,1,3,0,1,1,0,0,0,0,1,0,0,0,0,0,0,0,0,0,4,0,1,0,0,0,0,0,0,0,0,0,0,0,0,0,0,0,0,0,0,0,0,0],"split_type":[0,0,0,0,0,0,0,0,0,0,0,0,0,0,0,0,0,0,0,0,0,0,0,0,0,0,0,0,0,0,0,0,0,0,0,0,0,0,0,0,0,0,0,0,0],"sum_hessian":[2.7072E4,9.024E3,1.8048E4,7.896E3,1.128E3,1.4664E4,3.384E3,5.964E3,1.932E3,8.9E2,2.38E2,3.384E3,1.128E4,2.256E3,1.128E3,2.051E3,3.913E3,8.75E2,1.057E3,2.48E2,6.42E2,2.256E3,1.128E3,2.12E3,9.16E3,1.792E3,4.64E2,8.81E2,2.47E2,1.211E3,8.4E2,3.024E3,8.89E2,4.2E2,1.836E3,8.57E2,2.71E2,1.696E3,4.24E2,6.15E3,3.01E3,4.72E2,1.32E3,2.54E2,6.27E2],"tree_param":{"num_deleted":"0","num_feature":"5","num_nodes":"45","size_leaf_vector":"1"}},{"base_weights":[4.6878497E2,3.7238635E2,5.16961E2,3.6343832E2,4.3464523E2,5.339817E2,4.430686E2,3.7248102E2,3.3047824E2,4.4463898E2,2.8139532E0,4.8070657E2,5.499202E2,4.68286E2,3.9226367E2,3.38269E2,3.8736328E2,2.4056954E0,2.274469E0,2.8744247E0,3.2314653E0,4.546037E2,4.935508E2,5.586705E2,5.146873E2,4.7831744E2,3.0627987E0,4.023822E2,2.5220726E0,2.3060617E0,2.4611778E0,2.7522008E0,2.5296416E0,3.2553093E0,2.965558E0,3.5220072E0,3.2161243E0,3.6544876E0,3.969483E0,3.663288E0,3.3497326E0,3.1083188E0,3.4687204E0,2.5562994E0,2.9235315E0],"categories":[],"categories_nodes":[],"categories_segments":[],"categories_sizes":[],"default_left":[0,0,0,0,0,0,0,0,0,0,0,0,0,0,0,0,0,0,0,0,0,0,0,0,0,0,0,0,0,0,0,0,0,0,0,0,0,0,0,0,0,0,0,0,0],"id":25,"left_children":[1,3,5,7,9,11,13,15,17,19,-1,21,23,25,27,29,31,-1,-1,-1,-1,33,35,37,39,41,-1,43,-1,-1,-1,-1,-1,-1,-1,-1,-1,-1,-1,-1,-1,-1,-1,-1,-1],"loss_changes":[1.2553728E8,4.869888E6,2.2463488E7,2.230528E6,1.89664E5,1.218816E7,4.153024E6,3.020096E6,1.3552E4,3.0472E5,0E0,9.10464E5,3.190528E6,4.86816E5,2.20224E5,1.05936E5,5.0784E5,0E0,0E0,0E0,0E0,1.67824E5,5.072E5,2.478336E6,4.54592E5,7.776E5,0E0,3.29552E5,0E0,0E0,0E0,0E0,0E0,0E0,0E0,0E0,0E0,0E0,0E0,0E0,0E0,0E0,0E0,0E0,0E0],"parents":[2147483647,0,0,1,1,2,2,3,3,4,4,5,5,6,6,7,7,8,8,9,9,11,11,12,12,13,13,14,14,15,15,16,16,21,21,22,22,23,23,24,24,25,25,27,27],"right_children":[2,4,6,8,10,12,14,16,18,20,-1,22,24,26,28,30,32,-1,-1,-1,-1,34,36,38,40,42,-1,44,-1,-1,-1,-1,-1,-1,-1,-1,-1,-1,-1,-1,-1,-1,-1,-1,-1],"split_conditions":[8E0,7E0,2.1E1,2.85E2,2.75E2,1.1E1,2.3E1,8E1,2E0,8.8E1,2.8139532E0,9E0,1.9E1,2.72E2,2.73E2,4.5E1,2.47E2,2.4056954E0,2.274469E0,2.8744247E0,3.2314653E0,2.68E2,2.82E2,6.1E1,2.92E2,8.6E1,3.0627987E0,7.5E1,2.5220726E0,2.3060617E0,2.4611778E0,2.7522008E0,2.5296416E0,3.2553093E0,2.965558E0,3.5220072E0,3.2161243E0,3.6544876E0,3.969483E0,3.663288E0,3.3497326E0,3.1083188E0,3.4687204E0,2.5562994E0,2.9235315E0],"split_indices":[1,1,1,0,0,1,1,0,1,0,0,1,1,0,0,0,0,0,0,0,0,0,0,0,0,0,0,0,0,0,0,0,0,0,0,0,0,0,0,0,0,0,0,0,0],"split_type":[0,0,0,0,0,0,0,0,0,0,0,0,0,0,0,0,0,0,0,0,0,0,0,0,0,0,0,0,0,0,0,0,0,0,0,0,0,0,0,0,0,0,0,0,0],"sum_hessian":[2.7072E4,9.024E3,1.8048E4,7.896E3,1.128E3,1.4664E4,3.384E3,6.188E3,1.708E3,8.54E2,2.74E2,3.384E3,1.128E4,2.256E3,1.128E3,1.883E3,4.305E3,4.88E2,1.22E3,2.93E2,5.61E2,1.128E3,2.256E3,9.024E3,2.256E3,1.69E3,5.66E2,8.48E2,2.8E2,1.148E3,7.35E2,3.507E3,7.98E2,8.33E2,2.95E2,1.75E3,5.06E2,1.696E3,7.328E3,1.81E3,4.46E2,5.74E2,1.116E3,2.54E2,5.94E2],"tree_param":{"num_deleted":"0","num_feature":"5","num_nodes":"45","size_leaf_vector":"1"}},{"base_weights":[4.6550604E2,3.697823E2,5.133448E2,3.6089612E2,4.3161063E2,5.302457E2,4.3997232E2,3.706287E2,3.3067587E2,4.4153363E2,2.794327E0,4.7734546E2,5.460721E2,4.6501227E2,3.895249E2,3.3796362E2,3.876594E2,2.4056134E0,2.2696738E0,2.8285894E0,3.1968195E0,4.642779E2,5.0304623E2,5.547606E2,5.110876E2,4.7374802E2,3.0122962E0,3.99572E2,2.5044808E0,2.2985766E0,2.4727821E0,2.753455E0,2.575159E0,2.9872088E0,3.3083897E0,3.5920336E0,3.2908666E0,3.9452055E0,3.6423385E0,3.3161387E0,3.6355896E0,3.050734E0,3.408792E0,2.5384758E0,2.903101E0],"categories":[],"categories_nodes":[],"categories_segments":[],"categories_sizes":[],"default_left":[0,0,0,0,0,0,0,0,0,0,0,0,0,0,0,0,0,0,0,0,0,0,0,0,0,0,0,0,0,0,0,0,0,0,0,0,0,0,0,0,0,0,0,0,0],"id":26,"left_children":[1,3,5,7,9,11,13,15,17,19,-1,21,23,25,27,29,31,-1,-1,-1,-1,33,35,37,39,41,-1,43,-1,-1,-1,-1,-1,-1,-1,-1,-1,-1,-1,-1,-1,-1,-1,-1,-1],"loss_changes":[1.2378522E8,4.802688E6,2.2148608E7,2.200128E6,1.86976E5,1.2017152E7,4.094784E6,3.187264E6,5.0096E4,3.00704E5,0E0,9.03232E5,3.145728E6,4.8E5,2.17104E5,1.85104E5,2.95872E5,0E0,0E0,0E0,0E0,5.05632E5,1.34208E5,2.453248E6,4.52224E5,6.86976E5,0E0,3.24864E5,0E0,0E0,0E0,0E0,0E0,0E0,0E0,0E0,0E0,0E0,0E0,0E0,0E0,0E0,0E0,0E0,0E0],"parents":[2147483647,0,0,1,1,2,2,3,3,4,4,5,5,6,6,7,7,8,8,9,9,11,11,12,12,13,13,14,14,15,15,16,16,21,21,22,22,23,23,24,24,25,25,27,27],"right_children":[2,4,6,8,10,12,14,16,18,20,-1,22,24,26,28,30,32,-1,-1,-1,-1,34,36,38,40,42,-1,44,-1,-1,-1,-1,-1,-1,-1,-1,-1,-1,-1,-1,-1,-1,-1,-1,-1],"split_conditions":[8E0,7E0,2.1E1,4E0,2.75E2,1.1E1,2.3E1,8.8E1,3.04E2,7.5E1,2.794327E0,1E1,1.9E1,2.89E2,2.73E2,5.1E1,2.32E2,2.4056134E0,2.2696738E0,2.8285894E0,3.1968195E0,3E0,4E0,2.89E2,3E0,6.9E1,3.0122962E0,7.5E1,2.5044808E0,2.2985766E0,2.4727821E0,2.753455E0,2.575159E0,2.9872088E0,3.3083897E0,3.5920336E0,3.2908666E0,3.9452055E0,3.6423385E0,3.3161387E0,3.6355896E0,3.050734E0,3.408792E0,2.5384758E0,2.903101E0],"split_indices":[1,1,1,3,0,1,1,0,0,0,0,1,1,0,0,0,0,0,0,0,0,4,3,0,4,0,0,0,0,0,0,0,0,0,0,0,0,0,0,0,0,0,0,0,0],"split_type":[0,0,0,0,0,0,0,0,0,0,0,0,0,0,0,0,0,0,0,0,0,0,0,0,0,0,0,0,0,0,0,0,0,0,0,0,0,0,0,0,0,0,0,0,0],"sum_hessian":[2.7072E4,9.024E3,1.8048E4,7.896E3,1.128E3,1.4664E4,3.384E3,5.964E3,1.932E3,8.54E2,2.74E2,3.384E3,1.128E4,2.256E3,1.128E3,2.051E3,3.913E3,6.23E2,1.309E3,2.54E2,6E2,2.256E3,1.128E3,9.024E3,2.256E3,1.792E3,4.64E2,8.48E2,2.8E2,1.274E3,7.77E2,3.024E3,8.89E2,4.2E2,1.836E3,8.52E2,2.76E2,7.168E3,1.856E3,4.2E2,1.836E3,4.72E2,1.32E3,2.54E2,5.94E2],"tree_param":{"num_deleted":"0","num_feature":"5","num_nodes":"45","size_leaf_vector":"1"}},{"base_weights":[4.6225003E2,3.671964E2,5.0975388E2,3.583717E2,4.2859714E2,5.265359E2,4.3689767E2,3.6728934E2,3.2586755E2,4.3756604E2,2.7535727E0,4.7400793E2,5.4225085E2,4.6176138E2,3.8680527E2,3.306282E2,3.8079764E2,2.3728132E0,2.2424636E0,2.7957122E0,3.1549857E0,4.4818127E2,4.8671698E2,5.0594293E2,5.505979E2,4.716663E2,3.0198488E0,3.9590503E2,2.4664915E0,2.4096959E0,2.2742953E0,2.7016785E0,2.4942856E0,3.2099848E0,2.9217887E0,3.1470566E0,3.4675333E0,3.6013215E0,3.2948058E0,3.9804268E0,3.5950136E0,3.0648355E0,3.4206207E0,2.520776E0,2.8681993E0],"categories":[],"categories_nodes":[],"categories_segments":[],"categories_sizes":[],"default_left":[0,0,0,0,0,0,0,0,0,0,0,0,0,0,0,0,0,0,0,0,0,0,0,0,0,0,0,0,0,0,0,0,0,0,0,0,0,0,0,0,0,0,0,0,0],"id":27,"left_children":[1,3,5,7,9,11,13,15,17,19,-1,21,23,25,27,29,31,-1,-1,-1,-1,33,35,37,39,41,-1,43,-1,-1,-1,-1,-1,-1,-1,-1,-1,-1,-1,-1,-1,-1,-1,-1,-1],"loss_changes":[1.2205875E8,4.736512E6,2.1838336E7,2.16928E6,1.84592E5,1.1848704E7,4.037312E6,2.939136E6,1.4944E4,2.67184E5,0E0,8.92928E5,3.140096E6,4.75072E5,2.14416E5,1.8704E4,4.32256E5,0E0,0E0,0E0,0E0,1.69616E5,5.01888E5,3.9584E5,5.825024E6,7.58304E5,0E0,2.908E5,0E0,0E0,0E0,0E0,0E0,0E0,0E0,0E0,0E0,0E0,0E0,0E0,0E0,0E0,0E0,0E0,0E0],"parents":[2147483647,0,0,1,1,2,2,3,3,4,4,5,5,6,6,7,7,8,8,9,9,11,11,12,12,13,13,14,14,15,15,16,16,21,21,22,22,23,23,24,24,25,25,27,27],"right_children":[2,4,6,8,10,12,14,16,18,20,-1,22,24,26,28,30,32,-1,-1,-1,-1,34,36,38,40,42,-1,44,-1,-1,-1,-1,-1,-1,-1,-1,-1,-1,-1,-1,-1,-1,-1,-1,-1],"split_conditions":[8E0,7E0,2.1E1,2.85E2,2.87E2,1.1E1,2.3E1,7E1,2E0,6.9E1,2.7535727E0,9E0,6.1E1,2.72E2,2.85E2,2E0,2.47E2,2.3728132E0,2.2424636E0,2.7957122E0,3.1549857E0,2.68E2,6.3E1,1.9E1,2.66E2,8.6E1,3.0198488E0,7.5E1,2.4664915E0,2.4096959E0,2.2742953E0,2.7016785E0,2.4942856E0,3.2099848E0,2.9217887E0,3.1470566E0,3.4675333E0,3.6013215E0,3.2948058E0,3.9804268E0,3.5950136E0,3.0648355E0,3.4206207E0,2.520776E0,2.8681993E0],"split_indices":[1,1,1,0,0,1,1,0,1,0,0,1,0,0,0,1,0,0,0,0,0,0,0,1,0,0,0,0,0,0,0,0,0,0,0,0,0,0,0,0,0,0,0,0,0],"split_type":[0,0,0,0,0,0,0,0,0,0,0,0,0,0,0,0,0,0,0,0,0,0,0,0,0,0,0,0,0,0,0,0,0,0,0,0,0,0,0,0,0,0,0,0,0],"sum_hessian":[2.7072E4,9.024E3,1.8048E4,7.896E3,1.128E3,1.4664E4,3.384E3,6.188E3,1.708E3,8.9E2,2.38E2,3.384E3,1.128E4,2.256E3,1.128E3,1.673E3,4.515E3,4.88E2,1.22E3,2.36E2,6.54E2,1.128E3,2.256E3,2.12E3,9.16E3,1.69E3,5.66E2,8.84E2,2.44E2,4.78E2,1.195E3,3.717E3,7.98E2,8.33E2,2.95E2,4.36E2,1.82E3,1.696E3,4.24E2,6.15E3,3.01E3,5.74E2,1.116E3,2.54E2,6.3E2],"tree_param":{"num_deleted":"0","num_feature":"5","num_nodes":"45","size_leaf_vector":"1"}},{"base_weights":[4.5901678E2,3.646286E2,5.0618805E2,3.5586496E2,4.2560468E2,5.22852E2,4.338445E2,3.6546375E2,3.2606018E2,4.3539783E2,2.7552652E0,4.7069366E2,5.3845636E2,4.5853326E2,3.8410458E2,3.3321674E2,3.8227655E2,2.350492E0,2.2239032E0,2.8143063E0,3.1645017E0,4.577621E2,4.9612845E2,5.0240457E2,5.467445E2,4.6836844E2,2.998747E0,3.940205E2,2.4694474E0,2.2619855E0,2.43139E0,2.7152815E0,2.5391989E0,3.269137E0,2.9670613E0,3.533923E0,3.2105756E0,3.576127E0,3.2717962E0,3.9525683E0,3.569857E0,3.0102649E0,3.3818307E0,2.507314E0,2.8646092E0],"categories":[],"categories_nodes":[],"categories_segments":[],"categories_sizes":[],"default_left":[0,0,0,0,0,0,0,0,0,0,0,0,0,0,0,0,0,0,0,0,0,0,0,0,0,0,0,0,0,0,0,0,0,0,0,0,0,0,0,0,0,0,0,0,0],"id":28,"left_children":[1,3,5,7,9,11,13,15,17,19,-1,21,23,25,27,29,31,-1,-1,-1,-1,33,35,37,39,41,-1,43,-1,-1,-1,-1,-1,-1,-1,-1,-1,-1,-1,-1,-1,-1,-1,-1,-1],"loss_changes":[1.2035584E8,4.671232E6,2.1531648E7,2.140096E6,1.82384E5,1.168256E7,3.980736E6,3.10656E6,5.0464E4,2.93744E5,0E0,8.86208E5,3.096064E6,4.68416E5,2.11696E5,1.79792E5,2.89088E5,0E0,0E0,0E0,0E0,5.10304E5,1.37312E5,3.90144E5,5.74336E6,7.4832E5,0E0,3.16128E5,0E0,0E0,0E0,0E0,0E0,0E0,0E0,0E0,0E0,0E0,0E0,0E0,0E0,0E0,0E0,0E0,0E0],"parents":[2147483647,0,0,1,1,2,2,3,3,4,4,5,5,6,6,7,7,8,8,9,9,11,11,12,12,13,13,14,14,15,15,16,16,21,21,22,22,23,23,24,24,25,25,27,27],"right_children":[2,4,6,8,10,12,14,16,18,20,-1,22,24,26,28,30,32,-1,-1,-1,-1,34,36,38,40,42,-1,44,-1,-1,-1,-1,-1,-1,-1,-1,-1,-1,-1,-1,-1,-1,-1,-1,-1],"split_conditions":[8E0,7E0,2.1E1,4E0,2.75E2,1.1E1,2.3E1,8.8E1,3.16E2,8.8E1,2.7552652E0,1E1,6.1E1,2.72E2,2.73E2,4.8E1,2.32E2,2.350492E0,2.2239032E0,2.8143063E0,3.1645017E0,2.84E2,2.92E2,1.9E1,2.66E2,7E1,2.998747E0,7.7E1,2.4694474E0,2.2619855E0,2.43139E0,2.7152815E0,2.5391989E0,3.269137E0,2.9670613E0,3.533923E0,3.2105756E0,3.576127E0,3.2717962E0,3.9525683E0,3.569857E0,3.0102649E0,3.3818307E0,2.507314E0,2.8646092E0],"split_indices":[1,1,1,3,0,1,1,0,0,0,0,1,0,0,0,0,0,0,0,0,0,0,0,1,0,0,0,0,0,0,0,0,0,0,0,0,0,0,0,0,0,0,0,0,0],"split_type":[0,0,0,0,0,0,0,0,0,0,0,0,0,0,0,0,0,0,0,0,0,0,0,0,0,0,0,0,0,0,0,0,0,0,0,0,0,0,0,0,0,0,0,0,0],"sum_hessian":[2.7072E4,9.024E3,1.8048E4,7.896E3,1.128E3,1.4664E4,3.384E3,5.964E3,1.932E3,8.54E2,2.74E2,3.384E3,1.128E4,2.256E3,1.128E3,2.051E3,3.913E3,8.75E2,1.057E3,2.93E2,5.61E2,2.256E3,1.128E3,2.12E3,9.16E3,1.69E3,5.66E2,8.48E2,2.8E2,1.211E3,8.4E2,3.024E3,8.89E2,1.762E3,4.94E2,9.05E2,2.23E2,1.696E3,4.24E2,6.15E3,3.01E3,4.78E2,1.212E3,2.6E2,5.88E2],"tree_param":{"num_deleted":"0","num_feature":"5","num_nodes":"45","size_leaf_vector":"1"}},{"base_weights":[4.5580618E2,3.620788E2,5.0264722E2,3.5337573E2,4.226332E2,5.191939E2,4.3081268E2,3.621708E2,3.2131836E2,4.3235703E2,2.7360487E0,4.6740262E2,5.346885E2,4.553277E2,3.8142282E2,3.3014938E2,3.7724542E2,2.340365E0,2.2108872E0,2.7946732E0,3.1423898E0,4.4184927E2,4.7997787E2,5.432929E2,5.0004514E2,4.6389426E2,2.9492157E0,3.9047235E2,2.4339042E0,2.2461646E0,2.4091496E0,2.6846225E0,2.467537E0,3.1646852E0,2.8803632E0,3.1013215E0,3.4200401E0,3.563339E0,3.863942E0,3.5599446E0,3.2509027E0,2.9869883E0,3.3379953E0,2.4857175E0,2.829488E0],"categories":[],"categories_nodes":[],"categories_segments":[],"categories_sizes":[],"default_left":[0,0,0,0,0,0,0,0,0,0,0,0,0,0,0,0,0,0,0,0,0,0,0,0,0,0,0,0,0,0,0,0,0,0,0,0,0,0,0,0,0,0,0,0,0],"id":29,"left_children":[1,3,5,7,9,11,13,15,17,19,-1,21,23,25,27,29,31,-1,-1,-1,-1,33,35,37,39,41,-1,43,-1,-1,-1,-1,-1,-1,-1,-1,-1,-1,-1,-1,-1,-1,-1,-1,-1],"loss_changes":[1.1867597E8,4.60672E6,2.123008E7,2.110144E6,1.79776E5,1.1518464E7,3.924928E6,2.86304E6,1.6256E4,2.89552E5,0E0,8.75648E5,3.0912E6,4.62112E5,2.08768E5,1.47936E5,5.16672E5,0E0,0E0,0E0,0E0,1.6536E5,5.00384E5,2.407424E6,4.48832E5,6.60672E5,0E0,2.85104E5,0E0,0E0,0E0,0E0,0E0,0E0,0E0,0E0,0E0,0E0,0E0,0E0,0E0,0E0,0E0,0E0,0E0],"parents":[2147483647,0,0,1,1,2,2,3,3,4,4,5,5,6,6,7,7,8,8,9,9,11,11,12,12,13,13,14,14,15,15,16,16,21,21,22,22,23,23,24,24,25,25,27,27],"right_children":[2,4,6,8,10,12,14,16,18,20,-1,22,24,26,28,30,32,-1,-1,-1,-1,34,36,38,40,42,-1,44,-1,-1,-1,-1,-1,-1,-1,-1,-1,-1,-1,-1,-1,-1,-1,-1,-1],"split_conditions":[8E0,7E0,2.1E1,2.85E2,2.75E2,1.1E1,2.3E1,8.5E1,2E0,8.8E1,2.7360487E0,9E0,1.9E1,2.89E2,2.84E2,4.8E1,2.44E2,2.340365E0,2.2108872E0,2.7946732E0,3.1423898E0,2.68E2,6.3E1,6.7E1,2.92E2,6.9E1,2.9492157E0,7.5E1,2.4339042E0,2.2461646E0,2.4091496E0,2.6846225E0,2.467537E0,3.1646852E0,2.8803632E0,3.1013215E0,3.4200401E0,3.563339E0,3.863942E0,3.5599446E0,3.2509027E0,2.9869883E0,3.3379953E0,2.4857175E0,2.829488E0],"split_indices":[1,1,1,0,0,1,1,0,1,0,0,1,1,0,0,0,0,0,0,0,0,0,0,0,0,0,0,0,0,0,0,0,0,0,0,0,0,0,0,0,0,0,0,0,0],"split_type":[0,0,0,0,0,0,0,0,0,0,0,0,0,0,0,0,0,0,0,0,0,0,0,0,0,0,0,0,0,0,0,0,0,0,0,0,0,0,0,0,0,0,0,0,0],"sum_hessian":[2.7072E4,9.024E3,1.8048E4,7.896E3,1.128E3,1.4664E4,3.384E3,6.188E3,1.708E3,8.54E2,2.74E2,3.384E3,1.128E4,2.256E3,1.128E3,1.988E3,4.2E3,4.88E2,1.22E3,2.93E2,5.61E2,1.128E3,2.256E3,9.024E3,2.256E3,1.792E3,4.64E2,8.81E2,2.47E2,1.211E3,7.77E2,3.339E3,8.61E2,8.33E2,2.95E2,4.36E2,1.82E3,1.84E3,7.184E3,1.81E3,4.46E2,4.72E2,1.32E3,2.54E2,6.27E2],"tree_param":{"num_deleted":"0","num_feature":"5","num_nodes":"45","size_leaf_vector":"1"}},{"base_weights":[4.52618E2,3.5954678E2,4.991311E2,3.5090393E2,4.1968243E2,5.1556134E2,4.2780203E2,3.6037106E2,3.2150793E2,4.284724E2,2.6961E0,4.6413452E2,5.309469E2,4.521445E2,3.787597E2,3.2856628E2,3.7695337E2,2.317947E0,2.1926303E0,2.7371275E0,3.089593E0,4.5133755E2,4.8930603E2,5.394907E2,4.9654785E2,4.6185562E2,2.956695E0,3.8854538E2,2.4349208E0,2.2346737E0,2.4040065E0,2.6780965E0,2.5057812E0,3.2235622E0,2.924327E0,3.4951973E0,3.197049E0,3.8372314E0,3.5396957E0,3.5421047E0,3.2537565E0,3.0099201E0,3.354805E0,2.4724414E0,2.8248184E0],"categories":[],"categories_nodes":[],"categories_segments":[],"categories_sizes":[],"default_left":[0,0,0,0,0,0,0,0,0,0,0,0,0,0,0,0,0,0,0,0,0,0,0,0,0,0,0,0,0,0,0,0,0,0,0,0,0,0,0,0,0,0,0,0,0],"id":30,"left_children":[1,3,5,7,9,11,13,15,17,19,-1,21,23,25,27,29,31,-1,-1,-1,-1,33,35,37,39,41,-1,43,-1,-1,-1,-1,-1,-1,-1,-1,-1,-1,-1,-1,-1,-1,-1,-1,-1],"loss_changes":[1.1702016E8,4.543488E6,2.0932096E7,2.081792E6,1.776E5,1.1356928E7,3.869824E6,3.022144E6,5.0272E4,2.5784E5,0E0,8.69568E5,3.047424E6,4.57216E5,2.06384E5,1.74848E5,2.81536E5,0E0,0E0,0E0,0E0,5.02688E5,1.40096E5,2.373888E6,4.42688E5,7.3168E5,0E0,3.07512E5,0E0,0E0,0E0,0E0,0E0,0E0,0E0,0E0,0E0,0E0,0E0,0E0,0E0,0E0,0E0,0E0,0E0],"parents":[2147483647,0,0,1,1,2,2,3,3,4,4,5,5,6,6,7,7,8,8,9,9,11,11,12,12,13,13,14,14,15,15,16,16,21,21,22,22,23,23,24,24,25,25,27,27],"right_children":[2,4,6,8,10,12,14,16,18,20,-1,22,24,26,28,30,32,-1,-1,-1,-1,34,36,38,40,42,-1,44,-1,-1,-1,-1,-1,-1,-1,-1,-1,-1,-1,-1,-1,-1,-1,-1,-1],"split_conditions":[8E0,7E0,2.1E1,4E0,2.87E2,1.1E1,2.3E1,8.8E1,3.16E2,6.9E1,2.6961E0,1E1,1.9E1,2.72E2,2.73E2,5.1E1,2.31E2,2.317947E0,2.1926303E0,2.7371275E0,3.089593E0,2.84E2,4E0,2.89E2,2.78E2,2E0,2.956695E0,7.7E1,2.4349208E0,2.2346737E0,2.4040065E0,2.6780965E0,2.5057812E0,3.2235622E0,2.924327E0,3.4951973E0,3.197049E0,3.8372314E0,3.5396957E0,3.5421047E0,3.2537565E0,3.0099201E0,3.354805E0,2.4724414E0,2.8248184E0],"split_indices":[1,1,1,3,0,1,1,0,0,0,0,1,1,0,0,0,0,0,0,0,0,0,3,0,0,3,0,0,0,0,0,0,0,0,0,0,0,0,0,0,0,0,0,0,0],"split_type":[0,0,0,0,0,0,0,0,0,0,0,0,0,0,0,0,0,0,0,0,0,0,0,0,0,0,0,0,0,0,0,0,0,0,0,0,0,0,0,0,0,0,0,0,0],"sum_hessian":[2.7072E4,9.024E3,1.8048E4,7.896E3,1.128E3,1.4664E4,3.384E3,5.964E3,1.932E3,8.9E2,2.38E2,3.384E3,1.128E4,2.256E3,1.128E3,2.051E3,3.913E3,8.75E2,1.057E3,2.36E2,6.54E2,2.256E3,1.128E3,9.024E3,2.256E3,1.69E3,5.66E2,8.48E2,2.8E2,1.274E3,7.77E2,3.003E3,9.1E2,1.762E3,4.94E2,8.52E2,2.76E2,7.168E3,1.856E3,1.726E3,5.3E2,6.06E2,1.084E3,2.6E2,5.88E2],"tree_param":{"num_deleted":"0","num_feature":"5","num_nodes":"45","size_leaf_vector":"1"}},{"base_weights":[4.4945215E2,3.570325E2,4.9563962E2,3.484494E2,4.1675223E2,5.084732E2,4.0561917E2,3.5780463E2,3.1911996E2,4.263488E2,2.6978014E0,4.6088937E2,5.214124E2,4.347638E2,3.7611523E2,3.2626855E2,3.7418805E2,2.3006487E0,2.1772964E0,2.7556038E0,3.0988433E0,4.3560645E2,4.7333224E2,5.325166E2,4.712297E2,4.4270312E2,2.783882E0,3.840314E2,2.3714736E0,2.2190433E0,2.3872E0,2.6587625E0,2.4844232E0,3.120021E0,2.8395278E0,3.0494606E0,3.3716433E0,3.7907338E0,3.5008852E0,3.3620992E0,3.0827434E0,2.840222E0,3.1839044E0,2.4511464E0,2.7744374E0],"categories":[],"categories_nodes":[],"categories_segments":[],"categories_sizes":[],"default_left":[0,0,0,0,0,0,0,0,0,0,0,0,0,0,0,0,0,0,0,0,0,0,0,0,0,0,0,0,0,0,0,0,0,0,0,0,0,0,0,0,0,0,0,0,0],"id":31,"left_children":[1,3,5,7,9,11,13,15,17,19,-1,21,23,25,27,29,31,-1,-1,-1,-1,33,35,37,39,41,-1,43,-1,-1,-1,-1,-1,-1,-1,-1,-1,-1,-1,-1,-1,-1,-1,-1,-1],"loss_changes":[1.153879E8,4.480896E6,2.0645376E7,2.052672E6,1.75376E5,9.48352E6,1.777216E6,2.96704E6,4.5712E4,2.82528E5,0E0,8.58688E5,6.663424E6,1.56192E5,2.03568E5,1.72432E5,2.91776E5,0E0,0E0,0E0,0E0,1.61184E5,4.98976E5,2.694656E6,4.19808E5,2.28672E5,0E0,2.4664E5,0E0,0E0,0E0,0E0,0E0,0E0,0E0,0E0,0E0,0E0,0E0,0E0,0E0,0E0,0E0,0E0,0E0],"parents":[2147483647,0,0,1,1,2,2,3,3,4,4,5,5,6,6,7,7,8,8,9,9,11,11,12,12,13,13,14,14,15,15,16,16,21,21,22,22,23,23,24,24,25,25,27,27],"right_children":[2,4,6,8,10,12,14,16,18,20,-1,22,24,26,28,30,32,-1,-1,-1,-1,34,36,38,40,42,-1,44,-1,-1,-1,-1,-1,-1,-1,-1,-1,-1,-1,-1,-1,-1,-1,-1,-1],"split_conditions":[8E0,7E0,2.2E1,2.75E2,2.75E2,1.1E1,2.3E1,8.8E1,3.16E2,8.8E1,2.6978014E0,9E0,2E1,2.97E2,2.98E2,5.1E1,2.32E2,2.3006487E0,2.1772964E0,2.7556038E0,3.0988433E0,2.68E2,6E1,2.84E2,2.79E2,6.9E1,2.783882E0,7.5E1,2.3714736E0,2.2190433E0,2.3872E0,2.6587625E0,2.4844232E0,3.120021E0,2.8395278E0,3.0494606E0,3.3716433E0,3.7907338E0,3.5008852E0,3.3620992E0,3.0827434E0,2.840222E0,3.1839044E0,2.4511464E0,2.7744374E0],"split_indices":[1,1,1,0,0,1,1,0,0,0,0,1,1,0,0,0,0,0,0,0,0,0,0,0,0,0,0,0,0,0,0,0,0,0,0,0,0,0,0,0,0,0,0,0,0],"split_type":[0,0,0,0,0,0,0,0,0,0,0,0,0,0,0,0,0,0,0,0,0,0,0,0,0,0,0,0,0,0,0,0,0,0,0,0,0,0,0,0,0,0,0,0,0],"sum_hessian":[2.7072E4,9.024E3,1.8048E4,7.896E3,1.128E3,1.5792E4,2.256E3,5.978E3,1.918E3,8.54E2,2.74E2,3.384E3,1.2408E4,1.128E3,1.128E3,2.051E3,3.927E3,8.61E2,1.057E3,2.93E2,5.61E2,1.128E3,2.256E3,1.0152E4,2.256E3,9.2E2,2.08E2,9.23E2,2.05E2,1.274E3,7.77E2,3.024E3,9.03E2,8.33E2,2.95E2,4.18E2,1.838E3,7.929E3,2.223E3,1.732E3,5.24E2,2.36E2,6.84E2,2.54E2,6.69E2],"tree_param":{"num_deleted":"0","num_feature":"5","num_nodes":"45","size_leaf_vector":"1"}},{"base_weights":[4.4630838E2,3.545358E2,4.9217252E2,3.460121E2,4.1384253E2,5.083766E2,4.2182538E2,3.5462747E2,3.146097E2,4.2251337E2,2.658501E0,4.576668E2,5.235476E2,4.458173E2,3.7348917E2,3.1918793E2,3.6768573E2,2.292827E0,2.1641963E0,2.6988409E0,3.046703E0,4.4500302E2,4.8257782E2,4.892832E2,5.32125E2,4.554033E2,2.915095E0,3.8315735E2,2.400643E0,2.3290577E0,2.1945028E0,2.6087313E0,2.4080336E0,2.855384E0,3.1728284E0,3.4477384E0,3.151234E0,3.483111E0,3.1853251E0,3.858466E0,3.480012E0,2.9669476E0,3.308453E0,2.4380565E0,2.78569E0],"categories":[],"categories_nodes":[],"categories_segments":[],"categories_sizes":[],"default_left":[0,0,0,0,0,0,0,0,0,0,0,0,0,0,0,0,0,0,0,0,0,0,0,0,0,0,0,0,0,0,0,0,0,0,0,0,0,0,0,0,0,0,0,0,0],"id":32,"left_children":[1,3,5,7,9,11,13,15,17,19,-1,21,23,25,27,29,31,-1,-1,-1,-1,33,35,37,39,41,-1,43,-1,-1,-1,-1,-1,-1,-1,-1,-1,-1,-1,-1,-1,-1,-1,-1,-1],"loss_changes":[1.1377766E8,4.419072E6,2.035968E7,2.02496E6,1.72928E5,1.104256E7,3.758976E6,2.746752E6,1.8992E4,2.51456E5,0E0,8.53056E5,3.055104E6,4.45888E5,2.01952E5,2.4544E4,4.0544E5,0E0,0E0,0E0,0E0,5.06464E5,1.42496E5,4.192E5,5.741568E6,7.192E5,0E0,2.99408E5,0E0,0E0,0E0,0E0,0E0,0E0,0E0,0E0,0E0,0E0,0E0,0E0,0E0,0E0,0E0,0E0,0E0],"parents":[2147483647,0,0,1,1,2,2,3,3,4,4,5,5,6,6,7,7,8,8,9,9,11,11,12,12,13,13,14,14,15,15,16,16,21,21,22,22,23,23,24,24,25,25,27,27],"right_children":[2,4,6,8,10,12,14,16,18,20,-1,22,24,26,28,30,32,-1,-1,-1,-1,34,36,38,40,42,-1,44,-1,-1,-1,-1,-1,-1,-1,-1,-1,-1,-1,-1,-1,-1,-1,-1,-1],"split_conditions":[8E0,7E0,2.1E1,2.85E2,2.87E2,1.1E1,2.3E1,7E1,2E0,6.9E1,2.658501E0,1E1,6.6E1,2.72E2,2.73E2,2E0,2.47E2,2.292827E0,2.1641963E0,2.6988409E0,3.046703E0,3E0,4E0,1.9E1,2.6E2,2E0,2.915095E0,7.7E1,2.400643E0,2.3290577E0,2.1945028E0,2.6087313E0,2.4080336E0,2.855384E0,3.1728284E0,3.4477384E0,3.151234E0,3.483111E0,3.1853251E0,3.858466E0,3.480012E0,2.9669476E0,3.308453E0,2.4380565E0,2.78569E0],"split_indices":[1,1,1,0,0,1,1,0,1,0,0,1,0,0,0,1,0,0,0,0,0,4,3,1,0,3,0,0,0,0,0,0,0,0,0,0,0,0,0,0,0,0,0,0,0],"split_type":[0,0,0,0,0,0,0,0,0,0,0,0,0,0,0,0,0,0,0,0,0,0,0,0,0,0,0,0,0,0,0,0,0,0,0,0,0,0,0,0,0,0,0,0,0],"sum_hessian":[2.7072E4,9.024E3,1.8048E4,7.896E3,1.128E3,1.4664E4,3.384E3,6.188E3,1.708E3,8.9E2,2.38E2,3.384E3,1.128E4,2.256E3,1.128E3,1.673E3,4.515E3,4.88E2,1.22E3,2.36E2,6.54E2,2.256E3,1.128E3,2.27E3,9.01E3,1.69E3,5.66E2,8.48E2,2.8E2,4.78E2,1.195E3,3.717E3,7.98E2,4.2E2,1.836E3,8.52E2,2.76E2,1.816E3,4.54E2,5.82E3,3.19E3,6.06E2,1.084E3,2.6E2,5.88E2],"tree_param":{"num_deleted":"0","num_feature":"5","num_nodes":"45","size_leaf_vector":"1"}},{"base_weights":[4.4318668E2,3.5205652E2,4.887297E2,3.4359177E2,4.1095306E2,5.0139005E2,3.9992435E2,3.528635E2,3.1480258E2,4.2042407E2,2.6600876E0,4.544669E2,5.1414966E2,4.28613E2,3.708815E2,3.2168585E2,3.691189E2,2.301206E0,3.091763E2,2.7170806E0,3.055901E0,4.294515E2,4.6677875E2,5.2512085E2,4.6456845E2,4.364503E2,2.7441797E0,3.804814E2,2.3838985E0,2.1836865E0,2.347286E0,2.622496E0,2.4535038E0,2.2554538E0,2.1255186E0,3.072576E0,2.7856076E0,3.3332691E0,3.0336952E0,3.4399052E0,3.7358434E0,3.314664E0,3.0388653E0,2.7997432E0,3.1390595E0,2.4210553E0,2.7662234E0],"categories":[],"categories_nodes":[],"categories_segments":[],"categories_sizes":[],"default_left":[0,0,0,0,0,0,0,0,0,0,0,0,0,0,0,0,0,0,0,0,0,0,0,0,0,0,0,0,0,0,0,0,0,0,0,0,0,0,0,0,0,0,0,0,0,0,0],"id":33,"left_children":[1,3,5,7,9,11,13,15,17,19,-1,21,23,25,27,29,31,-1,33,-1,-1,35,37,39,41,43,-1,45,-1,-1,-1,-1,-1,-1,-1,-1,-1,-1,-1,-1,-1,-1,-1,-1,-1,-1,-1],"loss_changes":[1.1218995E8,4.358144E6,2.0091904E7,1.9968E6,1.71072E5,9.221888E6,1.7216E6,2.904448E6,4.9984E4,2.7568E5,0E0,8.42048E5,6.50624E6,1.52624E5,1.99072E5,1.6776E5,2.71168E5,0E0,2.632E3,0E0,0E0,1.62848E5,5.02304E5,2.670848E6,4.09792E5,2.23456E5,0E0,2.95152E5,0E0,0E0,0E0,0E0,0E0,0E0,0E0,0E0,0E0,0E0,0E0,0E0,0E0,0E0,0E0,0E0,0E0,0E0,0E0],"parents":[2147483647,0,0,1,1,2,2,3,3,4,4,5,5,6,6,7,7,8,8,9,9,11,11,12,12,13,13,14,14,15,15,16,16,18,18,21,21,22,22,23,23,24,24,25,25,27,27],"right_children":[2,4,6,8,10,12,14,16,18,20,-1,22,24,26,28,30,32,-1,34,-1,-1,36,38,40,42,44,-1,46,-1,-1,-1,-1,-1,-1,-1,-1,-1,-1,-1,-1,-1,-1,-1,-1,-1,-1,-1],"split_conditions":[8E0,7E0,2.2E1,4E0,2.75E2,1.1E1,2.3E1,8.8E1,3E2,8.8E1,2.6600876E0,9E0,2E1,2.97E2,2.73E2,4.8E1,2.31E2,2.301206E0,2E0,2.7170806E0,3.055901E0,2.76E2,2.82E2,6.7E1,2.79E2,6.9E1,2.7441797E0,7.7E1,2.3838985E0,2.1836865E0,2.347286E0,2.622496E0,2.4535038E0,2.2554538E0,2.1255186E0,3.072576E0,2.7856076E0,3.3332691E0,3.0336952E0,3.4399052E0,3.7358434E0,3.314664E0,3.0388653E0,2.7997432E0,3.1390595E0,2.4210553E0,2.7662234E0],"split_indices":[1,1,1,3,0,1,1,0,0,0,0,1,1,0,0,0,0,0,1,0,0,0,0,0,0,0,0,0,0,0,0,0,0,0,0,0,0,0,0,0,0,0,0,0,0,0,0],"split_type":[0,0,0,0,0,0,0,0,0,0,0,0,0,0,0,0,0,0,0,0,0,0,0,0,0,0,0,0,0,0,0,0,0,0,0,0,0,0,0,0,0,0,0,0,0,0,0],"sum_hessian":[2.7072E4,9.024E3,1.8048E4,7.896E3,1.128E3,1.5792E4,2.256E3,5.964E3,1.932E3,8.54E2,2.74E2,3.384E3,1.2408E4,1.128E3,1.128E3,2.051E3,3.913E3,5.39E2,1.393E3,2.93E2,5.61E2,1.128E3,2.256E3,1.0152E4,2.256E3,9.2E2,2.08E2,8.48E2,2.8E2,1.211E3,8.4E2,3.003E3,9.1E2,3.98E2,9.95E2,8.57E2,2.71E2,1.75E3,5.06E2,2.07E3,8.082E3,1.732E3,5.24E2,2.36E2,6.84E2,2.6E2,5.88E2],"tree_param":{"num_deleted":"0","num_feature":"5","num_nodes":"47","size_leaf_vector":"1"}},{"base_weights":[4.4008682E2,3.4959488E2,4.853109E2,3.411887E2,4.0808386E2,4.9788196E2,3.9713208E2,3.4968423E2,3.1022314E2,4.1748785E2,2.6415348E0,4.512892E2,5.1055167E2,4.256204E2,3.6829202E2,3.1896783E2,3.6437088E2,2.260995E0,2.1339664E0,2.6736803E0,3.0230887E0,4.387572E2,4.7594244E2,5.214457E2,4.6131927E2,4.3354623E2,2.7293694E0,3.7606018E2,2.3216245E0,2.1641123E0,2.3217084E0,2.593555E0,2.3822315E0,2.8130767E0,3.1288078E0,3.045638E0,3.3854916E0,3.7101188E0,3.4167354E0,3.2914748E0,3.0176337E0,2.7802277E0,3.1192188E0,2.4001753E0,2.7168846E0],"categories":[],"categories_nodes":[],"categories_segments":[],"categories_sizes":[],"default_left":[0,0,0,0,0,0,0,0,0,0,0,0,0,0,0,0,0,0,0,0,0,0,0,0,0,0,0,0,0,0,0,0,0,0,0,0,0,0,0,0,0,0,0,0,0],"id":34,"left_children":[1,3,5,7,9,11,13,15,17,19,-1,21,23,25,27,29,31,-1,-1,-1,-1,33,35,37,39,41,-1,43,-1,-1,-1,-1,-1,-1,-1,-1,-1,-1,-1,-1,-1,-1,-1,-1,-1],"loss_changes":[1.1062426E8,4.298112E6,1.980928E7,1.96896E6,1.68624E5,9.092608E6,1.697568E6,2.675776E6,1.88E4,2.72E5,0E0,8.36992E5,6.415104E6,1.50528E5,1.96528E5,1.47952E5,4.9088E5,0E0,0E0,0E0,0E0,5.04384E5,1.44672E5,2.642432E6,4.03936E5,2.2424E5,0E0,2.36832E5,0E0,0E0,0E0,0E0,0E0,0E0,0E0,0E0,0E0,0E0,0E0,0E0,0E0,0E0,0E0,0E0,0E0],"parents":[2147483647,0,0,1,1,2,2,3,3,4,4,5,5,6,6,7,7,8,8,9,9,11,11,12,12,13,13,14,14,15,15,16,16,21,21,22,22,23,23,24,24,25,25,27,27],"right_children":[2,4,6,8,10,12,14,16,18,20,-1,22,24,26,28,30,32,-1,-1,-1,-1,34,36,38,40,42,-1,44,-1,-1,-1,-1,-1,-1,-1,-1,-1,-1,-1,-1,-1,-1,-1,-1,-1],"split_conditions":[8E0,7E0,2.2E1,2.85E2,2.75E2,1.1E1,2.3E1,8.6E1,2E0,7.5E1,2.6415348E0,1E1,2E1,2.95E2,2.98E2,4.5E1,2.44E2,2.260995E0,2.1339664E0,2.6736803E0,3.0230887E0,3E0,5.3E1,2.89E2,2.79E2,6.9E1,2.7293694E0,7.5E1,2.3216245E0,2.1641123E0,2.3217084E0,2.593555E0,2.3822315E0,2.8130767E0,3.1288078E0,3.045638E0,3.3854916E0,3.7101188E0,3.4167354E0,3.2914748E0,3.0176337E0,2.7802277E0,3.1192188E0,2.4001753E0,2.7168846E0],"split_indices":[1,1,1,0,0,1,1,0,1,0,0,1,1,0,0,0,0,0,0,0,0,4,0,0,0,0,0,0,0,0,0,0,0,0,0,0,0,0,0,0,0,0,0,0,0],"split_type":[0,0,0,0,0,0,0,0,0,0,0,0,0,0,0,0,0,0,0,0,0,0,0,0,0,0,0,0,0,0,0,0,0,0,0,0,0,0,0,0,0,0,0,0,0],"sum_hessian":[2.7072E4,9.024E3,1.8048E4,7.896E3,1.128E3,1.5792E4,2.256E3,6.188E3,1.708E3,8.54E2,2.74E2,3.384E3,1.2408E4,1.128E3,1.128E3,2.009E3,4.179E3,4.88E2,1.22E3,2.54E2,6E2,2.256E3,1.128E3,1.0152E4,2.256E3,9.14E2,2.14E2,9.23E2,2.05E2,1.148E3,8.61E2,3.318E3,8.61E2,4.2E2,1.836E3,1.88E2,9.4E2,8.064E3,2.088E3,1.732E3,5.24E2,2.36E2,6.78E2,2.54E2,6.69E2],"tree_param":{"num_deleted":"0","num_feature":"5","num_nodes":"45","size_leaf_vector":"1"}},{"base_weights":[4.3700858E2,3.4715015E2,4.8191608E2,3.388021E2,4.0523465E2,4.9778867E2,4.1300812E2,3.4794638E2,3.1040872E2,4.1373248E2,2.603013E0,4.4813385E2,5.1264404E2,4.3647937E2,3.6572058E2,3.1719827E2,3.6397784E2,2.2386012E0,2.116376E0,2.6424527E0,2.9834936E0,4.579647E2,4.1727063E2,4.7729324E2,5.207727E2,4.4588544E2,2.8536012E0,3.752052E2,2.3503385E0,2.1573274E0,2.3208787E0,2.5859957E0,2.4192476E0,2.9250016E0,3.333548E0,2.7469923E0,3.0027208E0,3.3984277E0,3.1040962E0,3.7728484E0,3.4058018E0,2.9031081E0,3.2403312E0,2.3873851E0,2.7279067E0],"categories":[],"categories_nodes":[],"categories_segments":[],"categories_sizes":[],"default_left":[0,0,0,0,0,0,0,0,0,0,0,0,0,0,0,0,0,0,0,0,0,0,0,0,0,0,0,0,0,0,0,0,0,0,0,0,0,0,0,0,0,0,0,0,0],"id":35,"left_children":[1,3,5,7,9,11,13,15,17,19,-1,21,23,25,27,29,31,-1,-1,-1,-1,33,35,37,39,41,-1,43,-1,-1,-1,-1,-1,-1,-1,-1,-1,-1,-1,-1,-1,-1,-1,-1,-1],"loss_changes":[1.0908109E8,4.238848E6,1.953536E7,1.942336E6,1.66336E5,1.0587648E7,3.597312E6,2.824896E6,4.9808E4,2.42112E5,0E0,8.35968E5,2.993152E6,4.30112E5,1.94832E5,1.63216E5,2.64192E5,0E0,0E0,0E0,0E0,1.67328E6,7.24E4,3.73184E5,5.446656E6,7.0464E5,0E0,2.87376E5,0E0,0E0,0E0,0E0,0E0,0E0,0E0,0E0,0E0,0E0,0E0,0E0,0E0,0E0,0E0,0E0,0E0],"parents":[2147483647,0,0,1,1,2,2,3,3,4,4,5,5,6,6,7,7,8,8,9,9,11,11,12,12,13,13,14,14,15,15,16,16,21,21,22,22,23,23,24,24,25,25,27,27],"right_children":[2,4,6,8,10,12,14,16,18,20,-1,22,24,26,28,30,32,-1,-1,-1,-1,34,36,38,40,42,-1,44,-1,-1,-1,-1,-1,-1,-1,-1,-1,-1,-1,-1,-1,-1,-1,-1,-1],"split_conditions":[8E0,7E0,2.1E1,4E0,2.87E2,1.1E1,2.3E1,8.8E1,3.16E2,6.9E1,2.603013E0,4E0,6.1E1,2.72E2,2.73E2,5.1E1,2.31E2,2.2386012E0,2.116376E0,2.6424527E0,2.9834936E0,8E1,9E0,1.9E1,2.6E2,2E0,2.8536012E0,7.7E1,2.3503385E0,2.1573274E0,2.3208787E0,2.5859957E0,2.4192476E0,2.9250016E0,3.333548E0,2.7469923E0,3.0027208E0,3.3984277E0,3.1040962E0,3.7728484E0,3.4058018E0,2.9031081E0,3.2403312E0,2.3873851E0,2.7279067E0],"split_indices":[1,1,1,3,0,1,1,0,0,0,0,3,0,0,0,0,0,0,0,0,0,0,1,1,0,3,0,0,0,0,0,0,0,0,0,0,0,0,0,0,0,0,0,0,0],"split_type":[0,0,0,0,0,0,0,0,0,0,0,0,0,0,0,0,0,0,0,0,0,0,0,0,0,0,0,0,0,0,0,0,0,0,0,0,0,0,0,0,0,0,0,0,0],"sum_hessian":[2.7072E4,9.024E3,1.8048E4,7.896E3,1.128E3,1.4664E4,3.384E3,5.964E3,1.932E3,8.9E2,2.38E2,3.384E3,1.128E4,2.256E3,1.128E3,2.051E3,3.913E3,8.75E2,1.057E3,2.36E2,6.54E2,2.556E3,8.28E2,2.12E3,9.16E3,1.69E3,5.66E2,8.48E2,2.8E2,1.274E3,7.77E2,3.003E3,9.1E2,8.07E2,1.749E3,2.76E2,5.52E2,1.696E3,4.24E2,5.97E3,3.19E3,6.06E2,1.084E3,2.6E2,5.88E2],"tree_param":{"num_deleted":"0","num_feature":"5","num_nodes":"45","size_leaf_vector":"1"}},{"base_weights":[4.339519E2,3.4472256E2,4.7854498E2,3.3643225E2,4.0240533E2,4.9094638E2,3.915563E2,3.44811E2,3.0589246E2,4.1231573E2,2.617309E0,4.4500046E2,5.0344022E2,4.1959866E2,3.6316714E2,3.1498007E2,3.5952057E2,2.2300906E0,2.1039124E0,2.6602519E0,3.0049868E0,4.32566E2,4.6946414E2,5.142041E2,4.5479626E2,4.2728076E2,2.6861687E0,3.725848E2,2.3339446E0,2.1381307E0,2.298406E0,2.559977E0,2.3489885E0,2.7730057E0,3.0847445E0,3.3457363E0,3.030974E0,3.3661077E0,3.6587644E0,3.2450185E0,2.9746842E0,2.740612E0,3.0732176E0,2.407784E0,2.7283483E0],"categories":[],"categories_nodes":[],"categories_segments":[],"categories_sizes":[],"default_left":[0,0,0,0,0,0,0,0,0,0,0,0,0,0,0,0,0,0,0,0,0,0,0,0,0,0,0,0,0,0,0,0,0,0,0,0,0,0,