{"learner":{"attributes":{"best_iteration":"996","best_score":"11.276744291807141","scikit_learn":"{\"_estimator_type\": \"regressor\"}"},"feature_names":["dayofyear","hour","dayofweek","quarter","month"],"feature_types":["int","int","int","int","int"],"gradient_booster":{"model":{"gbtree_model_param":{"num_parallel_tree":"1","num_trees":"1000"},"iteration_indptr":[0,1,2,3,4,5,6,7,8,9,10,11,12,13,14,15,16,17,18,19,20,21,22,23,24,25,26,27,28,29,30,31,32,33,34,35,36,37,38,39,40,41,42,43,44,45,46,47,48,49,50,51,52,53,54,55,56,57,58,59,60,61,62,63,64,65,66,67,68,69,70,71,72,73,74,75,76,77,78,79,80,81,82,83,84,85,86,87,88,89,90,91,92,93,94,95,96,97,98,99,100,101,102,103,104,105,106,107,108,109,110,111,112,113,114,115,116,117,118,119,120,121,122,123,124,125,126,127,128,129,130,131,132,133,134,135,136,137,138,139,140,141,142,143,144,145,146,147,148,149,150,151,152,153,154,155,156,157,158,159,160,161,162,163,164,165,166,167,168,169,170,171,172,173,174,175,176,177,178,179,180,181,182,183,184,185,186,187,188,189,190,191,192,193,194,195,196,197,198,199,200,201,202,203,204,205,206,207,208,209,210,211,212,213,214,215,216,217,218,219,220,221,222,223,224,225,226,227,228,229,230,231,232,233,234,235,236,237,238,239,240,241,242,243,244,245,246,247,248,249,250,251,252,253,254,255,256,257,258,259,260,261,262,263,264,265,266,267,268,269,270,271,272,273,274,275,276,277,278,279,280,281,282,283,284,285,286,287,288,289,290,291,292,293,294,295,296,297,298,299,300,301,302,303,304,305,306,307,308,309,310,311,312,313,314,315,316,317,318,319,320,321,322,323,324,325,326,327,328,329,330,331,332,333,334,335,336,337,338,339,340,341,342,343,344,345,346,347,348,349,350,351,352,353,354,355,356,357,358,359,360,361,362,363,364,365,366,367,368,369,370,371,372,373,374,375,376,377,378,379,380,381,382,383,384,385,386,387,388,389,390,391,392,393,394,395,396,397,398,399,400,401,402,403,404,405,406,407,408,409,410,411,412,413,414,415,416,417,418,419,420,421,422,423,424,425,426,427,428,429,430,431,432,433,434,435,436,437,438,439,440,441,442,443,444,445,446,447,448,449,450,451,452,453,454,455,456,457,458,459,460,461,462,463,464,465,466,467,468,469,470,471,472,473,474,475,476,477,478,479,480,481,482,483,484,485,486,487,488,489,490,491,492,493,494,495,496,497,498,499,500,501,502,503,504,505,506,507,508,509,510,511,512,513,514,515,516,517,518,519,520,521,522,523,524,525,526,527,528,529,530,531,532,533,534,535,536,537,538,539,540,541,542,543,544,545,546,547,548,549,550,551,552,553,554,555,556,557,558,559,560,561,562,563,564,565,566,567,568,569,570,571,572,573,574,575,576,577,578,579,580,581,582,583,584,585,586,587,588,589,590,591,592,593,594,595,596,597,598,599,600,601,602,603,604,605,606,607,608,609,610,611,612,613,614,615,616,617,618,619,620,621,622,623,624,625,626,627,628,629,630,631,632,633,634,635,636,637,638,639,640,641,642,643,644,645,646,647,648,649,650,651,652,653,654,655,656,657,658,659,660,661,662,663,664,665,666,667,668,669,670,671,672,673,674,675,676,677,678,679,680,681,682,683,684,685,686,687,688,689,690,691,692,693,694,695,696,697,698,699,700,701,702,703,704,705,706,707,708,709,710,711,712,713,714,715,716,717,718,719,720,721,722,723,724,725,726,727,728,729,730,731,732,733,734,735,736,737,738,739,740,741,742,743,744,745,746,747,748,749,750,751,752,753,754,755,756,757,758,759,760,761,762,763,764,765,766,767,768,769,770,771,772,773,774,775,776,777,778,779,780,781,782,783,784,785,786,787,788,789,790,791,792,793,794,795,796,797,798,799,800,801,802,803,804,805,806,807,808,809,810,811,812,813,814,815,816,817,818,819,820,821,822,823,824,825,826,827,828,829,830,831,832,833,834,835,836,837,838,839,840,841,842,843,844,845,846,847,848,849,850,851,852,853,854,855,856,857,858,859,860,861,862,863,864,865,866,867,868,869,870,871,872,873,874,875,876,877,878,879,880,881,882,883,884,885,886,887,888,889,890,891,892,893,894,895,896,897,898,899,900,901,902,903,904,905,906,907,908,909,910,911,912,913,914,915,916,917,918,919,920,921,922,923,924,925,926,927,928,929,930,931,932,933,934,935,936,937,938,939,940,941,942,943,944,945,946,947,948,949,950,951,952,953,954,955,956,957,958,959,960,961,962,963,964,965,966,967,968,969,970,971,972,973,974,975,976,977,978,979,980,981,982,983,984,985,986,987,988,989,990,991,992,993,994,995,996,997,998,999,1000],"tree_info":[0,0,0,0,0,0,0,0,0,0,0,0,0,0,0,0,0,0,0,0,0,0,0,0,0,0,0,0,0,0,0,0,0,0,0,0,0,0,0,0,0,0,0,0,0,0,0,0,0,0,0,0,0,0,0,0,0,0,0,0,0,0,0,0,0,0,0,0,0,0,0,0,0,0,0,0,0,0,0,0,0,0,0,0,0,0,0,0,0,0,0,0,0,0,0,0,0,0,0,0,0,0,0,0,0,0,0,0,0,0,0,0,0,0,0,0,0,0,0,0,0,0,0,0,0,0,0,0,0,0,0,0,0,0,0,0,0,0,0,0,0,0,0,0,0,0,0,0,0,0,0,0,0,0,0,0,0,0,0,0,0,0,0,0,0,0,0,0,0,0,0,0,0,0,0,0,0,0,0,0,0,0,0,0,0,0,0,0,0,0,0,0,0,0,0,0,0,0,0,0,0,0,0,0,0,0,0,0,0,0,0,0,0,0,0,0,0,0,0,0,0,0,0,0,0,0,0,0,0,0,0,0,0,0,0,0,0,0,0,0,0,0,0,0,0,0,0,0,0,0,0,0,0,0,0,0,0,0,0,0,0,0,0,0,0,0,0,0,0,0,0,0,0,0,0,0,0,0,0,0,0,0,0,0,0,0,0,0,0,0,0,0,0,0,0,0,0,0,0,0,0,0,0,0,0,0,0,0,0,0,0,0,0,0,0,0,0,0,0,0,0,0,0,0,0,0,0,0,0,0,0,0,0,0,0,0,0,0,0,0,0,0,0,0,0,0,0,0,0,0,0,0,0,0,0,0,0,0,0,0,0,0,0,0,0,0,0,0,0,0,0,0,0,0,0,0,0,0,0,0,0,0,0,0,0,0,0,0,0,0,0,0,0,0,0,0,0,0,0,0,0,0,0,0,0,0,0,0,0,0,0,0,0,0,0,0,0,0,0,0,0,0,0,0,0,0,0,0,0,0,0,0,0,0,0,0,0,0,0,0,0,0,0,0,0,0,0,0,0,0,0,0,0,0,0,0,0,0,0,0,0,0,0,0,0,0,0,0,0,0,0,0,0,0,0,0,0,0,0,0,0,0,0,0,0,0,0,0,0,0,0,0,0,0,0,0,0,0,0,0,0,0,0,0,0,0,0,0,0,0,0,0,0,0,0,0,0,0,0,0,0,0,0,0,0,0,0,0,0,0,0,0,0,0,0,0,0,0,0,0,0,0,0,0,0,0,0,0,0,0,0,0,0,0,0,0,0,0,0,0,0,0,0,0,0,0,0,0,0,0,0,0,0,0,0,0,0,0,0,0,0,0,0,0,0,0,0,0,0,0,0,0,0,0,0,0,0,0,0,0,0,0,0,0,0,0,0,0,0,0,0,0,0,0,0,0,0,0,0,0,0,0,0,0,0,0,0,0,0,0,0,0,0,0,0,0,0,0,0,0,0,0,0,0,0,0,0,0,0,0,0,0,0,0,0,0,0,0,0,0,0,0,0,0,0,0,0,0,0,0,0,0,0,0,0,0,0,0,0,0,0,0,0,0,0,0,0,0,0,0,0,0,0,0,0,0,0,0,0,0,0,0,0,0,0,0,0,0,0,0,0,0,0,0,0,0,0,0,0,0,0,0,0,0,0,0,0,0,0,0,0,0,0,0,0,0,0,0,0,0,0,0,0,0,0,0,0,0,0,0,0,0,0,0,0,0,0,0,0,0,0,0,0,0,0,0,0,0,0,0,0,0,0,0,0,0,0,0,0,0,0,0,0,0,0,0,0,0,0,0,0,0,0,0,0,0,0,0,0,0,0,0,0,0,0,0,0,0,0,0,0,0,0,0,0,0,0,0,0,0,0,0,0,0,0,0,0,0,0,0,0,0,0,0,0,0,0,0,0,0,0,0,0,0,0,0,0,0,0,0,0,0,0,0,0,0,0,0,0,0,0,0,0,0,0,0,0,0,0,0,0,0,0,0,0,0,0,0,0,0,0,0,0,0,0,0,0,0,0,0,0,0,0,0,0,0,0,0,0,0,0,0,0,0,0,0,0,0,0,0,0,0,0,0,0,0,0,0,0,0,0,0,0,0,0,0,0,0,0,0,0,0,0,0,0,0,0,0,0,0,0,0,0,0,0,0,0,0,0,0,0,0,0,0,0,0,0,0,0,0,0,0,0,0,0,0,0,0,0,0,0,0,0,0,0,0,0,0,0,0,0,0,0,0,0,0,0,0,0,0,0,0,0,0,0,0,0,0,0,0],"trees":[{"base_weights":[9.222007E1,2.736466E1,1.4709212E2,7.985041E0,5.101129E1,7.68795E1,2.1270947E2,2.135527E0,3.4284924E1,9.3538704E1,4.1542366E1,1.0321274E2,1.7609564E1,2.2508157E2,1.4452838E2,9.8615134E-1,1.1297531E1,2.9419403E1,5.5658226E1,1.1438057E2,3.4565735E1,2.852366E1,8.703499E1,7.101509E1,1.12391045E2,4.0228775E1,1.0049847E1,1.634848E2,2.4814037E2,1.6070407E2,7.609197E1,1.7554624E-6,4.429133E-2,2.0801875E-1,3.720436E-2,1.0336586E-1,1.9053803E-1,2.1704939E-1,3.371129E-1,3.6043566E-1,6.32222E-1,2.4381392E-1,6.0986526E-2,1.941967E-1,5.62113E-2,4.8336983E-1,2.9798567E-1,3.003094E-1,4.0919113E-1,6.238474E-1,4.067947E-1,1.4868556E-1,3.730442E-1,1.0373644E-1,2.3435052E-2,6.532389E-1,8.988864E-1,1.3122334E0,9.387584E-1,5.2758324E-1,9.066797E-1,4.833063E-1,1.683229E-1],"categories":[],"categories_nodes":[],"categories_segments":[],"categories_sizes":[],"default_left":[0,0,0,0,0,0,0,0,0,0,0,0,0,0,0,0,0,0,0,0,0,0,0,0,0,0,0,0,0,0,0,0,0,0,0,0,0,0,0,0,0,0,0,0,0,0,0,0,0,0,0,0,0,0,0,0,0,0,0,0,0,0,0],"id":0,"left_children":[1,3,5,7,9,11,13,15,17,19,21,23,25,27,29,31,33,35,37,39,41,43,45,47,49,51,53,55,57,59,61,-1,-1,-1,-1,-1,-1,-1,-1,-1,-1,-1,-1,-1,-1,-1,-1,-1,-1,-1,-1,-1,-1,-1,-1,-1,-1,-1,-1,-1,-1,-1,-1],"loss_changes":[9.634202E7,5.686175E6,6.754774E7,1.0492798E6,2.246741E6,1.1057792E7,6.361504E6,5.8760047E4,1.27417E5,1.246048E6,2.705899E6,1.441836E6,3.725355E5,9.069568E6,1.279648E6,3.8491246E4,7.2390266E4,7.618906E4,3.0070688E4,3.74061E5,8.419528E4,6.336675E5,2.63208E5,1.244205E5,1.455688E6,1.9472581E5,9.375783E4,9.12752E5,3.98096E6,1.054582E6,1.9310375E5,0E0,0E0,0E0,0E0,0E0,0E0,0E0,0E0,0E0,0E0,0E0,0E0,0E0,0E0,0E0,0E0,0E0,0E0,0E0,0E0,0E0,0E0,0E0,0E0,0E0,0E0,0E0,0E0,0E0,0E0,0E0,0E0],"parents":[2147483647,0,0,1,1,2,2,3,3,4,4,5,5,6,6,7,7,8,8,9,9,10,10,11,11,12,12,13,13,14,14,15,15,16,16,17,17,18,18,19,19,20,20,21,21,22,22,23,23,24,24,25,25,26,26,27,27,28,28,29,29,30,30],"right_children":[2,4,6,8,10,12,14,16,18,20,22,24,26,28,30,32,34,36,38,40,42,44,46,48,50,52,54,56,58,60,62,-1,-1,-1,-1,-1,-1,-1,-1,-1,-1,-1,-1,-1,-1,-1,-1,-1,-1,-1,-1,-1,-1,-1,-1,-1,-1,-1,-1,-1,-1,-1,-1],"split_conditions":[1.1E1,1.97E2,1.72E2,9E0,2E0,2E1,2.2E1,1.74E2,1.59E2,3.22E2,9E0,1.3E1,2.1E1,1.4E1,3.29E2,8E0,1E0,1E1,1E1,2.25E2,3.49E2,3.03E2,3.22E2,1.2E1,1.8E1,1.3E2,2.2E1,1.2E1,3.29E2,2.15E2,3.54E2,1.7554624E-6,4.429133E-2,2.0801875E-1,3.720436E-2,1.0336586E-1,1.9053803E-1,2.1704939E-1,3.371129E-1,3.6043566E-1,6.32222E-1,2.4381392E-1,6.0986526E-2,1.941967E-1,5.62113E-2,4.8336983E-1,2.9798567E-1,3.003094E-1,4.0919113E-1,6.238474E-1,4.067947E-1,1.4868556E-1,3.730442E-1,1.0373644E-1,2.3435052E-2,6.532389E-1,8.988864E-1,1.3122334E0,9.387584E-1,5.2758324E-1,9.066797E-1,4.833063E-1,1.683229E-1],"split_indices":[1,0,0,1,1,1,1,0,0,0,1,1,1,1,0,1,1,1,1,0,0,0,0,1,1,0,1,1,0,0,0,0,0,0,0,0,0,0,0,0,0,0,0,0,0,0,0,0,0,0,0,0,0,0,0,0,0,0,0,0,0,0,0],"split_type":[0,0,0,0,0,0,0,0,0,0,0,0,0,0,0,0,0,0,0,0,0,0,0,0,0,0,0,0,0,0,0,0,0,0,0,0,0,0,0,0,0,0,0,0,0,0,0,0,0,0,0,0,0,0,0,0,0,0,0,0,0,0,0],"sum_hessian":[2.7072E4,1.2408E4,1.4664E4,6.82E3,5.588E3,7.085E3,7.579E3,5.58E3,1.24E3,1.016E3,4.572E3,4.905E3,2.18E3,6.413E3,1.166E3,4.959E3,6.21E2,1.012E3,2.28E2,7.5E2,2.66E2,3.556E3,1.016E3,1.09E3,3.815E3,5.45E2,1.635E3,1.749E3,4.664E3,9.42E2,2.24E2,4.408E3,5.51E2,6.9E1,5.52E2,5.06E2,5.06E2,1.14E2,1.14E2,1.68E2,5.82E2,1.62E2,1.04E2,2.226E3,1.33E3,7.5E2,2.66E2,5.45E2,5.45E2,2.725E3,1.09E3,4.19E2,1.26E2,5.45E2,1.09E3,5.83E2,1.166E3,3.768E3,8.96E2,2.58E2,6.84E2,1.5E2,7.4E1],"tree_param":{"num_deleted":"0","num_feature":"5","num_nodes":"63","size_leaf_vector":"1"}},{"base_weights":[9.175941E1,2.7228117E1,1.4635722E2,7.945283E0,5.075665E1,7.6495445E1,2.1164671E2,2.124901E0,3.411418E1,9.307229E1,4.133488E1,1.0269703E2,1.7521814E1,2.2395676E2,1.4380753E2,9.8122954E-1,1.1241438E1,2.9272598E1,5.5382355E1,1.1380999E2,3.4394047E1,2.8381111E1,8.660058E1,7.066066E1,1.1182936E2,4.0028587E1,9.999675E0,1.6266826E2,2.4690015E2,1.5990207E2,7.571441E1,1.7468329E-6,4.407027E-2,2.0699352E-1,3.701867E-2,1.0285005E-1,1.8958722E-1,2.1597359E-1,3.3544204E-1,3.5864413E-1,6.290663E-1,2.4260232E-1,6.06845E-2,1.9322614E-1,5.5930454E-2,4.8095617E-1,2.9650134E-1,2.988106E-1,4.0714893E-1,6.207293E-1,4.047626E-1,1.479439E-1,3.7119365E-1,1.03218704E-1,2.3317985E-2,6.4997834E-1,8.943958E-1,1.3092053E0,9.482086E-1,5.249556E-1,9.021529E-1,4.8090574E-1,1.6749252E-1],"categories":[],"categories_nodes":[],"categories_segments":[],"categories_sizes":[],"default_left":[0,0,0,0,0,0,0,0,0,0,0,0,0,0,0,0,0,0,0,0,0,0,0,0,0,0,0,0,0,0,0,0,0,0,0,0,0,0,0,0,0,0,0,0,0,0,0,0,0,0,0,0,0,0,0,0,0,0,0,0,0,0,0],"id":1,"left_children":[1,3,5,7,9,11,13,15,17,19,21,23,25,27,29,31,33,35,37,39,41,43,45,47,49,51,53,55,57,59,61,-1,-1,-1,-1,-1,-1,-1,-1,-1,-1,-1,-1,-1,-1,-1,-1,-1,-1,-1,-1,-1,-1,-1,-1,-1,-1,-1,-1,-1,-1,-1,-1],"loss_changes":[9.538149E7,5.62952E6,6.687437E7,1.0388545E6,2.224423E6,1.0947504E7,6.297856E6,5.817828E4,1.26166625E5,1.233625E6,2.6789725E6,1.427428E6,3.6884106E5,8.979008E6,1.26684E6,3.8107992E4,7.168044E4,7.543056E4,2.9773375E4,3.70313E5,8.335959E4,6.27349E5,2.60575E5,1.231815E5,1.441156E6,1.9280581E5,9.282453E4,9.03644E5,3.941216E6,1.044044E6,1.91183E5,0E0,0E0,0E0,0E0,0E0,0E0,0E0,0E0,0E0,0E0,0E0,0E0,0E0,0E0,0E0,0E0,0E0,0E0,0E0,0E0,0E0,0E0,0E0,0E0,0E0,0E0,0E0,0E0,0E0,0E0,0E0,0E0],"parents":[2147483647,0,0,1,1,2,2,3,3,4,4,5,5,6,6,7,7,8,8,9,9,10,10,11,11,12,12,13,13,14,14,15,15,16,16,17,17,18,18,19,19,20,20,21,21,22,22,23,23,24,24,25,25,26,26,27,27,28,28,29,29,30,30],"right_children":[2,4,6,8,10,12,14,16,18,20,22,24,26,28,30,32,34,36,38,40,42,44,46,48,50,52,54,56,58,60,62,-1,-1,-1,-1,-1,-1,-1,-1,-1,-1,-1,-1,-1,-1,-1,-1,-1,-1,-1,-1,-1,-1,-1,-1,-1,-1,-1,-1,-1,-1,-1,-1],"split_conditions":[1.1E1,1.97E2,1.72E2,9E0,2E0,2E1,2.2E1,1.74E2,1.59E2,3.22E2,9E0,1.3E1,2.1E1,1.4E1,3.29E2,8E0,1E0,1E1,1E1,2.25E2,3.49E2,3.03E2,3.22E2,1.2E1,1.8E1,1.3E2,2.2E1,1.2E1,3.26E2,2.15E2,3.54E2,1.7468329E-6,4.407027E-2,2.0699352E-1,3.701867E-2,1.0285005E-1,1.8958722E-1,2.1597359E-1,3.3544204E-1,3.5864413E-1,6.290663E-1,2.4260232E-1,6.06845E-2,1.9322614E-1,5.5930454E-2,4.8095617E-1,2.9650134E-1,2.988106E-1,4.0714893E-1,6.207293E-1,4.047626E-1,1.479439E-1,3.7119365E-1,1.03218704E-1,2.3317985E-2,6.4997834E-1,8.943958E-1,1.3092053E0,9.482086E-1,5.249556E-1,9.021529E-1,4.8090574E-1,1.6749252E-1],"split_indices":[1,0,0,1,1,1,1,0,0,0,1,1,1,1,0,1,1,1,1,0,0,0,0,1,1,0,1,1,0,0,0,0,0,0,0,0,0,0,0,0,0,0,0,0,0,0,0,0,0,0,0,0,0,0,0,0,0,0,0,0,0,0,0],"split_type":[0,0,0,0,0,0,0,0,0,0,0,0,0,0,0,0,0,0,0,0,0,0,0,0,0,0,0,0,0,0,0,0,0,0,0,0,0,0,0,0,0,0,0,0,0,0,0,0,0,0,0,0,0,0,0,0,0,0,0,0,0,0,0],"sum_hessian":[2.7072E4,1.2408E4,1.4664E4,6.82E3,5.588E3,7.085E3,7.579E3,5.58E3,1.24E3,1.016E3,4.572E3,4.905E3,2.18E3,6.413E3,1.166E3,4.959E3,6.21E2,1.012E3,2.28E2,7.5E2,2.66E2,3.556E3,1.016E3,1.09E3,3.815E3,5.45E2,1.635E3,1.749E3,4.664E3,9.42E2,2.24E2,4.408E3,5.51E2,6.9E1,5.52E2,5.06E2,5.06E2,1.14E2,1.14E2,1.68E2,5.82E2,1.62E2,1.04E2,2.226E3,1.33E3,7.5E2,2.66E2,5.45E2,5.45E2,2.725E3,1.09E3,4.19E2,1.26E2,5.45E2,1.09E3,5.83E2,1.166E3,3.696E3,9.68E2,2.58E2,6.84E2,1.5E2,7.4E1],"tree_param":{"num_deleted":"0","num_feature":"5","num_nodes":"63","size_leaf_vector":"1"}},{"base_weights":[9.130104E1,2.7092253E1,1.45626E2,7.905722E0,5.050328E1,7.720998E1,2.11639E2,2.1143281E0,3.394429E1,9.260819E1,4.112843E1,1.0320081E2,1.8710423E1,2.2385863E2,1.4429477E2,9.763323E-1,1.1185623E1,2.9126522E1,5.5107853E1,1.13242256E2,3.4223213E1,2.8239277E1,8.616834E1,7.0814255E1,1.1243347E2,4.1469357E1,1.1103736E1,1.6259608E2,2.4679167E2,1.6091187E2,7.5338715E1,1.7382114E-6,4.385032E-2,2.0597333E-1,3.6833912E-2,1.0233682E-1,1.8864116E-1,2.149031E-1,3.337794E-1,3.5686153E-1,6.259264E-1,2.4139674E-1,6.0383968E-2,1.9226046E-1,5.565101E-2,4.785546E-1,2.9502437E-1,2.9971468E-1,4.0778992E-1,6.222014E-1,4.1165656E-1,1.556492E-1,4.2486152E-1,4.4358704E-2,2.9798445E-1,6.49891E-1,8.9388853E-1,1.3112679E0,9.4347245E-1,5.3663075E-1,8.976487E-1,4.7851714E-1,1.6666622E-1],"categories":[],"categories_nodes":[],"categories_segments":[],"categories_sizes":[],"default_left":[0,0,0,0,0,0,0,0,0,0,0,0,0,0,0,0,0,0,0,0,0,0,0,0,0,0,0,0,0,0,0,0,0,0,0,0,0,0,0,0,0,0,0,0,0,0,0,0,0,0,0,0,0,0,0,0,0,0,0,0,0,0,0],"id":2,"left_children":[1,3,5,7,9,11,13,15,17,19,21,23,25,27,29,31,33,35,37,39,41,43,45,47,49,51,53,55,57,59,61,-1,-1,-1,-1,-1,-1,-1,-1,-1,-1,-1,-1,-1,-1,-1,-1,-1,-1,-1,-1,-1,-1,-1,-1,-1,-1,-1,-1,-1,-1,-1,-1],"loss_changes":[9.443048E7,5.573432E6,6.621587E7,1.0285325E6,2.202322E6,1.0949888E7,6.109152E6,5.760228E4,1.24928625E5,1.221324E6,2.652313E6,1.48322E6,3.8334662E5,8.832032E6,1.304458E6,3.7728547E4,7.097756E4,7.467975E4,2.9478875E4,3.66605E5,8.253222E4,6.21093E5,2.57969E5,1.24641E5,1.391744E6,2.4699344E5,1.794685E5,8.8618E5,4.076384E6,9.0356E5,1.892815E5,0E0,0E0,0E0,0E0,0E0,0E0,0E0,0E0,0E0,0E0,0E0,0E0,0E0,0E0,0E0,0E0,0E0,0E0,0E0,0E0,0E0,0E0,0E0,0E0,0E0,0E0,0E0,0E0,0E0,0E0,0E0,0E0],"parents":[2147483647,0,0,1,1,2,2,3,3,4,4,5,5,6,6,7,7,8,8,9,9,10,10,11,11,12,12,13,13,14,14,15,15,16,16,17,17,18,18,19,19,20,20,21,21,22,22,23,23,24,24,25,25,26,26,27,27,28,28,29,29,30,30],"right_children":[2,4,6,8,10,12,14,16,18,20,22,24,26,28,30,32,34,36,38,40,42,44,46,48,50,52,54,56,58,60,62,-1,-1,-1,-1,-1,-1,-1,-1,-1,-1,-1,-1,-1,-1,-1,-1,-1,-1,-1,-1,-1,-1,-1,-1,-1,-1,-1,-1,-1,-1,-1,-1],"split_conditions":[1.1E1,1.97E2,1.75E2,9E0,2E0,2E1,2.2E1,1.74E2,1.59E2,3.22E2,9E0,1.3E1,2.1E1,1.4E1,3.29E2,8E0,1E0,1E1,1E1,2.25E2,3.49E2,3.03E2,3.22E2,1.2E1,1.8E1,1.4E2,1.67E2,1.2E1,3.26E2,2.15E2,3.54E2,1.7382114E-6,4.385032E-2,2.0597333E-1,3.6833912E-2,1.0233682E-1,1.8864116E-1,2.149031E-1,3.337794E-1,3.5686153E-1,6.259264E-1,2.4139674E-1,6.0383968E-2,1.9226046E-1,5.565101E-2,4.785546E-1,2.9502437E-1,2.9971468E-1,4.0778992E-1,6.222014E-1,4.1165656E-1,1.556492E-1,4.2486152E-1,4.4358704E-2,2.9798445E-1,6.49891E-1,8.9388853E-1,1.3112679E0,9.4347245E-1,5.3663075E-1,8.976487E-1,4.7851714E-1,1.6666622E-1],"split_indices":[1,0,0,1,1,1,1,0,0,0,1,1,1,1,0,1,1,1,1,0,0,0,0,1,1,0,0,1,0,0,0,0,0,0,0,0,0,0,0,0,0,0,0,0,0,0,0,0,0,0,0,0,0,0,0,0,0,0,0,0,0,0,0],"split_type":[0,0,0,0,0,0,0,0,0,0,0,0,0,0,0,0,0,0,0,0,0,0,0,0,0,0,0,0,0,0,0,0,0,0,0,0,0,0,0,0,0,0,0,0,0,0,0,0,0,0,0,0,0,0,0,0,0,0,0,0,0,0,0],"sum_hessian":[2.7072E4,1.2408E4,1.4664E4,6.82E3,5.588E3,7.202E3,7.462E3,5.58E3,1.24E3,1.016E3,4.572E3,4.986E3,2.216E3,6.314E3,1.148E3,4.959E3,6.21E2,1.012E3,2.28E2,7.5E2,2.66E2,3.556E3,1.016E3,1.108E3,3.878E3,5.54E2,1.662E3,1.722E3,4.592E3,9.24E2,2.24E2,4.408E3,5.51E2,6.9E1,5.52E2,5.06E2,5.06E2,1.14E2,1.14E2,1.68E2,5.82E2,1.62E2,1.04E2,2.226E3,1.33E3,7.5E2,2.66E2,5.54E2,5.54E2,2.77E3,1.108E3,4.49E2,1.05E2,1.59E3,7.2E1,5.74E2,1.148E3,3.624E3,9.68E2,2.4E2,6.84E2,1.5E2,7.4E1],"tree_param":{"num_deleted":"0","num_feature":"5","num_nodes":"63","size_leaf_vector":"1"}},{"base_weights":[9.084498E1,2.695707E1,1.4489845E2,7.8663588E0,5.025118E1,7.572882E1,2.0954108E2,2.103808E0,3.3775246E1,9.2146416E1,4.092301E1,1.0166824E2,1.734527E1,2.217286E2,1.423771E2,9.714595E-1,1.1130085E1,2.8981178E1,5.483471E1,1.1267735E2,3.4053226E1,2.809815E1,8.573826E1,6.995458E1,1.1070859E2,3.9626698E1,9.898446E0,1.6104941E2,2.4444391E2,1.583107E2,7.496489E1,1.7295534E-6,4.3631468E-2,2.0495817E-1,3.6650077E-2,1.0182614E-1,1.8769981E-1,2.1383792E-1,3.32125E-1,3.5508776E-1,6.2280214E-1,2.4019718E-1,6.0084924E-2,1.9129959E-1,5.537297E-2,4.76165E-1,2.9355478E-1,2.9582348E-1,4.030817E-1,6.14517E-1,4.0068424E-1,1.4642957E-1,3.675627E-1,1.0244734E-1,2.294504E-2,6.435171E-1,8.8549125E-1,1.2927216E0,9.2462194E-1,5.19751E-1,8.93167E-1,4.7614044E-1,1.65844E-1],"categories":[],"categories_nodes":[],"categories_segments":[],"categories_sizes":[],"default_left":[0,0,0,0,0,0,0,0,0,0,0,0,0,0,0,0,0,0,0,0,0,0,0,0,0,0,0,0,0,0,0,0,0,0,0,0,0,0,0,0,0,0,0,0,0,0,0,0,0,0,0,0,0,0,0,0,0,0,0,0,0,0,0],"id":3,"left_children":[1,3,5,7,9,11,13,15,17,19,21,23,25,27,29,31,33,35,37,39,41,43,45,47,49,51,53,55,57,59,61,-1,-1,-1,-1,-1,-1,-1,-1,-1,-1,-1,-1,-1,-1,-1,-1,-1,-1,-1,-1,-1,-1,-1,-1,-1,-1,-1,-1,-1,-1,-1,-1],"loss_changes":[9.348898E7,5.517901E6,6.555584E7,1.0183129E6,2.180442E6,1.0729528E7,6.173152E6,5.7031984E4,1.23702875E5,1.209147E6,2.62592E6,1.398816E6,3.6149212E5,8.801376E6,1.241626E6,3.735289E4,7.028159E4,7.393625E4,2.9187438E4,3.62933E5,8.171303E4,6.1489975E5,2.553885E5,1.207385E5,1.41282E6,1.8916894E5,9.1902125E4,8.8566E5,3.867264E6,1.023214E6,1.87399E5,0E0,0E0,0E0,0E0,0E0,0E0,0E0,0E0,0E0,0E0,0E0,0E0,0E0,0E0,0E0,0E0,0E0,0E0,0E0,0E0,0E0,0E0,0E0,0E0,0E0,0E0,0E0,0E0,0E0,0E0,0E0,0E0],"parents":[2147483647,0,0,1,1,2,2,3,3,4,4,5,5,6,6,7,7,8,8,9,9,10,10,11,11,12,12,13,13,14,14,15,15,16,16,17,17,18,18,19,19,20,20,21,21,22,22,23,23,24,24,25,25,26,26,27,27,28,28,29,29,30,30],"right_children":[2,4,6,8,10,12,14,16,18,20,22,24,26,28,30,32,34,36,38,40,42,44,46,48,50,52,54,56,58,60,62,-1,-1,-1,-1,-1,-1,-1,-1,-1,-1,-1,-1,-1,-1,-1,-1,-1,-1,-1,-1,-1,-1,-1,-1,-1,-1,-1,-1,-1,-1,-1,-1],"split_conditions":[1.1E1,1.97E2,1.72E2,9E0,2E0,2E1,2.2E1,1.74E2,1.59E2,3.22E2,9E0,1.3E1,2.1E1,1.4E1,3.29E2,8E0,1E0,1E1,1E1,2.25E2,3.49E2,3.03E2,3.22E2,1.2E1,1.8E1,1.3E2,2.2E1,1.2E1,3.29E2,2.15E2,3.54E2,1.7295534E-6,4.3631468E-2,2.0495817E-1,3.6650077E-2,1.0182614E-1,1.8769981E-1,2.1383792E-1,3.32125E-1,3.5508776E-1,6.2280214E-1,2.4019718E-1,6.0084924E-2,1.9129959E-1,5.537297E-2,4.76165E-1,2.9355478E-1,2.9582348E-1,4.030817E-1,6.14517E-1,4.0068424E-1,1.4642957E-1,3.675627E-1,1.0244734E-1,2.294504E-2,6.435171E-1,8.8549125E-1,1.2927216E0,9.2462194E-1,5.19751E-1,8.93167E-1,4.7614044E-1,1.65844E-1],"split_indices":[1,0,0,1,1,1,1,0,0,0,1,1,1,1,0,1,1,1,1,0,0,0,0,1,1,0,1,1,0,0,0,0,0,0,0,0,0,0,0,0,0,0,0,0,0,0,0,0,0,0,0,0,0,0,0,0,0,0,0,0,0,0,0],"split_type":[0,0,0,0,0,0,0,0,0,0,0,0,0,0,0,0,0,0,0,0,0,0,0,0,0,0,0,0,0,0,0,0,0,0,0,0,0,0,0,0,0,0,0,0,0,0,0,0,0,0,0,0,0,0,0,0,0,0,0,0,0,0,0],"sum_hessian":[2.7072E4,1.2408E4,1.4664E4,6.82E3,5.588E3,7.085E3,7.579E3,5.58E3,1.24E3,1.016E3,4.572E3,4.905E3,2.18E3,6.413E3,1.166E3,4.959E3,6.21E2,1.012E3,2.28E2,7.5E2,2.66E2,3.556E3,1.016E3,1.09E3,3.815E3,5.45E2,1.635E3,1.749E3,4.664E3,9.42E2,2.24E2,4.408E3,5.51E2,6.9E1,5.52E2,5.06E2,5.06E2,1.14E2,1.14E2,1.68E2,5.82E2,1.62E2,1.04E2,2.226E3,1.33E3,7.5E2,2.66E2,5.45E2,5.45E2,2.725E3,1.09E3,4.19E2,1.26E2,5.45E2,1.09E3,5.83E2,1.166E3,3.768E3,8.96E2,2.58E2,6.84E2,1.5E2,7.4E1],"tree_param":{"num_deleted":"0","num_feature":"5","num_nodes":"63","size_leaf_vector":"1"}},{"base_weights":[9.039118E1,2.682256E1,1.4417451E2,7.8271914E0,5.000033E1,7.643489E1,2.0953488E2,2.0933402E0,3.3607044E1,9.168694E1,4.0718616E1,1.0216706E2,1.851754E1,2.2163268E2,1.42862E2,9.66611E-1,1.1074823E1,2.8836557E1,5.4562916E1,1.1211527E2,3.3884087E1,2.7957727E1,8.5310326E1,7.010495E1,1.1130723E2,4.1048096E1,1.0987188E1,1.6097964E2,2.4433755E2,1.5931354E2,7.459292E1,1.7209314E-6,4.3413706E-2,2.0394804E-1,3.6467157E-2,1.0131802E-1,1.8676317E-1,2.1277803E-1,3.3047882E-1,3.5332283E-1,6.1969346E-1,2.3900355E-1,5.978736E-2,1.9034351E-1,5.509631E-2,4.7378734E-1,2.920925E-1,2.967142E-1,4.0370372E-1,6.1597157E-1,4.0752614E-1,1.5406844E-1,4.20544E-1,4.3889973E-2,2.9492486E-1,6.434353E-1,8.8499945E-1,1.2982515E0,9.340048E-1,5.3137076E-1,8.887077E-1,4.7377548E-1,1.6502582E-1],"categories":[],"categories_nodes":[],"categories_segments":[],"categories_sizes":[],"default_left":[0,0,0,0,0,0,0,0,0,0,0,0,0,0,0,0,0,0,0,0,0,0,0,0,0,0,0,0,0,0,0,0,0,0,0,0,0,0,0,0,0,0,0,0,0,0,0,0,0,0,0,0,0,0,0,0,0,0,0,0,0,0,0],"id":4,"left_children":[1,3,5,7,9,11,13,15,17,19,21,23,25,27,29,31,33,35,37,39,41,43,45,47,49,51,53,55,57,59,61,-1,-1,-1,-1,-1,-1,-1,-1,-1,-1,-1,-1,-1,-1,-1,-1,-1,-1,-1,-1,-1,-1,-1,-1,-1,-1,-1,-1,-1,-1,-1,-1],"loss_changes":[9.25569E7,5.462923E6,6.491309E7,1.00819525E6,2.15878E6,1.073302E7,5.987936E6,5.6467332E4,1.22488875E5,1.19709E6,2.5997885E6,1.45366E6,3.75692E5,8.657152E6,1.278594E6,3.698096E4,6.9592445E4,7.320025E4,2.8898812E4,3.59298E5,8.090203E4,6.0876775E5,2.52834E5,1.22149E5,1.364128E6,2.4199725E5,1.7582069E5,8.68592E5,3.998144E6,8.85216E5,1.85535E5,0E0,0E0,0E0,0E0,0E0,0E0,0E0,0E0,0E0,0E0,0E0,0E0,0E0,0E0,0E0,0E0,0E0,0E0,0E0,0E0,0E0,0E0,0E0,0E0,0E0,0E0,0E0,0E0,0E0,0E0,0E0,0E0],"parents":[2147483647,0,0,1,1,2,2,3,3,4,4,5,5,6,6,7,7,8,8,9,9,10,10,11,11,12,12,13,13,14,14,15,15,16,16,17,17,18,18,19,19,20,20,21,21,22,22,23,23,24,24,25,25,26,26,27,27,28,28,29,29,30,30],"right_children":[2,4,6,8,10,12,14,16,18,20,22,24,26,28,30,32,34,36,38,40,42,44,46,48,50,52,54,56,58,60,62,-1,-1,-1,-1,-1,-1,-1,-1,-1,-1,-1,-1,-1,-1,-1,-1,-1,-1,-1,-1,-1,-1,-1,-1,-1,-1,-1,-1,-1,-1,-1,-1],"split_conditions":[1.1E1,1.97E2,1.75E2,9E0,2E0,2E1,2.2E1,1.74E2,1.59E2,3.22E2,9E0,1.3E1,2.1E1,1.4E1,3.29E2,8E0,1E0,1E1,1E1,2.25E2,3.49E2,3.03E2,3.22E2,1.2E1,1.8E1,1.4E2,1.67E2,1.2E1,3.26E2,2.15E2,3.54E2,1.7209314E-6,4.3413706E-2,2.0394804E-1,3.6467157E-2,1.0131802E-1,1.8676317E-1,2.1277803E-1,3.3047882E-1,3.5332283E-1,6.1969346E-1,2.3900355E-1,5.978736E-2,1.9034351E-1,5.509631E-2,4.7378734E-1,2.920925E-1,2.967142E-1,4.0370372E-1,6.1597157E-1,4.0752614E-1,1.5406844E-1,4.20544E-1,4.3889973E-2,2.9492486E-1,6.434353E-1,8.8499945E-1,1.2982515E0,9.340048E-1,5.3137076E-1,8.887077E-1,4.7377548E-1,1.6502582E-1],"split_indices":[1,0,0,1,1,1,1,0,0,0,1,1,1,1,0,1,1,1,1,0,0,0,0,1,1,0,0,1,0,0,0,0,0,0,0,0,0,0,0,0,0,0,0,0,0,0,0,0,0,0,0,0,0,0,0,0,0,0,0,0,0,0,0],"split_type":[0,0,0,0,0,0,0,0,0,0,0,0,0,0,0,0,0,0,0,0,0,0,0,0,0,0,0,0,0,0,0,0,0,0,0,0,0,0,0,0,0,0,0,0,0,0,0,0,0,0,0,0,0,0,0,0,0,0,0,0,0,0,0],"sum_hessian":[2.7072E4,1.2408E4,1.4664E4,6.82E3,5.588E3,7.202E3,7.462E3,5.58E3,1.24E3,1.016E3,4.572E3,4.986E3,2.216E3,6.314E3,1.148E3,4.959E3,6.21E2,1.012E3,2.28E2,7.5E2,2.66E2,3.556E3,1.016E3,1.108E3,3.878E3,5.54E2,1.662E3,1.722E3,4.592E3,9.24E2,2.24E2,4.408E3,5.51E2,6.9E1,5.52E2,5.06E2,5.06E2,1.14E2,1.14E2,1.68E2,5.82E2,1.62E2,1.04E2,2.226E3,1.33E3,7.5E2,2.66E2,5.54E2,5.54E2,2.77E3,1.108E3,4.49E2,1.05E2,1.59E3,7.2E1,5.74E2,1.148E3,3.624E3,9.68E2,2.4E2,6.84E2,1.5E2,7.4E1],"tree_param":{"num_deleted":"0","num_feature":"5","num_nodes":"63","size_leaf_vector":"1"}},{"base_weights":[8.993967E1,2.668872E1,1.4345422E2,7.9900384E0,5.000053E1,7.6053085E1,2.0848799E2,2.2606654E0,3.3749836E1,9.154802E1,4.074954E1,1.0165657E2,1.8425365E1,2.2052512E2,1.4214948E2,9.617867E-1,1.1787556E1,2.869266E1,5.4866722E1,1.1231888E2,3.3715782E1,2.8053913E1,8.51121E1,6.975506E1,1.1075096E2,4.084389E1,1.0932455E1,1.6017563E2,2.4311636E2,1.5851851E2,7.422279E1,1.7122479E-6,4.319703E-2,2.1925198E-1,3.8567036E-2,1.0081242E-1,1.858312E-1,2.1353759E-1,3.3286244E-1,3.537597E-1,6.166003E-1,2.3781587E-1,5.949127E-2,1.9225661E-1,5.4821037E-2,4.7373217E-1,2.906375E-1,2.9523328E-1,4.0168887E-1,5.0817025E-1,7.477275E-1,1.5329981E-1,4.1846114E-1,4.367066E-2,2.9347044E-1,6.402237E-1,8.805783E-1,1.2917619E0,9.293396E-1,5.287249E-1,8.8427067E-1,4.7142228E-1,1.642117E-1],"categories":[],"categories_nodes":[],"categories_segments":[],"categories_sizes":[],"default_left":[0,0,0,0,0,0,0,0,0,0,0,0,0,0,0,0,0,0,0,0,0,0,0,0,0,0,0,0,0,0,0,0,0,0,0,0,0,0,0,0,0,0,0,0,0,0,0,0,0,0,0,0,0,0,0,0,0,0,0,0,0,0,0],"id":5,"left_children":[1,3,5,7,9,11,13,15,17,19,21,23,25,27,29,31,33,35,37,39,41,43,45,47,49,51,53,55,57,59,61,-1,-1,-1,-1,-1,-1,-1,-1,-1,-1,-1,-1,-1,-1,-1,-1,-1,-1,-1,-1,-1,-1,-1,-1,-1,-1,-1,-1,-1,-1,-1,-1],"loss_changes":[9.163416E7,5.408685E6,6.426595E7,1.0163586E6,2.119065E6,1.0625944E7,5.928032E6,6.97177E4,1.3223588E5,1.203443E6,2.5427595E6,1.439124E6,3.7196512E5,8.570752E6,1.2658E6,3.6612746E4,8.796682E4,7.247144E4,3.1459E4,3.2921E5,8.009903E4,6.24154E5,2.55772E5,1.20933E5,1.356752E6,2.3961619E5,1.7409484E5,8.59916E5,3.958144E6,8.7636E5,1.8368962E5,0E0,0E0,0E0,0E0,0E0,0E0,0E0,0E0,0E0,0E0,0E0,0E0,0E0,0E0,0E0,0E0,0E0,0E0,0E0,0E0,0E0,0E0,0E0,0E0,0E0,0E0,0E0,0E0,0E0,0E0,0E0,0E0],"parents":[2147483647,0,0,1,1,2,2,3,3,4,4,5,5,6,6,7,7,8,8,9,9,10,10,11,11,12,12,13,13,14,14,15,15,16,16,17,17,18,18,19,19,20,20,21,21,22,22,23,23,24,24,25,25,26,26,27,27,28,28,29,29,30,30],"right_children":[2,4,6,8,10,12,14,16,18,20,22,24,26,28,30,32,34,36,38,40,42,44,46,48,50,52,54,56,58,60,62,-1,-1,-1,-1,-1,-1,-1,-1,-1,-1,-1,-1,-1,-1,-1,-1,-1,-1,-1,-1,-1,-1,-1,-1,-1,-1,-1,-1,-1,-1,-1,-1],"split_conditions":[1.1E1,1.99E2,1.75E2,9E0,2E0,2E1,2.2E1,1.74E2,1.59E2,3.22E2,9E0,1.3E1,2.1E1,1.4E1,3.29E2,8E0,1E0,1E1,1E1,2.25E2,3.49E2,3.03E2,3.22E2,1.2E1,1.4E2,1.4E2,1.67E2,1.2E1,3.26E2,2.15E2,3.54E2,1.7122479E-6,4.319703E-2,2.1925198E-1,3.8567036E-2,1.0081242E-1,1.858312E-1,2.1353759E-1,3.3286244E-1,3.537597E-1,6.166003E-1,2.3781587E-1,5.949127E-2,1.9225661E-1,5.4821037E-2,4.7373217E-1,2.906375E-1,2.9523328E-1,4.0168887E-1,5.0817025E-1,7.477275E-1,1.5329981E-1,4.1846114E-1,4.367066E-2,2.9347044E-1,6.402237E-1,8.805783E-1,1.2917619E0,9.293396E-1,5.287249E-1,8.8427067E-1,4.7142228E-1,1.642117E-1],"split_indices":[1,0,0,1,1,1,1,0,0,0,1,1,1,1,0,1,1,1,1,0,0,0,0,1,0,0,0,1,0,0,0,0,0,0,0,0,0,0,0,0,0,0,0,0,0,0,0,0,0,0,0,0,0,0,0,0,0,0,0,0,0,0,0],"split_type":[0,0,0,0,0,0,0,0,0,0,0,0,0,0,0,0,0,0,0,0,0,0,0,0,0,0,0,0,0,0,0,0,0,0,0,0,0,0,0,0,0,0,0,0,0,0,0,0,0,0,0,0,0,0,0,0,0,0,0,0,0,0,0],"sum_hessian":[2.7072E4,1.2408E4,1.4664E4,6.886E3,5.522E3,7.202E3,7.462E3,5.634E3,1.252E3,1.004E3,4.518E3,4.986E3,2.216E3,6.314E3,1.148E3,4.959E3,6.75E2,1.012E3,2.4E2,7.38E2,2.66E2,3.514E3,1.004E3,1.108E3,3.878E3,5.54E2,1.662E3,1.722E3,4.592E3,9.24E2,2.24E2,4.408E3,5.51E2,7.5E1,6E2,5.06E2,5.06E2,1.2E2,1.2E2,1.56E2,5.82E2,1.62E2,1.04E2,2.184E3,1.33E3,7.38E2,2.66E2,5.54E2,5.54E2,3.143E3,7.35E2,4.49E2,1.05E2,1.59E3,7.2E1,5.74E2,1.148E3,3.624E3,9.68E2,2.4E2,6.84E2,1.5E2,7.4E1],"tree_param":{"num_deleted":"0","num_feature":"5","num_nodes":"63","size_leaf_vector":"1"}},{"base_weights":[8.949041E1,2.6555552E1,1.4273755E2,7.7489934E0,4.9502945E1,7.459293E1,2.0642224E2,2.0721328E0,3.327261E1,9.0777145E1,4.0313057E1,1.0014436E2,1.7082655E1,2.2185086E2,1.5489612E2,9.569864E-1,1.0961287E1,2.8549479E1,5.402047E1,1.110026E2,3.3548317E1,2.767901E1,8.446152E1,6.890742E1,1.0904881E2,3.9029224E1,9.747746E0,1.5865157E2,2.4889076E2,1.7076497E2,8.7853226E1,1.7035899E-6,4.298144E-2,2.0186226E-1,3.6092665E-2,1.0030936E-1,1.8490389E-1,2.1066499E-1,3.2719097E-1,3.4988818E-1,6.135226E-1,2.3663409E-1,5.9196647E-2,1.8844587E-1,5.454714E-2,4.690721E-1,2.891898E-1,2.9139274E-1,3.9705038E-1,6.05616E-1,3.938976E-1,1.4416598E-1,3.622053E-1,1.0143023E-1,2.2324162E-2,7.1329755E-1,9.516831E-1,1.3156683E0,9.713132E-1,5.849293E-1,9.5458204E-1,5.4178506E-1,2.2847559E-1],"categories":[],"categories_nodes":[],"categories_segments":[],"categories_sizes":[],"default_left":[0,0,0,0,0,0,0,0,0,0,0,0,0,0,0,0,0,0,0,0,0,0,0,0,0,0,0,0,0,0,0,0,0,0,0,0,0,0,0,0,0,0,0,0,0,0,0,0,0,0,0,0,0,0,0,0,0,0,0,0,0,0,0],"id":6,"left_children":[1,3,5,7,9,11,13,15,17,19,21,23,25,27,29,31,33,35,37,39,41,43,45,47,49,51,53,55,57,59,61,-1,-1,-1,-1,-1,-1,-1,-1,-1,-1,-1,-1,-1,-1,-1,-1,-1,-1,-1,-1,-1,-1,-1,-1,-1,-1,-1,-1,-1,-1,-1,-1],"loss_changes":[9.072054E7,5.354863E6,6.362733E7,9.8825325E5,2.116277E6,1.0410952E7,5.991584E6,5.5312332E4,1.2006925E5,1.173433E6,2.5483615E6,1.35708E6,3.5070838E5,9.925088E6,1.846812E6,3.6248195E4,6.8177555E4,7.1749875E4,2.8324562E4,3.51947E5,7.9304E4,5.9668875E5,2.478145E5,1.171625E5,1.38514E6,1.8391606E5,9.099036E4,8.59588E5,3.124944E6,1.510052E6,2.8635175E5,0E0,0E0,0E0,0E0,0E0,0E0,0E0,0E0,0E0,0E0,0E0,0E0,0E0,0E0,0E0,0E0,0E0,0E0,0E0,0E0,0E0,0E0,0E0,0E0,0E0,0E0,0E0,0E0,0E0,0E0,0E0,0E0],"parents":[2147483647,0,0,1,1,2,2,3,3,4,4,5,5,6,6,7,7,8,8,9,9,10,10,11,11,12,12,13,13,14,14,15,15,16,16,17,17,18,18,19,19,20,20,21,21,22,22,23,23,24,24,25,25,26,26,27,27,28,28,29,29,30,30],"right_children":[2,4,6,8,10,12,14,16,18,20,22,24,26,28,30,32,34,36,38,40,42,44,46,48,50,52,54,56,58,60,62,-1,-1,-1,-1,-1,-1,-1,-1,-1,-1,-1,-1,-1,-1,-1,-1,-1,-1,-1,-1,-1,-1,-1,-1,-1,-1,-1,-1,-1,-1,-1,-1],"split_conditions":[1.1E1,1.97E2,1.72E2,9E0,2E0,2E1,2.1E1,1.74E2,1.59E2,3.22E2,9E0,1.3E1,2.1E1,1.4E1,3.29E2,8E0,1E0,1E1,1E1,2.25E2,3.49E2,3.03E2,3.22E2,1.2E1,1.8E1,1.3E2,2.2E1,1.3E1,3.26E2,2.15E2,3.54E2,1.7035899E-6,4.298144E-2,2.0186226E-1,3.6092665E-2,1.0030936E-1,1.8490389E-1,2.1066499E-1,3.2719097E-1,3.4988818E-1,6.135226E-1,2.3663409E-1,5.9196647E-2,1.8844587E-1,5.454714E-2,4.690721E-1,2.891898E-1,2.9139274E-1,3.9705038E-1,6.05616E-1,3.938976E-1,1.4416598E-1,3.622053E-1,1.0143023E-1,2.2324162E-2,7.1329755E-1,9.516831E-1,1.3156683E0,9.713132E-1,5.849293E-1,9.5458204E-1,5.4178506E-1,2.2847559E-1],"split_indices":[1,0,0,1,1,1,1,0,0,0,1,1,1,1,0,1,1,1,1,0,0,0,0,1,1,0,1,1,0,0,0,0,0,0,0,0,0,0,0,0,0,0,0,0,0,0,0,0,0,0,0,0,0,0,0,0,0,0,0,0,0,0,0],"split_type":[0,0,0,0,0,0,0,0,0,0,0,0,0,0,0,0,0,0,0,0,0,0,0,0,0,0,0,0,0,0,0,0,0,0,0,0,0,0,0,0,0,0,0,0,0,0,0,0,0,0,0,0,0,0,0,0,0,0,0,0,0,0,0],"sum_hessian":[2.7072E4,1.2408E4,1.4664E4,6.82E3,5.588E3,7.085E3,7.579E3,5.58E3,1.24E3,1.016E3,4.572E3,4.905E3,2.18E3,5.83E3,1.749E3,4.959E3,6.21E2,1.012E3,2.28E2,7.5E2,2.66E2,3.556E3,1.016E3,1.09E3,3.815E3,5.45E2,1.635E3,1.749E3,4.081E3,1.413E3,3.36E2,4.408E3,5.51E2,6.9E1,5.52E2,5.06E2,5.06E2,1.14E2,1.14E2,1.68E2,5.82E2,1.62E2,1.04E2,2.226E3,1.33E3,7.5E2,2.66E2,5.45E2,5.45E2,2.725E3,1.09E3,4.19E2,1.26E2,5.45E2,1.09E3,1.166E3,5.83E2,3.234E3,8.47E2,3.87E2,1.026E3,2.25E2,1.11E2],"tree_param":{"num_deleted":"0","num_feature":"5","num_nodes":"63","size_leaf_vector":"1"}},{"base_weights":[8.90434E1,2.6423044E1,1.4202444E2,7.9094634E0,4.950409E1,7.5289955E1,2.0641496E2,2.2370543E0,3.3413147E1,9.063767E1,4.034526E1,1.0063789E2,1.8237442E1,2.183454E2,1.4066463E2,9.522102E-1,1.1661004E1,2.8407013E1,5.431688E1,1.1120155E2,3.3381683E1,2.7775986E1,8.4266304E1,6.905701E1,1.0964087E2,4.04283E1,1.0820626E1,1.5858334E2,2.4071677E2,1.5686981E2,7.3418175E1,1.6949554E-6,4.2766917E-2,2.1711569E-1,3.812546E-2,9.98088E-2,1.8398117E-1,2.1137005E-1,3.2955426E-1,3.502639E-1,6.104602E-1,2.3545818E-1,5.890348E-2,1.9035397E-1,5.4274604E-2,4.6902454E-1,2.8774923E-1,2.9227123E-1,3.9767668E-1,5.029054E-1,7.409645E-1,1.5174313E-1,4.1418988E-1,4.3209136E-2,2.9079136E-1,6.334678E-1,8.720204E-1,1.2790153E0,9.201549E-1,5.2317977E-1,8.7508976E-1,4.663898E-1,1.6227445E-1],"categories":[],"categories_nodes":[],"categories_segments":[],"categories_sizes":[],"default_left":[0,0,0,0,0,0,0,0,0,0,0,0,0,0,0,0,0,0,0,0,0,0,0,0,0,0,0,0,0,0,0,0,0,0,0,0,0,0,0,0,0,0,0,0,0,0,0,0,0,0,0,0,0,0,0,0,0,0,0,0,0,0,0],"id":7,"left_children":[1,3,5,7,9,11,13,15,17,19,21,23,25,27,29,31,33,35,37,39,41,43,45,47,49,51,53,55,57,59,61,-1,-1,-1,-1,-1,-1,-1,-1,-1,-1,-1,-1,-1,-1,-1,-1,-1,-1,-1,-1,-1,-1,-1,-1,-1,-1,-1,-1,-1,-1,-1,-1],"loss_changes":[8.981613E7,5.302133E6,6.300093E7,9.962491E5,2.077053E6,1.041488E7,5.823456E6,6.821921E4,1.295795E5,1.1795805E6,2.492399E6,1.410344E6,3.6444856E5,8.404736E6,1.240596E6,3.588727E4,8.632476E4,7.1035625E4,3.0863188E4,3.22615E5,7.8516875E4,6.1189675E5,2.507135E5,1.1856E5,1.339924E6,2.3473494E5,1.7101794E5,8.47192E5,3.880752E6,8.58538E5,1.8001512E5,0E0,0E0,0E0,0E0,0E0,0E0,0E0,0E0,0E0,0E0,0E0,0E0,0E0,0E0,0E0,0E0,0E0,0E0,0E0,0E0,0E0,0E0,0E0,0E0,0E0,0E0,0E0,0E0,0E0,0E0,0E0,0E0],"parents":[2147483647,0,0,1,1,2,2,3,3,4,4,5,5,6,6,7,7,8,8,9,9,10,10,11,11,12,12,13,13,14,14,15,15,16,16,17,17,18,18,19,19,20,20,21,21,22,22,23,23,24,24,25,25,26,26,27,27,28,28,29,29,30,30],"right_children":[2,4,6,8,10,12,14,16,18,20,22,24,26,28,30,32,34,36,38,40,42,44,46,48,50,52,54,56,58,60,62,-1,-1,-1,-1,-1,-1,-1,-1,-1,-1,-1,-1,-1,-1,-1,-1,-1,-1,-1,-1,-1,-1,-1,-1,-1,-1,-1,-1,-1,-1,-1,-1],"split_conditions":[1.1E1,1.99E2,1.75E2,9E0,2E0,2E1,2.2E1,1.74E2,1.59E2,3.22E2,9E0,1.3E1,2.1E1,1.4E1,3.29E2,8E0,1E0,1E1,1E1,2.25E2,3.49E2,3.03E2,3.22E2,1.2E1,1.4E2,1.4E2,1.67E2,1.2E1,3.26E2,2.15E2,3.54E2,1.6949554E-6,4.2766917E-2,2.1711569E-1,3.812546E-2,9.98088E-2,1.8398117E-1,2.1137005E-1,3.2955426E-1,3.502639E-1,6.104602E-1,2.3545818E-1,5.890348E-2,1.9035397E-1,5.4274604E-2,4.6902454E-1,2.8774923E-1,2.9227123E-1,3.9767668E-1,5.029054E-1,7.409645E-1,1.5174313E-1,4.1418988E-1,4.3209136E-2,2.9079136E-1,6.334678E-1,8.720204E-1,1.2790153E0,9.201549E-1,5.2317977E-1,8.7508976E-1,4.663898E-1,1.6227445E-1],"split_indices":[1,0,0,1,1,1,1,0,0,0,1,1,1,1,0,1,1,1,1,0,0,0,0,1,0,0,0,1,0,0,0,0,0,0,0,0,0,0,0,0,0,0,0,0,0,0,0,0,0,0,0,0,0,0,0,0,0,0,0,0,0,0,0],"split_type":[0,0,0,0,0,0,0,0,0,0,0,0,0,0,0,0,0,0,0,0,0,0,0,0,0,0,0,0,0,0,0,0,0,0,0,0,0,0,0,0,0,0,0,0,0,0,0,0,0,0,0,0,0,0,0,0,0,0,0,0,0,0,0],"sum_hessian":[2.7072E4,1.2408E4,1.4664E4,6.886E3,5.522E3,7.202E3,7.462E3,5.634E3,1.252E3,1.004E3,4.518E3,4.986E3,2.216E3,6.314E3,1.148E3,4.959E3,6.75E2,1.012E3,2.4E2,7.38E2,2.66E2,3.514E3,1.004E3,1.108E3,3.878E3,5.54E2,1.662E3,1.722E3,4.592E3,9.24E2,2.24E2,4.408E3,5.51E2,7.5E1,6E2,5.06E2,5.06E2,1.2E2,1.2E2,1.56E2,5.82E2,1.62E2,1.04E2,2.184E3,1.33E3,7.38E2,2.66E2,5.54E2,5.54E2,3.143E3,7.35E2,4.49E2,1.05E2,1.59E3,7.2E1,5.74E2,1.148E3,3.624E3,9.68E2,2.4E2,6.84E2,1.5E2,7.4E1],"tree_param":{"num_deleted":"0","num_feature":"5","num_nodes":"63","size_leaf_vector":"1"}},{"base_weights":[8.8598625E1,2.6291203E1,1.413149E2,7.870079E0,4.9256977E1,7.49139E1,2.0538365E2,2.2259219E0,3.324674E1,9.018573E1,4.0143757E1,1.00135086E2,1.814666E1,2.2063872E2,1.544349E2,9.4745773E-1,1.1603077E1,2.8265259E1,5.404754E1,1.1064685E2,3.3215878E1,2.7637177E1,8.3845726E1,6.871234E1,1.0909299E2,3.0918203E1,5.3587527E0,1.5779129E2,2.4752736E2,1.7074051E2,8.686721E1,1.6866132E-6,4.2553473E-2,2.1604438E-1,3.7935153E-2,9.931074E-2,1.8306309E-1,2.1032192E-1,3.279201E-1,4.1316256E-1,6.3299155E-1,2.342881E-1,5.861177E-2,1.8940265E-1,5.4003436E-2,4.6668258E-1,2.863159E-1,2.908125E-1,3.956919E-1,6.0430807E-1,3.9794478E-1,1.1713706E-1,3.712432E-1,1.825987E-2,2.1103185E-1,6.3030595E-1,8.676641E-1,1.3109708E0,9.61867E-1,6.08548E-1,9.510513E-1,5.3601354E-1,2.2528741E-1],"categories":[],"categories_nodes":[],"categories_segments":[],"categories_sizes":[],"default_left":[0,0,0,0,0,0,0,0,0,0,0,0,0,0,0,0,0,0,0,0,0,0,0,0,0,0,0,0,0,0,0,0,0,0,0,0,0,0,0,0,0,0,0,0,0,0,0,0,0,0,0,0,0,0,0,0,0,0,0,0,0,0,0],"id":8,"left_children":[1,3,5,7,9,11,13,15,17,19,21,23,25,27,29,31,33,35,37,39,41,43,45,47,49,51,53,55,57,59,61,-1,-1,-1,-1,-1,-1,-1,-1,-1,-1,-1,-1,-1,-1,-1,-1,-1,-1,-1,-1,-1,-1,-1,-1,-1,-1,-1,-1,-1,-1,-1,-1],"loss_changes":[8.892067E7,5.249307E6,6.2372896E7,9.8635E5,2.056419E6,1.0310984E7,5.766368E6,6.754341E4,1.28306625E5,1.1678205E6,2.4675965E6,1.396252E6,3.6191775E5,9.66256E6,1.883452E6,3.5529945E4,8.54771E4,7.032844E4,3.0557938E4,3.19775E5,7.773756E4,6.0579525E5,2.482065E5,1.173795E5,1.337256E6,3.5821888E5,6.959167E4,8.38728E5,3.200672E6,1.300908E6,2.8169425E5,0E0,0E0,0E0,0E0,0E0,0E0,0E0,0E0,0E0,0E0,0E0,0E0,0E0,0E0,0E0,0E0,0E0,0E0,0E0,0E0,0E0,0E0,0E0,0E0,0E0,0E0,0E0,0E0,0E0,0E0,0E0,0E0],"parents":[2147483647,0,0,1,1,2,2,3,3,4,4,5,5,6,6,7,7,8,8,9,9,10,10,11,11,12,12,13,13,14,14,15,15,16,16,17,17,18,18,19,19,20,20,21,21,22,22,23,23,24,24,25,25,26,26,27,27,28,28,29,29,30,30],"right_children":[2,4,6,8,10,12,14,16,18,20,22,24,26,28,30,32,34,36,38,40,42,44,46,48,50,52,54,56,58,60,62,-1,-1,-1,-1,-1,-1,-1,-1,-1,-1,-1,-1,-1,-1,-1,-1,-1,-1,-1,-1,-1,-1,-1,-1,-1,-1,-1,-1,-1,-1,-1,-1],"split_conditions":[1.1E1,1.99E2,1.75E2,9E0,2E0,2E1,2.1E1,1.74E2,1.59E2,3.22E2,9E0,1.3E1,2.2E1,1.4E1,3.29E2,8E0,1E0,1E1,1E1,2.44E2,3.49E2,3.03E2,3.22E2,1.2E1,1.8E1,1.48E2,1.67E2,1.2E1,3.26E2,2.19E2,3.54E2,1.6866132E-6,4.2553473E-2,2.1604438E-1,3.7935153E-2,9.931074E-2,1.8306309E-1,2.1032192E-1,3.279201E-1,4.1316256E-1,6.3299155E-1,2.342881E-1,5.861177E-2,1.8940265E-1,5.4003436E-2,4.6668258E-1,2.863159E-1,2.908125E-1,3.956919E-1,6.0430807E-1,3.9794478E-1,1.1713706E-1,3.712432E-1,1.825987E-2,2.1103185E-1,6.3030595E-1,8.676641E-1,1.3109708E0,9.61867E-1,6.08548E-1,9.510513E-1,5.3601354E-1,2.2528741E-1],"split_indices":[1,0,0,1,1,1,1,0,0,0,1,1,1,1,0,1,1,1,1,0,0,0,0,1,1,0,0,1,0,0,0,0,0,0,0,0,0,0,0,0,0,0,0,0,0,0,0,0,0,0,0,0,0,0,0,0,0,0,0,0,0,0,0],"split_type":[0,0,0,0,0,0,0,0,0,0,0,0,0,0,0,0,0,0,0,0,0,0,0,0,0,0,0,0,0,0,0,0,0,0,0,0,0,0,0,0,0,0,0,0,0,0,0,0,0,0,0,0,0,0,0,0,0,0,0,0,0,0,0],"sum_hessian":[2.7072E4,1.2408E4,1.4664E4,6.886E3,5.522E3,7.202E3,7.462E3,5.634E3,1.252E3,1.004E3,4.518E3,4.986E3,2.216E3,5.74E3,1.722E3,4.959E3,6.75E2,1.012E3,2.4E2,7.38E2,2.66E2,3.514E3,1.004E3,1.108E3,3.878E3,1.108E3,1.108E3,1.722E3,4.018E3,1.386E3,3.36E2,4.408E3,5.51E2,7.5E1,6E2,5.06E2,5.06E2,1.2E2,1.2E2,2.7E2,4.68E2,1.62E2,1.04E2,2.184E3,1.33E3,7.38E2,2.66E2,5.54E2,5.54E2,2.77E3,1.108E3,9.46E2,1.62E2,1.06E3,4.8E1,5.74E2,1.148E3,3.171E3,8.47E2,3.96E2,9.9E2,2.25E2,1.11E2],"tree_param":{"num_deleted":"0","num_feature":"5","num_nodes":"63","size_leaf_vector":"1"}},{"base_weights":[8.8156075E1,2.6160025E1,1.406089E2,7.8308907E0,4.9011116E1,7.3473915E1,2.0335005E2,2.214845E0,3.308116E1,8.973614E1,3.9943256E1,9.864333E1,1.6823463E1,2.1520338E2,1.3802821E2,9.4272906E-1,1.1545437E1,2.812421E1,5.3779537E1,1.10095024E2,3.3050896E1,2.749906E1,8.3427246E1,6.7875916E1,1.0741393E2,3.8486965E1,9.583185E0,1.5628952E2,2.3725784E2,1.5348769E2,7.262244E1,1.6783023E-6,4.2341087E-2,2.1497838E-1,3.774579E-2,9.8815165E-2,1.8214957E-1,2.09279E-1,3.2629406E-1,3.464711E-1,6.044685E-1,2.3312385E-1,5.8321502E-2,1.8845607E-1,5.3733625E-2,4.6435234E-1,2.8488967E-1,2.8702837E-1,3.911092E-1,5.968453E-1,3.872203E-1,1.4210567E-1,3.5736248E-1,9.9922195E-2,2.1845035E-2,7.0229465E-1,9.382798E-1,1.2547975E0,8.9710957E-1,5.03715E-1,8.660325E-1,4.6141097E-1,1.6036247E-1],"categories":[],"categories_nodes":[],"categories_segments":[],"categories_sizes":[],"default_left":[0,0,0,0,0,0,0,0,0,0,0,0,0,0,0,0,0,0,0,0,0,0,0,0,0,0,0,0,0,0,0,0,0,0,0,0,0,0,0,0,0,0,0,0,0,0,0,0,0,0,0,0,0,0,0,0,0,0,0,0,0,0,0],"id":9,"left_children":[1,3,5,7,9,11,13,15,17,19,21,23,25,27,29,31,33,35,37,39,41,43,45,47,49,51,53,55,57,59,61,-1,-1,-1,-1,-1,-1,-1,-1,-1,-1,-1,-1,-1,-1,-1,-1,-1,-1,-1,-1,-1,-1,-1,-1,-1,-1,-1,-1,-1,-1,-1,-1],"loss_changes":[8.803414E7,5.19701E6,6.1755904E7,9.7654925E5,2.035997E6,1.010198E7,5.83936E6,6.687428E4,1.2704625E5,1.1561805E6,2.4430425E6,1.316584E6,3.4172056E5,8.296704E6,1.168852E6,3.5176176E4,8.463776E4,6.962825E4,3.0255625E4,3.17223E5,7.696597E4,5.997545E5,2.45724E5,1.136915E5,1.358008E6,1.7925538E5,8.863953E4,8.426E5,3.65176E6,9.63328E5,1.7641075E5,0E0,0E0,0E0,0E0,0E0,0E0,0E0,0E0,0E0,0E0,0E0,0E0,0E0,0E0,0E0,0E0,0E0,0E0,0E0,0E0,0E0,0E0,0E0,0E0,0E0,0E0,0E0,0E0,0E0,0E0,0E0,0E0],"parents":[2147483647,0,0,1,1,2,2,3,3,4,4,5,5,6,6,7,7,8,8,9,9,10,10,11,11,12,12,13,13,14,14,15,15,16,16,17,17,18,18,19,19,20,20,21,21,22,22,23,23,24,24,25,25,26,26,27,27,28,28,29,29,30,30],"right_children":[2,4,6,8,10,12,14,16,18,20,22,24,26,28,30,32,34,36,38,40,42,44,46,48,50,52,54,56,58,60,62,-1,-1,-1,-1,-1,-1,-1,-1,-1,-1,-1,-1,-1,-1,-1,-1,-1,-1,-1,-1,-1,-1,-1,-1,-1,-1,-1,-1,-1,-1,-1,-1],"split_conditions":[1.1E1,1.99E2,1.72E2,9E0,2E0,2E1,2.2E1,1.74E2,1.59E2,3.22E2,9E0,1.3E1,2.1E1,1.4E1,3.29E2,8E0,1E0,1E1,1E1,2.25E2,3.49E2,3.03E2,3.22E2,1.2E1,1.8E1,1.3E2,2.2E1,1.3E1,3.29E2,2.15E2,3.54E2,1.6783023E-6,4.2341087E-2,2.1497838E-1,3.774579E-2,9.8815165E-2,1.8214957E-1,2.09279E-1,3.2629406E-1,3.464711E-1,6.044685E-1,2.3312385E-1,5.8321502E-2,1.8845607E-1,5.3733625E-2,4.6435234E-1,2.8488967E-1,2.8702837E-1,3.911092E-1,5.968453E-1,3.872203E-1,1.4210567E-1,3.5736248E-1,9.9922195E-2,2.1845035E-2,7.0229465E-1,9.382798E-1,1.2547975E0,8.9710957E-1,5.03715E-1,8.660325E-1,4.6141097E-1,1.6036247E-1],"split_indices":[1,0,0,1,1,1,1,0,0,0,1,1,1,1,0,1,1,1,1,0,0,0,0,1,1,0,1,1,0,0,0,0,0,0,0,0,0,0,0,0,0,0,0,0,0,0,0,0,0,0,0,0,0,0,0,0,0,0,0,0,0,0,0],"split_type":[0,0,0,0,0,0,0,0,0,0,0,0,0,0,0,0,0,0,0,0,0,0,0,0,0,0,0,0,0,0,0,0,0,0,0,0,0,0,0,0,0,0,0,0,0,0,0,0,0,0,0,0,0,0,0,0,0,0,0,0,0,0,0],"sum_hessian":[2.7072E4,1.2408E4,1.4664E4,6.886E3,5.522E3,7.085E3,7.579E3,5.634E3,1.252E3,1.004E3,4.518E3,4.905E3,2.18E3,6.413E3,1.166E3,4.959E3,6.75E2,1.012E3,2.4E2,7.38E2,2.66E2,3.514E3,1.004E3,1.09E3,3.815E3,5.45E2,1.635E3,1.749E3,4.664E3,9.42E2,2.24E2,4.408E3,5.51E2,7.5E1,6E2,5.06E2,5.06E2,1.2E2,1.2E2,1.56E2,5.82E2,1.62E2,1.04E2,2.184E3,1.33E3,7.38E2,2.66E2,5.45E2,5.45E2,2.725E3,1.09E3,4.19E2,1.26E2,5.45E2,1.09E3,1.166E3,5.83E2,3.768E3,8.96E2,2.58E2,6.84E2,1.5E2,7.4E1],"tree_param":{"num_deleted":"0","num_feature":"5","num_nodes":"63","size_leaf_vector":"1"}},{"base_weights":[8.771571E1,2.6029493E1,1.3990642E2,7.594498E0,4.8523514E1,7.416185E1,2.0334178E2,2.0299454E0,3.2613174E1,8.898694E1,3.951415E1,9.9132065E1,1.7959501E1,2.1847258E2,1.5280829E2,9.38024E-1,1.0733965E1,2.7983866E1,5.294887E1,1.0881352E2,3.2886734E1,2.7129879E1,8.2789795E1,6.802474E1,1.08000046E2,3.9864403E1,1.0638288E1,1.562227E2,2.4510558E2,1.6895573E2,8.58964E1,1.6699557E-6,4.212977E-2,1.9767298E-1,3.5344526E-2,9.832206E-2,1.8124062E-1,2.0649341E-1,3.2069317E-1,3.4289122E-1,6.014514E-1,2.3196538E-1,5.8032673E-2,1.8470712E-1,5.3465154E-2,4.597862E-1,2.8347054E-1,2.8789485E-1,3.9173976E-1,4.9498197E-1,7.315726E-1,1.4962101E-1,4.0843645E-1,4.2452566E-2,2.865112E-1,6.236546E-1,8.592317E-1,1.2981459E0,9.5245016E-1,6.016425E-1,9.413278E-1,5.3032553E-1,2.2215945E-1],"categories":[],"categories_nodes":[],"categories_segments":[],"categories_sizes":[],"default_left":[0,0,0,0,0,0,0,0,0,0,0,0,0,0,0,0,0,0,0,0,0,0,0,0,0,0,0,0,0,0,0,0,0,0,0,0,0,0,0,0,0,0,0,0,0,0,0,0,0,0,0,0,0,0,0,0,0,0,0,0,0,0,0],"id":10,"left_children":[1,3,5,7,9,11,13,15,17,19,21,23,25,27,29,31,33,35,37,39,41,43,45,47,49,51,53,55,57,59,61,-1,-1,-1,-1,-1,-1,-1,-1,-1,-1,-1,-1,-1,-1,-1,-1,-1,-1,-1,-1,-1,-1,-1,-1,-1,-1,-1,-1,-1,-1,-1,-1],"loss_changes":[8.715645E7,5.14536E6,6.114573E7,9.49538E5,2.033953E6,1.0106804E7,5.672928E6,5.303234E4,1.1534625E5,1.1276055E6,2.448595E6,1.36836E6,3.5511725E5,9.479712E6,1.847112E6,3.4825926E4,6.537639E4,6.8935125E4,2.720425E4,3.3854E5,7.620206E4,5.732455E5,2.380845E5,1.150765E5,1.323652E6,2.2828456E5,1.661853E5,8.26312E5,3.13848E6,1.27972E6,2.7711575E5,0E0,0E0,0E0,0E0,0E0,0E0,0E0,0E0,0E0,0E0,0E0,0E0,0E0,0E0,0E0,0E0,0E0,0E0,0E0,0E0,0E0,0E0,0E0,0E0,0E0,0E0,0E0,0E0,0E0,0E0,0E0,0E0],"parents":[2147483647,0,0,1,1,2,2,3,3,4,4,5,5,6,6,7,7,8,8,9,9,10,10,11,11,12,12,13,13,14,14,15,15,16,16,17,17,18,18,19,19,20,20,21,21,22,22,23,23,24,24,25,25,26,26,27,27,28,28,29,29,30,30],"right_children":[2,4,6,8,10,12,14,16,18,20,22,24,26,28,30,32,34,36,38,40,42,44,46,48,50,52,54,56,58,60,62,-1,-1,-1,-1,-1,-1,-1,-1,-1,-1,-1,-1,-1,-1,-1,-1,-1,-1,-1,-1,-1,-1,-1,-1,-1,-1,-1,-1,-1,-1,-1,-1],"split_conditions":[1.1E1,1.97E2,1.75E2,9E0,2E0,2E1,2.1E1,1.74E2,1.59E2,3.22E2,9E0,1.3E1,2.1E1,1.4E1,3.29E2,8E0,1E0,1E1,1E1,2.25E2,3.49E2,3.03E2,3.22E2,1.2E1,1.4E2,1.4E2,1.67E2,1.2E1,3.26E2,2.19E2,3.54E2,1.6699557E-6,4.212977E-2,1.9767298E-1,3.5344526E-2,9.832206E-2,1.8124062E-1,2.0649341E-1,3.2069317E-1,3.4289122E-1,6.014514E-1,2.3196538E-1,5.8032673E-2,1.8470712E-1,5.3465154E-2,4.597862E-1,2.8347054E-1,2.8789485E-1,3.9173976E-1,4.9498197E-1,7.315726E-1,1.4962101E-1,4.0843645E-1,4.2452566E-2,2.865112E-1,6.236546E-1,8.592317E-1,1.2981459E0,9.5245016E-1,6.016425E-1,9.413278E-1,5.3032553E-1,2.2215945E-1],"split_indices":[1,0,0,1,1,1,1,0,0,0,1,1,1,1,0,1,1,1,1,0,0,0,0,1,0,0,0,1,0,0,0,0,0,0,0,0,0,0,0,0,0,0,0,0,0,0,0,0,0,0,0,0,0,0,0,0,0,0,0,0,0,0,0],"split_type":[0,0,0,0,0,0,0,0,0,0,0,0,0,0,0,0,0,0,0,0,0,0,0,0,0,0,0,0,0,0,0,0,0,0,0,0,0,0,0,0,0,0,0,0,0,0,0,0,0,0,0,0,0,0,0,0,0,0,0,0,0,0,0],"sum_hessian":[2.7072E4,1.2408E4,1.4664E4,6.82E3,5.588E3,7.202E3,7.462E3,5.58E3,1.24E3,1.016E3,4.572E3,4.986E3,2.216E3,5.74E3,1.722E3,4.959E3,6.21E2,1.012E3,2.28E2,7.5E2,2.66E2,3.556E3,1.016E3,1.108E3,3.878E3,5.54E2,1.662E3,1.722E3,4.018E3,1.386E3,3.36E2,4.408E3,5.51E2,6.9E1,5.52E2,5.06E2,5.06E2,1.14E2,1.14E2,1.68E2,5.82E2,1.62E2,1.04E2,2.226E3,1.33E3,7.5E2,2.66E2,5.54E2,5.54E2,3.143E3,7.35E2,4.49E2,1.05E2,1.59E3,7.2E1,5.74E2,1.148E3,3.171E3,8.47E2,3.96E2,9.9E2,2.25E2,1.11E2],"tree_param":{"num_deleted":"0","num_feature":"5","num_nodes":"63","size_leaf_vector":"1"}},{"base_weights":[8.727758E1,2.5899612E1,1.3920747E2,7.751921E0,4.8524498E1,7.379143E1,2.0232588E2,2.1917126E0,3.275114E1,8.8843765E1,3.954698E1,9.863679E1,1.7870104E1,2.1404533E2,1.3773865E2,9.3334234E-1,1.1421483E1,2.7844223E1,5.3240593E1,1.0899979E2,3.2723385E1,2.7226637E1,8.25982E1,6.7685234E1,1.0746036E2,3.0474554E1,5.2495413E0,1.5544246E2,2.3598279E2,1.5362025E2,7.183547E1,1.6616319E-6,4.1919496E-2,2.1288496E-1,3.7313405E-2,9.783142E-2,1.803362E-1,2.0715451E-1,3.2305136E-1,4.065838E-1,6.238166E-1,2.3081268E-1,5.7745274E-2,1.865911E-1,5.3198032E-2,4.5973787E-1,2.820585E-1,2.8645796E-1,3.8978457E-1,5.9555805E-1,3.912554E-1,1.1537372E-1,3.663956E-1,1.7847473E-2,2.0760284E-1,6.983861E-1,9.333758E-1,1.2503732E0,8.881992E-1,5.120408E-1,8.570683E-1,4.5648512E-1,1.5847535E-1],"categories":[],"categories_nodes":[],"categories_segments":[],"categories_sizes":[],"default_left":[0,0,0,0,0,0,0,0,0,0,0,0,0,0,0,0,0,0,0,0,0,0,0,0,0,0,0,0,0,0,0,0,0,0,0,0,0,0,0,0,0,0,0,0,0,0,0,0,0,0,0,0,0,0,0,0,0,0,0,0,0,0,0],"id":11,"left_children":[1,3,5,7,9,11,13,15,17,19,21,23,25,27,29,31,33,35,37,39,41,43,45,47,49,51,53,55,57,59,61,-1,-1,-1,-1,-1,-1,-1,-1,-1,-1,-1,-1,-1,-1,-1,-1,-1,-1,-1,-1,-1,-1,-1,-1,-1,-1,-1,-1,-1,-1,-1,-1],"loss_changes":[8.62876E7,5.094629E6,6.053619E7,9.5722725E5,1.995629E6,1.0005976E7,5.619488E6,6.543688E4,1.2449425E5,1.133252E6,2.394655E6,1.354696E6,3.525098E5,8.081856E6,1.191562E6,3.4479164E4,8.305906E4,6.824881E4,2.968275E4,3.12341E5,7.544572E4,5.879765E5,2.40865E5,1.139305E5,1.3108E6,3.4957994E5,6.743096E4,8.22316E5,3.73176E6,8.25342E5,1.7287525E5,0E0,0E0,0E0,0E0,0E0,0E0,0E0,0E0,0E0,0E0,0E0,0E0,0E0,0E0,0E0,0E0,0E0,0E0,0E0,0E0,0E0,0E0,0E0,0E0,0E0,0E0,0E0,0E0,0E0,0E0,0E0,0E0],"parents":[2147483647,0,0,1,1,2,2,3,3,4,4,5,5,6,6,7,7,8,8,9,9,10,10,11,11,12,12,13,13,14,14,15,15,16,16,17,17,18,18,19,19,20,20,21,21,22,22,23,23,24,24,25,25,26,26,27,27,28,28,29,29,30,30],"right_children":[2,4,6,8,10,12,14,16,18,20,22,24,26,28,30,32,34,36,38,40,42,44,46,48,50,52,54,56,58,60,62,-1,-1,-1,-1,-1,-1,-1,-1,-1,-1,-1,-1,-1,-1,-1,-1,-1,-1,-1,-1,-1,-1,-1,-1,-1,-1,-1,-1,-1,-1,-1,-1],"split_conditions":[1.1E1,1.99E2,1.75E2,9E0,2E0,2E1,2.2E1,1.74E2,1.59E2,3.22E2,9E0,1.3E1,2.2E1,1.4E1,3.29E2,8E0,1E0,1E1,1E1,2.44E2,3.49E2,3.03E2,3.22E2,1.2E1,1.8E1,1.48E2,1.67E2,1.3E1,3.29E2,2.15E2,3.54E2,1.6616319E-6,4.1919496E-2,2.1288496E-1,3.7313405E-2,9.783142E-2,1.803362E-1,2.0715451E-1,3.2305136E-1,4.065838E-1,6.238166E-1,2.3081268E-1,5.7745274E-2,1.865911E-1,5.3198032E-2,4.5973787E-1,2.820585E-1,2.8645796E-1,3.8978457E-1,5.9555805E-1,3.912554E-1,1.1537372E-1,3.663956E-1,1.7847473E-2,2.0760284E-1,6.983861E-1,9.333758E-1,1.2503732E0,8.881992E-1,5.120408E-1,8.570683E-1,4.5648512E-1,1.5847535E-1],"split_indices":[1,0,0,1,1,1,1,0,0,0,1,1,1,1,0,1,1,1,1,0,0,0,0,1,1,0,0,1,0,0,0,0,0,0,0,0,0,0,0,0,0,0,0,0,0,0,0,0,0,0,0,0,0,0,0,0,0,0,0,0,0,0,0],"split_type":[0,0,0,0,0,0,0,0,0,0,0,0,0,0,0,0,0,0,0,0,0,0,0,0,0,0,0,0,0,0,0,0,0,0,0,0,0,0,0,0,0,0,0,0,0,0,0,0,0,0,0,0,0,0,0,0,0,0,0,0,0,0,0],"sum_hessian":[2.7072E4,1.2408E4,1.4664E4,6.886E3,5.522E3,7.202E3,7.462E3,5.634E3,1.252E3,1.004E3,4.518E3,4.986E3,2.216E3,6.314E3,1.148E3,4.959E3,6.75E2,1.012E3,2.4E2,7.38E2,2.66E2,3.514E3,1.004E3,1.108E3,3.878E3,1.108E3,1.108E3,1.722E3,4.592E3,9.24E2,2.24E2,4.408E3,5.51E2,7.5E1,6E2,5.06E2,5.06E2,1.2E2,1.2E2,2.7E2,4.68E2,1.62E2,1.04E2,2.184E3,1.33E3,7.38E2,2.66E2,5.54E2,5.54E2,2.77E3,1.108E3,9.46E2,1.62E2,1.06E3,4.8E1,1.148E3,5.74E2,3.696E3,8.96E2,2.4E2,6.84E2,1.5E2,7.4E1],"tree_param":{"num_deleted":"0","num_feature":"5","num_nodes":"63","size_leaf_vector":"1"}},{"base_weights":[8.684162E1,2.5770388E1,1.38512E2,7.713321E0,4.828229E1,7.237169E1,2.0032358E2,2.180806E0,3.258803E1,8.840086E1,3.9349464E1,9.7164795E1,1.6568226E1,2.1537776E2,1.5004854E2,9.2868406E-1,1.1364746E1,2.7705276E1,5.297659E1,1.08456184E2,3.256085E1,2.7090572E1,8.218594E1,6.685984E1,1.0580356E2,3.7952328E1,9.421351E0,1.539627E2,2.4165434E2,1.6546075E2,8.493598E1,1.6532766E-6,4.171028E-2,2.1183452E-1,3.712715E-2,9.7343236E-2,1.794363E-1,2.0612732E-1,3.2144946E-1,4.0455836E-1,6.207042E-1,2.296657E-1,5.7459295E-2,1.8565856E-1,5.2932244E-2,4.574423E-1,2.8065348E-1,2.8272936E-1,3.8525677E-1,5.8820325E-1,3.8065067E-1,1.40075E-1,3.5258543E-1,9.843678E-2,2.1375041E-2,6.91652E-1,9.246845E-1,1.2741457E0,9.299775E-1,5.6514055E-1,9.2554337E-1,5.24697E-1,2.1906792E-1],"categories":[],"categories_nodes":[],"categories_segments":[],"categories_sizes":[],"default_left":[0,0,0,0,0,0,0,0,0,0,0,0,0,0,0,0,0,0,0,0,0,0,0,0,0,0,0,0,0,0,0,0,0,0,0,0,0,0,0,0,0,0,0,0,0,0,0,0,0,0,0,0,0,0,0,0,0,0,0,0,0,0,0],"id":12,"left_children":[1,3,5,7,9,11,13,15,17,19,21,23,25,27,29,31,33,35,37,39,41,43,45,47,49,51,53,55,57,59,61,-1,-1,-1,-1,-1,-1,-1,-1,-1,-1,-1,-1,-1,-1,-1,-1,-1,-1,-1,-1,-1,-1,-1,-1,-1,-1,-1,-1,-1,-1,-1,-1],"loss_changes":[8.542726E7,5.043872E6,5.993952E7,9.4771594E5,1.975811E6,9.802164E6,5.704608E6,6.4788633E4,1.23271375E5,1.1219575E6,2.370826E6,1.2773E6,3.3296356E5,9.372736E6,1.742128E6,3.413585E4,8.224347E4,6.756944E4,2.9389125E4,3.09224E5,7.4696875E4,5.8211375E5,2.38456E5,1.103235E5,1.331404E6,1.7471375E5,8.6349625E4,8.2176E5,2.945904E6,1.435768E6,2.726145E5,0E0,0E0,0E0,0E0,0E0,0E0,0E0,0E0,0E0,0E0,0E0,0E0,0E0,0E0,0E0,0E0,0E0,0E0,0E0,0E0,0E0,0E0,0E0,0E0,0E0,0E0,0E0,0E0,0E0,0E0,0E0,0E0],"parents":[2147483647,0,0,1,1,2,2,3,3,4,4,5,5,6,6,7,7,8,8,9,9,10,10,11,11,12,12,13,13,14,14,15,15,16,16,17,17,18,18,19,19,20,20,21,21,22,22,23,23,24,24,25,25,26,26,27,27,28,28,29,29,30,30],"right_children":[2,4,6,8,10,12,14,16,18,20,22,24,26,28,30,32,34,36,38,40,42,44,46,48,50,52,54,56,58,60,62,-1,-1,-1,-1,-1,-1,-1,-1,-1,-1,-1,-1,-1,-1,-1,-1,-1,-1,-1,-1,-1,-1,-1,-1,-1,-1,-1,-1,-1,-1,-1,-1],"split_conditions":[1.1E1,1.99E2,1.72E2,9E0,2E0,2E1,2.1E1,1.74E2,1.59E2,3.22E2,9E0,1.3E1,2.1E1,1.4E1,3.29E2,8E0,1E0,1E1,1E1,2.44E2,3.49E2,3.03E2,3.22E2,1.2E1,1.8E1,1.3E2,2.2E1,1.3E1,3.29E2,2.15E2,3.54E2,1.6532766E-6,4.171028E-2,2.1183452E-1,3.712715E-2,9.7343236E-2,1.794363E-1,2.0612732E-1,3.2144946E-1,4.0455836E-1,6.207042E-1,2.296657E-1,5.7459295E-2,1.8565856E-1,5.2932244E-2,4.574423E-1,2.8065348E-1,2.8272936E-1,3.8525677E-1,5.8820325E-1,3.8065067E-1,1.40075E-1,3.5258543E-1,9.843678E-2,2.1375041E-2,6.91652E-1,9.246845E-1,1.2741457E0,9.299775E-1,5.6514055E-1,9.2554337E-1,5.24697E-1,2.1906792E-1],"split_indices":[1,0,0,1,1,1,1,0,0,0,1,1,1,1,0,1,1,1,1,0,0,0,0,1,1,0,1,1,0,0,0,0,0,0,0,0,0,0,0,0,0,0,0,0,0,0,0,0,0,0,0,0,0,0,0,0,0,0,0,0,0,0,0],"split_type":[0,0,0,0,0,0,0,0,0,0,0,0,0,0,0,0,0,0,0,0,0,0,0,0,0,0,0,0,0,0,0,0,0,0,0,0,0,0,0,0,0,0,0,0,0,0,0,0,0,0,0,0,0,0,0,0,0,0,0,0,0,0,0],"sum_hessian":[2.7072E4,1.2408E4,1.4664E4,6.886E3,5.522E3,7.085E3,7.579E3,5.634E3,1.252E3,1.004E3,4.518E3,4.905E3,2.18E3,5.83E3,1.749E3,4.959E3,6.75E2,1.012E3,2.4E2,7.38E2,2.66E2,3.514E3,1.004E3,1.09E3,3.815E3,5.45E2,1.635E3,1.749E3,4.081E3,1.413E3,3.36E2,4.408E3,5.51E2,7.5E1,6E2,5.06E2,5.06E2,1.2E2,1.2E2,2.7E2,4.68E2,1.62E2,1.04E2,2.184E3,1.33E3,7.38E2,2.66E2,5.45E2,5.45E2,2.725E3,1.09E3,4.19E2,1.26E2,5.45E2,1.09E3,1.166E3,5.83E2,3.297E3,7.84E2,3.87E2,1.026E3,2.25E2,1.11E2],"tree_param":{"num_deleted":"0","num_feature":"5","num_nodes":"63","size_leaf_vector":"1"}},{"base_weights":[8.6407845E1,2.5641808E1,1.3782E2,7.674914E0,4.8041294E1,7.305099E1,2.003141E2,2.1699533E0,3.242573E1,8.796016E1,3.9152935E1,9.764837E1,1.7687798E1,2.1524673E2,1.5044261E2,9.24049E-1,1.13082905E1,2.7567024E1,5.2713894E1,1.0791528E2,3.239912E1,2.6955187E1,8.177575E1,8.970751E1,1.3147427E2,3.9307827E1,1.0461819E1,1.5389731E2,2.414945E2,1.6635298E2,8.4513504E1,1.6449529E-6,4.1502107E-2,2.107893E-1,3.694182E-2,9.6857466E-2,1.785409E-1,2.0510519E-1,3.1985548E-1,3.3901635E-1,5.926611E-1,2.2852442E-1,5.7174735E-2,1.8473072E-1,5.2667778E-2,4.5515817E-1,2.7925545E-1,6.034571E-1,3.9184725E-1,4.829145E-1,7.436962E-1,1.4752932E-1,4.0274552E-1,4.170869E-2,2.8262326E-1,6.136036E-1,8.468261E-1,1.2790385E0,9.38351E-1,5.917744E-1,9.27067E-1,5.2208513E-1,2.1798237E-1],"categories":[],"categories_nodes":[],"categories_segments":[],"categories_sizes":[],"default_left":[0,0,0,0,0,0,0,0,0,0,0,0,0,0,0,0,0,0,0,0,0,0,0,0,0,0,0,0,0,0,0,0,0,0,0,0,0,0,0,0,0,0,0,0,0,0,0,0,0,0,0,0,0,0,0,0,0,0,0,0,0,0,0],"id":13,"left_children":[1,3,5,7,9,11,13,15,17,19,21,23,25,27,29,31,33,35,37,39,41,43,45,47,49,51,53,55,57,59,61,-1,-1,-1,-1,-1,-1,-1,-1,-1,-1,-1,-1,-1,-1,-1,-1,-1,-1,-1,-1,-1,-1,-1,-1,-1,-1,-1,-1,-1,-1,-1,-1],"loss_changes":[8.457558E7,4.993623E6,5.934461E7,9.382991E5,1.95619E6,9.80724E6,5.52544E6,6.414681E4,1.220605E5,1.1107755E6,2.347234E6,1.327748E6,3.459415E5,9.207488E6,1.793292E6,3.3795965E4,8.1435875E4,6.689669E4,2.9098375E4,3.06679E5,7.39555E4,5.7630925E5,2.360715E5,1.410486E6,5.55503E5,2.219795E5,1.6193198E5,8.10108E5,3.048224E6,1.246976E6,2.69898E5,0E0,0E0,0E0,0E0,0E0,0E0,0E0,0E0,0E0,0E0,0E0,0E0,0E0,0E0,0E0,0E0,0E0,0E0,0E0,0E0,0E0,0E0,0E0,0E0,0E0,0E0,0E0,0E0,0E0,0E0,0E0,0E0],"parents":[2147483647,0,0,1,1,2,2,3,3,4,4,5,5,6,6,7,7,8,8,9,9,10,10,11,11,12,12,13,13,14,14,15,15,16,16,17,17,18,18,19,19,20,20,21,21,22,22,23,23,24,24,25,25,26,26,27,27,28,28,29,29,30,30],"right_children":[2,4,6,8,10,12,14,16,18,20,22,24,26,28,30,32,34,36,38,40,42,44,46,48,50,52,54,56,58,60,62,-1,-1,-1,-1,-1,-1,-1,-1,-1,-1,-1,-1,-1,-1,-1,-1,-1,-1,-1,-1,-1,-1,-1,-1,-1,-1,-1,-1,-1,-1,-1,-1],"split_conditions":[1.1E1,1.99E2,1.75E2,9E0,2E0,2E1,2.1E1,1.74E2,1.59E2,3.22E2,9E0,1.4E2,2.1E1,1.4E1,3.29E2,8E0,1E0,1E1,1E1,2.25E2,3.49E2,3.03E2,3.22E2,3.1E1,1.4E1,1.4E2,1.67E2,1.2E1,3.26E2,2.19E2,3.54E2,1.6449529E-6,4.1502107E-2,2.107893E-1,3.694182E-2,9.6857466E-2,1.785409E-1,2.0510519E-1,3.1985548E-1,3.3901635E-1,5.926611E-1,2.2852442E-1,5.7174735E-2,1.8473072E-1,5.2667778E-2,4.5515817E-1,2.7925545E-1,6.034571E-1,3.9184725E-1,4.829145E-1,7.436962E-1,1.4752932E-1,4.0274552E-1,4.170869E-2,2.8262326E-1,6.136036E-1,8.468261E-1,1.2790385E0,9.38351E-1,5.917744E-1,9.27067E-1,5.2208513E-1,2.1798237E-1],"split_indices":[1,0,0,1,1,1,1,0,0,0,1,0,1,1,0,1,1,1,1,0,0,0,0,0,1,0,0,1,0,0,0,0,0,0,0,0,0,0,0,0,0,0,0,0,0,0,0,0,0,0,0,0,0,0,0,0,0,0,0,0,0,0,0],"split_type":[0,0,0,0,0,0,0,0,0,0,0,0,0,0,0,0,0,0,0,0,0,0,0,0,0,0,0,0,0,0,0,0,0,0,0,0,0,0,0,0,0,0,0,0,0,0,0,0,0,0,0,0,0,0,0,0,0,0,0,0,0,0,0],"sum_hessian":[2.7072E4,1.2408E4,1.4664E4,6.886E3,5.522E3,7.202E3,7.462E3,5.634E3,1.252E3,1.004E3,4.518E3,4.986E3,2.216E3,5.74E3,1.722E3,4.959E3,6.75E2,1.012E3,2.4E2,7.38E2,2.66E2,3.514E3,1.004E3,4.041E3,9.45E2,5.54E2,1.662E3,1.722E3,4.018E3,1.386E3,3.36E2,4.408E3,5.51E2,7.5E1,6E2,5.06E2,5.06E2,1.2E2,1.2E2,1.56E2,5.82E2,1.62E2,1.04E2,2.184E3,1.33E3,7.38E2,2.66E2,1.08E3,2.961E3,3.15E2,6.3E2,4.49E2,1.05E2,1.59E3,7.2E1,5.74E2,1.148E3,3.171E3,8.47E2,3.96E2,9.9E2,2.25E2,1.11E2],"tree_param":{"num_deleted":"0","num_feature":"5","num_nodes":"63","size_leaf_vector":"1"}},{"base_weights":[8.597626E1,2.5513863E1,1.3713152E2,7.443081E0,4.7563477E1,7.164839E1,1.9832892E2,1.9886134E0,3.1966803E1,8.7232216E1,3.8731056E1,1.00758896E2,2.5051714E1,2.1323279E2,1.485559E2,9.194371E-1,1.0511324E1,2.742946E1,5.1898514E1,1.0666786E2,3.2238194E1,2.6591618E1,8.115116E1,6.607209E1,1.1229743E2,4.8610107E1,9.326008E0,1.5242958E2,2.3924759E2,1.638143E2,8.409313E1,1.6365416E-6,4.1294973E-2,1.9356656E-1,3.461222E-2,9.637414E-2,1.7764995E-1,2.0240486E-1,3.143238E-1,3.3574593E-1,5.8970284E-1,2.273888E-1,5.6891583E-2,1.8104236E-1,5.2404635E-2,4.5068422E-1,2.7786443E-1,2.7905005E-1,3.8106576E-1,5.236564E-1,7.307499E-1,1.8779895E-1,4.2531538E-1,9.770425E-2,2.102679E-2,6.845678E-1,9.158702E-1,1.261472E0,9.206478E-1,5.5947846E-1,9.1634804E-1,5.1948625E-1,2.1690218E-1],"categories":[],"categories_nodes":[],"categories_segments":[],"categories_sizes":[],"default_left":[0,0,0,0,0,0,0,0,0,0,0,0,0,0,0,0,0,0,0,0,0,0,0,0,0,0,0,0,0,0,0,0,0,0,0,0,0,0,0,0,0,0,0,0,0,0,0,0,0,0,0,0,0,0,0,0,0,0,0,0,0,0,0],"id":14,"left_children":[1,3,5,7,9,11,13,15,17,19,21,23,25,27,29,31,33,35,37,39,41,43,45,47,49,51,53,55,57,59,61,-1,-1,-1,-1,-1,-1,-1,-1,-1,-1,-1,-1,-1,-1,-1,-1,-1,-1,-1,-1,-1,-1,-1,-1,-1,-1,-1,-1,-1,-1,-1,-1],"loss_changes":[8.37325E7,4.9440585E6,5.875427E7,9.123396E5,1.954846E6,9.609304E6,5.591232E6,5.084597E4,1.1080875E5,1.083575E6,2.352737E6,1.738004E6,1.0094544E6,9.186912E6,1.707524E6,3.345946E4,6.268685E4,6.623069E4,2.6127688E4,3.26638E5,7.322144E4,5.507215E5,2.287365E5,1.09285E5,8.22504E5,4.36278E5,8.549147E4,8.09728E5,2.888976E6,1.407764E6,2.67209E5,0E0,0E0,0E0,0E0,0E0,0E0,0E0,0E0,0E0,0E0,0E0,0E0,0E0,0E0,0E0,0E0,0E0,0E0,0E0,0E0,0E0,0E0,0E0,0E0,0E0,0E0,0E0,0E0,0E0,0E0,0E0,0E0],"parents":[2147483647,0,0,1,1,2,2,3,3,4,4,5,5,6,6,7,7,8,8,9,9,10,10,11,11,12,12,13,13,14,14,15,15,16,16,17,17,18,18,19,19,20,20,21,21,22,22,23,23,24,24,25,25,26,26,27,27,28,28,29,29,30,30],"right_children":[2,4,6,8,10,12,14,16,18,20,22,24,26,28,30,32,34,36,38,40,42,44,46,48,50,52,54,56,58,60,62,-1,-1,-1,-1,-1,-1,-1,-1,-1,-1,-1,-1,-1,-1,-1,-1,-1,-1,-1,-1,-1,-1,-1,-1,-1,-1,-1,-1,-1,-1,-1,-1],"split_conditions":[1.1E1,1.97E2,1.72E2,9E0,2E0,1.9E1,2.1E1,1.74E2,1.59E2,3.22E2,9E0,1.3E1,2.1E1,1.4E1,3.29E2,8E0,1E0,1E1,1E1,2.25E2,3.49E2,3.03E2,3.22E2,1.2E1,1.39E2,1.3E2,2.2E1,1.3E1,3.29E2,2.15E2,3.54E2,1.6365416E-6,4.1294973E-2,1.9356656E-1,3.461222E-2,9.637414E-2,1.7764995E-1,2.0240486E-1,3.143238E-1,3.3574593E-1,5.8970284E-1,2.273888E-1,5.6891583E-2,1.8104236E-1,5.2404635E-2,4.5068422E-1,2.7786443E-1,2.7905005E-1,3.8106576E-1,5.236564E-1,7.307499E-1,1.8779895E-1,4.2531538E-1,9.770425E-2,2.102679E-2,6.845678E-1,9.158702E-1,1.261472E0,9.206478E-1,5.5947846E-1,9.1634804E-1,5.1948625E-1,2.1690218E-1],"split_indices":[1,0,0,1,1,1,1,0,0,0,1,1,1,1,0,1,1,1,1,0,0,0,0,1,0,0,1,1,0,0,0,0,0,0,0,0,0,0,0,0,0,0,0,0,0,0,0,0,0,0,0,0,0,0,0,0,0,0,0,0,0,0,0],"split_type":[0,0,0,0,0,0,0,0,0,0,0,0,0,0,0,0,0,0,0,0,0,0,0,0,0,0,0,0,0,0,0,0,0,0,0,0,0,0,0,0,0,0,0,0,0,0,0,0,0,0,0,0,0,0,0,0,0,0,0,0,0,0,0],"sum_hessian":[2.7072E4,1.2408E4,1.4664E4,6.82E3,5.588E3,7.085E3,7.579E3,5.58E3,1.24E3,1.016E3,4.572E3,4.36E3,2.725E3,5.83E3,1.749E3,4.959E3,6.21E2,1.012E3,2.28E2,7.5E2,2.66E2,3.556E3,1.016E3,1.09E3,3.27E3,1.09E3,1.635E3,1.749E3,4.081E3,1.413E3,3.36E2,4.408E3,5.51E2,6.9E1,5.52E2,5.06E2,5.06E2,1.14E2,1.14E2,1.68E2,5.82E2,1.62E2,1.04E2,2.226E3,1.33E3,7.5E2,2.66E2,5.45E2,5.45E2,2.676E3,5.94E2,8.38E2,2.52E2,5.45E2,1.09E3,1.166E3,5.83E2,3.297E3,7.84E2,3.87E2,1.026E3,2.25E2,1.11E2],"tree_param":{"num_deleted":"0","num_feature":"5","num_nodes":"63","size_leaf_vector":"1"}},{"base_weights":[8.5546814E1,2.5386555E1,1.3644646E2,7.5975184E0,4.7564304E1,7.231812E1,1.9832236E2,2.1472907E0,3.2102257E1,8.708542E1,3.8764507E1,9.6676094E1,1.7493797E1,2.0984776E2,1.3480522E2,9.148483E-1,1.1186887E1,2.7292583E1,5.2185635E1,1.06841675E2,3.2078068E1,2.6688162E1,8.0963104E1,6.621787E1,1.0535913E2,2.986035E1,5.1114697E0,1.5236743E2,2.31365E2,1.5036946E2,7.021977E1,1.6285205E-6,4.108887E-2,2.08738E-1,3.651845E-2,9.589322E-2,1.7676346E-1,2.0302291E-1,3.16677E-1,3.9811406E-1,6.1170805E-1,2.2625883E-1,5.6609835E-2,1.8290268E-1,5.214281E-2,4.506351E-1,2.7648032E-1,2.7988774E-1,3.816944E-1,4.825429E-1,7.1511596E-1,1.1285557E-1,3.6013144E-1,1.7338162E-2,2.030063E-1,6.0712403E-1,8.38598E-1,1.2293947E0,8.8415027E-1,5.3394026E-1,8.525299E-1,4.4643837E-1,1.5446739E-1],"categories":[],"categories_nodes":[],"categories_segments":[],"categories_sizes":[],"default_left":[0,0,0,0,0,0,0,0,0,0,0,0,0,0,0,0,0,0,0,0,0,0,0,0,0,0,0,0,0,0,0,0,0,0,0,0,0,0,0,0,0,0,0,0,0,0,0,0,0,0,0,0,0,0,0,0,0,0,0,0,0,0,0],"id":15,"left_children":[1,3,5,7,9,11,13,15,17,19,21,23,25,27,29,31,33,35,37,39,41,43,45,47,49,51,53,55,57,59,61,-1,-1,-1,-1,-1,-1,-1,-1,-1,-1,-1,-1,-1,-1,-1,-1,-1,-1,-1,-1,-1,-1,-1,-1,-1,-1,-1,-1,-1,-1,-1,-1],"loss_changes":[8.28977E7,4.895247E6,5.817635E7,9.197339E5,1.917401E6,9.617264E6,5.435072E6,6.2768062E4,1.19608625E5,1.088746E6,2.3007435E6,1.311936E6,3.3932925E5,7.775264E6,1.144444E6,3.312631E4,7.99182E4,6.557144E4,2.8547688E4,3.02037E5,7.249472E4,5.649925E5,2.31403E5,1.106665E5,1.279252E6,3.392338E5,6.455765E4,7.98124E5,3.591952E6,7.93552E5,1.6596225E5,0E0,0E0,0E0,0E0,0E0,0E0,0E0,0E0,0E0,0E0,0E0,0E0,0E0,0E0,0E0,0E0,0E0,0E0,0E0,0E0,0E0,0E0,0E0,0E0,0E0,0E0,0E0,0E0,0E0,0E0,0E0,0E0],"parents":[2147483647,0,0,1,1,2,2,3,3,4,4,5,5,6,6,7,7,8,8,9,9,10,10,11,11,12,12,13,13,14,14,15,15,16,16,17,17,18,18,19,19,20,20,21,21,22,22,23,23,24,24,25,25,26,26,27,27,28,28,29,29,30,30],"right_children":[2,4,6,8,10,12,14,16,18,20,22,24,26,28,30,32,34,36,38,40,42,44,46,48,50,52,54,56,58,60,62,-1,-1,-1,-1,-1,-1,-1,-1,-1,-1,-1,-1,-1,-1,-1,-1,-1,-1,-1,-1,-1,-1,-1,-1,-1,-1,-1,-1,-1,-1,-1,-1],"split_conditions":[1.1E1,1.99E2,1.75E2,9E0,2E0,2E1,2.2E1,1.74E2,1.59E2,3.22E2,9E0,1.3E1,2.2E1,1.4E1,3.29E2,8E0,1E0,1E1,1E1,2.44E2,3.49E2,3.03E2,3.22E2,1.2E1,1.4E2,1.48E2,1.67E2,1.2E1,3.26E2,2.24E2,3.54E2,1.6285205E-6,4.108887E-2,2.08738E-1,3.651845E-2,9.589322E-2,1.7676346E-1,2.0302291E-1,3.16677E-1,3.9811406E-1,6.1170805E-1,2.2625883E-1,5.6609835E-2,1.8290268E-1,5.214281E-2,4.506351E-1,2.7648032E-1,2.7988774E-1,3.816944E-1,4.825429E-1,7.1511596E-1,1.1285557E-1,3.6013144E-1,1.7338162E-2,2.030063E-1,6.0712403E-1,8.38598E-1,1.2293947E0,8.8415027E-1,5.3394026E-1,8.525299E-1,4.4643837E-1,1.5446739E-1],"split_indices":[1,0,0,1,1,1,1,0,0,0,1,1,1,1,0,1,1,1,1,0,0,0,0,1,0,0,0,1,0,0,0,0,0,0,0,0,0,0,0,0,0,0,0,0,0,0,0,0,0,0,0,0,0,0,0,0,0,0,0,0,0,0,0],"split_type":[0,0,0,0,0,0,0,0,0,0,0,0,0,0,0,0,0,0,0,0,0,0,0,0,0,0,0,0,0,0,0,0,0,0,0,0,0,0,0,0,0,0,0,0,0,0,0,0,0,0,0,0,0,0,0,0,0,0,0,0,0,0,0],"sum_hessian":[2.7072E4,1.2408E4,1.4664E4,6.886E3,5.522E3,7.202E3,7.462E3,5.634E3,1.252E3,1.004E3,4.518E3,4.986E3,2.216E3,6.314E3,1.148E3,4.959E3,6.75E2,1.012E3,2.4E2,7.38E2,2.66E2,3.514E3,1.004E3,1.108E3,3.878E3,1.108E3,1.108E3,1.722E3,4.592E3,9.24E2,2.24E2,4.408E3,5.51E2,7.5E1,6E2,5.06E2,5.06E2,1.2E2,1.2E2,2.7E2,4.68E2,1.62E2,1.04E2,2.184E3,1.33E3,7.38E2,2.66E2,5.54E2,5.54E2,3.143E3,7.35E2,9.46E2,1.62E2,1.06E3,4.8E1,5.74E2,1.148E3,3.624E3,9.68E2,2.94E2,6.3E2,1.5E2,7.4E1],"tree_param":{"num_deleted":"0","num_feature":"5","num_nodes":"63","size_leaf_vector":"1"}},{"base_weights":[8.511951E1,2.5259892E1,1.3576477E2,7.559687E0,4.7326893E1,7.195689E1,1.973315E2,2.136605E0,3.1942375E1,8.6651276E1,3.8570896E1,9.6193085E1,1.7406641E1,2.1206847E2,1.481137E2,9.102824E-1,1.1131315E1,2.715639E1,5.1926865E1,1.0630884E2,3.191874E1,2.6554789E1,8.055901E1,6.5887375E1,1.0483264E2,2.9711475E1,5.086111E0,1.5160645E2,2.3793658E2,1.6379156E2,8.3148384E1,1.620463E-6,4.0883802E-2,2.0770803E-1,3.633616E-2,9.5414706E-2,1.7588139E-1,2.0201619E-1,3.151067E-1,3.9613083E-1,6.0865605E-1,2.2513448E-1,5.632948E-2,1.8198858E-1,5.1882293E-2,4.48385E-1,2.751031E-1,2.784908E-1,3.7978938E-1,5.8163106E-1,3.8009864E-1,1.0621228E-1,3.282715E-1,1.7251553E-2,2.0201199E-1,6.80763E-1,9.1111785E-1,1.260195E0,9.2452484E-1,5.820517E-1,9.130373E-1,5.1395166E-1,2.1385662E-1],"categories":[],"categories_nodes":[],"categories_segments":[],"categories_sizes":[],"default_left":[0,0,0,0,0,0,0,0,0,0,0,0,0,0,0,0,0,0,0,0,0,0,0,0,0,0,0,0,0,0,0,0,0,0,0,0,0,0,0,0,0,0,0,0,0,0,0,0,0,0,0,0,0,0,0,0,0,0,0,0,0,0,0],"id":16,"left_children":[1,3,5,7,9,11,13,15,17,19,21,23,25,27,29,31,33,35,37,39,41,43,45,47,49,51,53,55,57,59,61,-1,-1,-1,-1,-1,-1,-1,-1,-1,-1,-1,-1,-1,-1,-1,-1,-1,-1,-1,-1,-1,-1,-1,-1,-1,-1,-1,-1,-1,-1,-1,-1],"loss_changes":[8.207123E7,4.846479E6,5.7596384E7,9.1059525E5,1.898359E6,9.521348E6,5.381664E6,6.2146258E4,1.184335E5,1.077894E6,2.2778495E6,1.298828E6,3.359507E5,8.943088E6,1.741288E6,3.279647E4,7.913343E4,6.4918688E4,2.826525E4,2.9902E5,7.177516E4,5.593585E5,2.29088E5,1.09564E5,1.27574E6,3.3618562E5,6.392796E4,7.90432E5,2.959088E6,1.21528E6,2.6287275E5,0E0,0E0,0E0,0E0,0E0,0E0,0E0,0E0,0E0,0E0,0E0,0E0,0E0,0E0,0E0,0E0,0E0,0E0,0E0,0E0,0E0,0E0,0E0,0E0,0E0,0E0,0E0,0E0,0E0,0E0,0E0,0E0],"parents":[2147483647,0,0,1,1,2,2,3,3,4,4,5,5,6,6,7,7,8,8,9,9,10,10,11,11,12,12,13,13,14,14,15,15,16,16,17,17,18,18,19,19,20,20,21,21,22,22,23,23,24,24,25,25,26,26,27,27,28,28,29,29,30,30],"right_children":[2,4,6,8,10,12,14,16,18,20,22,24,26,28,30,32,34,36,38,40,42,44,46,48,50,52,54,56,58,60,62,-1,-1,-1,-1,-1,-1,-1,-1,-1,-1,-1,-1,-1,-1,-1,-1,-1,-1,-1,-1,-1,-1,-1,-1,-1,-1,-1,-1,-1,-1,-1,-1],"split_conditions":[1.1E1,1.99E2,1.75E2,9E0,2E0,2E1,2.1E1,1.74E2,1.59E2,3.22E2,9E0,1.3E1,2.2E1,1.4E1,3.29E2,8E0,1E0,1E1,1E1,2.44E2,3.49E2,3.03E2,3.22E2,1.2E1,1.8E1,1.4E2,1.67E2,1.3E1,3.26E2,2.19E2,3.54E2,1.620463E-6,4.0883802E-2,2.0770803E-1,3.633616E-2,9.5414706E-2,1.7588139E-1,2.0201619E-1,3.151067E-1,3.9613083E-1,6.0865605E-1,2.2513448E-1,5.632948E-2,1.8198858E-1,5.1882293E-2,4.48385E-1,2.751031E-1,2.784908E-1,3.7978938E-1,5.8163106E-1,3.8009864E-1,1.0621228E-1,3.282715E-1,1.7251553E-2,2.0201199E-1,6.80763E-1,9.1111785E-1,1.260195E0,9.2452484E-1,5.820517E-1,9.130373E-1,5.1395166E-1,2.1385662E-1],"split_indices":[1,0,0,1,1,1,1,0,0,0,1,1,1,1,0,1,1,1,1,0,0,0,0,1,1,0,0,1,0,0,0,0,0,0,0,0,0,0,0,0,0,0,0,0,0,0,0,0,0,0,0,0,0,0,0,0,0,0,0,0,0,0,0],"split_type":[0,0,0,0,0,0,0,0,0,0,0,0,0,0,0,0,0,0,0,0,0,0,0,0,0,0,0,0,0,0,0,0,0,0,0,0,0,0,0,0,0,0,0,0,0,0,0,0,0,0,0,0,0,0,0,0,0,0,0,0,0,0,0],"sum_hessian":[2.7072E4,1.2408E4,1.4664E4,6.886E3,5.522E3,7.202E3,7.462E3,5.634E3,1.252E3,1.004E3,4.518E3,4.986E3,2.216E3,5.74E3,1.722E3,4.959E3,6.75E2,1.012E3,2.4E2,7.38E2,2.66E2,3.514E3,1.004E3,1.108E3,3.878E3,1.108E3,1.108E3,1.722E3,4.018E3,1.386E3,3.36E2,4.408E3,5.51E2,7.5E1,6E2,5.06E2,5.06E2,1.2E2,1.2E2,2.7E2,4.68E2,1.62E2,1.04E2,2.184E3,1.33E3,7.38E2,2.66E2,5.54E2,5.54E2,2.77E3,1.108E3,8.98E2,2.1E2,1.06E3,4.8E1,1.148E3,5.74E2,3.171E3,8.47E2,3.96E2,9.9E2,2.25E2,1.11E2],"tree_param":{"num_deleted":"0","num_feature":"5","num_nodes":"63","size_leaf_vector":"1"}},{"base_weights":[8.4694336E1,2.513386E1,1.3508652E2,7.235281E0,4.6740124E1,7.057339E1,1.953774E2,1.8761283E0,3.1330421E1,8.57375E1,3.8057285E1,9.928712E1,2.4611864E1,2.0682802E2,1.3227571E2,8.755124E-1,9.866686E0,2.6451525E1,4.8588005E1,1.0466247E2,3.1760199E1,2.609681E1,7.985251E1,6.508301E1,1.106651E2,4.7770935E1,9.152721E0,1.5016022E2,2.280417E2,1.4712366E2,6.9458374E1,1.612422E-6,4.084105E-2,3.6095083E-2,1.0692292E-1,9.2654586E-2,1.7158681E-1,1.8774934E-1,2.9634434E-1,3.2785758E-1,5.8108467E-1,2.0932099E-1,2.6678821E-2,1.7711814E-1,5.1623076E-2,3.2294154E-1,4.7480372E-1,2.7487057E-1,3.753635E-1,5.1588815E-1,7.208323E-1,1.8416002E-1,4.1928923E-1,9.576503E-2,2.0698031E-2,5.977941E-1,8.2672673E-1,1.2061013E0,8.620703E-1,4.8212174E-1,8.30392E-1,4.4166818E-1,1.5265033E-1],"categories":[],"categories_nodes":[],"categories_segments":[],"categories_sizes":[],"default_left":[0,0,0,0,0,0,0,0,0,0,0,0,0,0,0,0,0,0,0,0,0,0,0,0,0,0,0,0,0,0,0,0,0,0,0,0,0,0,0,0,0,0,0,0,0,0,0,0,0,0,0,0,0,0,0,0,0,0,0,0,0,0,0],"id":17,"left_children":[1,3,5,7,9,11,13,15,17,19,21,23,25,27,29,31,33,35,37,39,41,43,45,47,49,51,53,55,57,59,61,-1,-1,-1,-1,-1,-1,-1,-1,-1,-1,-1,-1,-1,-1,-1,-1,-1,-1,-1,-1,-1,-1,-1,-1,-1,-1,-1,-1,-1,-1,-1,-1],"loss_changes":[8.125302E7,4.7984865E6,5.7026496E7,8.764724E5,1.900392E6,9.349136E6,5.4496E6,4.4398254E4,1.02699375E5,1.04169E6,2.2974135E6,1.689988E6,9.755236E5,7.676224E6,1.078252E6,3.1510375E4,1.8691887E4,5.9485625E4,2.9724562E4,3.34298E5,7.106366E4,5.2597375E5,2.29786E5,1.060475E5,8.05624E5,4.27586E5,8.193761E4,7.93432E5,3.378288E6,8.90202E5,1.6262925E5,0E0,0E0,0E0,0E0,0E0,0E0,0E0,0E0,0E0,0E0,0E0,0E0,0E0,0E0,0E0,0E0,0E0,0E0,0E0,0E0,0E0,0E0,0E0,0E0,0E0,0E0,0E0,0E0,0E0,0E0,0E0,0E0],"parents":[2147483647,0,0,1,1,2,2,3,3,4,4,5,5,6,6,7,7,8,8,9,9,10,10,11,11,12,12,13,13,14,14,15,15,16,16,17,17,18,18,19,19,20,20,21,21,22,22,23,23,24,24,25,25,26,26,27,27,28,28,29,29,30,30],"right_children":[2,4,6,8,10,12,14,16,18,20,22,24,26,28,30,32,34,36,38,40,42,44,46,48,50,52,54,56,58,60,62,-1,-1,-1,-1,-1,-1,-1,-1,-1,-1,-1,-1,-1,-1,-1,-1,-1,-1,-1,-1,-1,-1,-1,-1,-1,-1,-1,-1,-1,-1,-1,-1],"split_conditions":[1.1E1,1.96E2,1.72E2,9E0,2E0,1.9E1,2.2E1,8E0,1.51E2,3.22E2,9E0,1.3E1,2.1E1,1.4E1,3.29E2,1.74E2,1.58E2,1E1,1E1,2.25E2,3.54E2,3.03E2,1E1,1.2E1,1.39E2,1.3E2,2.2E1,1.2E1,3.29E2,2.15E2,3.54E2,1.612422E-6,4.084105E-2,3.6095083E-2,1.0692292E-1,9.2654586E-2,1.7158681E-1,1.8774934E-1,2.9634434E-1,3.2785758E-1,5.8108467E-1,2.0932099E-1,2.6678821E-2,1.7711814E-1,5.1623076E-2,3.2294154E-1,4.7480372E-1,2.7487057E-1,3.753635E-1,5.1588815E-1,7.208323E-1,1.8416002E-1,4.1928923E-1,9.576503E-2,2.0698031E-2,5.977941E-1,8.2672673E-1,1.2061013E0,8.620703E-1,4.8212174E-1,8.30392E-1,4.4166818E-1,1.5265033E-1],"split_indices":[1,0,0,1,1,1,1,1,0,0,1,1,1,1,0,0,0,1,1,0,0,0,1,1,0,0,1,1,0,0,0,0,0,0,0,0,0,0,0,0,0,0,0,0,0,0,0,0,0,0,0,0,0,0,0,0,0,0,0,0,0,0,0],"split_type":[0,0,0,0,0,0,0,0,0,0,0,0,0,0,0,0,0,0,0,0,0,0,0,0,0,0,0,0,0,0,0,0,0,0,0,0,0,0,0,0,0,0,0,0,0,0,0,0,0,0,0,0,0,0,0,0,0,0,0,0,0,0,0],"sum_hessian":[2.7072E4,1.2408E4,1.4664E4,6.787E3,5.621E3,7.085E3,7.579E3,5.553E3,1.234E3,1.022E3,4.599E3,4.36E3,2.725E3,6.413E3,1.166E3,4.936E3,6.17E2,9.64E2,2.7E2,7.56E2,2.66E2,3.577E3,1.022E3,1.09E3,3.27E3,1.09E3,1.635E3,1.749E3,4.664E3,9.42E2,2.24E2,4.408E3,5.28E2,5.03E2,1.14E2,4.82E2,4.82E2,1.35E2,1.35E2,1.74E2,5.82E2,1.92E2,7.4E1,2.247E3,1.33E3,5.11E2,5.11E2,5.45E2,5.45E2,2.676E3,5.94E2,8.38E2,2.52E2,5.45E2,1.09E3,5.83E2,1.166E3,3.768E3,8.96E2,2.58E2,6.84E2,1.5E2,7.4E1],"tree_param":{"num_deleted":"0","num_feature":"5","num_nodes":"63","size_leaf_vector":"1"}},{"base_weights":[8.427128E1,2.500844E1,1.3441162E2,8.133017E0,4.7701984E1,7.123457E1,1.9536967E2,2.6829948E0,3.2637108E1,8.699686E1,3.8951717E1,9.523552E1,1.7213842E1,2.0998654E2,1.4655318E2,9.0104264E-1,1.2897792E1,2.6883677E1,5.311622E1,1.0809206E2,3.1602282E1,2.7061808E1,8.049509E1,8.744482E1,1.284224E2,3.830293E1,1.0165342E1,1.5009935E2,2.3560875E2,1.6207901E2,8.2218185E1,1.6043941E-6,4.0468812E-2,1.8240814E-1,3.0576788E-2,9.445371E-2,1.7411792E-1,2.0634127E-1,3.2295063E-1,4.1059002E-1,6.0272E-1,2.2297552E-1,5.5657476E-2,1.9006567E-1,5.1365156E-2,4.6070385E-1,2.9093006E-1,5.914034E-1,3.8080776E-1,4.7131905E-1,7.266261E-1,1.436872E-1,3.9274898E-1,4.04581E-2,2.7610928E-1,6.73804E-1,9.0244365E-1,1.2478673E0,9.154746E-1,5.927226E-1,9.112416E-1,5.084972E-1,2.1086864E-1],"categories":[],"categories_nodes":[],"categories_segments":[],"categories_sizes":[],"default_left":[0,0,0,0,0,0,0,0,0,0,0,0,0,0,0,0,0,0,0,0,0,0,0,0,0,0,0,0,0,0,0,0,0,0,0,0,0,0,0,0,0,0,0,0,0,0,0,0,0,0,0,0,0,0,0,0,0,0,0,0,0,0,0],"id":18,"left_children":[1,3,5,7,9,11,13,15,17,19,21,23,25,27,29,31,33,35,37,39,41,43,45,47,49,51,53,55,57,59,61,-1,-1,-1,-1,-1,-1,-1,-1,-1,-1,-1,-1,-1,-1,-1,-1,-1,-1,-1,-1,-1,-1,-1,-1,-1,-1,-1,-1,-1,-1,-1,-1],"loss_changes":[8.044294E7,4.751803E6,5.646323E7,9.505059E5,1.816216E6,9.337396E6,5.2944E6,1.05998445E5,1.5115575E5,1.121907E6,2.1366115E6,1.278156E6,3.291598E5,8.773856E6,1.707704E6,3.2134047E4,1.3813866E5,6.3630375E4,3.5806188E4,2.1553E5,7.051847E4,6.1884775E5,2.44831E5,1.397322E6,5.32499E5,2.1140712E5,1.5493502E5,7.78816E5,2.9016E6,1.196264E6,2.5860975E5,0E0,0E0,0E0,0E0,0E0,0E0,0E0,0E0,0E0,0E0,0E0,0E0,0E0,0E0,0E0,0E0,0E0,0E0,0E0,0E0,0E0,0E0,0E0,0E0,0E0,0E0,0E0,0E0,0E0,0E0,0E0,0E0],"parents":[2147483647,0,0,1,1,2,2,3,3,4,4,5,5,6,6,7,7,8,8,9,9,10,10,11,11,12,12,13,13,14,14,15,15,16,16,17,17,18,18,19,19,20,20,21,21,22,22,23,23,24,24,25,25,26,26,27,27,28,28,29,29,30,30],"right_children":[2,4,6,8,10,12,14,16,18,20,22,24,26,28,30,32,34,36,38,40,42,44,46,48,50,52,54,56,58,60,62,-1,-1,-1,-1,-1,-1,-1,-1,-1,-1,-1,-1,-1,-1,-1,-1,-1,-1,-1,-1,-1,-1,-1,-1,-1,-1,-1,-1,-1,-1,-1,-1],"split_conditions":[1.1E1,2.06E2,1.75E2,9E0,2E0,2E1,2.1E1,1.74E2,1.59E2,3.22E2,9E0,1.4E2,2.1E1,1.4E1,3.29E2,8E0,2E0,1E1,1E1,2.44E2,3.49E2,3.03E2,3.11E2,3.1E1,1.4E1,1.4E2,1.67E2,1.3E1,3.26E2,2.24E2,3.54E2,1.6043941E-6,4.0468812E-2,1.8240814E-1,3.0576788E-2,9.445371E-2,1.7411792E-1,2.0634127E-1,3.2295063E-1,4.1059002E-1,6.0272E-1,2.2297552E-1,5.5657476E-2,1.9006567E-1,5.1365156E-2,4.6070385E-1,2.9093006E-1,5.914034E-1,3.8080776E-1,4.7131905E-1,7.266261E-1,1.436872E-1,3.9274898E-1,4.04581E-2,2.7610928E-1,6.73804E-1,9.0244365E-1,1.2478673E0,9.154746E-1,5.927226E-1,9.112416E-1,5.084972E-1,2.1086864E-1],"split_indices":[1,0,0,1,1,1,1,0,0,0,1,0,1,1,0,1,1,1,1,0,0,0,0,0,1,0,0,1,0,0,0,0,0,0,0,0,0,0,0,0,0,0,0,0,0,0,0,0,0,0,0,0,0,0,0,0,0,0,0,0,0,0,0],"split_type":[0,0,0,0,0,0,0,0,0,0,0,0,0,0,0,0,0,0,0,0,0,0,0,0,0,0,0,0,0,0,0,0,0,0,0,0,0,0,0,0,0,0,0,0,0,0,0,0,0,0,0,0,0,0,0,0,0,0,0,0,0,0,0],"sum_hessian":[2.7072E4,1.2408E4,1.4664E4,7.117E3,5.291E3,7.202E3,7.462E3,5.823E3,1.294E3,9.62E2,4.329E3,4.986E3,2.216E3,5.74E3,1.722E3,4.959E3,8.64E2,1.012E3,2.82E2,6.96E2,2.66E2,3.367E3,9.62E2,4.041E3,9.45E2,5.54E2,1.662E3,1.722E3,4.018E3,1.386E3,3.36E2,4.408E3,5.51E2,1.92E2,6.72E2,5.06E2,5.06E2,1.41E2,1.41E2,2.28E2,4.68E2,1.62E2,1.04E2,2.037E3,1.33E3,6.3E2,3.32E2,1.08E3,2.961E3,3.15E2,6.3E2,4.49E2,1.05E2,1.59E3,7.2E1,1.148E3,5.74E2,3.171E3,8.47E2,4.41E2,9.45E2,2.25E2,1.11E2],"tree_param":{"num_deleted":"0","num_feature":"5","num_nodes":"63","size_leaf_vector":"1"}},{"base_weights":[8.385037E1,2.4883665E1,1.3374019E2,7.4445066E0,4.662522E1,7.0878815E1,1.9439363E2,2.1020691E0,3.1464611E1,8.53668E1,3.7998997E1,9.475977E1,1.7128159E1,2.0571521E2,1.3200008E2,8.965456E-1,1.0944222E1,2.6749523E1,5.1153072E1,1.0473306E2,3.1445314E1,2.6161636E1,7.9362495E1,6.478425E1,1.033053E2,2.9258783E1,4.982088E0,1.4934978E2,2.2681514E2,1.4725337E2,6.8705376E1,1.5963627E-6,4.0266834E-2,2.0541166E-1,3.557435E-2,9.398236E-2,1.7324905E-1,1.9901003E-1,3.104069E-1,3.283546E-1,5.7536364E-1,2.2186749E-1,5.5381842E-2,1.7929764E-1,5.110852E-2,4.4198555E-1,2.7029663E-1,2.7348894E-1,3.737699E-1,5.7350194E-1,3.736992E-1,1.10447556E-1,3.536572E-1,1.6859883E-2,1.9872127E-1,5.943489E-1,8.223652E-1,1.2052358E0,8.666972E-1,5.2253616E-1,8.3502173E-1,4.3694884E-1,1.5085696E-1],"categories":[],"categories_nodes":[],"categories_segments":[],"categories_sizes":[],"default_left":[0,0,0,0,0,0,0,0,0,0,0,0,0,0,0,0,0,0,0,0,0,0,0,0,0,0,0,0,0,0,0,0,0,0,0,0,0,0,0,0,0,0,0,0,0,0,0,0,0,0,0,0,0,0,0,0,0,0,0,0,0,0,0],"id":19,"left_children":[1,3,5,7,9,11,13,15,17,19,21,23,25,27,29,31,33,35,37,39,41,43,45,47,49,51,53,55,57,59,61,-1,-1,-1,-1,-1,-1,-1,-1,-1,-1,-1,-1,-1,-1,-1,-1,-1,-1,-1,-1,-1,-1,-1,-1,-1,-1,-1,-1,-1,-1,-1,-1],"loss_changes":[7.964102E7,4.7045795E6,5.5900336E7,8.837144E5,1.842507E6,9.244268E6,5.244672E6,6.0056043E4,1.14951125E5,1.046186E6,2.2105825E6,1.27076E6,3.265057E5,7.476592E6,1.099188E6,3.1814088E4,7.772449E4,6.2996875E4,2.7424625E4,2.90917E5,6.981853E4,5.4299525E5,2.249685E5,1.07431E5,1.254068E6,3.2817525E5,6.193778E4,7.7468E5,3.453792E6,7.63504E5,1.5935988E5,0E0,0E0,0E0,0E0,0E0,0E0,0E0,0E0,0E0,0E0,0E0,0E0,0E0,0E0,0E0,0E0,0E0,0E0,0E0,0E0,0E0,0E0,0E0,0E0,0E0,0E0,0E0,0E0,0E0,0E0,0E0,0E0],"parents":[2147483647,0,0,1,1,2,2,3,3,4,4,5,5,6,6,7,7,8,8,9,9,10,10,11,11,12,12,13,13,14,14,15,15,16,16,17,17,18,18,19,19,20,20,21,21,22,22,23,23,24,24,25,25,26,26,27,27,28,28,29,29,30,30],"right_children":[2,4,6,8,10,12,14,16,18,20,22,24,26,28,30,32,34,36,38,40,42,44,46,48,50,52,54,56,58,60,62,-1,-1,-1,-1,-1,-1,-1,-1,-1,-1,-1,-1,-1,-1,-1,-1,-1,-1,-1,-1,-1,-1,-1,-1,-1,-1,-1,-1,-1,-1,-1,-1],"split_conditions":[1.1E1,1.99E2,1.75E2,9E0,2E0,2E1,2.2E1,1.74E2,1.59E2,3.22E2,9E0,1.3E1,2.2E1,1.4E1,3.29E2,8E0,1E0,1E1,1E1,2.25E2,3.49E2,3.03E2,3.22E2,1.2E1,1.8E1,1.48E2,1.67E2,1.2E1,3.26E2,2.24E2,3.54E2,1.5963627E-6,4.0266834E-2,2.0541166E-1,3.557435E-2,9.398236E-2,1.7324905E-1,1.9901003E-1,3.104069E-1,3.283546E-1,5.7536364E-1,2.2186749E-1,5.5381842E-2,1.7929764E-1,5.110852E-2,4.4198555E-1,2.7029663E-1,2.7348894E-1,3.737699E-1,5.7350194E-1,3.736992E-1,1.10447556E-1,3.536572E-1,1.6859883E-2,1.9872127E-1,5.943489E-1,8.223652E-1,1.2052358E0,8.666972E-1,5.2253616E-1,8.3502173E-1,4.3694884E-1,1.5085696E-1],"split_indices":[1,0,0,1,1,1,1,0,0,0,1,1,1,1,0,1,1,1,1,0,0,0,0,1,1,0,0,1,0,0,0,0,0,0,0,0,0,0,0,0,0,0,0,0,0,0,0,0,0,0,0,0,0,0,0,0,0,0,0,0,0,0,0],"split_type":[0,0,0,0,0,0,0,0,0,0,0,0,0,0,0,0,0,0,0,0,0,0,0,0,0,0,0,0,0,0,0,0,0,0,0,0,0,0,0,0,0,0,0,0,0,0,0,0,0,0,0,0,0,0,0,0,0,0,0,0,0,0,0],"sum_hessian":[2.7072E4,1.2408E4,1.4664E4,6.886E3,5.522E3,7.202E3,7.462E3,5.634E3,1.252E3,1.004E3,4.518E3,4.986E3,2.216E3,6.314E3,1.148E3,4.959E3,6.75E2,1.012E3,2.4E2,7.38E2,2.66E2,3.514E3,1.004E3,1.108E3,3.878E3,1.108E3,1.108E3,1.722E3,4.592E3,9.24E2,2.24E2,4.408E3,5.51E2,7.5E1,6E2,5.06E2,5.06E2,1.2E2,1.2E2,1.56E2,5.82E2,1.62E2,1.04E2,2.184E3,1.33E3,7.38E2,2.66E2,5.54E2,5.54E2,2.77E3,1.108E3,9.46E2,1.62E2,1.06E3,4.8E1,5.74E2,1.148E3,3.624E3,9.68E2,2.94E2,6.3E2,1.5E2,7.4E1],"tree_param":{"num_deleted":"0","num_feature":"5","num_nodes":"63","size_leaf_vector":"1"}},{"base_weights":[8.3431526E1,2.4759504E1,1.33072E2,8.048386E0,4.72321E1,6.951504E1,1.9246931E2,2.6526089E0,3.2308582E1,8.613331E1,3.8569492E1,9.7834045E1,2.4185366E1,2.0701118E2,1.4390582E2,8.9207095E-1,1.274465E1,2.661604E1,5.2570908E1,1.07018906E2,3.1289127E1,2.6797947E1,7.969929E1,6.3992138E1,1.0909167E2,4.6937214E1,8.998049E0,1.4792424E2,2.3229172E2,1.587265E2,8.129358E1,1.5883417E-6,4.006586E-2,1.8067531E-1,3.008956E-2,9.3513384E-2,1.7238453E-1,2.0414913E-1,3.1970882E-1,4.062966E-1,5.9684217E-1,2.0632656E-1,2.5999412E-2,1.8821976E-1,5.085317E-2,4.5619753E-1,2.879622E-1,2.6992226E-1,3.694131E-1,5.084231E-1,7.1116894E-1,1.8057111E-1,4.1321474E-1,9.434121E-2,2.0250907E-2,6.637753E-1,8.8991654E-1,1.2248119E0,8.938142E-1,5.4024106E-1,8.885908E-1,5.0307775E-1,2.0789374E-1],"categories":[],"categories_nodes":[],"categories_segments":[],"categories_sizes":[],"default_left":[0,0,0,0,0,0,0,0,0,0,0,0,0,0,0,0,0,0,0,0,0,0,0,0,0,0,0,0,0,0,0,0,0,0,0,0,0,0,0,0,0,0,0,0,0,0,0,0,0,0,0,0,0,0,0,0,0,0,0,0,0,0,0],"id":20,"left_children":[1,3,5,7,9,11,13,15,17,19,21,23,25,27,29,31,33,35,37,39,41,43,45,47,49,51,53,55,57,59,61,-1,-1,-1,-1,-1,-1,-1,-1,-1,-1,-1,-1,-1,-1,-1,-1,-1,-1,-1,-1,-1,-1,-1,-1,-1,-1,-1,-1,-1,-1,-1,-1],"loss_changes":[7.884701E7,4.659723E6,5.534864E7,9.3167906E5,1.780007E6,9.093872E6,5.323232E6,1.0346609E5,1.4797138E5,1.099723E6,2.0942825E6,1.654472E6,9.415185E5,8.67568E6,1.61102E6,3.1497312E4,1.3588264E5,6.236975E4,3.51715E4,2.120285E5,6.927784E4,6.07002E5,2.404235E5,1.039995E5,7.8852E5,4.186245E5,7.981995E4,7.74324E5,2.724816E6,1.34172E6,2.5442E5,0E0,0E0,0E0,0E0,0E0,0E0,0E0,0E0,0E0,0E0,0E0,0E0,0E0,0E0,0E0,0E0,0E0,0E0,0E0,0E0,0E0,0E0,0E0,0E0,0E0,0E0,0E0,0E0,0E0,0E0,0E0,0E0],"parents":[2147483647,0,0,1,1,2,2,3,3,4,4,5,5,6,6,7,7,8,8,9,9,10,10,11,11,12,12,13,13,14,14,15,15,16,16,17,17,18,18,19,19,20,20,21,21,22,22,23,23,24,24,25,25,26,26,27,27,28,28,29,29,30,30],"right_children":[2,4,6,8,10,12,14,16,18,20,22,24,26,28,30,32,34,36,38,40,42,44,46,48,50,52,54,56,58,60,62,-1,-1,-1,-1,-1,-1,-1,-1,-1,-1,-1,-1,-1,-1,-1,-1,-1,-1,-1,-1,-1,-1,-1,-1,-1,-1,-1,-1,-1,-1,-1,-1],"split_conditions":[1.1E1,2.06E2,1.72E2,9E0,2E0,1.9E1,2.1E1,1.74E2,1.59E2,3.22E2,9E0,1.3E1,2.1E1,1.4E1,3.29E2,8E0,2E0,1E1,1E1,2.44E2,3.54E2,3.03E2,3.11E2,1.2E1,1.39E2,1.3E2,2.2E1,1.3E1,3.29E2,2.15E2,3.54E2,1.5883417E-6,4.006586E-2,1.8067531E-1,3.008956E-2,9.3513384E-2,1.7238453E-1,2.0414913E-1,3.1970882E-1,4.062966E-1,5.9684217E-1,2.0632656E-1,2.5999412E-2,1.8821976E-1,5.085317E-2,4.5619753E-1,2.879622E-1,2.6992226E-1,3.694131E-1,5.084231E-1,7.1116894E-1,1.8057111E-1,4.1321474E-1,9.434121E-2,2.0250907E-2,6.637753E-1,8.8991654E-1,1.2248119E0,8.938142E-1,5.4024106E-1,8.885908E-1,5.0307775E-1,2.0789374E-1],"split_indices":[1,0,0,1,1,1,1,0,0,0,1,1,1,1,0,1,1,1,1,0,0,0,0,1,0,0,1,1,0,0,0,0,0,0,0,0,0,0,0,0,0,0,0,0,0,0,0,0,0,0,0,0,0,0,0,0,0,0,0,0,0,0,0],"split_type":[0,0,0,0,0,0,0,0,0,0,0,0,0,0,0,0,0,0,0,0,0,0,0,0,0,0,0,0,0,0,0,0,0,0,0,0,0,0,0,0,0,0,0,0,0,0,0,0,0,0,0,0,0,0,0,0,0,0,0,0,0,0,0],"sum_hessian":[2.7072E4,1.2408E4,1.4664E4,7.117E3,5.291E3,7.085E3,7.579E3,5.823E3,1.294E3,9.62E2,4.329E3,4.36E3,2.725E3,5.83E3,1.749E3,4.959E3,8.64E2,1.012E3,2.82E2,6.96E2,2.66E2,3.367E3,9.62E2,1.09E3,3.27E3,1.09E3,1.635E3,1.749E3,4.081E3,1.413E3,3.36E2,4.408E3,5.51E2,1.92E2,6.72E2,5.06E2,5.06E2,1.41E2,1.41E2,2.28E2,4.68E2,1.92E2,7.4E1,2.037E3,1.33E3,6.3E2,3.32E2,5.45E2,5.45E2,2.676E3,5.94E2,8.38E2,2.52E2,5.45E2,1.09E3,1.166E3,5.83E2,3.297E3,7.84E2,3.87E2,1.026E3,2.25E2,1.11E2],"tree_param":{"num_deleted":"0","num_feature":"5","num_nodes":"63","size_leaf_vector":"1"}},{"base_weights":[8.301479E1,2.463597E1,1.3240721E2,8.008289E0,4.699636E1,7.0167656E1,1.924607E2,2.6393888E0,3.2147648E1,8.5703926E1,3.8376873E1,9.3816025E1,1.6940514E1,2.068861E2,1.4428386E2,8.8761866E-1,1.26811695E1,2.6483221E1,5.2309902E1,1.0648525E2,3.113355E1,2.6664028E1,7.930157E1,8.596614E1,1.2611147E2,3.7716644E1,9.996621E0,1.4786511E2,2.3213773E2,1.5958286E2,8.088922E1,1.5802715E-6,3.9865896E-2,1.7977661E-1,2.9939337E-2,9.304673E-2,1.7152429E-1,2.0313556E-1,3.1812155E-1,4.04274E-1,5.938643E-1,2.1973966E-1,5.4721195E-2,1.872791E-1,5.05991E-2,4.5392022E-1,2.865267E-1,5.839352E-1,3.729255E-1,4.631586E-1,7.134141E-1,1.4144096E-1,3.8693637E-1,3.9747648E-2,2.7237535E-1,5.880692E-1,8.143761E-1,1.2294836E0,9.019875E-1,5.8300936E-1,8.9748096E-1,5.005735E-1,2.0686357E-1],"categories":[],"categories_nodes":[],"categories_segments":[],"categories_sizes":[],"default_left":[0,0,0,0,0,0,0,0,0,0,0,0,0,0,0,0,0,0,0,0,0,0,0,0,0,0,0,0,0,0,0,0,0,0,0,0,0,0,0,0,0,0,0,0,0,0,0,0,0,0,0,0,0,0,0,0,0,0,0,0,0,0,0],"id":21,"left_children":[1,3,5,7,9,11,13,15,17,19,21,23,25,27,29,31,33,35,37,39,41,43,45,47,49,51,53,55,57,59,61,-1,-1,-1,-1,-1,-1,-1,-1,-1,-1,-1,-1,-1,-1,-1,-1,-1,-1,-1,-1,-1,-1,-1,-1,-1,-1,-1,-1,-1,-1,-1,-1],"loss_changes":[7.806096E7,4.613308E6,5.4799904E7,9.224209E5,1.76233E6,9.065084E6,5.156704E6,1.0243811E5,1.4651362E5,1.08877E6,2.073448E6,1.253436E6,3.194633E5,8.52192E6,1.658184E6,3.11837E4,1.345352E5,6.174875E4,3.4823188E4,2.099075E5,6.8595516E4,6.009495E5,2.380235E5,1.399648E6,5.26608E5,2.0539894E5,1.5098558E5,7.63216E5,2.816752E6,1.166196E6,2.51885E5,0E0,0E0,0E0,0E0,0E0,0E0,0E0,0E0,0E0,0E0,0E0,0E0,0E0,0E0,0E0,0E0,0E0,0E0,0E0,0E0,0E0,0E0,0E0,0E0,0E0,0E0,0E0,0E0,0E0,0E0,0E0,0E0],"parents":[2147483647,0,0,1,1,2,2,3,3,4,4,5,5,6,6,7,7,8,8,9,9,10,10,11,11,12,12,13,13,14,14,15,15,16,16,17,17,18,18,19,19,20,20,21,21,22,22,23,23,24,24,25,25,26,26,27,27,28,28,29,29,30,30],"right_children":[2,4,6,8,10,12,14,16,18,20,22,24,26,28,30,32,34,36,38,40,42,44,46,48,50,52,54,56,58,60,62,-1,-1,-1,-1,-1,-1,-1,-1,-1,-1,-1,-1,-1,-1,-1,-1,-1,-1,-1,-1,-1,-1,-1,-1,-1,-1,-1,-1,-1,-1,-1,-1],"split_conditions":[1.1E1,2.06E2,1.75E2,9E0,2E0,2E1,2.1E1,1.74E2,1.59E2,3.22E2,9E0,1.39E2,2.1E1,1.4E1,3.29E2,8E0,2E0,1E1,1E1,2.44E2,3.49E2,3.03E2,3.11E2,3.1E1,1.4E1,1.4E2,1.67E2,1.2E1,3.26E2,2.24E2,3.54E2,1.5802715E-6,3.9865896E-2,1.7977661E-1,2.9939337E-2,9.304673E-2,1.7152429E-1,2.0313556E-1,3.1812155E-1,4.04274E-1,5.938643E-1,2.1973966E-1,5.4721195E-2,1.872791E-1,5.05991E-2,4.5392022E-1,2.865267E-1,5.839352E-1,3.729255E-1,4.631586E-1,7.134141E-1,1.4144096E-1,3.8693637E-1,3.9747648E-2,2.7237535E-1,5.880692E-1,8.143761E-1,1.2294836E0,9.019875E-1,5.8300936E-1,8.9748096E-1,5.005735E-1,2.0686357E-1],"split_indices":[1,0,0,1,1,1,1,0,0,0,1,0,1,1,0,1,1,1,1,0,0,0,0,0,1,0,0,1,0,0,0,0,0,0,0,0,0,0,0,0,0,0,0,0,0,0,0,0,0,0,0,0,0,0,0,0,0,0,0,0,0,0,0],"split_type":[0,0,0,0,0,0,0,0,0,0,0,0,0,0,0,0,0,0,0,0,0,0,0,0,0,0,0,0,0,0,0,0,0,0,0,0,0,0,0,0,0,0,0,0,0,0,0,0,0,0,0,0,0,0,0,0,0,0,0,0,0,0,0],"sum_hessian":[2.7072E4,1.2408E4,1.4664E4,7.117E3,5.291E3,7.202E3,7.462E3,5.823E3,1.294E3,9.62E2,4.329E3,4.986E3,2.216E3,5.74E3,1.722E3,4.959E3,8.64E2,1.012E3,2.82E2,6.96E2,2.66E2,3.367E3,9.62E2,4.014E3,9.72E2,5.54E2,1.662E3,1.722E3,4.018E3,1.386E3,3.36E2,4.408E3,5.51E2,1.92E2,6.72E2,5.06E2,5.06E2,1.41E2,1.41E2,2.28E2,4.68E2,1.62E2,1.04E2,2.037E3,1.33E3,6.3E2,3.32E2,1.08E3,2.934E3,3.24E2,6.48E2,4.49E2,1.05E2,1.59E3,7.2E1,5.74E2,1.148E3,3.171E3,8.47E2,4.41E2,9.45E2,2.25E2,1.11E2],"tree_param":{"num_deleted":"0","num_feature":"5","num_nodes":"63","size_leaf_vector":"1"}},{"base_weights":[8.260017E1,2.4513054E1,1.3174577E2,7.968394E0,4.6761803E1,6.882034E1,1.9055287E2,2.6262348E0,3.1987518E1,8.5276726E1,3.8185215E1,9.688122E1,2.3903885E1,2.0175714E2,1.2880936E2,8.8318855E-1,1.2618007E1,2.6809448E1,5.3849083E1,1.0595426E2,3.097891E1,2.6530779E1,7.890582E1,6.3237385E1,1.0807307E2,4.637042E1,8.907007E0,1.4645125E2,2.22461E2,1.4328712E2,6.755895E1,1.5722328E-6,3.966693E-2,1.7888239E-1,2.9789865E-2,9.443307E-2,1.7340608E-1,2.1019326E-1,3.2612625E-1,4.0226147E-1,5.909013E-1,2.0433551E-1,2.5601191E-2,1.8634316E-1,5.0346293E-2,4.4316486E-1,2.6608852E-1,2.6640022E-1,3.6539453E-1,5.0373423E-1,7.042662E-1,1.7107366E-1,3.8792014E-1,9.364004E-2,1.9919204E-2,6.5697455E-1,8.8143677E-1,1.1766202E0,8.408263E-1,4.6890154E-1,8.089829E-1,4.2979354E-1,1.480666E-1],"categories":[],"categories_nodes":[],"categories_segments":[],"categories_sizes":[],"default_left":[0,0,0,0,0,0,0,0,0,0,0,0,0,0,0,0,0,0,0,0,0,0,0,0,0,0,0,0,0,0,0,0,0,0,0,0,0,0,0,0,0,0,0,0,0,0,0,0,0,0,0,0,0,0,0,0,0,0,0,0,0,0,0],"id":22,"left_children":[1,3,5,7,9,11,13,15,17,19,21,23,25,27,29,31,33,35,37,39,41,43,45,47,49,51,53,55,57,59,61,-1,-1,-1,-1,-1,-1,-1,-1,-1,-1,-1,-1,-1,-1,-1,-1,-1,-1,-1,-1,-1,-1,-1,-1,-1,-1,-1,-1,-1,-1,-1,-1],"loss_changes":[7.728278E7,4.5673565E6,5.425416E7,9.132548E5,1.744832E6,8.92884E6,5.21776E6,1.0142033E5,1.4515125E5,1.077921E6,2.0528195E6,1.63524E6,9.180524E5,7.311744E6,1.025182E6,3.0873203E4,1.3320116E5,6.4767688E4,3.0444312E4,2.07808E5,6.806144E4,5.9495725E5,2.3591E5,1.030195E5,7.71356E5,4.1129575E5,7.902667E4,7.6298E5,3.218512E6,8.4894E5,1.5454725E5,0E0,0E0,0E0,0E0,0E0,0E0,0E0,0E0,0E0,0E0,0E0,0E0,0E0,0E0,0E0,0E0,0E0,0E0,0E0,0E0,0E0,0E0,0E0,0E0,0E0,0E0,0E0,0E0,0E0,0E0,0E0,0E0],"parents":[2147483647,0,0,1,1,2,2,3,3,4,4,5,5,6,6,7,7,8,8,9,9,10,10,11,11,12,12,13,13,14,14,15,15,16,16,17,17,18,18,19,19,20,20,21,21,22,22,23,23,24,24,25,25,26,26,27,27,28,28,29,29,30,30],"right_children":[2,4,6,8,10,12,14,16,18,20,22,24,26,28,30,32,34,36,38,40,42,44,46,48,50,52,54,56,58,60,62,-1,-1,-1,-1,-1,-1,-1,-1,-1,-1,-1,-1,-1,-1,-1,-1,-1,-1,-1,-1,-1,-1,-1,-1,-1,-1,-1,-1,-1,-1,-1,-1],"split_conditions":[1.1E1,2.06E2,1.72E2,9E0,2E0,1.9E1,2.2E1,1.74E2,1.65E2,3.22E2,9E0,1.3E1,2.1E1,1.4E1,3.29E2,8E0,2E0,1E1,1E1,2.44E2,3.54E2,3.03E2,3.22E2,1.2E1,1.39E2,5E0,2.2E1,1.3E1,3.29E2,2.15E2,3.54E2,1.5722328E-6,3.966693E-2,1.7888239E-1,2.9789865E-2,9.443307E-2,1.7340608E-1,2.1019326E-1,3.2612625E-1,4.0226147E-1,5.909013E-1,2.0433551E-1,2.5601191E-2,1.8634316E-1,5.0346293E-2,4.4316486E-1,2.6608852E-1,2.6640022E-1,3.6539453E-1,5.0373423E-1,7.042662E-1,1.7107366E-1,3.8792014E-1,9.364004E-2,1.9919204E-2,6.5697455E-1,8.8143677E-1,1.1766202E0,8.408263E-1,4.6890154E-1,8.089829E-1,4.2979354E-1,1.480666E-1],"split_indices":[1,0,0,1,1,1,1,0,0,0,1,1,1,1,0,1,1,1,1,0,0,0,0,1,0,4,1,1,0,0,0,0,0,0,0,0,0,0,0,0,0,0,0,0,0,0,0,0,0,0,0,0,0,0,0,0,0,0,0,0,0,0,0],"split_type":[0,0,0,0,0,0,0,0,0,0,0,0,0,0,0,0,0,0,0,0,0,0,0,0,0,0,0,0,0,0,0,0,0,0,0,0,0,0,0,0,0,0,0,0,0,0,0,0,0,0,0,0,0,0,0,0,0,0,0,0,0,0,0],"sum_hessian":[2.7072E4,1.2408E4,1.4664E4,7.117E3,5.291E3,7.085E3,7.579E3,5.823E3,1.294E3,9.62E2,4.329E3,4.36E3,2.725E3,6.413E3,1.166E3,4.959E3,8.64E2,1.048E3,2.46E2,6.96E2,2.66E2,3.367E3,9.62E2,1.09E3,3.27E3,1.09E3,1.635E3,1.749E3,4.664E3,9.42E2,2.24E2,4.408E3,5.51E2,1.92E2,6.72E2,5.24E2,5.24E2,1.23E2,1.23E2,2.28E2,4.68E2,1.92E2,7.4E1,2.037E3,1.33E3,6.96E2,2.66E2,5.45E2,5.45E2,2.676E3,5.94E2,7.86E2,3.04E2,5.45E2,1.09E3,1.166E3,5.83E2,3.768E3,8.96E2,2.58E2,6.84E2,1.5E2,7.4E1],"tree_param":{"num_deleted":"0","num_feature":"5","num_nodes":"63","size_leaf_vector":"1"}},{"base_weights":[8.218758E1,2.4390749E1,1.3108759E2,7.0143986E0,4.5366608E1,6.9463394E1,1.9054732E2,1.8139085E0,3.0396185E1,8.323258E1,3.693568E1,9.288213E1,1.6753096E1,2.0485515E2,1.4276332E2,8.361068E-1,9.622312E0,2.5653175E1,4.7173336E1,1.0160725E2,3.0824879E1,2.5326668E1,7.750276E1,6.337897E1,1.012931E2,2.8639353E1,4.851731E0,1.4639523E2,2.2986674E2,1.57914E2,7.998361E1,1.5644532E-6,3.9002642E-2,3.4915283E-2,1.05527304E-1,8.9849986E-2,1.664162E-1,1.8230587E-1,2.8769317E-1,3.181772E-1,5.641551E-1,2.176323E-1,5.4068074E-2,1.718941E-1,5.009475E-2,3.116559E-1,4.626148E-1,2.6720637E-1,3.660123E-1,5.6273836E-1,3.654028E-1,1.0790673E-1,3.4734684E-1,1.6376453E-2,1.9443737E-1,5.818548E-1,8.0646515E-1,1.2174569E0,8.9315903E-1,5.593601E-1,8.809966E-1,4.9526024E-1,2.0396048E-1],"categories":[],"categories_nodes":[],"categories_segments":[],"categories_sizes":[],"default_left":[0,0,0,0,0,0,0,0,0,0,0,0,0,0,0,0,0,0,0,0,0,0,0,0,0,0,0,0,0,0,0,0,0,0,0,0,0,0,0,0,0,0,0,0,0,0,0,0,0,0,0,0,0,0,0,0,0,0,0,0,0,0,0],"id":23,"left_children":[1,3,5,7,9,11,13,15,17,19,21,23,25,27,29,31,33,35,37,39,41,43,45,47,49,51,53,55,57,59,61,-1,-1,-1,-1,-1,-1,-1,-1,-1,-1,-1,-1,-1,-1,-1,-1,-1,-1,-1,-1,-1,-1,-1,-1,-1,-1,-1,-1,-1,-1,-1,-1],"loss_changes":[7.651229E7,4.522562E6,5.372165E7,8.253435E5,1.791723E6,8.889892E6,5.073088E6,4.2397133E4,9.7064125E4,9.819905E5,2.164379E6,1.231104E6,3.134838E5,8.360704E6,1.626208E6,2.873739E4,1.858232E4,5.5973188E4,2.79925E4,3.154435E5,6.739395E4,4.9545125E5,2.27354E5,1.04352E5,1.223436E6,3.1809062E5,5.9376375E4,7.5192E5,2.762E6,1.147996E6,2.478065E5,0E0,0E0,0E0,0E0,0E0,0E0,0E0,0E0,0E0,0E0,0E0,0E0,0E0,0E0,0E0,0E0,0E0,0E0,0E0,0E0,0E0,0E0,0E0,0E0,0E0,0E0,0E0,0E0,0E0,0E0,0E0,0E0],"parents":[2147483647,0,0,1,1,2,2,3,3,4,4,5,5,6,6,7,7,8,8,9,9,10,10,11,11,12,12,13,13,14,14,15,15,16,16,17,17,18,18,19,19,20,20,21,21,22,22,23,23,24,24,25,25,26,26,27,27,28,28,29,29,30,30],"right_children":[2,4,6,8,10,12,14,16,18,20,22,24,26,28,30,32,34,36,38,40,42,44,46,48,50,52,54,56,58,60,62,-1,-1,-1,-1,-1,-1,-1,-1,-1,-1,-1,-1,-1,-1,-1,-1,-1,-1,-1,-1,-1,-1,-1,-1,-1,-1,-1,-1,-1,-1,-1,-1],"split_conditions":[1.1E1,1.96E2,1.75E2,9E0,2E0,2E1,2.1E1,8E0,1.51E2,3.22E2,9E0,1.3E1,2.2E1,1.4E1,3.29E2,1.74E2,1.58E2,1E1,1E1,2.25E2,3.49E2,3.03E2,1E1,1.2E1,1.8E1,1.48E2,1.67E2,1.2E1,3.26E2,2.19E2,3.54E2,1.5644532E-6,3.9002642E-2,3.4915283E-2,1.05527304E-1,8.9849986E-2,1.664162E-1,1.8230587E-1,2.8769317E-1,3.181772E-1,5.641551E-1,2.176323E-1,5.4068074E-2,1.718941E-1,5.009475E-2,3.116559E-1,4.626148E-1,2.6720637E-1,3.660123E-1,5.6273836E-1,3.654028E-1,1.0790673E-1,3.4734684E-1,1.6376453E-2,1.9443737E-1,5.818548E-1,8.0646515E-1,1.2174569E0,8.9315903E-1,5.593601E-1,8.809966E-1,4.9526024E-1,2.0396048E-1],"split_indices":[1,0,0,1,1,1,1,1,0,0,1,1,1,1,0,0,0,1,1,0,0,0,1,1,1,0,0,1,0,0,0,0,0,0,0,0,0,0,0,0,0,0,0,0,0,0,0,0,0,0,0,0,0,0,0,0,0,0,0,0,0,0,0],"split_type":[0,0,0,0,0,0,0,0,0,0,0,0,0,0,0,0,0,0,0,0,0,0,0,0,0,0,0,0,0,0,0,0,0,0,0,0,0,0,0,0,0,0,0,0,0,0,0,0,0,0,0,0,0,0,0,0,0,0,0,0,0,0,0],"sum_hessian":[2.7072E4,1.2408E4,1.4664E4,6.787E3,5.621E3,7.202E3,7.462E3,5.553E3,1.234E3,1.022E3,4.599E3,4.986E3,2.216E3,5.74E3,1.722E3,4.936E3,6.17E2,9.64E2,2.7E2,7.56E2,2.66E2,3.577E3,1.022E3,1.108E3,3.878E3,1.108E3,1.108E3,1.722E3,4.018E3,1.386E3,3.36E2,4.408E3,5.28E2,5.03E2,1.14E2,4.82E2,4.82E2,1.35E2,1.35E2,1.74E2,5.82E2,1.62E2,1.04E2,2.247E3,1.33E3,5.11E2,5.11E2,5.54E2,5.54E2,2.77E3,1.108E3,9.46E2,1.62E2,1.06E3,4.8E1,5.74E2,1.148E3,3.171E3,8.47E2,3.96E2,9.9E2,2.25E2,1.11E2],"tree_param":{"num_deleted":"0","num_feature":"5","num_nodes":"63","size_leaf_vector":"1"}},{"base_weights":[8.177704E1,2.4269041E1,1.3043268E2,7.884364E0,4.630265E1,6.911639E1,1.8959534E2,2.595052E0,3.1665886E1,8.443054E1,3.7812244E1,9.6753235E1,2.4878464E1,2.0383148E2,1.4205075E2,8.742172E-1,1.2459497E1,2.653909E1,5.3311005E1,1.049028E2,3.067177E1,2.627445E1,7.81253E1,6.3062645E1,1.0796109E2,4.7424973E1,9.827979E0,1.4566406E2,2.2871793E2,1.5937283E2,8.758972E1,1.5567083E-6,3.926399E-2,1.7736465E-1,2.9206457E-2,9.347643E-2,1.716617E-1,2.0809011E-1,3.2287028E-1,3.9806274E-1,5.851383E-1,2.0236373E-1,2.5208155E-2,1.8455288E-1,4.9844462E-2,4.4750926E-1,2.816666E-1,2.6587275E-1,3.6418554E-1,4.9926963E-1,7.120782E-1,1.7613064E-1,4.2508438E-1,3.9049532E-2,2.6838136E-1,6.533304E-1,8.769031E-1,1.2113715E0,8.8869846E-1,5.734229E-1,9.1011757E-1,5.370498E-1,2.3516968E-1],"categories":[],"categories_nodes":[],"categories_segments":[],"categories_sizes":[],"default_left":[0,0,0,0,0,0,0,0,0,0,0,0,0,0,0,0,0,0,0,0,0,0,0,0,0,0,0,0,0,0,0,0,0,0,0,0,0,0,0,0,0,0,0,0,0,0,0,0,0,0,0,0,0,0,0,0,0,0,0,0,0,0,0],"id":24,"left_children":[1,3,5,7,9,11,13,15,17,19,21,23,25,27,29,31,33,35,37,39,41,43,45,47,49,51,53,55,57,59,61,-1,-1,-1,-1,-1,-1,-1,-1,-1,-1,-1,-1,-1,-1,-1,-1,-1,-1,-1,-1,-1,-1,-1,-1,-1,-1,-1,-1,-1,-1,-1,-1],"loss_changes":[7.57495E7,4.4794525E6,5.318616E7,8.952761E5,1.709941E6,8.803956E6,5.0224E6,9.885197E4,1.422915E5,1.0566255E6,2.0119335E6,1.667092E6,9.398336E5,8.277232E6,1.611484E6,3.0249166E4,1.3153889E5,6.3482125E4,2.9842125E4,2.044115E5,6.686647E4,5.837375E5,2.337025E5,1.033125E5,9.14548E5,5.0556775E5,1.4673805E5,7.45004E5,2.734384E6,1.30108E6,3.30947E5,0E0,0E0,0E0,0E0,0E0,0E0,0E0,0E0,0E0,0E0,0E0,0E0,0E0,0E0,0E0,0E0,0E0,0E0,0E0,0E0,0E0,0E0,0E0,0E0,0E0,0E0,0E0,0E0,0E0,0E0,0E0,0E0],"parents":[2147483647,0,0,1,1,2,2,3,3,4,4,5,5,6,6,7,7,8,8,9,9,10,10,11,11,12,12,13,13,14,14,15,15,16,16,17,17,18,18,19,19,20,20,21,21,22,22,23,23,24,24,25,25,26,26,27,27,28,28,29,29,30,30],"right_children":[2,4,6,8,10,12,14,16,18,20,22,24,26,28,30,32,34,36,38,40,42,44,46,48,50,52,54,56,58,60,62,-1,-1,-1,-1,-1,-1,-1,-1,-1,-1,-1,-1,-1,-1,-1,-1,-1,-1,-1,-1,-1,-1,-1,-1,-1,-1,-1,-1,-1,-1,-1,-1],"split_conditions":[1.1E1,2.06E2,1.75E2,9E0,2E0,1.9E1,2.1E1,1.74E2,1.65E2,3.22E2,9E0,1.3E1,2.1E1,1.4E1,3.2E2,8E0,2E0,1E1,1E1,2.44E2,3.54E2,3.03E2,3.11E2,1.2E1,1.4E2,1.3E2,1.67E2,1.3E1,3.26E2,2.24E2,3.51E2,1.5567083E-6,3.926399E-2,1.7736465E-1,2.9206457E-2,9.347643E-2,1.716617E-1,2.0809011E-1,3.2287028E-1,3.9806274E-1,5.851383E-1,2.0236373E-1,2.5208155E-2,1.8455288E-1,4.9844462E-2,4.4750926E-1,2.816666E-1,2.6587275E-1,3.6418554E-1,4.9926963E-1,7.120782E-1,1.7613064E-1,4.2508438E-1,3.9049532E-2,2.6838136E-1,6.533304E-1,8.769031E-1,1.2113715E0,8.8869846E-1,5.734229E-1,9.1011757E-1,5.370498E-1,2.3516968E-1],"split_indices":[1,0,0,1,1,1,1,0,0,0,1,1,1,1,0,1,1,1,1,0,0,0,0,1,0,0,0,1,0,0,0,0,0,0,0,0,0,0,0,0,0,0,0,0,0,0,0,0,0,0,0,0,0,0,0,0,0,0,0,0,0,0,0],"split_type":[0,0,0,0,0,0,0,0,0,0,0,0,0,0,0,0,0,0,0,0,0,0,0,0,0,0,0,0,0,0,0,0,0,0,0,0,0,0,0,0,0,0,0,0,0,0,0,0,0,0,0,0,0,0,0,0,0,0,0,0,0,0,0],"sum_hessian":[2.7072E4,1.2408E4,1.4664E4,7.117E3,5.291E3,7.202E3,7.462E3,5.823E3,1.294E3,9.62E2,4.329E3,4.432E3,2.77E3,5.74E3,1.722E3,4.959E3,8.64E2,1.048E3,2.46E2,6.96E2,2.66E2,3.367E3,9.62E2,1.108E3,3.324E3,1.108E3,1.662E3,1.722E3,4.018E3,1.305E3,4.17E2,4.408E3,5.51E2,1.92E2,6.72E2,5.24E2,5.24E2,1.23E2,1.23E2,2.28E2,4.68E2,1.92E2,7.4E1,2.037E3,1.33E3,6.3E2,3.32E2,5.54E2,5.54E2,2.694E3,6.3E2,8.38E2,2.7E2,1.59E3,7.2E1,1.148E3,5.74E2,3.171E3,8.47E2,4.41E2,8.64E2,2.79E2,1.38E2],"tree_param":{"num_deleted":"0","num_feature":"5","num_nodes":"63","size_leaf_vector":"1"}},{"base_weights":[8.136859E1,2.4147955E1,1.2978111E2,7.845089E0,4.607155E1,6.778797E1,1.8771693E2,2.582119E0,3.1508171E1,8.400965E1,3.7623405E1,9.543959E1,2.3526608E1,1.9877843E2,1.2676058E2,8.6985403E-1,1.2397438E1,2.595177E1,5.1286E1,1.043797E2,3.0519264E1,2.6143148E1,7.7735435E1,6.2290718E1,1.0646679E2,4.5653366E1,8.756547E0,1.442707E2,2.191835E2,1.4315944E2,7.4053246E1,1.5489667E-6,3.9068025E-2,1.7648242E-1,2.9060641E-2,9.1174476E-2,1.6808729E-1,1.9915462E-1,3.1189954E-1,3.9608112E-1,5.8221895E-1,2.1554519E-1,5.3422388E-2,1.8363056E-1,4.959543E-2,4.368635E-1,2.6143157E-1,2.6241013E-1,3.599266E-1,4.9607283E-1,6.945838E-1,1.6815807E-1,3.8261867E-1,3.0614816E-2,1.3403836E-1,5.7289124E-1,7.950302E-1,1.1593102E0,8.283329E-1,4.9322093E-1,8.3529556E-1,4.6469074E-1,1.7642051E-1],"categories":[],"categories_nodes":[],"categories_segments":[],"categories_sizes":[],"default_left":[0,0,0,0,0,0,0,0,0,0,0,0,0,0,0,0,0,0,0,0,0,0,0,0,0,0,0,0,0,0,0,0,0,0,0,0,0,0,0,0,0,0,0,0,0,0,0,0,0,0,0,0,0,0,0,0,0,0,0,0,0,0,0],"id":25,"left_children":[1,3,5,7,9,11,13,15,17,19,21,23,25,27,29,31,33,35,37,39,41,43,45,47,49,51,53,55,57,59,61,-1,-1,-1,-1,-1,-1,-1,-1,-1,-1,-1,-1,-1,-1,-1,-1,-1,-1,-1,-1,-1,-1,-1,-1,-1,-1,-1,-1,-1,-1,-1,-1],"loss_changes":[7.499437E7,4.4348315E6,5.265845E7,8.863809E5,1.69296E6,8.670298E6,5.085728E6,9.786984E4,1.4098112E5,1.0461005E6,1.9919165E6,1.587484E6,8.904939E5,7.102256E6,9.98086E5,2.9947977E4,1.3023455E5,5.9311188E4,3.34795E4,2.02367E5,6.621342E4,5.77917E5,2.31617E5,9.99665E4,7.56E5,4.02314E5,7.7609914E4,7.47452E5,3.12688E6,9.29328E5,2.0099112E5,0E0,0E0,0E0,0E0,0E0,0E0,0E0,0E0,0E0,0E0,0E0,0E0,0E0,0E0,0E0,0E0,0E0,0E0,0E0,0E0,0E0,0E0,0E0,0E0,0E0,0E0,0E0,0E0,0E0,0E0,0E0,0E0],"parents":[2147483647,0,0,1,1,2,2,3,3,4,4,5,5,6,6,7,7,8,8,9,9,10,10,11,11,12,12,13,13,14,14,15,15,16,16,17,17,18,18,19,19,20,20,21,21,22,22,23,23,24,24,25,25,26,26,27,27,28,28,29,29,30,30],"right_children":[2,4,6,8,10,12,14,16,18,20,22,24,26,28,30,32,34,36,38,40,42,44,46,48,50,52,54,56,58,60,62,-1,-1,-1,-1,-1,-1,-1,-1,-1,-1,-1,-1,-1,-1,-1,-1,-1,-1,-1,-1,-1,-1,-1,-1,-1,-1,-1,-1,-1,-1,-1,-1],"split_conditions":[1.1E1,2.06E2,1.72E2,9E0,2E0,1.9E1,2.2E1,1.74E2,1.59E2,3.22E2,9E0,1.3E1,2.1E1,1.4E1,3.2E2,8E0,2E0,1E1,1E1,2.44E2,3.49E2,3.03E2,3.22E2,1.2E1,1.39E2,5E0,1.49E2,1.2E1,3.29E2,2.24E2,3.51E2,1.5489667E-6,3.9068025E-2,1.7648242E-1,2.9060641E-2,9.1174476E-2,1.6808729E-1,1.9915462E-1,3.1189954E-1,3.9608112E-1,5.8221895E-1,2.1554519E-1,5.3422388E-2,1.8363056E-1,4.959543E-2,4.368635E-1,2.6143157E-1,2.6241013E-1,3.599266E-1,4.9607283E-1,6.945838E-1,1.6815807E-1,3.8261867E-1,3.0614816E-2,1.3403836E-1,5.7289124E-1,7.950302E-1,1.1593102E0,8.283329E-1,4.9322093E-1,8.3529556E-1,4.6469074E-1,1.7642051E-1],"split_indices":[1,0,0,1,1,1,1,0,0,0,1,1,1,1,0,1,1,1,1,0,0,0,0,1,0,4,0,1,0,0,0,0,0,0,0,0,0,0,0,0,0,0,0,0,0,0,0,0,0,0,0,0,0,0,0,0,0,0,0,0,0,0,0],"split_type":[0,0,0,0,0,0,0,0,0,0,0,0,0,0,0,0,0,0,0,0,0,0,0,0,0,0,0,0,0,0,0,0,0,0,0,0,0,0,0,0,0,0,0,0,0,0,0,0,0,0,0,0,0,0,0,0,0,0,0,0,0,0,0],"sum_hessian":[2.7072E4,1.2408E4,1.4664E4,7.117E3,5.291E3,7.085E3,7.579E3,5.823E3,1.294E3,9.62E2,4.329E3,4.36E3,2.725E3,6.413E3,1.166E3,4.959E3,8.64E2,1.012E3,2.82E2,6.96E2,2.66E2,3.367E3,9.62E2,1.09E3,3.27E3,1.09E3,1.635E3,1.749E3,4.664E3,8.88E2,2.78E2,4.408E3,5.51E2,1.92E2,6.72E2,5.06E2,5.06E2,1.41E2,1.41E2,2.28E2,4.68E2,1.62E2,1.04E2,2.037E3,1.33E3,6.96E2,2.66E2,5.45E2,5.45E2,2.676E3,5.94E2,7.86E2,3.04E2,1.428E3,2.07E2,5.83E2,1.166E3,3.768E3,8.96E2,3.12E2,5.76E2,1.86E2,9.2E1],"tree_param":{"num_deleted":"0","num_feature":"5","num_nodes":"63","size_leaf_vector":"1"}},{"base_weights":[8.096216E1,2.4027473E1,1.2913274E2,7.806006E0,4.5841602E1,6.842258E1,1.8771054E2,2.5692503E0,3.1351225E1,8.35909E1,3.74355E1,9.150377E1,1.6472042E1,2.0183052E2,1.4055412E2,8.6551267E-1,1.2335689E1,2.6272818E1,5.2792107E1,1.038592E2,3.0367676E1,2.60125E1,7.734748E1,8.393151E1,1.2376126E2,2.8201477E1,4.7277565E0,1.4421606E2,2.2648041E2,1.5771155E2,8.661119E1,1.5412E-6,3.887304E-2,1.7560458E-1,2.8915554E-2,9.253642E-2,1.6994153E-1,2.0607032E-1,3.1972203E-1,3.9410934E-1,5.7931405E-1,2.0041102E-1,2.4820246E-2,1.8271285E-1,4.934764E-2,4.430944E-1,2.787854E-1,5.723753E-1,3.637806E-1,4.533988E-1,7.0066047E-1,1.0034467E-1,3.1358916E-1,1.5894016E-2,1.9085427E-1,6.466497E-1,8.6855805E-1,1.1995218E0,8.800004E-1,5.6699413E-1,9.008612E-1,5.312955E-1,2.3204783E-1],"categories":[],"categories_nodes":[],"categories_segments":[],"categories_sizes":[],"default_left":[0,0,0,0,0,0,0,0,0,0,0,0,0,0,0,0,0,0,0,0,0,0,0,0,0,0,0,0,0,0,0,0,0,0,0,0,0,0,0,0,0,0,0,0,0,0,0,0,0,0,0,0,0,0,0,0,0,0,0,0,0,0,0],"id":26,