{"learner":{"attributes":{"best_iteration":"781","best_score":"6.925178641367197","scikit_learn":"{\"_estimator_type\": \"regressor\"}"},"feature_names":["dayofyear","hour","dayofweek","quarter","month"],"feature_types":["int","int","int","int","int"],"gradient_booster":{"model":{"gbtree_model_param":{"num_parallel_tree":"1","num_trees":"832"},"iteration_indptr":[0,1,2,3,4,5,6,7,8,9,10,11,12,13,14,15,16,17,18,19,20,21,22,23,24,25,26,27,28,29,30,31,32,33,34,35,36,37,38,39,40,41,42,43,44,45,46,47,48,49,50,51,52,53,54,55,56,57,58,59,60,61,62,63,64,65,66,67,68,69,70,71,72,73,74,75,76,77,78,79,80,81,82,83,84,85,86,87,88,89,90,91,92,93,94,95,96,97,98,99,100,101,102,103,104,105,106,107,108,109,110,111,112,113,114,115,116,117,118,119,120,121,122,123,124,125,126,127,128,129,130,131,132,133,134,135,136,137,138,139,140,141,142,143,144,145,146,147,148,149,150,151,152,153,154,155,156,157,158,159,160,161,162,163,164,165,166,167,168,169,170,171,172,173,174,175,176,177,178,179,180,181,182,183,184,185,186,187,188,189,190,191,192,193,194,195,196,197,198,199,200,201,202,203,204,205,206,207,208,209,210,211,212,213,214,215,216,217,218,219,220,221,222,223,224,225,226,227,228,229,230,231,232,233,234,235,236,237,238,239,240,241,242,243,244,245,246,247,248,249,250,251,252,253,254,255,256,257,258,259,260,261,262,263,264,265,266,267,268,269,270,271,272,273,274,275,276,277,278,279,280,281,282,283,284,285,286,287,288,289,290,291,292,293,294,295,296,297,298,299,300,301,302,303,304,305,306,307,308,309,310,311,312,313,314,315,316,317,318,319,320,321,322,323,324,325,326,327,328,329,330,331,332,333,334,335,336,337,338,339,340,341,342,343,344,345,346,347,348,349,350,351,352,353,354,355,356,357,358,359,360,361,362,363,364,365,366,367,368,369,370,371,372,373,374,375,376,377,378,379,380,381,382,383,384,385,386,387,388,389,390,391,392,393,394,395,396,397,398,399,400,401,402,403,404,405,406,407,408,409,410,411,412,413,414,415,416,417,418,419,420,421,422,423,424,425,426,427,428,429,430,431,432,433,434,435,436,437,438,439,440,441,442,443,444,445,446,447,448,449,450,451,452,453,454,455,456,457,458,459,460,461,462,463,464,465,466,467,468,469,470,471,472,473,474,475,476,477,478,479,480,481,482,483,484,485,486,487,488,489,490,491,492,493,494,495,496,497,498,499,500,501,502,503,504,505,506,507,508,509,510,511,512,513,514,515,516,517,518,519,520,521,522,523,524,525,526,527,528,529,530,531,532,533,534,535,536,537,538,539,540,541,542,543,544,545,546,547,548,549,550,551,552,553,554,555,556,557,558,559,560,561,562,563,564,565,566,567,568,569,570,571,572,573,574,575,576,577,578,579,580,581,582,583,584,585,586,587,588,589,590,591,592,593,594,595,596,597,598,599,600,601,602,603,604,605,606,607,608,609,610,611,612,613,614,615,616,617,618,619,620,621,622,623,624,625,626,627,628,629,630,631,632,633,634,635,636,637,638,639,640,641,642,643,644,645,646,647,648,649,650,651,652,653,654,655,656,657,658,659,660,661,662,663,664,665,666,667,668,669,670,671,672,673,674,675,676,677,678,679,680,681,682,683,684,685,686,687,688,689,690,691,692,693,694,695,696,697,698,699,700,701,702,703,704,705,706,707,708,709,710,711,712,713,714,715,716,717,718,719,720,721,722,723,724,725,726,727,728,729,730,731,732,733,734,735,736,737,738,739,740,741,742,743,744,745,746,747,748,749,750,751,752,753,754,755,756,757,758,759,760,761,762,763,764,765,766,767,768,769,770,771,772,773,774,775,776,777,778,779,780,781,782,783,784,785,786,787,788,789,790,791,792,793,794,795,796,797,798,799,800,801,802,803,804,805,806,807,808,809,810,811,812,813,814,815,816,817,818,819,820,821,822,823,824,825,826,827,828,829,830,831,832],"tree_info":[0,0,0,0,0,0,0,0,0,0,0,0,0,0,0,0,0,0,0,0,0,0,0,0,0,0,0,0,0,0,0,0,0,0,0,0,0,0,0,0,0,0,0,0,0,0,0,0,0,0,0,0,0,0,0,0,0,0,0,0,0,0,0,0,0,0,0,0,0,0,0,0,0,0,0,0,0,0,0,0,0,0,0,0,0,0,0,0,0,0,0,0,0,0,0,0,0,0,0,0,0,0,0,0,0,0,0,0,0,0,0,0,0,0,0,0,0,0,0,0,0,0,0,0,0,0,0,0,0,0,0,0,0,0,0,0,0,0,0,0,0,0,0,0,0,0,0,0,0,0,0,0,0,0,0,0,0,0,0,0,0,0,0,0,0,0,0,0,0,0,0,0,0,0,0,0,0,0,0,0,0,0,0,0,0,0,0,0,0,0,0,0,0,0,0,0,0,0,0,0,0,0,0,0,0,0,0,0,0,0,0,0,0,0,0,0,0,0,0,0,0,0,0,0,0,0,0,0,0,0,0,0,0,0,0,0,0,0,0,0,0,0,0,0,0,0,0,0,0,0,0,0,0,0,0,0,0,0,0,0,0,0,0,0,0,0,0,0,0,0,0,0,0,0,0,0,0,0,0,0,0,0,0,0,0,0,0,0,0,0,0,0,0,0,0,0,0,0,0,0,0,0,0,0,0,0,0,0,0,0,0,0,0,0,0,0,0,0,0,0,0,0,0,0,0,0,0,0,0,0,0,0,0,0,0,0,0,0,0,0,0,0,0,0,0,0,0,0,0,0,0,0,0,0,0,0,0,0,0,0,0,0,0,0,0,0,0,0,0,0,0,0,0,0,0,0,0,0,0,0,0,0,0,0,0,0,0,0,0,0,0,0,0,0,0,0,0,0,0,0,0,0,0,0,0,0,0,0,0,0,0,0,0,0,0,0,0,0,0,0,0,0,0,0,0,0,0,0,0,0,0,0,0,0,0,0,0,0,0,0,0,0,0,0,0,0,0,0,0,0,0,0,0,0,0,0,0,0,0,0,0,0,0,0,0,0,0,0,0,0,0,0,0,0,0,0,0,0,0,0,0,0,0,0,0,0,0,0,0,0,0,0,0,0,0,0,0,0,0,0,0,0,0,0,0,0,0,0,0,0,0,0,0,0,0,0,0,0,0,0,0,0,0,0,0,0,0,0,0,0,0,0,0,0,0,0,0,0,0,0,0,0,0,0,0,0,0,0,0,0,0,0,0,0,0,0,0,0,0,0,0,0,0,0,0,0,0,0,0,0,0,0,0,0,0,0,0,0,0,0,0,0,0,0,0,0,0,0,0,0,0,0,0,0,0,0,0,0,0,0,0,0,0,0,0,0,0,0,0,0,0,0,0,0,0,0,0,0,0,0,0,0,0,0,0,0,0,0,0,0,0,0,0,0,0,0,0,0,0,0,0,0,0,0,0,0,0,0,0,0,0,0,0,0,0,0,0,0,0,0,0,0,0,0,0,0,0,0,0,0,0,0,0,0,0,0,0,0,0,0,0,0,0,0,0,0,0,0,0,0,0,0,0,0,0,0,0,0,0,0,0,0,0,0,0,0,0,0,0,0,0,0,0,0,0,0,0,0,0,0,0,0,0,0,0,0,0,0,0,0,0,0,0,0,0,0,0,0,0,0,0,0,0,0,0,0,0,0,0,0,0,0,0,0,0,0,0,0,0,0,0,0,0,0,0,0,0,0,0,0,0,0,0,0,0,0,0,0,0,0,0,0,0,0,0,0,0,0,0,0,0,0,0,0,0,0,0,0,0,0,0,0,0,0,0,0,0,0,0,0,0,0,0,0,0,0,0,0,0,0,0,0,0,0,0,0,0,0,0,0,0,0],"trees":[{"base_weights":[4.9555603E1,3.787629E1,6.3317554E1,3.6205593E1,4.7016148E1,5.6980637E1,6.472001E1,4.4632603E1,3.3027134E1,4.4578606E-1,4.9412045E-1,5.4573387E-1,5.9337413E-1,6.690444E1,5.704821E1,4.9468634E-1,4.2193737E1,3.207097E1,3.965292E-1,6.745445E1,6.354757E-1,5.933049E-1,5.47154E-1,4.4343022E-1,4.0007082E-1,3.500373E-1,3.1575236E-1,6.3801E-1,6.8173695E-1],"categories":[],"categories_nodes":[],"categories_segments":[],"categories_sizes":[],"default_left":[0,0,0,0,0,0,0,0,0,0,0,0,0,0,0,0,0,0,0,0,0,0,0,0,0,0,0,0,0],"id":0,"left_children":[1,3,5,7,9,11,13,15,17,-1,-1,-1,-1,19,21,-1,23,25,-1,27,-1,-1,-1,-1,-1,-1,-1,-1,-1],"loss_changes":[4.342776E6,2.21638E5,1.06596E5,3.29856E5,1.09785E4,9.5665E3,1.66332E5,3.7837E4,5.5657E4,0E0,0E0,0E0,0E0,1.0292E4,8.77E3,0E0,8.83325E3,1.0319E4,0E0,1.3438E4,0E0,0E0,0E0,0E0,0E0,0E0,0E0,0E0,0E0],"parents":[2147483647,0,0,1,1,2,2,3,3,4,4,5,5,6,6,7,7,8,8,13,13,14,14,16,16,17,17,19,19],"right_children":[2,4,6,8,10,12,14,16,18,-1,-1,-1,-1,20,22,-1,24,26,-1,28,-1,-1,-1,-1,-1,-1,-1,-1,-1],"split_conditions":[1.3E1,1.1E1,1.5E1,3E0,1.2E1,1.4E1,2.2E1,1E0,1E1,4.4578606E-1,4.9412045E-1,5.4573387E-1,5.9337413E-1,2.1E1,2.3E1,4.9468634E-1,2E0,4E0,3.965292E-1,1.6E1,6.354757E-1,5.933049E-1,5.47154E-1,4.4343022E-1,4.0007082E-1,3.500373E-1,3.1575236E-1,6.3801E-1,6.8173695E-1],"split_indices":[1,1,1,1,1,1,1,1,1,0,0,0,0,1,1,0,1,1,0,1,0,0,0,0,0,0,0,0,0],"split_type":[0,0,0,0,0,0,0,0,0,0,0,0,0,0,0,0,0,0,0,0,0,0,0,0,0,0,0,0,0],"sum_hessian":[2.7033E4,1.4625E4,1.2408E4,1.2369E4,2.256E3,2.256E3,1.0152E4,3.384E3,8.985E3,1.128E3,1.128E3,1.128E3,1.128E3,7.896E3,2.256E3,1.128E3,2.256E3,7.857E3,1.128E3,6.768E3,1.128E3,1.128E3,1.128E3,1.128E3,1.128E3,1.126E3,6.731E3,1.128E3,5.64E3],"tree_param":{"num_deleted":"0","num_feature":"5","num_nodes":"29","size_leaf_vector":"1"}},{"base_weights":[4.9060326E1,3.7497757E1,6.268472E1,3.584373E1,4.6546402E1,5.6411335E1,6.407311E1,4.4186672E1,3.269698E1,4.4133213E-1,4.8918357E-1,5.4028136E-1,5.874457E-1,6.623565E1,5.6478233E1,4.8974386E-1,4.1772175E1,3.1750345E1,3.925674E-1,6.67801E1,6.291266E-1,5.8737713E-1,5.416873E-1,4.389998E-1,3.9607367E-1,3.4654006E-1,3.1259528E-1,6.316356E-1,6.749208E-1],"categories":[],"categories_nodes":[],"categories_segments":[],"categories_sizes":[],"default_left":[0,0,0,0,0,0,0,0,0,0,0,0,0,0,0,0,0,0,0,0,0,0,0,0,0,0,0,0,0],"id":1,"left_children":[1,3,5,7,9,11,13,15,17,-1,-1,-1,-1,19,21,-1,23,25,-1,27,-1,-1,-1,-1,-1,-1,-1,-1,-1],"loss_changes":[4.256396E6,2.17236E5,1.04464E5,3.23307E5,1.07605E4,9.376E3,1.63012E5,3.70845E4,5.4554E4,0E0,0E0,0E0,0E0,1.0088E4,8.5955E3,0E0,8.65725E3,1.01155E4,0E0,1.3164E4,0E0,0E0,0E0,0E0,0E0,0E0,0E0,0E0,0E0],"parents":[2147483647,0,0,1,1,2,2,3,3,4,4,5,5,6,6,7,7,8,8,13,13,14,14,16,16,17,17,19,19],"right_children":[2,4,6,8,10,12,14,16,18,-1,-1,-1,-1,20,22,-1,24,26,-1,28,-1,-1,-1,-1,-1,-1,-1,-1,-1],"split_conditions":[1.3E1,1.1E1,1.5E1,3E0,1.2E1,1.4E1,2.2E1,1E0,1E1,4.4133213E-1,4.8918357E-1,5.4028136E-1,5.874457E-1,2.1E1,2.3E1,4.8974386E-1,2E0,4E0,3.925674E-1,1.6E1,6.291266E-1,5.8737713E-1,5.416873E-1,4.389998E-1,3.9607367E-1,3.4654006E-1,3.1259528E-1,6.316356E-1,6.749208E-1],"split_indices":[1,1,1,1,1,1,1,1,1,0,0,0,0,1,1,0,1,1,0,1,0,0,0,0,0,0,0,0,0],"split_type":[0,0,0,0,0,0,0,0,0,0,0,0,0,0,0,0,0,0,0,0,0,0,0,0,0,0,0,0,0],"sum_hessian":[2.7033E4,1.4625E4,1.2408E4,1.2369E4,2.256E3,2.256E3,1.0152E4,3.384E3,8.985E3,1.128E3,1.128E3,1.128E3,1.128E3,7.896E3,2.256E3,1.128E3,2.256E3,7.857E3,1.128E3,6.768E3,1.128E3,1.128E3,1.128E3,1.128E3,1.128E3,1.126E3,6.731E3,1.128E3,5.64E3],"tree_param":{"num_deleted":"0","num_feature":"5","num_nodes":"29","size_leaf_vector":"1"}},{"base_weights":[4.857E1,3.7123005E1,6.205821E1,3.5485485E1,4.608135E1,5.5847725E1,6.343268E1,4.3745197E1,3.237013E1,4.369227E-1,4.842961E-1,5.348833E-1,5.815764E-1,6.557353E1,5.591395E1,4.848508E-1,4.1354824E1,3.1432924E1,3.886452E-1,6.6112495E1,6.228409E-1,5.815086E-1,5.3627527E-1,4.346137E-1,3.9211643E-1,3.4307772E-1,3.094698E-1,6.2532485E-1,6.6817284E-1],"categories":[],"categories_nodes":[],"categories_segments":[],"categories_sizes":[],"default_left":[0,0,0,0,0,0,0,0,0,0,0,0,0,0,0,0,0,0,0,0,0,0,0,0,0,0,0,0,0],"id":2,"left_children":[1,3,5,7,9,11,13,15,17,-1,-1,-1,-1,19,21,-1,23,25,-1,27,-1,-1,-1,-1,-1,-1,-1,-1,-1],"loss_changes":[4.171732E6,2.12922E5,1.02384E5,3.16888E5,1.0546E4,9.1895E3,1.5976E5,3.6347E4,5.3472E4,0E0,0E0,0E0,0E0,9.884E3,8.425E3,0E0,8.4855E3,9.917E3,0E0,1.29E4,0E0,0E0,0E0,0E0,0E0,0E0,0E0,0E0,0E0],"parents":[2147483647,0,0,1,1,2,2,3,3,4,4,5,5,6,6,7,7,8,8,13,13,14,14,16,16,17,17,19,19],"right_children":[2,4,6,8,10,12,14,16,18,-1,-1,-1,-1,20,22,-1,24,26,-1,28,-1,-1,-1,-1,-1,-1,-1,-1,-1],"split_conditions":[1.3E1,1.1E1,1.5E1,3E0,1.2E1,1.4E1,2.2E1,1E0,1E1,4.369227E-1,4.842961E-1,5.348833E-1,5.815764E-1,2.1E1,2.3E1,4.848508E-1,2E0,4E0,3.886452E-1,1.6E1,6.228409E-1,5.815086E-1,5.3627527E-1,4.346137E-1,3.9211643E-1,3.4307772E-1,3.094698E-1,6.2532485E-1,6.6817284E-1],"split_indices":[1,1,1,1,1,1,1,1,1,0,0,0,0,1,1,0,1,1,0,1,0,0,0,0,0,0,0,0,0],"split_type":[0,0,0,0,0,0,0,0,0,0,0,0,0,0,0,0,0,0,0,0,0,0,0,0,0,0,0,0,0],"sum_hessian":[2.7033E4,1.4625E4,1.2408E4,1.2369E4,2.256E3,2.256E3,1.0152E4,3.384E3,8.985E3,1.128E3,1.128E3,1.128E3,1.128E3,7.896E3,2.256E3,1.128E3,2.256E3,7.857E3,1.128E3,6.768E3,1.128E3,1.128E3,1.128E3,1.128E3,1.128E3,1.126E3,6.731E3,1.128E3,5.64E3],"tree_param":{"num_deleted":"0","num_feature":"5","num_nodes":"29","size_leaf_vector":"1"}},{"base_weights":[4.8084576E1,3.6752E1,6.143796E1,3.513082E1,4.5620945E1,5.5289738E1,6.2798653E1,4.3308132E1,3.2046543E1,4.3255737E-1,4.7945744E-1,5.295392E-1,5.757658E-1,6.4918045E1,5.535531E1,4.8000655E-1,4.0941643E1,3.1118681E1,3.847622E-1,6.545156E1,6.16618E-1,5.7569855E-1,5.309172E-1,4.3027145E-1,3.8819876E-1,3.3965E-1,3.0637556E-1,6.1907715E-1,6.614923E-1],"categories":[],"categories_nodes":[],"categories_segments":[],"categories_sizes":[],"default_left":[0,0,0,0,0,0,0,0,0,0,0,0,0,0,0,0,0,0,0,0,0,0,0,0,0,0,0,0,0],"id":3,"left_children":[1,3,5,7,9,11,13,15,17,-1,-1,-1,-1,19,21,-1,23,25,-1,27,-1,-1,-1,-1,-1,-1,-1,-1,-1],"loss_changes":[4.088748E6,2.08692E5,1.0034E5,3.10597E5,1.03365E4,9.007E3,1.56576E5,3.56245E4,5.2412E4,0E0,0E0,0E0,0E0,9.684E3,8.2575E3,0E0,8.317E3,9.72E3,0E0,1.264E4,0E0,0E0,0E0,0E0,0E0,0E0,0E0,0E0,0E0],"parents":[2147483647,0,0,1,1,2,2,3,3,4,4,5,5,6,6,7,7,8,8,13,13,14,14,16,16,17,17,19,19],"right_children":[2,4,6,8,10,12,14,16,18,-1,-1,-1,-1,20,22,-1,24,26,-1,28,-1,-1,-1,-1,-1,-1,-1,-1,-1],"split_conditions":[1.3E1,1.1E1,1.5E1,3E0,1.2E1,1.4E1,2.2E1,1E0,1E1,4.3255737E-1,4.7945744E-1,5.295392E-1,5.757658E-1,2.1E1,2.3E1,4.8000655E-1,2E0,4E0,3.847622E-1,1.6E1,6.16618E-1,5.7569855E-1,5.309172E-1,4.3027145E-1,3.8819876E-1,3.3965E-1,3.0637556E-1,6.1907715E-1,6.614923E-1],"split_indices":[1,1,1,1,1,1,1,1,1,0,0,0,0,1,1,0,1,1,0,1,0,0,0,0,0,0,0,0,0],"split_type":[0,0,0,0,0,0,0,0,0,0,0,0,0,0,0,0,0,0,0,0,0,0,0,0,0,0,0,0,0],"sum_hessian":[2.7033E4,1.4625E4,1.2408E4,1.2369E4,2.256E3,2.256E3,1.0152E4,3.384E3,8.985E3,1.128E3,1.128E3,1.128E3,1.128E3,7.896E3,2.256E3,1.128E3,2.256E3,7.857E3,1.128E3,6.768E3,1.128E3,1.128E3,1.128E3,1.128E3,1.128E3,1.126E3,6.731E3,1.128E3,5.64E3],"tree_param":{"num_deleted":"0","num_feature":"5","num_nodes":"29","size_leaf_vector":"1"}},{"base_weights":[4.7604E1,3.63847E1,6.0823914E1,3.47797E1,4.516514E1,5.473733E1,6.2170963E1,4.2875435E1,3.1726192E1,4.2823562E-1,4.7466713E-1,5.2424854E-1,5.700133E-1,6.4269104E1,5.4802246E1,4.7521076E-1,4.053259E1,3.0807575E1,3.80918E-1,6.479723E1,6.104573E-1,5.699467E-1,5.256128E-1,4.2597255E-1,3.843202E-1,3.3625647E-1,3.0331224E-1,6.1289185E-1,6.548785E-1],"categories":[],"categories_nodes":[],"categories_segments":[],"categories_sizes":[],"default_left":[0,0,0,0,0,0,0,0,0,0,0,0,0,0,0,0,0,0,0,0,0,0,0,0,0,0,0,0,0],"id":4,"left_children":[1,3,5,7,9,11,13,15,17,-1,-1,-1,-1,19,21,-1,23,25,-1,27,-1,-1,-1,-1,-1,-1,-1,-1,-1],"loss_changes":[4.00742E6,2.04548E5,9.8336E4,3.04432E5,1.0131E4,8.828E3,1.53452E5,3.4916E4,5.1372E4,0E0,0E0,0E0,0E0,9.488E3,8.093E3,0E0,8.1515E3,9.528E3,0E0,1.2386E4,0E0,0E0,0E0,0E0,0E0,0E0,0E0,0E0,0E0],"parents":[2147483647,0,0,1,1,2,2,3,3,4,4,5,5,6,6,7,7,8,8,13,13,14,14,16,16,17,17,19,19],"right_children":[2,4,6,8,10,12,14,16,18,-1,-1,-1,-1,20,22,-1,24,26,-1,28,-1,-1,-1,-1,-1,-1,-1,-1,-1],"split_conditions":[1.3E1,1.1E1,1.5E1,3E0,1.2E1,1.4E1,2.2E1,1E0,1E1,4.2823562E-1,4.7466713E-1,5.2424854E-1,5.700133E-1,2.1E1,2.3E1,4.7521076E-1,2E0,4E0,3.80918E-1,1.6E1,6.104573E-1,5.699467E-1,5.256128E-1,4.2597255E-1,3.843202E-1,3.3625647E-1,3.0331224E-1,6.1289185E-1,6.548785E-1],"split_indices":[1,1,1,1,1,1,1,1,1,0,0,0,0,1,1,0,1,1,0,1,0,0,0,0,0,0,0,0,0],"split_type":[0,0,0,0,0,0,0,0,0,0,0,0,0,0,0,0,0,0,0,0,0,0,0,0,0,0,0,0,0],"sum_hessian":[2.7033E4,1.4625E4,1.2408E4,1.2369E4,2.256E3,2.256E3,1.0152E4,3.384E3,8.985E3,1.128E3,1.128E3,1.128E3,1.128E3,7.896E3,2.256E3,1.128E3,2.256E3,7.857E3,1.128E3,6.768E3,1.128E3,1.128E3,1.128E3,1.128E3,1.128E3,1.126E3,6.731E3,1.128E3,5.64E3],"tree_param":{"num_deleted":"0","num_feature":"5","num_nodes":"29","size_leaf_vector":"1"}},{"base_weights":[4.712823E1,3.6021072E1,6.0216003E1,3.443209E1,4.4713886E1,5.4190445E1,6.1549545E1,4.244706E1,3.1409044E1,4.2395705E-1,4.699246E-1,5.1901066E-1,5.643181E-1,6.362665E1,5.4254707E1,4.7046283E-1,4.012762E1,3.049958E1,3.7711218E-1,6.414945E1,6.0435814E-1,5.6425226E-1,5.203613E-1,4.217166E-1,3.8048038E-1,3.3289692E-1,3.002796E-1,6.0676837E-1,6.483309E-1],"categories":[],"categories_nodes":[],"categories_segments":[],"categories_sizes":[],"default_left":[0,0,0,0,0,0,0,0,0,0,0,0,0,0,0,0,0,0,0,0,0,0,0,0,0,0,0,0,0],"id":5,"left_children":[1,3,5,7,9,11,13,15,17,-1,-1,-1,-1,19,21,-1,23,25,-1,27,-1,-1,-1,-1,-1,-1,-1,-1,-1],"loss_changes":[3.927708E6,2.00486E5,9.6376E4,2.98386E5,9.9295E3,8.6525E3,1.50388E5,3.42225E4,5.0354E4,0E0,0E0,0E0,0E0,9.294E3,7.932E3,0E0,7.98925E3,9.3405E3,0E0,1.2138E4,0E0,0E0,0E0,0E0,0E0,0E0,0E0,0E0,0E0],"parents":[2147483647,0,0,1,1,2,2,3,3,4,4,5,5,6,6,7,7,8,8,13,13,14,14,16,16,17,17,19,19],"right_children":[2,4,6,8,10,12,14,16,18,-1,-1,-1,-1,20,22,-1,24,26,-1,28,-1,-1,-1,-1,-1,-1,-1,-1,-1],"split_conditions":[1.3E1,1.1E1,1.5E1,3E0,1.2E1,1.4E1,2.2E1,1E0,1E1,4.2395705E-1,4.699246E-1,5.1901066E-1,5.643181E-1,2.1E1,2.3E1,4.7046283E-1,2E0,4E0,3.7711218E-1,1.6E1,6.0435814E-1,5.6425226E-1,5.203613E-1,4.217166E-1,3.8048038E-1,3.3289692E-1,3.002796E-1,6.0676837E-1,6.483309E-1],"split_indices":[1,1,1,1,1,1,1,1,1,0,0,0,0,1,1,0,1,1,0,1,0,0,0,0,0,0,0,0,0],"split_type":[0,0,0,0,0,0,0,0,0,0,0,0,0,0,0,0,0,0,0,0,0,0,0,0,0,0,0,0,0],"sum_hessian":[2.7033E4,1.4625E4,1.2408E4,1.2369E4,2.256E3,2.256E3,1.0152E4,3.384E3,8.985E3,1.128E3,1.128E3,1.128E3,1.128E3,7.896E3,2.256E3,1.128E3,2.256E3,7.857E3,1.128E3,6.768E3,1.128E3,1.128E3,1.128E3,1.128E3,1.128E3,1.126E3,6.731E3,1.128E3,5.64E3],"tree_param":{"num_deleted":"0","num_feature":"5","num_nodes":"29","size_leaf_vector":"1"}},{"base_weights":[4.6657215E1,3.566108E1,5.9614166E1,3.4087955E1,4.4267143E1,5.364902E1,6.093434E1,4.2022964E1,3.1095066E1,4.1972122E-1,4.6522957E-1,5.138252E-1,5.5868E-1,6.299062E1,5.3712643E1,4.6576235E-1,3.97267E1,3.0194664E1,3.7334442E-1,6.350814E1,5.983199E-1,5.5861473E-1,5.151623E-1,4.1750315E-1,3.7667894E-1,2.9722103E-1,3.298487E-1,6.0070604E-1,6.4184874E-1],"categories":[],"categories_nodes":[],"categories_segments":[],"categories_sizes":[],"default_left":[0,0,0,0,0,0,0,0,0,0,0,0,0,0,0,0,0,0,0,0,0,0,0,0,0,0,0,0,0],"id":6,"left_children":[1,3,5,7,9,11,13,15,17,-1,-1,-1,-1,19,21,-1,23,25,-1,27,-1,-1,-1,-1,-1,-1,-1,-1,-1],"loss_changes":[3.849576E6,1.96504E5,9.4456E4,2.92462E5,9.7325E3,8.4805E3,1.47384E5,3.35415E4,4.9356E4,0E0,0E0,0E0,0E0,9.108E3,7.775E3,0E0,7.8305E3,9.3805E3,0E0,1.1892E4,0E0,0E0,0E0,0E0,0E0,0E0,0E0,0E0,0E0],"parents":[2147483647,0,0,1,1,2,2,3,3,4,4,5,5,6,6,7,7,8,8,13,13,14,14,16,16,17,17,19,19],"right_children":[2,4,6,8,10,12,14,16,18,-1,-1,-1,-1,20,22,-1,24,26,-1,28,-1,-1,-1,-1,-1,-1,-1,-1,-1],"split_conditions":[1.3E1,1.1E1,1.5E1,3E0,1.2E1,1.4E1,2.2E1,1E0,1E1,4.1972122E-1,4.6522957E-1,5.138252E-1,5.5868E-1,2.1E1,2.3E1,4.6576235E-1,2E0,9E0,3.7334442E-1,1.6E1,5.983199E-1,5.5861473E-1,5.151623E-1,4.1750315E-1,3.7667894E-1,2.9722103E-1,3.298487E-1,6.0070604E-1,6.4184874E-1],"split_indices":[1,1,1,1,1,1,1,1,1,0,0,0,0,1,1,0,1,1,0,1,0,0,0,0,0,0,0,0,0],"split_type":[0,0,0,0,0,0,0,0,0,0,0,0,0,0,0,0,0,0,0,0,0,0,0,0,0,0,0,0,0],"sum_hessian":[2.7033E4,1.4625E4,1.2408E4,1.2369E4,2.256E3,2.256E3,1.0152E4,3.384E3,8.985E3,1.128E3,1.128E3,1.128E3,1.128E3,7.896E3,2.256E3,1.128E3,2.256E3,7.857E3,1.128E3,6.768E3,1.128E3,1.128E3,1.128E3,1.128E3,1.128E3,6.729E3,1.128E3,1.128E3,5.64E3],"tree_param":{"num_deleted":"0","num_feature":"5","num_nodes":"29","size_leaf_vector":"1"}},{"base_weights":[4.6190907E1,3.5304684E1,5.9018345E1,3.3747257E1,4.3824863E1,5.3113003E1,6.0325283E1,4.1603107E1,3.0784227E1,4.1552776E-1,4.6058136E-1,5.086915E-1,5.5309814E-1,6.2360947E1,5.317599E1,4.611089E-1,3.9329784E1,2.98928E1,3.6961424E-1,6.2873245E1,5.9234196E-1,5.5303353E-1,5.100152E-1,4.1333178E-1,3.7291554E-1,3.2660133E-1,2.9425082E-1,5.9470433E-1,6.354314E-1],"categories":[],"categories_nodes":[],"categories_segments":[],"categories_sizes":[],"default_left":[0,0,0,0,0,0,0,0,0,0,0,0,0,0,0,0,0,0,0,0,0,0,0,0,0,0,0,0,0],"id":7,"left_children":[1,3,5,7,9,11,13,15,17,-1,-1,-1,-1,19,21,-1,23,25,-1,27,-1,-1,-1,-1,-1,-1,-1,-1,-1],"loss_changes":[3.773004E6,1.926E5,9.2568E4,2.86657E5,9.5385E3,8.312E3,1.44444E5,3.2875E4,4.8377E4,0E0,0E0,0E0,0E0,8.926E3,7.62E3,0E0,7.67475E3,9.21E3,0E0,1.165E4,0E0,0E0,0E0,0E0,0E0,0E0,0E0,0E0,0E0],"parents":[2147483647,0,0,1,1,2,2,3,3,4,4,5,5,6,6,7,7,8,8,13,13,14,14,16,16,17,17,19,19],"right_children":[2,4,6,8,10,12,14,16,18,-1,-1,-1,-1,20,22,-1,24,26,-1,28,-1,-1,-1,-1,-1,-1,-1,-1,-1],"split_conditions":[1.3E1,1.1E1,1.5E1,3E0,1.2E1,1.4E1,2.2E1,1E0,1E1,4.1552776E-1,4.6058136E-1,5.086915E-1,5.5309814E-1,2.1E1,2.3E1,4.611089E-1,2E0,4E0,3.6961424E-1,1.6E1,5.9234196E-1,5.5303353E-1,5.100152E-1,4.1333178E-1,3.7291554E-1,3.2660133E-1,2.9425082E-1,5.9470433E-1,6.354314E-1],"split_indices":[1,1,1,1,1,1,1,1,1,0,0,0,0,1,1,0,1,1,0,1,0,0,0,0,0,0,0,0,0],"split_type":[0,0,0,0,0,0,0,0,0,0,0,0,0,0,0,0,0,0,0,0,0,0,0,0,0,0,0,0,0],"sum_hessian":[2.7033E4,1.4625E4,1.2408E4,1.2369E4,2.256E3,2.256E3,1.0152E4,3.384E3,8.985E3,1.128E3,1.128E3,1.128E3,1.128E3,7.896E3,2.256E3,1.128E3,2.256E3,7.857E3,1.128E3,6.768E3,1.128E3,1.128E3,1.128E3,1.128E3,1.128E3,1.126E3,6.731E3,1.128E3,5.64E3],"tree_param":{"num_deleted":"0","num_feature":"5","num_nodes":"29","size_leaf_vector":"1"}},{"base_weights":[4.572926E1,3.495185E1,5.8428482E1,3.3409966E1,4.3387005E1,5.2582344E1,5.9722317E1,4.1187447E1,3.0476496E1,4.1137615E-1,4.5597965E-1,5.0360906E-1,5.475721E-1,6.1737568E1,5.2644703E1,4.5650187E-1,3.8936836E1,2.9125307E1,3.449201E1,6.224469E1,5.864238E-1,5.475081E-1,5.049196E-1,4.0920216E-1,3.6918965E-1,3.2333824E-1,2.8474855E-1,3.2361323E-1,3.659214E-1,5.887625E-1,6.290782E-1],"categories":[],"categories_nodes":[],"categories_segments":[],"categories_sizes":[],"default_left":[0,0,0,0,0,0,0,0,0,0,0,0,0,0,0,0,0,0,0,0,0,0,0,0,0,0,0,0,0,0,0],"id":8,"left_children":[1,3,5,7,9,11,13,15,17,-1,-1,-1,-1,19,21,-1,23,25,27,29,-1,-1,-1,-1,-1,-1,-1,-1,-1,-1,-1],"loss_changes":[3.697956E6,1.88776E5,9.072E4,2.80967E5,9.349E3,8.147E3,1.41564E5,3.2221E4,4.7751E4,0E0,0E0,0E0,0E0,8.744E3,7.4685E3,0E0,7.5225E3,1.3125E4,8.91525E3,1.1416E4,0E0,0E0,0E0,0E0,0E0,0E0,0E0,0E0,0E0,0E0,0E0],"parents":[2147483647,0,0,1,1,2,2,3,3,4,4,5,5,6,6,7,7,8,8,13,13,14,14,16,16,17,17,18,18,19,19],"right_children":[2,4,6,8,10,12,14,16,18,-1,-1,-1,-1,20,22,-1,24,26,28,30,-1,-1,-1,-1,-1,-1,-1,-1,-1,-1,-1],"split_conditions":[1.3E1,1.1E1,1.5E1,3E0,1.2E1,1.4E1,2.2E1,1E0,9E0,4.1137615E-1,4.5597965E-1,5.0360906E-1,5.475721E-1,2.1E1,2.3E1,4.5650187E-1,2E0,4E0,1E1,1.6E1,5.864238E-1,5.475081E-1,5.049196E-1,4.0920216E-1,3.6918965E-1,3.2333824E-1,2.8474855E-1,3.2361323E-1,3.659214E-1,5.887625E-1,6.290782E-1],"split_indices":[1,1,1,1,1,1,1,1,1,0,0,0,0,1,1,0,1,1,1,1,0,0,0,0,0,0,0,0,0,0,0],"split_type":[0,0,0,0,0,0,0,0,0,0,0,0,0,0,0,0,0,0,0,0,0,0,0,0,0,0,0,0,0,0,0],"sum_hessian":[2.7033E4,1.4625E4,1.2408E4,1.2369E4,2.256E3,2.256E3,1.0152E4,3.384E3,8.985E3,1.128E3,1.128E3,1.128E3,1.128E3,7.896E3,2.256E3,1.128E3,2.256E3,6.729E3,2.256E3,6.768E3,1.128E3,1.128E3,1.128E3,1.128E3,1.128E3,1.126E3,5.603E3,1.128E3,1.128E3,1.128E3,5.64E3],"tree_param":{"num_deleted":"0","num_feature":"5","num_nodes":"31","size_leaf_vector":"1"}},{"base_weights":[4.5272236E1,3.4602562E1,5.7844513E1,3.3076073E1,4.2953518E1,5.2056988E1,5.9125374E1,4.0775936E1,3.0171875E1,4.0726602E-1,4.5142385E-1,4.9857745E-1,5.421012E-1,6.1120422E1,5.211872E1,4.519409E-1,3.854781E1,2.8834145E1,3.4147392E1,6.1622425E1,5.805648E-1,5.420379E-1,4.9987486E-1,4.0511376E-1,3.6550102E-1,3.2010767E-1,2.819016E-1,3.2037997E-1,3.6226544E-1,5.8288014E-1,6.2278855E-1],"categories":[],"categories_nodes":[],"categories_segments":[],"categories_sizes":[],"default_left":[0,0,0,0,0,0,0,0,0,0,0,0,0,0,0,0,0,0,0,0,0,0,0,0,0,0,0,0,0,0,0],"id":9,"left_children":[1,3,5,7,9,11,13,15,17,-1,-1,-1,-1,19,21,-1,23,25,27,29,-1,-1,-1,-1,-1,-1,-1,-1,-1,-1,-1],"loss_changes":[3.624392E6,1.85026E5,8.8908E4,2.75387E5,9.1635E3,7.9855E3,1.3874E5,3.15805E4,4.6804E4,0E0,0E0,0E0,0E0,8.568E3,7.32E3,0E0,7.37275E3,1.28655E4,8.738E3,1.1186E4,0E0,0E0,0E0,0E0,0E0,0E0,0E0,0E0,0E0,0E0,0E0],"parents":[2147483647,0,0,1,1,2,2,3,3,4,4,5,5,6,6,7,7,8,8,13,13,14,14,16,16,17,17,18,18,19,19],"right_children":[2,4,6,8,10,12,14,16,18,-1,-1,-1,-1,20,22,-1,24,26,28,30,-1,-1,-1,-1,-1,-1,-1,-1,-1,-1,-1],"split_conditions":[1.3E1,1.1E1,1.5E1,3E0,1.2E1,1.4E1,2.2E1,1E0,9E0,4.0726602E-1,4.5142385E-1,4.9857745E-1,5.421012E-1,2.1E1,2.3E1,4.519409E-1,2E0,4E0,1E1,1.6E1,5.805648E-1,5.420379E-1,4.9987486E-1,4.0511376E-1,3.6550102E-1,3.2010767E-1,2.819016E-1,3.2037997E-1,3.6226544E-1,5.8288014E-1,6.2278855E-1],"split_indices":[1,1,1,1,1,1,1,1,1,0,0,0,0,1,1,0,1,1,1,1,0,0,0,0,0,0,0,0,0,0,0],"split_type":[0,0,0,0,0,0,0,0,0,0,0,0,0,0,0,0,0,0,0,0,0,0,0,0,0,0,0,0,0,0,0],"sum_hessian":[2.7033E4,1.4625E4,1.2408E4,1.2369E4,2.256E3,2.256E3,1.0152E4,3.384E3,8.985E3,1.128E3,1.128E3,1.128E3,1.128E3,7.896E3,2.256E3,1.128E3,2.256E3,6.729E3,2.256E3,6.768E3,1.128E3,1.128E3,1.128E3,1.128E3,1.128E3,1.126E3,5.603E3,1.128E3,1.128E3,1.128E3,5.64E3],"tree_param":{"num_deleted":"0","num_feature":"5","num_nodes":"31","size_leaf_vector":"1"}},{"base_weights":[4.4819782E1,3.4256767E1,5.7266376E1,3.2745514E1,4.2524364E1,5.1536877E1,5.8534397E1,4.0368538E1,2.9870298E1,4.0319696E-1,4.4691363E-1,4.935961E-1,5.3668493E-1,6.050944E1,5.1597996E1,4.4742548E-1,3.8162674E1,2.8545893E1,3.380622E1,6.100638E1,5.7476425E-1,5.366223E-1,4.9488056E-1,4.0106618E-1,3.6184925E-1,3.1690946E-1,2.790831E-1,3.17179E-1,3.5864598E-1,5.7705647E-1,6.165618E-1],"categories":[],"categories_nodes":[],"categories_segments":[],"categories_sizes":[],"default_left":[0,0,0,0,0,0,0,0,0,0,0,0,0,0,0,0,0,0,0,0,0,0,0,0,0,0,0,0,0,0,0],"id":10,"left_children":[1,3,5,7,9,11,13,15,17,-1,-1,-1,-1,19,21,-1,23,25,27,29,-1,-1,-1,-1,-1,-1,-1,-1,-1,-1,-1],"loss_changes":[3.552296E6,1.8135E5,8.7132E4,2.69919E5,8.98075E3,7.826E3,1.35972E5,3.0952E4,4.58765E4,0E0,0E0,0E0,0E0,8.396E3,7.1745E3,0E0,7.226E3,1.2611E4,8.56425E3,1.0958E4,0E0,0E0,0E0,0E0,0E0,0E0,0E0,0E0,0E0,0E0,0E0],"parents":[2147483647,0,0,1,1,2,2,3,3,4,4,5,5,6,6,7,7,8,8,13,13,14,14,16,16,17,17,18,18,19,19],"right_children":[2,4,6,8,10,12,14,16,18,-1,-1,-1,-1,20,22,-1,24,26,28,30,-1,-1,-1,-1,-1,-1,-1,-1,-1,-1,-1],"split_conditions":[1.3E1,1.1E1,1.5E1,3E0,1.2E1,1.4E1,2.2E1,1E0,9E0,4.0319696E-1,4.4691363E-1,4.935961E-1,5.3668493E-1,2.1E1,2.3E1,4.4742548E-1,2E0,4E0,1E1,1.6E1,5.7476425E-1,5.366223E-1,4.9488056E-1,4.0106618E-1,3.6184925E-1,3.1690946E-1,2.790831E-1,3.17179E-1,3.5864598E-1,5.7705647E-1,6.165618E-1],"split_indices":[1,1,1,1,1,1,1,1,1,0,0,0,0,1,1,0,1,1,1,1,0,0,0,0,0,0,0,0,0,0,0],"split_type":[0,0,0,0,0,0,0,0,0,0,0,0,0,0,0,0,0,0,0,0,0,0,0,0,0,0,0,0,0,0,0],"sum_hessian":[2.7033E4,1.4625E4,1.2408E4,1.2369E4,2.256E3,2.256E3,1.0152E4,3.384E3,8.985E3,1.128E3,1.128E3,1.128E3,1.128E3,7.896E3,2.256E3,1.128E3,2.256E3,6.729E3,2.256E3,6.768E3,1.128E3,1.128E3,1.128E3,1.128E3,1.128E3,1.126E3,5.603E3,1.128E3,1.128E3,1.128E3,5.64E3],"tree_param":{"num_deleted":"0","num_feature":"5","num_nodes":"31","size_leaf_vector":"1"}},{"base_weights":[4.437185E1,3.391443E1,5.6694023E1,3.241826E1,4.20995E1,5.1021965E1,5.794933E1,3.996521E1,2.9571737E1,3.9916858E-1,4.424485E-1,4.8866448E-1,5.313229E-1,5.990457E1,5.1082474E1,4.429552E-1,3.7781387E1,2.8260523E1,3.346846E1,6.0396492E1,5.6902176E-1,5.3126085E-1,4.8993614E-1,3.970591E-1,3.58234E-1,3.0231923E-1,2.7264997E-1,3.1401005E-1,3.5506266E-1,5.71291E-1,6.103972E-1],"categories":[],"categories_nodes":[],"categories_segments":[],"categories_sizes":[],"default_left":[0,0,0,0,0,0,0,0,0,0,0,0,0,0,0,0,0,0,0,0,0,0,0,0,0,0,0,0,0,0,0],"id":11,"left_children":[1,3,5,7,9,11,13,15,17,-1,-1,-1,-1,19,21,-1,23,25,27,29,-1,-1,-1,-1,-1,-1,-1,-1,-1,-1,-1],"loss_changes":[3.481632E6,1.7775E5,8.5396E4,2.64556E5,8.80225E3,7.6705E3,1.3326E5,3.03375E4,4.49675E4,0E0,0E0,0E0,0E0,8.228E3,7.032E3,0E0,7.0825E3,1.23835E4,8.39425E3,1.074E4,0E0,0E0,0E0,0E0,0E0,0E0,0E0,0E0,0E0,0E0,0E0],"parents":[2147483647,0,0,1,1,2,2,3,3,4,4,5,5,6,6,7,7,8,8,13,13,14,14,16,16,17,17,18,18,19,19],"right_children":[2,4,6,8,10,12,14,16,18,-1,-1,-1,-1,20,22,-1,24,26,28,30,-1,-1,-1,-1,-1,-1,-1,-1,-1,-1,-1],"split_conditions":[1.3E1,1.1E1,1.5E1,3E0,1.2E1,1.4E1,2.2E1,1E0,9E0,3.9916858E-1,4.424485E-1,4.8866448E-1,5.313229E-1,2.1E1,2.3E1,4.429552E-1,2E0,5E0,1E1,1.6E1,5.6902176E-1,5.3126085E-1,4.8993614E-1,3.970591E-1,3.58234E-1,3.0231923E-1,2.7264997E-1,3.1401005E-1,3.5506266E-1,5.71291E-1,6.103972E-1],"split_indices":[1,1,1,1,1,1,1,1,1,0,0,0,0,1,1,0,1,1,1,1,0,0,0,0,0,0,0,0,0,0,0],"split_type":[0,0,0,0,0,0,0,0,0,0,0,0,0,0,0,0,0,0,0,0,0,0,0,0,0,0,0,0,0,0,0],"sum_hessian":[2.7033E4,1.4625E4,1.2408E4,1.2369E4,2.256E3,2.256E3,1.0152E4,3.384E3,8.985E3,1.128E3,1.128E3,1.128E3,1.128E3,7.896E3,2.256E3,1.128E3,2.256E3,6.729E3,2.256E3,6.768E3,1.128E3,1.128E3,1.128E3,1.128E3,1.128E3,2.248E3,4.481E3,1.128E3,1.128E3,1.128E3,5.64E3],"tree_param":{"num_deleted":"0","num_feature":"5","num_nodes":"31","size_leaf_vector":"1"}},{"base_weights":[4.392839E1,3.357551E1,5.6127388E1,3.2094273E1,4.1678875E1,5.05122E1,5.737011E1,3.956591E1,2.9276157E1,3.9518043E-1,4.3802786E-1,4.8378217E-1,5.260143E-1,5.9305748E1,5.05721E1,4.3852958E-1,3.7403908E1,2.7978003E1,3.313407E1,5.97927E1,5.6333655E-1,5.2595294E-1,4.850411E-1,3.9309204E-1,3.546548E-1,3.1072268E-1,2.7350733E-1,3.108727E-1,3.515152E-1,5.6558317E-1,6.0429436E-1],"categories":[],"categories_nodes":[],"categories_segments":[],"categories_sizes":[],"default_left":[0,0,0,0,0,0,0,0,0,0,0,0,0,0,0,0,0,0,0,0,0,0,0,0,0,0,0,0,0,0,0],"id":12,"left_children":[1,3,5,7,9,11,13,15,17,-1,-1,-1,-1,19,21,-1,23,25,27,29,-1,-1,-1,-1,-1,-1,-1,-1,-1,-1,-1],"loss_changes":[3.412368E6,1.74219E5,8.3692E4,2.59303E5,8.6275E3,7.518E3,1.30598E5,2.9734E4,4.4077E4,0E0,0E0,0E0,0E0,8.062E3,6.892E3,0E0,6.9415E3,1.22125E4,8.227E3,1.0522E4,0E0,0E0,0E0,0E0,0E0,0E0,0E0,0E0,0E0,0E0,0E0],"parents":[2147483647,0,0,1,1,2,2,3,3,4,4,5,5,6,6,7,7,8,8,13,13,14,14,16,16,17,17,18,18,19,19],"right_children":[2,4,6,8,10,12,14,16,18,-1,-1,-1,-1,20,22,-1,24,26,28,30,-1,-1,-1,-1,-1,-1,-1,-1,-1,-1,-1],"split_conditions":[1.3E1,1.1E1,1.5E1,3E0,1.2E1,1.4E1,2.2E1,1E0,9E0,3.9518043E-1,4.3802786E-1,4.8378217E-1,5.260143E-1,2.1E1,2.3E1,4.3852958E-1,2E0,4E0,1E1,1.6E1,5.6333655E-1,5.2595294E-1,4.850411E-1,3.9309204E-1,3.546548E-1,3.1072268E-1,2.7350733E-1,3.108727E-1,3.515152E-1,5.6558317E-1,6.0429436E-1],"split_indices":[1,1,1,1,1,1,1,1,1,0,0,0,0,1,1,0,1,1,1,1,0,0,0,0,0,0,0,0,0,0,0],"split_type":[0,0,0,0,0,0,0,0,0,0,0,0,0,0,0,0,0,0,0,0,0,0,0,0,0,0,0,0,0,0,0],"sum_hessian":[2.7033E4,1.4625E4,1.2408E4,1.2369E4,2.256E3,2.256E3,1.0152E4,3.384E3,8.985E3,1.128E3,1.128E3,1.128E3,1.128E3,7.896E3,2.256E3,1.128E3,2.256E3,6.729E3,2.256E3,6.768E3,1.128E3,1.128E3,1.128E3,1.128E3,1.128E3,1.126E3,5.603E3,1.128E3,1.128E3,1.128E3,5.64E3],"tree_param":{"num_deleted":"0","num_feature":"5","num_nodes":"31","size_leaf_vector":"1"}},{"base_weights":[4.348937E1,3.323998E1,5.5566418E1,3.1773527E1,4.1262455E1,5.0007523E1,5.679668E1,3.91706E1,2.8983536E1,3.9123213E-1,4.336515E-1,4.7894862E-1,5.2075887E-1,5.871291E1,5.0066826E1,4.3414816E-1,3.7030197E1,2.769831E1,3.2803024E1,5.9194946E1,5.577082E-1,5.206981E-1,4.8019496E-1,3.8916457E-1,3.5111135E-1,2.9637718E-1,2.6718962E-1,3.0776674E-1,3.4800315E-1,5.599324E-1,5.982525E-1],"categories":[],"categories_nodes":[],"categories_segments":[],"categories_sizes":[],"default_left":[0,0,0,0,0,0,0,0,0,0,0,0,0,0,0,0,0,0,0,0,0,0,0,0,0,0,0,0,0,0,0],"id":13,"left_children":[1,3,5,7,9,11,13,15,17,-1,-1,-1,-1,19,21,-1,23,25,27,29,-1,-1,-1,-1,-1,-1,-1,-1,-1,-1,-1],"loss_changes":[3.344484E6,1.70757E5,8.2024E4,2.54154E5,8.45575E3,7.3685E3,1.27992E5,2.91425E4,4.3203E4,0E0,0E0,0E0,0E0,7.898E3,6.7555E3,0E0,6.8035E3,1.19905E4,8.0635E3,1.0308E4,0E0,0E0,0E0,0E0,0E0,0E0,0E0,0E0,0E0,0E0,0E0],"parents":[2147483647,0,0,1,1,2,2,3,3,4,4,5,5,6,6,7,7,8,8,13,13,14,14,16,16,17,17,18,18,19,19],"right_children":[2,4,6,8,10,12,14,16,18,-1,-1,-1,-1,20,22,-1,24,26,28,30,-1,-1,-1,-1,-1,-1,-1,-1,-1,-1,-1],"split_conditions":[1.3E1,1.1E1,1.5E1,3E0,1.2E1,1.4E1,2.2E1,1E0,9E0,3.9123213E-1,4.336515E-1,4.7894862E-1,5.2075887E-1,2.1E1,2.3E1,4.3414816E-1,2E0,5E0,1E1,1.6E1,5.577082E-1,5.206981E-1,4.8019496E-1,3.8916457E-1,3.5111135E-1,2.9637718E-1,2.6718962E-1,3.0776674E-1,3.4800315E-1,5.599324E-1,5.982525E-1],"split_indices":[1,1,1,1,1,1,1,1,1,0,0,0,0,1,1,0,1,1,1,1,0,0,0,0,0,0,0,0,0,0,0],"split_type":[0,0,0,0,0,0,0,0,0,0,0,0,0,0,0,0,0,0,0,0,0,0,0,0,0,0,0,0,0,0,0],"sum_hessian":[2.7033E4,1.4625E4,1.2408E4,1.2369E4,2.256E3,2.256E3,1.0152E4,3.384E3,8.985E3,1.128E3,1.128E3,1.128E3,1.128E3,7.896E3,2.256E3,1.128E3,2.256E3,6.729E3,2.256E3,6.768E3,1.128E3,1.128E3,1.128E3,1.128E3,1.128E3,2.248E3,4.481E3,1.128E3,1.128E3,1.128E3,5.64E3],"tree_param":{"num_deleted":"0","num_feature":"5","num_nodes":"31","size_leaf_vector":"1"}},{"base_weights":[4.305473E1,3.29078E1,5.501105E1,3.1455986E1,4.0850197E1,4.9507893E1,5.622898E1,3.8779243E1,2.8693836E1,3.8732326E-1,4.2931885E-1,4.7416338E-1,5.1555586E-1,5.8126E1,4.95666E1,4.2981055E-1,3.6660225E1,2.7421412E1,3.2475285E1,5.860317E1,5.52136E-1,5.154957E-1,4.753973E-1,3.8527638E-1,3.4760338E-1,3.0465707E-1,2.680429E-1,3.046918E-1,3.445262E-1,5.54338E-1,5.9227103E-1],"categories":[],"categories_nodes":[],"categories_segments":[],"categories_sizes":[],"default_left":[0,0,0,0,0,0,0,0,0,0,0,0,0,0,0,0,0,0,0,0,0,0,0,0,0,0,0,0,0,0,0],"id":14,"left_children":[1,3,5,7,9,11,13,15,17,-1,-1,-1,-1,19,21,-1,23,25,27,29,-1,-1,-1,-1,-1,-1,-1,-1,-1,-1,-1],"loss_changes":[3.277952E6,1.67365E5,8.0388E4,2.49107E5,8.2875E3,7.2215E3,1.25438E5,2.85635E4,4.23465E4,0E0,0E0,0E0,0E0,7.738E3,6.621E3,0E0,6.66825E3,1.1827E4,7.90325E3,1.0104E4,0E0,0E0,0E0,0E0,0E0,0E0,0E0,0E0,0E0,0E0,0E0],"parents":[2147483647,0,0,1,1,2,2,3,3,4,4,5,5,6,6,7,7,8,8,13,13,14,14,16,16,17,17,18,18,19,19],"right_children":[2,4,6,8,10,12,14,16,18,-1,-1,-1,-1,20,22,-1,24,26,28,30,-1,-1,-1,-1,-1,-1,-1,-1,-1,-1,-1],"split_conditions":[1.3E1,1.1E1,1.5E1,3E0,1.2E1,1.4E1,2.2E1,1E0,9E0,3.8732326E-1,4.2931885E-1,4.7416338E-1,5.1555586E-1,2.1E1,2.3E1,4.2981055E-1,2E0,4E0,1E1,1.6E1,5.52136E-1,5.154957E-1,4.753973E-1,3.8527638E-1,3.4760338E-1,3.0465707E-1,2.680429E-1,3.046918E-1,3.445262E-1,5.54338E-1,5.9227103E-1],"split_indices":[1,1,1,1,1,1,1,1,1,0,0,0,0,1,1,0,1,1,1,1,0,0,0,0,0,0,0,0,0,0,0],"split_type":[0,0,0,0,0,0,0,0,0,0,0,0,0,0,0,0,0,0,0,0,0,0,0,0,0,0,0,0,0,0,0],"sum_hessian":[2.7033E4,1.4625E4,1.2408E4,1.2369E4,2.256E3,2.256E3,1.0152E4,3.384E3,8.985E3,1.128E3,1.128E3,1.128E3,1.128E3,7.896E3,2.256E3,1.128E3,2.256E3,6.729E3,2.256E3,6.768E3,1.128E3,1.128E3,1.128E3,1.128E3,1.128E3,1.126E3,5.603E3,1.128E3,1.128E3,1.128E3,5.64E3],"tree_param":{"num_deleted":"0","num_feature":"5","num_nodes":"31","size_leaf_vector":"1"}},{"base_weights":[4.262444E1,3.2578938E1,5.446124E1,3.1141619E1,4.044206E1,4.9013252E1,5.5666954E1,3.8391792E1,2.8407034E1,3.834535E-1,4.2502943E-1,4.69426E-1,5.104049E-1,5.7544952E1,4.9071377E1,4.2551625E-1,3.6293945E1,2.7147282E1,3.2150818E1,5.8017307E1,5.4661953E-1,5.103453E-1,4.7064754E-1,3.8142702E-1,3.4413043E-1,2.905522E-1,2.618385E-1,3.0164757E-1,3.41084E-1,5.487995E-1,5.8634937E-1],"categories":[],"categories_nodes":[],"categories_segments":[],"categories_sizes":[],"default_left":[0,0,0,0,0,0,0,0,0,0,0,0,0,0,0,0,0,0,0,0,0,0,0,0,0,0,0,0,0,0,0],"id":15,"left_children":[1,3,5,7,9,11,13,15,17,-1,-1,-1,-1,19,21,-1,23,25,27,29,-1,-1,-1,-1,-1,-1,-1,-1,-1,-1,-1],"loss_changes":[3.212748E6,1.64041E5,7.8784E4,2.4416E5,8.123E3,7.078E3,1.22936E5,2.79955E4,4.15075E4,0E0,0E0,0E0,0E0,7.58E3,6.4895E3,0E0,6.53575E3,1.161E4,7.746E3,9.898E3,0E0,0E0,0E0,0E0,0E0,0E0,0E0,0E0,0E0,0E0,0E0],"parents":[2147483647,0,0,1,1,2,2,3,3,4,4,5,5,6,6,7,7,8,8,13,13,14,14,16,16,17,17,18,18,19,19],"right_children":[2,4,6,8,10,12,14,16,18,-1,-1,-1,-1,20,22,-1,24,26,28,30,-1,-1,-1,-1,-1,-1,-1,-1,-1,-1,-1],"split_conditions":[1.3E1,1.1E1,1.5E1,3E0,1.2E1,1.4E1,2.2E1,1E0,9E0,3.834535E-1,4.2502943E-1,4.69426E-1,5.104049E-1,2.1E1,2.3E1,4.2551625E-1,2E0,5E0,1E1,1.6E1,5.4661953E-1,5.103453E-1,4.7064754E-1,3.8142702E-1,3.4413043E-1,2.905522E-1,2.618385E-1,3.0164757E-1,3.41084E-1,5.487995E-1,5.8634937E-1],"split_indices":[1,1,1,1,1,1,1,1,1,0,0,0,0,1,1,0,1,1,1,1,0,0,0,0,0,0,0,0,0,0,0],"split_type":[0,0,0,0,0,0,0,0,0,0,0,0,0,0,0,0,0,0,0,0,0,0,0,0,0,0,0,0,0,0,0],"sum_hessian":[2.7033E4,1.4625E4,1.2408E4,1.2369E4,2.256E3,2.256E3,1.0152E4,3.384E3,8.985E3,1.128E3,1.128E3,1.128E3,1.128E3,7.896E3,2.256E3,1.128E3,2.256E3,6.729E3,2.256E3,6.768E3,1.128E3,1.128E3,1.128E3,1.128E3,1.128E3,2.248E3,4.481E3,1.128E3,1.128E3,1.128E3,5.64E3],"tree_param":{"num_deleted":"0","num_feature":"5","num_nodes":"31","size_leaf_vector":"1"}},{"base_weights":[4.2198444E1,3.2253365E1,5.391692E1,3.0830393E1,4.0037994E1,4.8523552E1,5.5110546E1,3.8008217E1,2.8123096E1,3.7962234E-1,4.2078292E-1,4.6473587E-1,5.053054E-1,5.696972E1,4.8581097E1,4.2126483E-1,3.593133E1,2.687589E1,3.1829594E1,5.74373E1,5.411582E-1,5.052464E-1,4.6594524E-1,3.7761614E-1,3.4069216E-1,2.9871026E-1,2.6268753E-1,2.9863375E-1,3.376762E-1,5.433164E-1,5.804869E-1],"categories":[],"categories_nodes":[],"categories_segments":[],"categories_sizes":[],"default_left":[0,0,0,0,0,0,0,0,0,0,0,0,0,0,0,0,0,0,0,0,0,0,0,0,0,0,0,0,0,0,0],"id":16,"left_children":[1,3,5,7,9,11,13,15,17,-1,-1,-1,-1,19,21,-1,23,25,27,29,-1,-1,-1,-1,-1,-1,-1,-1,-1,-1,-1],"loss_changes":[3.148836E6,1.60783E5,7.7208E4,2.39311E5,7.96125E3,6.9375E3,1.20484E5,2.7439E4,4.0685E4,0E0,0E0,0E0,0E0,7.428E3,6.3605E3,0E0,6.406E3,1.14535E4,7.59225E3,9.702E3,0E0,0E0,0E0,0E0,0E0,0E0,0E0,0E0,0E0,0E0,0E0],"parents":[2147483647,0,0,1,1,2,2,3,3,4,4,5,5,6,6,7,7,8,8,13,13,14,14,16,16,17,17,18,18,19,19],"right_children":[2,4,6,8,10,12,14,16,18,-1,-1,-1,-1,20,22,-1,24,26,28,30,-1,-1,-1,-1,-1,-1,-1,-1,-1,-1,-1],"split_conditions":[1.3E1,1.1E1,1.5E1,3E0,1.2E1,1.4E1,2.2E1,1E0,9E0,3.7962234E-1,4.2078292E-1,4.6473587E-1,5.053054E-1,2.1E1,2.3E1,4.2126483E-1,2E0,4E0,1E1,1.6E1,5.411582E-1,5.052464E-1,4.6594524E-1,3.7761614E-1,3.4069216E-1,2.9871026E-1,2.6268753E-1,2.9863375E-1,3.376762E-1,5.433164E-1,5.804869E-1],"split_indices":[1,1,1,1,1,1,1,1,1,0,0,0,0,1,1,0,1,1,1,1,0,0,0,0,0,0,0,0,0,0,0],"split_type":[0,0,0,0,0,0,0,0,0,0,0,0,0,0,0,0,0,0,0,0,0,0,0,0,0,0,0,0,0,0,0],"sum_hessian":[2.7033E4,1.4625E4,1.2408E4,1.2369E4,2.256E3,2.256E3,1.0152E4,3.384E3,8.985E3,1.128E3,1.128E3,1.128E3,1.128E3,7.896E3,2.256E3,1.128E3,2.256E3,6.729E3,2.256E3,6.768E3,1.128E3,1.128E3,1.128E3,1.128E3,1.128E3,1.126E3,5.603E3,1.128E3,1.128E3,1.128E3,5.64E3],"tree_param":{"num_deleted":"0","num_feature":"5","num_nodes":"31","size_leaf_vector":"1"}},{"base_weights":[4.177671E1,3.1931046E1,5.337804E1,3.0522278E1,3.963797E1,4.8038746E1,5.4559704E1,3.762847E1,2.7842E1,3.7582946E-1,4.1657883E-1,4.600926E-1,5.002568E-1,5.640023E1,4.8095715E1,4.1705593E-1,3.5572334E1,2.6607216E1,3.1511581E1,5.6863094E1,5.3575146E-1,5.0019836E-1,4.6128988E-1,3.7384334E-1,3.372883E-1,2.848419E-1,2.565944E-1,2.9565006E-1,3.3430243E-1,5.3788805E-1,5.7468307E-1],"categories":[],"categories_nodes":[],"categories_segments":[],"categories_sizes":[],"default_left":[0,0,0,0,0,0,0,0,0,0,0,0,0,0,0,0,0,0,0,0,0,0,0,0,0,0,0,0,0,0,0],"id":17,"left_children":[1,3,5,7,9,11,13,15,17,-1,-1,-1,-1,19,21,-1,23,25,27,29,-1,-1,-1,-1,-1,-1,-1,-1,-1,-1,-1],"loss_changes":[3.086196E6,1.5759E5,7.5672E4,2.34559E5,7.803E3,6.799E3,1.18078E5,2.6893E4,3.98785E4,0E0,0E0,0E0,0E0,7.282E3,6.2335E3,0E0,6.2785E3,1.12415E4,7.44125E3,9.504E3,0E0,0E0,0E0,0E0,0E0,0E0,0E0,0E0,0E0,0E0,0E0],"parents":[2147483647,0,0,1,1,2,2,3,3,4,4,5,5,6,6,7,7,8,8,13,13,14,14,16,16,17,17,18,18,19,19],"right_children":[2,4,6,8,10,12,14,16,18,-1,-1,-1,-1,20,22,-1,24,26,28,30,-1,-1,-1,-1,-1,-1,-1,-1,-1,-1,-1],"split_conditions":[1.3E1,1.1E1,1.5E1,3E0,1.2E1,1.4E1,2.2E1,1E0,9E0,3.7582946E-1,4.1657883E-1,4.600926E-1,5.002568E-1,2.1E1,2.3E1,4.1705593E-1,2E0,5E0,1E1,1.6E1,5.3575146E-1,5.0019836E-1,4.6128988E-1,3.7384334E-1,3.372883E-1,2.848419E-1,2.565944E-1,2.9565006E-1,3.3430243E-1,5.3788805E-1,5.7468307E-1],"split_indices":[1,1,1,1,1,1,1,1,1,0,0,0,0,1,1,0,1,1,1,1,0,0,0,0,0,0,0,0,0,0,0],"split_type":[0,0,0,0,0,0,0,0,0,0,0,0,0,0,0,0,0,0,0,0,0,0,0,0,0,0,0,0,0,0,0],"sum_hessian":[2.7033E4,1.4625E4,1.2408E4,1.2369E4,2.256E3,2.256E3,1.0152E4,3.384E3,8.985E3,1.128E3,1.128E3,1.128E3,1.128E3,7.896E3,2.256E3,1.128E3,2.256E3,6.729E3,2.256E3,6.768E3,1.128E3,1.128E3,1.128E3,1.128E3,1.128E3,2.248E3,4.481E3,1.128E3,1.128E3,1.128E3,5.64E3],"tree_param":{"num_deleted":"0","num_feature":"5","num_nodes":"31","size_leaf_vector":"1"}},{"base_weights":[4.1359188E1,3.1611946E1,5.2844547E1,3.0217241E1,3.924194E1,4.7558784E1,5.4014362E1,3.7252518E1,2.756371E1,3.720745E-1,4.1241673E-1,4.5549574E-1,4.9525866E-1,5.5836437E1,4.7615185E1,4.1288906E-1,3.5216927E1,2.6341225E1,3.1196743E1,5.629463E1,5.3039867E-1,4.9520084E-1,4.566811E-1,3.7010822E-1,3.3391836E-1,2.928799E-1,2.574391E-1,2.9269618E-1,3.3096236E-1,5.325139E-1,5.6893724E-1],"categories":[],"categories_nodes":[],"categories_segments":[],"categories_sizes":[],"default_left":[0,0,0,0,0,0,0,0,0,0,0,0,0,0,0,0,0,0,0,0,0,0,0,0,0,0,0,0,0,0,0],"id":18,"left_children":[1,3,5,7,9,11,13,15,17,-1,-1,-1,-1,19,21,-1,23,25,27,29,-1,-1,-1,-1,-1,-1,-1,-1,-1,-1,-1],"loss_changes":[3.0248E6,1.54459E5,7.4164E4,2.299E5,7.648E3,6.6645E3,1.15724E5,2.63585E4,3.9088E4,0E0,0E0,0E0,0E0,7.134E3,6.1095E3,0E0,6.15375E3,1.10915E4,7.293E3,9.312E3,0E0,0E0,0E0,0E0,0E0,0E0,0E0,0E0,0E0,0E0,0E0],"parents":[2147483647,0,0,1,1,2,2,3,3,4,4,5,5,6,6,7,7,8,8,13,13,14,14,16,16,17,17,18,18,19,19],"right_children":[2,4,6,8,10,12,14,16,18,-1,-1,-1,-1,20,22,-1,24,26,28,30,-1,-1,-1,-1,-1,-1,-1,-1,-1,-1,-1],"split_conditions":[1.3E1,1.1E1,1.5E1,3E0,1.2E1,1.4E1,2.2E1,1E0,9E0,3.720745E-1,4.1241673E-1,4.5549574E-1,4.9525866E-1,2.1E1,2.3E1,4.1288906E-1,2E0,4E0,1E1,1.6E1,5.3039867E-1,4.9520084E-1,4.566811E-1,3.7010822E-1,3.3391836E-1,2.928799E-1,2.574391E-1,2.9269618E-1,3.3096236E-1,5.325139E-1,5.6893724E-1],"split_indices":[1,1,1,1,1,1,1,1,1,0,0,0,0,1,1,0,1,1,1,1,0,0,0,0,0,0,0,0,0,0,0],"split_type":[0,0,0,0,0,0,0,0,0,0,0,0,0,0,0,0,0,0,0,0,0,0,0,0,0,0,0,0,0,0,0],"sum_hessian":[2.7033E4,1.4625E4,1.2408E4,1.2369E4,2.256E3,2.256E3,1.0152E4,3.384E3,8.985E3,1.128E3,1.128E3,1.128E3,1.128E3,7.896E3,2.256E3,1.128E3,2.256E3,6.729E3,2.256E3,6.768E3,1.128E3,1.128E3,1.128E3,1.128E3,1.128E3,1.126E3,5.603E3,1.128E3,1.128E3,1.128E3,5.64E3],"tree_param":{"num_deleted":"0","num_feature":"5","num_nodes":"31","size_leaf_vector":"1"}},{"base_weights":[4.0945843E1,3.1296038E1,5.2316387E1,2.9915253E1,3.884987E1,4.708362E1,5.3474472E1,3.6880325E1,2.7288202E1,3.6835703E-1,4.082962E-1,4.5094484E-1,4.9031046E-1,5.527828E1,4.7139454E1,4.087638E-1,3.4865067E1,2.6077894E1,3.0885054E1,5.5731842E1,5.2509934E-1,4.902532E-1,4.5211834E-1,3.664104E-1,3.3058214E-1,2.7924407E-1,2.5145522E-1,2.8977183E-1,3.2765567E-1,5.271935E-1,5.632489E-1],"categories":[],"categories_nodes":[],"categories_segments":[],"categories_sizes":[],"default_left":[0,0,0,0,0,0,0,0,0,0,0,0,0,0,0,0,0,0,0,0,0,0,0,0,0,0,0,0,0,0,0],"id":19,"left_children":[1,3,5,7,9,11,13,15,17,-1,-1,-1,-1,19,21,-1,23,25,27,29,-1,-1,-1,-1,-1,-1,-1,-1,-1,-1,-1],"loss_changes":[2.964632E6,1.5139E5,7.2676E4,2.25334E5,7.496E3,6.532E3,1.13416E5,2.58345E4,3.83135E4,0E0,0E0,0E0,0E0,6.988E3,5.988E3,0E0,6.03125E3,1.08845E4,7.148E3,9.126E3,0E0,0E0,0E0,0E0,0E0,0E0,0E0,0E0,0E0,0E0,0E0],"parents":[2147483647,0,0,1,1,2,2,3,3,4,4,5,5,6,6,7,7,8,8,13,13,14,14,16,16,17,17,18,18,19,19],"right_children":[2,4,6,8,10,12,14,16,18,-1,-1,-1,-1,20,22,-1,24,26,28,30,-1,-1,-1,-1,-1,-1,-1,-1,-1,-1,-1],"split_conditions":[1.3E1,1.1E1,1.5E1,3E0,1.2E1,1.4E1,2.2E1,1E0,9E0,3.6835703E-1,4.082962E-1,4.5094484E-1,4.9031046E-1,2.1E1,2.3E1,4.087638E-1,2E0,5E0,1E1,1.6E1,5.2509934E-1,4.902532E-1,4.5211834E-1,3.664104E-1,3.3058214E-1,2.7924407E-1,2.5145522E-1,2.8977183E-1,3.2765567E-1,5.271935E-1,5.632489E-1],"split_indices":[1,1,1,1,1,1,1,1,1,0,0,0,0,1,1,0,1,1,1,1,0,0,0,0,0,0,0,0,0,0,0],"split_type":[0,0,0,0,0,0,0,0,0,0,0,0,0,0,0,0,0,0,0,0,0,0,0,0,0,0,0,0,0,0,0],"sum_hessian":[2.7033E4,1.4625E4,1.2408E4,1.2369E4,2.256E3,2.256E3,1.0152E4,3.384E3,8.985E3,1.128E3,1.128E3,1.128E3,1.128E3,7.896E3,2.256E3,1.128E3,2.256E3,6.729E3,2.256E3,6.768E3,1.128E3,1.128E3,1.128E3,1.128E3,1.128E3,2.248E3,4.481E3,1.128E3,1.128E3,1.128E3,5.64E3],"tree_param":{"num_deleted":"0","num_feature":"5","num_nodes":"31","size_leaf_vector":"1"}},{"base_weights":[4.0536625E1,3.0983284E1,5.1793507E1,2.9616283E1,3.8461716E1,4.6613197E1,5.293998E1,3.651185E1,2.7015448E1,3.6467677E-1,4.0421683E-1,4.464394E-1,4.854117E-1,5.47257E1,4.6668476E1,4.0467978E-1,3.4516727E1,2.5817192E1,3.0576477E1,5.5174686E1,5.19853E-1,4.8535502E-1,4.4760117E-1,3.6274955E-1,3.2727924E-1,2.8716373E-1,2.522954E-1,2.8687668E-1,3.24382E-1,5.219263E-1,5.576174E-1],"categories":[],"categories_nodes":[],"categories_segments":[],"categories_sizes":[],"default_left":[0,0,0,0,0,0,0,0,0,0,0,0,0,0,0,0,0,0,0,0,0,0,0,0,0,0,0,0,0,0,0],"id":20,"left_children":[1,3,5,7,9,11,13,15,17,-1,-1,-1,-1,19,21,-1,23,25,27,29,-1,-1,-1,-1,-1,-1,-1,-1,-1,-1,-1],"loss_changes":[2.905652E6,1.48383E5,7.123E4,2.20859E5,7.34725E3,6.4025E3,1.11152E5,2.53205E4,3.75545E4,0E0,0E0,0E0,0E0,6.848E3,5.869E3,0E0,5.91125E3,1.0741E4,7.006E3,8.94E3,0E0,0E0,0E0,0E0,0E0,0E0,0E0,0E0,0E0,0E0,0E0],"parents":[2147483647,0,0,1,1,2,2,3,3,4,4,5,5,6,6,7,7,8,8,13,13,14,14,16,16,17,17,18,18,19,19],"right_children":[2,4,6,8,10,12,14,16,18,-1,-1,-1,-1,20,22,-1,24,26,28,30,-1,-1,-1,-1,-1,-1,-1,-1,-1,-1,-1],"split_conditions":[1.3E1,1.1E1,1.5E1,3E0,1.2E1,1.4E1,2.2E1,1E0,9E0,3.6467677E-1,4.0421683E-1,4.464394E-1,4.854117E-1,2.1E1,2.3E1,4.0467978E-1,2E0,4E0,1E1,1.6E1,5.19853E-1,4.8535502E-1,4.4760117E-1,3.6274955E-1,3.2727924E-1,2.8716373E-1,2.522954E-1,2.8687668E-1,3.24382E-1,5.219263E-1,5.576174E-1],"split_indices":[1,1,1,1,1,1,1,1,1,0,0,0,0,1,1,0,1,1,1,1,0,0,0,0,0,0,0,0,0,0,0],"split_type":[0,0,0,0,0,0,0,0,0,0,0,0,0,0,0,0,0,0,0,0,0,0,0,0,0,0,0,0,0,0,0],"sum_hessian":[2.7033E4,1.4625E4,1.2408E4,1.2369E4,2.256E3,2.256E3,1.0152E4,3.384E3,8.985E3,1.128E3,1.128E3,1.128E3,1.128E3,7.896E3,2.256E3,1.128E3,2.256E3,6.729E3,2.256E3,6.768E3,1.128E3,1.128E3,1.128E3,1.128E3,1.128E3,1.126E3,5.603E3,1.128E3,1.128E3,1.128E3,5.64E3],"tree_param":{"num_deleted":"0","num_feature":"5","num_nodes":"31","size_leaf_vector":"1"}},{"base_weights":[4.01315E1,3.0673656E1,5.127585E1,2.9320301E1,3.807744E1,4.614748E1,5.241083E1,3.6147053E1,2.6745422E1,3.610332E-1,4.0017825E-1,4.4197893E-1,4.8056188E-1,5.4178646E1,4.6202206E1,4.0063658E-1,3.4171867E1,2.5559101E1,3.0270983E1,5.46231E1,5.146591E-1,4.805058E-1,4.4312912E-1,3.591253E-1,3.2400936E-1,2.7375644E-1,2.4641883E-1,2.8401047E-1,3.211411E-1,5.167116E-1,5.5204225E-1],"categories":[],"categories_nodes":[],"categories_segments":[],"categories_sizes":[],"default_left":[0,0,0,0,0,0,0,0,0,0,0,0,0,0,0,0,0,0,0,0,0,0,0,0,0,0,0,0,0,0,0],"id":21,"left_children":[1,3,5,7,9,11,13,15,17,-1,-1,-1,-1,19,21,-1,23,25,27,29,-1,-1,-1,-1,-1,-1,-1,-1,-1,-1,-1],"loss_changes":[2.847848E6,1.45436E5,6.9808E4,2.16474E5,7.20075E3,6.275E3,1.08936E5,2.4817E4,3.68095E4,0E0,0E0,0E0,0E0,6.71E3,5.7525E3,0E0,5.794E3,1.05385E4,6.866875E3,8.76E3,0E0,0E0,0E0,0E0,0E0,0E0,0E0,0E0,0E0,0E0,0E0],"parents":[2147483647,0,0,1,1,2,2,3,3,4,4,5,5,6,6,7,7,8,8,13,13,14,14,16,16,17,17,18,18,19,19],"right_children":[2,4,6,8,10,12,14,16,18,-1,-1,-1,-1,20,22,-1,24,26,28,30,-1,-1,-1,-1,-1,-1,-1,-1,-1,-1,-1],"split_conditions":[1.3E1,1.1E1,1.5E1,3E0,1.2E1,1.4E1,2.2E1,1E0,9E0,3.610332E-1,4.0017825E-1,4.4197893E-1,4.8056188E-1,2.1E1,2.3E1,4.0063658E-1,2E0,5E0,1E1,1.6E1,5.146591E-1,4.805058E-1,4.4312912E-1,3.591253E-1,3.2400936E-1,2.7375644E-1,2.4641883E-1,2.8401047E-1,3.211411E-1,5.167116E-1,5.5204225E-1],"split_indices":[1,1,1,1,1,1,1,1,1,0,0,0,0,1,1,0,1,1,1,1,0,0,0,0,0,0,0,0,0,0,0],"split_type":[0,0,0,0,0,0,0,0,0,0,0,0,0,0,0,0,0,0,0,0,0,0,0,0,0,0,0,0,0,0,0],"sum_hessian":[2.7033E4,1.4625E4,1.2408E4,1.2369E4,2.256E3,2.256E3,1.0152E4,3.384E3,8.985E3,1.128E3,1.128E3,1.128E3,1.128E3,7.896E3,2.256E3,1.128E3,2.256E3,6.729E3,2.256E3,6.768E3,1.128E3,1.128E3,1.128E3,1.128E3,1.128E3,2.248E3,4.481E3,1.128E3,1.128E3,1.128E3,5.64E3],"tree_param":{"num_deleted":"0","num_feature":"5","num_nodes":"31","size_leaf_vector":"1"}},{"base_weights":[3.973042E1,3.0367123E1,5.0763367E1,2.9027277E1,3.7697E1,4.5686413E1,5.188697E1,3.5785904E1,2.6478092E1,3.5742608E-1,3.9618003E-1,4.375631E-1,4.7576052E-1,5.3637062E1,4.5740593E1,3.9663374E-1,3.3830452E1,2.5303587E1,2.996854E1,5.4077026E1,5.095171E-1,4.75705E-1,4.3870175E-1,3.555372E-1,3.2077217E-1,2.8155953E-1,2.4725442E-1,2.8117287E-1,3.1793252E-1,5.222301E-1,5.499226E-1],"categories":[],"categories_nodes":[],"categories_segments":[],"categories_sizes":[],"default_left":[0,0,0,0,0,0,0,0,0,0,0,0,0,0,0,0,0,0,0,0,0,0,0,0,0,0,0,0,0,0,0],"id":22,"left_children":[1,3,5,7,9,11,13,15,17,-1,-1,-1,-1,19,21,-1,23,25,27,29,-1,-1,-1,-1,-1,-1,-1,-1,-1,-1,-1],"loss_changes":[2.7912E6,1.42546E5,6.8418E4,2.12175E5,7.05775E3,6.15E3,1.0676E5,2.43235E4,3.60805E4,0E0,0E0,0E0,0E0,6.572E3,5.6385E3,0E0,5.67875E3,1.0402E4,6.73025E3,8.616E3,0E0,0E0,0E0,0E0,0E0,0E0,0E0,0E0,0E0,0E0,0E0],"parents":[2147483647,0,0,1,1,2,2,3,3,4,4,5,5,6,6,7,7,8,8,13,13,14,14,16,16,17,17,18,18,19,19],"right_children":[2,4,6,8,10,12,14,16,18,-1,-1,-1,-1,20,22,-1,24,26,28,30,-1,-1,-1,-1,-1,-1,-1,-1,-1,-1,-1],"split_conditions":[1.3E1,1.1E1,1.5E1,3E0,1.2E1,1.4E1,2.2E1,1E0,9E0,3.5742608E-1,3.9618003E-1,4.375631E-1,4.7576052E-1,2.1E1,2.3E1,3.9663374E-1,2E0,4E0,1E1,1.7E1,5.095171E-1,4.75705E-1,4.3870175E-1,3.555372E-1,3.2077217E-1,2.8155953E-1,2.4725442E-1,2.8117287E-1,3.1793252E-1,5.222301E-1,5.499226E-1],"split_indices":[1,1,1,1,1,1,1,1,1,0,0,0,0,1,1,0,1,1,1,1,0,0,0,0,0,0,0,0,0,0,0],"split_type":[0,0,0,0,0,0,0,0,0,0,0,0,0,0,0,0,0,0,0,0,0,0,0,0,0,0,0,0,0,0,0],"sum_hessian":[2.7033E4,1.4625E4,1.2408E4,1.2369E4,2.256E3,2.256E3,1.0152E4,3.384E3,8.985E3,1.128E3,1.128E3,1.128E3,1.128E3,7.896E3,2.256E3,1.128E3,2.256E3,6.729E3,2.256E3,6.768E3,1.128E3,1.128E3,1.128E3,1.128E3,1.128E3,1.126E3,5.603E3,1.128E3,1.128E3,2.256E3,4.512E3],"tree_param":{"num_deleted":"0","num_feature":"5","num_nodes":"31","size_leaf_vector":"1"}},{"base_weights":[3.933335E1,3.0063654E1,5.025601E1,2.8737183E1,3.7320366E1,4.5229954E1,5.1368343E1,3.542836E1,2.6213438E1,3.5385498E-1,3.9222175E-1,4.3319133E-1,4.7100714E-1,5.310089E1,4.5283592E1,3.9267093E-1,3.3492443E1,2.505063E1,2.966912E1,5.3536415E1,5.044264E-1,4.7095212E-1,4.343186E-1,3.5198498E-1,3.1756726E-1,2.683769E-1,2.4148321E-1,2.7836362E-1,3.1475598E-1,5.063314E-1,5.410799E-1],"categories":[],"categories_nodes":[],"categories_segments":[],"categories_sizes":[],"default_left":[0,0,0,0,0,0,0,0,0,0,0,0,0,0,0,0,0,0,0,0,0,0,0,0,0,0,0,0,0,0,0],"id":23,"left_children":[1,3,5,7,9,11,13,15,17,-1,-1,-1,-1,19,21,-1,23,25,27,29,-1,-1,-1,-1,-1,-1,-1,-1,-1,-1,-1],"loss_changes":[2.735676E6,1.39715E5,6.705E4,2.07961E5,6.9175E3,6.028E3,1.04628E5,2.38405E4,3.53655E4,0E0,0E0,0E0,0E0,6.444E3,5.5265E3,0E0,5.56575E3,1.02035E4,6.59625E3,8.492E3,0E0,0E0,0E0,0E0,0E0,0E0,0E0,0E0,0E0,0E0,0E0],"parents":[2147483647,0,0,1,1,2,2,3,3,4,4,5,5,6,6,7,7,8,8,13,13,14,14,16,16,17,17,18,18,19,19],"right_children":[2,4,6,8,10,12,14,16,18,-1,-1,-1,-1,20,22,-1,24,26,28,30,-1,-1,-1,-1,-1,-1,-1,-1,-1,-1,-1],"split_conditions":[1.3E1,1.1E1,1.5E1,3E0,1.2E1,1.4E1,2.2E1,1E0,9E0,3.5385498E-1,3.9222175E-1,4.3319133E-1,4.7100714E-1,2.1E1,2.3E1,3.9267093E-1,2E0,5E0,1E1,1.6E1,5.044264E-1,4.7095212E-1,4.343186E-1,3.5198498E-1,3.1756726E-1,2.683769E-1,2.4148321E-1,2.7836362E-1,3.1475598E-1,5.063314E-1,5.410799E-1],"split_indices":[1,1,1,1,1,1,1,1,1,0,0,0,0,1,1,0,1,1,1,1,0,0,0,0,0,0,0,0,0,0,0],"split_type":[0,0,0,0,0,0,0,0,0,0,0,0,0,0,0,0,0,0,0,0,0,0,0,0,0,0,0,0,0,0,0],"sum_hessian":[2.7033E4,1.4625E4,1.2408E4,1.2369E4,2.256E3,2.256E3,1.0152E4,3.384E3,8.985E3,1.128E3,1.128E3,1.128E3,1.128E3,7.896E3,2.256E3,1.128E3,2.256E3,6.729E3,2.256E3,6.768E3,1.128E3,1.128E3,1.128E3,1.128E3,1.128E3,2.248E3,4.481E3,1.128E3,1.128E3,1.128E3,5.64E3],"tree_param":{"num_deleted":"0","num_feature":"5","num_nodes":"31","size_leaf_vector":"1"}},{"base_weights":[3.894025E1,2.9763216E1,4.975372E1,2.8449986E1,3.694749E1,4.4778053E1,5.0854904E1,3.507439E1,2.5951426E1,3.5031953E-1,3.8830298E-1,4.2886326E-1,4.6630123E-1,5.257008E1,4.4831158E1,3.887477E-1,3.3157818E1,2.48002E1,2.9372692E1,5.3001205E1,4.9938664E-1,4.6624678E-1,4.2997923E-1,3.4846824E-1,3.143944E-1,2.7606505E-1,2.4231409E-1,2.7558246E-1,3.116112E-1,5.117754E-1,5.3901494E-1],"categories":[],"categories_nodes":[],"categories_segments":[],"categories_sizes":[],"default_left":[0,0,0,0,0,0,0,0,0,0,0,0,0,0,0,0,0,0,0,0,0,0,0,0,0,0,0,0,0,0,0],"id":24,"left_children":[1,3,5,7,9,11,13,15,17,-1,-1,-1,-1,19,21,-1,23,25,27,29,-1,-1,-1,-1,-1,-1,-1,-1,-1,-1,-1],"loss_changes":[2.681252E6,1.3694E5,6.5712E4,2.03831E5,6.77975E3,5.9075E3,1.02542E5,2.33665E4,3.46645E4,0E0,0E0,0E0,0E0,6.312E3,5.416E3,0E0,5.455E3,1.007375E4,6.465375E3,8.354E3,0E0,0E0,0E0,0E0,0E0,0E0,0E0,0E0,0E0,0E0,0E0],"parents":[2147483647,0,0,1,1,2,2,3,3,4,4,5,5,6,6,7,7,8,8,13,13,14,14,16,16,17,17,18,18,19,19],"right_children":[2,4,6,8,10,12,14,16,18,-1,-1,-1,-1,20,22,-1,24,26,28,30,-1,-1,-1,-1,-1,-1,-1,-1,-1,-1,-1],"split_conditions":[1.3E1,1.1E1,1.5E1,3E0,1.2E1,1.4E1,2.2E1,1E0,9E0,3.5031953E-1,3.8830298E-1,4.2886326E-1,4.6630123E-1,2.1E1,2.3E1,3.887477E-1,2E0,4E0,1E1,1.7E1,4.9938664E-1,4.6624678E-1,4.2997923E-1,3.4846824E-1,3.143944E-1,2.7606505E-1,2.4231409E-1,2.7558246E-1,3.116112E-1,5.117754E-1,5.3901494E-1],"split_indices":[1,1,1,1,1,1,1,1,1,0,0,0,0,1,1,0,1,1,1,1,0,0,0,0,0,0,0,0,0,0,0],"split_type":[0,0,0,0,0,0,0,0,0,0,0,0,0,0,0,0,0,0,0,0,0,0,0,0,0,0,0,0,0,0,0],"sum_hessian":[2.7033E4,1.4625E4,1.2408E4,1.2369E4,2.256E3,2.256E3,1.0152E4,3.384E3,8.985E3,1.128E3,1.128E3,1.128E3,1.128E3,7.896E3,2.256E3,1.128E3,2.256E3,6.729E3,2.256E3,6.768E3,1.128E3,1.128E3,1.128E3,1.128E3,1.128E3,1.126E3,5.603E3,1.128E3,1.128E3,2.256E3,4.512E3],"tree_param":{"num_deleted":"0","num_feature":"5","num_nodes":"31","size_leaf_vector":"1"}},{"base_weights":[3.855108E1,2.9465782E1,4.925645E1,2.816566E1,3.6578342E1,4.433067E1,5.0346596E1,3.4723957E1,2.5692034E1,3.468195E-1,3.844234E-1,4.245784E-1,4.6164232E-1,5.2044575E1,4.4383244E1,3.8486364E-1,3.2826534E1,2.4552275E1,2.9079226E1,5.2471348E1,4.943972E-1,4.6158844E-1,4.256833E-1,3.4498665E-1,3.1125325E-1,2.6310328E-1,2.3664632E-1,2.7282906E-1,3.0849785E-1,4.9615934E-1,5.3033537E-1],"categories":[],"categories_nodes":[],"categories_segments":[],"categories_sizes":[],"default_left":[0,0,0,0,0,0,0,0,0,0,0,0,0,0,0,0,0,0,0,0,0,0,0,0,0,0,0,0,0,0,0],"id":25,"left_children":[1,3,5,7,9,11,13,15,17,-1,-1,-1,-1,19,21,-1,23,25,27,29,-1,-1,-1,-1,-1,-1,-1,-1,-1,-1,-1],"loss_changes":[2.627916E6,1.3422E5,6.4402E4,1.99784E5,6.64475E3,5.7905E3,1.00496E5,2.290175E4,3.3977E4,0E0,0E0,0E0,0E0,6.184E3,5.3085E3,0E0,5.3465E3,9.88E3,6.33675E3,8.234E3,0E0,0E0,0E0,0E0,0E0,0E0,0E0,0E0,0E0,0E0,0E0],"parents":[2147483647,0,0,1,1,2,2,3,3,4,4,5,5,6,6,7,7,8,8,13,13,14,14,16,16,17,17,18,18,19,19],"right_children":[2,4,6,8,10,12,14,16,18,-1,-1,-1,-1,20,22,-1,24,26,28,30,-1,-1,-1,-1,-1,-1,-1,-1,-1,-1,-1],"split_conditions":[1.3E1,1.1E1,1.5E1,3E0,1.2E1,1.4E1,2.2E1,1E0,9E0,3.468195E-1,3.844234E-1,4.245784E-1,4.6164232E-1,2.1E1,2.3E1,3.8486364E-1,2E0,5E0,1E1,1.6E1,4.943972E-1,4.6158844E-1,4.256833E-1,3.4498665E-1,3.1125325E-1,2.6310328E-1,2.3664632E-1,2.7282906E-1,3.0849785E-1,4.9615934E-1,5.3033537E-1],"split_indices":[1,1,1,1,1,1,1,1,1,0,0,0,0,1,1,0,1,1,1,1,0,0,0,0,0,0,0,0,0,0,0],"split_type":[0,0,0,0,0,0,0,0,0,0,0,0,0,0,0,0,0,0,0,0,0,0,0,0,0,0,0,0,0,0,0],"sum_hessian":[2.7033E4,1.4625E4,1.2408E4,1.2369E4,2.256E3,2.256E3,1.0152E4,3.384E3,8.985E3,1.128E3,1.128E3,1.128E3,1.128E3,7.896E3,2.256E3,1.128E3,2.256E3,6.729E3,2.256E3,6.768E3,1.128E3,1.128E3,1.128E3,1.128E3,1.128E3,2.248E3,4.481E3,1.128E3,1.128E3,1.128E3,5.64E3],"tree_param":{"num_deleted":"0","num_feature":"5","num_nodes":"31","size_leaf_vector":"1"}},{"base_weights":[3.8165794E1,2.917132E1,4.8764153E1,2.7884174E1,3.6212883E1,4.3887756E1,4.9843365E1,3.4377026E1,2.5435234E1,3.4335434E-1,3.8058257E-1,4.2033637E-1,4.5703003E-1,5.1524323E1,4.3939804E1,3.8101843E-1,3.2498558E1,2.4306826E1,2.878869E1,5.1946785E1,4.8945758E-1,4.5697665E-1,4.214302E-1,3.4153983E-1,3.0814347E-1,2.7067813E-1,2.3747236E-1,2.701032E-1,3.054156E-1,5.015297E-1,5.283238E-1],"categories":[],"categories_nodes":[],"categories_segments":[],"categories_sizes":[],"default_left":[0,0,0,0,0,0,0,0,0,0,0,0,0,0,0,0,0,0,0,0,0,0,0,0,0,0,0,0,0,0,0],"id":26,"left_children":[1,3,5,7,9,11,13,15,17,-1,-1,-1,-1,19,21,-1,23,25,27,29,-1,-1,-1,-1,-1,-1,-1,-1,-1,-1,-1],"loss_changes":[2.57564E6,1.31553E5,6.312E4,1.95817E5,6.513E3,5.675E3,9.8488E4,2.24465E4,3.3304E4,0E0,0E0,0E0,0E0,6.06E3,5.203E3,0E0,5.24025E3,9.75525E3,6.210625E3,8.104E3,0E0,0E0,0E0,0E0,0E0,0E0,0E0,0E0,0E0,0E0,0E0],"parents":[2147483647,0,0,1,1,2,2,3,3,4,4,5,5,6,6,7,7,8,8,13,13,14,14,16,16,17,17,18,18,19,19],"right_children":[2,4,6,8,10,12,14,16,18,-1,-1,-1,-1,20,22,-1,24,26,28,30,-1,-1,-1,-1,-1,-1,-1,-1,-1,-1,-1],"split_conditions":[1.3E1,1.1E1,1.5E1,3E0,1.2E1,1.4E1,2.2E1,1E0,9E0,3.4335434E-1,3.8058257E-1,4.2033637E-1,4.5703003E-1,2.1E1,2.3E1,3.8101843E-1,2E0,4E0,1E1,1.7E1,4.8945758E-1,4.5697665E-1,4.214302E-1,3.4153983E-1,3.0814347E-1,2.7067813E-1,2.3747236E-1,2.701032E-1,3.054156E-1,5.015297E-1,5.283238E-1],"split_indices":[1,1,1,1,1,1,1,1,1,0,0,0,0,1,1,0,1,1,1,1,0,0,0,0,0,0,0,0,0,0,0],"split_type":[0,0,0,0,0,0,0,0,0,0,0,0,0,0,0,0,0,0,0,0,0,0,0,0,0,0,0,0,0,0,0],"sum_hessian":[2.7033E4,1.4625E4,1.2408E4,1.2369E4,2.256E3,2.256E3,1.0152E4,3.384E3,8.985E3,1.128E3,1.128E3,1.128E3,1.128E3,7.896E3,2.256E3,1.128E3,2.256E3,6.729E3,2.256E3,6.768E3,1.128E3,1.128E3,1.128E3,1.128E3,1.128E3,1.126E3,5.603E3,1.128E3,1.128E3,2.256E3,4.512E3],"tree_param":{"num_deleted":"0","num_feature":"5","num_nodes":"31","size_leaf_vector":"1"}},{"base_weights":[3.7784363E1,2.88798E1,4.8276775E1,2.7605505E1,3.5851074E1,4.344927E1,4.934517E1,3.4033558E1,2.5181002E1,3.3992386E-1,3.7678012E-1,4.1613674E-1,4.5246378E-1,5.100927E1,4.3500793E1,3.7721163E-1,3.2173862E1,2.4063833E1,2.8501059E1,5.142747E1,4.845673E-1,4.5241097E-1,4.1721964E-1,3.3812746E-1,3.0506474E-1,2.579335E-1,2.3190618E-1,2.6740456E-1,3.0236417E-1,4.8619127E-1,5.198042E-1],"categories":[],"categories_nodes":[],"categories_segments":[],"categories_sizes":[],"default_left":[0,0,0,0,0,0,0,0,0,0,0,0,0,0,0,0,0,0,0,0,0,0,0,0,0,0,0,0,0,0,0],"id":27,"left_children":[1,3,5,7,9,11,13,15,17,-1,-1,-1,-1,19,21,-1,23,25,27,29,-1,-1,-1,-1,-1,-1,-1,-1,-1,-1,-1],"loss_changes":[2.5244E6,1.2894E5,6.1858E4,1.91927E5,6.3835E3,5.5625E3,9.6526E4,2.2E4,3.26445E4,0E0,0E0,0E0,0E0,5.936E3,5.0995E3,0E0,5.136E3,9.56575E3,6.08725E3,7.984E3,0E0,0E0,0E0,0E0,0E0,0E0,0E0,0E0,0E0,0E0,0E0],"parents":[2147483647,0,0,1,1,2,2,3,3,4,4,5,5,6,6,7,7,8,8,13,13,14,14,16,16,17,17,18,18,19,19],"right_children":[2,4,6,8,10,12,14,16,18,-1,-1,-1,-1,20,22,-1,24,26,28,30,-1,-1,-1,-1,-1,-1,-1,-1,-1,-1,-1],"split_conditions":[1.3E1,1.1E1,1.5E1,3E0,1.2E1,1.4E1,2.2E1,1E0,9E0,3.3992386E-1,3.7678012E-1,4.1613674E-1,4.5246378E-1,2.1E1,2.3E1,3.7721163E-1,2E0,5E0,1E1,1.6E1,4.845673E-1,4.5241097E-1,4.1721964E-1,3.3812746E-1,3.0506474E-1,2.579335E-1,2.3190618E-1,2.6740456E-1,3.0236417E-1,4.8619127E-1,5.198042E-1],"split_indices":[1,1,1,1,1,1,1,1,1,0,0,0,0,1,1,0,1,1,1,1,0,0,0,0,0,0,0,0,0,0,0],"split_type":[0,0,0,0,0,0,0,0,0,0,0,0,0,0,0,0,0,0,0,0,0,0,0,0,0,0,0,0,0,0,0],"sum_hessian":[2.7033E4,1.4625E4,1.2408E4,1.2369E4,2.256E3,2.256E3,1.0152E4,3.384E3,8.985E3,1.128E3,1.128E3,1.128E3,1.128E3,7.896E3,2.256E3,1.128E3,2.256E3,6.729E3,2.256E3,6.768E3,1.128E3,1.128E3,1.128E3,1.128E3,1.128E3,2.248E3,4.481E3,1.128E3,1.128E3,1.128E3,5.64E3],"tree_param":{"num_deleted":"0","num_feature":"5","num_nodes":"31","size_leaf_vector":"1"}},{"base_weights":[3.7406742E1,2.8591194E1,4.779427E1,2.7329618E1,3.549288E1,4.301516E1,4.885195E1,3.3693527E1,2.492931E1,3.3652762E-1,3.7301567E-1,4.1197905E-1,4.4794315E-1,5.0499367E1,4.306617E1,3.7344286E-1,3.1852407E1,2.3823269E1,2.8216301E1,5.0913345E1,4.79726E-1,4.4789085E-1,4.1305113E-1,3.3474922E-1,3.020168E-1,2.653967E-1,2.3272729E-1,2.647329E-1,2.9934323E-1,4.9148887E-1,5.1784486E-1],"categories":[],"categories_nodes":[],"categories_segments":[],"categories_sizes":[],"default_left":[0,0,0,0,0,0,0,0,0,0,0,0,0,0,0,0,0,0,0,0,0,0,0,0,0,0,0,0,0,0,0],"id":28,"left_children":[1,3,5,7,9,11,13,15,17,-1,-1,-1,-1,19,21,-1,23,25,27,29,-1,-1,-1,-1,-1,-1,-1,-1,-1,-1,-1],"loss_changes":[2.47418E6,1.26379E5,6.0624E4,1.88116E5,6.2565E3,5.452E3,9.46E4,2.1563E4,3.1997E4,0E0,0E0,0E0,0E0,5.816E3,4.998E3,0E0,5.034E3,9.447E3,5.96625E3,7.86E3,0E0,0E0,0E0,0E0,0E0,0E0,0E0,0E0,0E0,0E0,0E0],"parents":[2147483647,0,0,1,1,2,2,3,3,4,4,5,5,6,6,7,7,8,8,13,13,14,14,16,16,17,17,18,18,19,19],"right_children":[2,4,6,8,10,12,14,16,18,-1,-1,-1,-1,20,22,-1,24,26,28,30,-1,-1,-1,-1,-1,-1,-1,-1,-1,-1,-1],"split_conditions":[1.3E1,1.1E1,1.5E1,3E0,1.2E1,1.4E1,2.2E1,1E0,9E0,3.3652762E-1,3.7301567E-1,4.1197905E-1,4.4794315E-1,2.1E1,2.3E1,3.7344286E-1,2E0,4E0,1E1,1.7E1,4.79726E-1,4.4789085E-1,4.1305113E-1,3.3474922E-1,3.020168E-1,2.653967E-1,2.3272729E-1,2.647329E-1,2.9934323E-1,4.9148887E-1,5.1784486E-1],"split_indices":[1,1,1,1,1,1,1,1,1,0,0,0,0,1,1,0,1,1,1,1,0,0,0,0,0,0,0,0,0,0,0],"split_type":[0,0,0,0,0,0,0,0,0,0,0,0,0,0,0,0,0,0,0,0,0,0,0,0,0,0,0,0,0,0,0],"sum_hessian":[2.7033E4,1.4625E4,1.2408E4,1.2369E4,2.256E3,2.256E3,1.0152E4,3.384E3,8.985E3,1.128E3,1.128E3,1.128E3,1.128E3,7.896E3,2.256E3,1.128E3,2.256E3,6.729E3,2.256E3,6.768E3,1.128E3,1.128E3,1.128E3,1.128E3,1.128E3,1.126E3,5.603E3,1.128E3,1.128E3,2.256E3,4.512E3],"tree_param":{"num_deleted":"0","num_feature":"5","num_nodes":"31","size_leaf_vector":"1"}},{"base_weights":[3.7032898E1,2.8305471E1,4.731658E1,2.7056488E1,3.5138268E1,4.2585392E1,4.8363663E1,3.3356888E1,2.4680136E1,3.3316532E-1,3.6928883E-1,4.0786293E-1,4.4346768E-1,4.999456E1,4.263589E1,3.6971173E-1,3.1534164E1,2.358511E1,2.7934387E1,5.040436E1,4.7493294E-1,4.434159E-1,4.0892428E-1,3.3140463E-1,2.989993E-1,2.528655E-1,2.2726089E-1,2.6208788E-1,2.9635245E-1,4.7642314E-1,5.0948226E-1],"categories":[],"categories_nodes":[],"categories_segments":[],"categories_sizes":[],"default_left":[0,0,0,0,0,0,0,0,0,0,0,0,0,0,0,0,0,0,0,0,0,0,0,0,0,0,0,0,0,0,0],"id":29,"left_children":[1,3,5,7,9,11,13,15,17,-1,-1,-1,-1,19,21,-1,23,25,27,29,-1,-1,-1,-1,-1,-1,-1,-1,-1,-1,-1],"loss_changes":[2.424964E6,1.23869E5,5.9414E4,1.8438E5,6.13225E3,5.3435E3,9.2712E4,2.1134E4,3.13625E4,0E0,0E0,0E0,0E0,5.702E3,4.899E3,0E0,4.93375E3,9.26175E3,5.847625E3,7.74E3,0E0,0E0,0E0,0E0,0E0,0E0,0E0,0E0,0E0,0E0,0E0],"parents":[2147483647,0,0,1,1,2,2,3,3,4,4,5,5,6,6,7,7,8,8,13,13,14,14,16,16,17,17,18,18,19,19],"right_children":[2,4,6,8,10,12,14,16,18,-1,-1,-1,-1,20,22,-1,24,26,28,30,-1,-1,-1,-1,-1,-1,-1,-1,-1,-1,-1],"split_conditions":[1.3E1,1.1E1,1.5E1,3E0,1.2E1,1.4E1,2.2E1,1E0,9E0,3.3316532E-1,3.6928883E-1,4.0786293E-1,4.4346768E-1,2.1E1,2.3E1,3.6971173E-1,2E0,5E0,1E1,1.6E1,4.7493294E-1,4.434159E-1,4.0892428E-1,3.3140463E-1,2.989993E-1,2.528655E-1,2.2726089E-1,2.6208788E-1,2.9635245E-1,4.7642314E-1,5.0948226E-1],"split_indices":[1,1,1,1,1,1,1,1,1,0,0,0,0,1,1,0,1,1,1,1,0,0,0,0,0,0,0,0,0,0,0],"split_type":[0,0,0,0,0,0,0,0,0,0,0,0,0,0,0,0,0,0,0,0,0,0,0,0,0,0,0,0,0,0,0],"sum_hessian":[2.7033E4,1.4625E4,1.2408E4,1.2369E4,2.256E3,2.256E3,1.0152E4,3.384E3,8.985E3,1.128E3,1.128E3,1.128E3,1.128E3,7.896E3,2.256E3,1.128E3,2.256E3,6.729E3,2.256E3,6.768E3,1.128E3,1.128E3,1.128E3,1.128E3,1.128E3,2.248E3,4.481E3,1.128E3,1.128E3,1.128E3,5.64E3],"tree_param":{"num_deleted":"0","num_feature":"5","num_nodes":"31","size_leaf_vector":"1"}},{"base_weights":[3.6662785E1,2.8022606E1,4.6843674E1,2.6786089E1,3.4787197E1,4.2159912E1,4.7880253E1,3.3023613E1,2.443345E1,3.298366E-1,3.6559922E-1,4.037879E-1,4.3903694E-1,4.94948E1,4.2209908E1,3.6601788E-1,3.1219103E1,2.3349329E1,2.7655293E1,4.9900463E1,4.701878E-1,4.3898568E-1,4.0483868E-1,3.2809356E-1,2.9601198E-1,2.6021868E-1,2.2807698E-1,2.5946933E-1,2.9339153E-1,4.8164886E-1,5.075739E-1],"categories":[],"categories_nodes":[],"categories_segments":[],"categories_sizes":[],"default_left":[0,0,0,0,0,0,0,0,0,0,0,0,0,0,0,0,0,0,0,0,0,0,0,0,0,0,0,0,0,0,0],"id":30,"left_children":[1,3,5,7,9,11,13,15,17,-1,-1,-1,-1,19,21,-1,23,25,27,29,-1,-1,-1,-1,-1,-1,-1,-1,-1,-1,-1],"loss_changes":[2.376728E6,1.21408E5,5.823E4,1.80718E5,6.01E3,5.23725E3,9.0862E4,2.07135E4,3.07405E4,0E0,0E0,0E0,0E0,5.584E3,4.801E3,0E0,4.83575E3,9.1485E3,5.7315E3,7.624E3,0E0,0E0,0E0,0E0,0E0,0E0,0E0,0E0,0E0,0E0,0E0],"parents":[2147483647,0,0,1,1,2,2,3,3,4,4,5,5,6,6,7,7,8,8,13,13,14,14,16,16,17,17,18,18,19,19],"right_children":[2,4,6,8,10,12,14,16,18,-1,-1,-1,-1,20,22,-1,24,26,28,30,-1,-1,-1,-1,-1,-1,-1,-1,-1,-1,-1],"split_conditions":[1.3E1,1.1E1,1.5E1,3E0,1.2E1,1.4E1,2.2E1,1E0,9E0,3.298366E-1,3.6559922E-1,4.037879E-1,4.3903694E-1,2.1E1,2.3E1,3.6601788E-1,2E0,4E0,1E1,1.7E1,4.701878E-1,4.3898568E-1,4.0483868E-1,3.2809356E-1,2.9601198E-1,2.6021868E-1,2.2807698E-1,2.5946933E-1,2.9339153E-1,4.8164886E-1,5.075739E-1],"split_indices":[1,1,1,1,1,1,1,1,1,0,0,0,0,1,1,0,1,1,1,1,0,0,0,0,0,0,0,0,0,0,0],"split_type":[0,0,0,0,0,0,0,0,0,0,0,0,0,0,0,0,0,0,0,0,0,0,0,0,0,0,0,0,0,0,0],"sum_hessian":[2.7033E4,1.4625E4,1.2408E4,1.2369E4,2.256E3,2.256E3,1.0152E4,3.384E3,8.985E3,1.128E3,1.128E3,1.128E3,1.128E3,7.896E3,2.256E3,1.128E3,2.256E3,6.729E3,2.256E3,6.768E3,1.128E3,1.128E3,1.128E3,1.128E3,1.128E3,1.126E3,5.603E3,1.128E3,1.128E3,2.256E3,4.512E3],"tree_param":{"num_deleted":"0","num_feature":"5","num_nodes":"31","size_leaf_vector":"1"}},{"base_weights":[3.6296375E1,2.7742565E1,4.637549E1,2.6518393E1,3.4439632E1,4.1738686E1,4.7401676E1,3.2693672E1,2.4189232E1,3.2654116E-1,3.619464E-1,3.997536E-1,4.3465045E-1,4.900004E1,4.1788185E1,3.6236095E-1,3.090719E1,2.311591E1,2.7378984E1,4.9401604E1,4.654901E-1,4.3459967E-1,4.0079388E-1,3.2481554E-1,2.930545E-1,2.576188E-1,2.2579663E-1,2.5687695E-1,2.9046023E-1,4.668509E-1,4.9936533E-1],"categories":[],"categories_nodes":[],"categories_segments":[],"categories_sizes":[],"default_left":[0,0,0,0,0,0,0,0,0,0,0,0,0,0,0,0,0,0,0,0,0,0,0,0,0,0,0,0,0,0,0],"id":31,"left_children":[1,3,5,7,9,11,13,15,17,-1,-1,-1,-1,19,21,-1,23,25,27,29,-1,-1,-1,-1,-1,-1,-1,-1,-1,-1,-1],"loss_changes":[2.329444E6,1.18996E5,5.7068E4,1.7713E5,5.89075E3,5.13325E3,8.905E4,2.030175E4,3.01315E4,0E0,0E0,0E0,0E0,5.472E3,4.706E3,0E0,4.73975E3,8.9675E3,5.617375E3,7.505E3,0E0,0E0,0E0,0E0,0E0,0E0,0E0,0E0,0E0,0E0,0E0],"parents":[2147483647,0,0,1,1,2,2,3,3,4,4,5,5,6,6,7,7,8,8,13,13,14,14,16,16,17,17,18,18,19,19],"right_children":[2,4,6,8,10,12,14,16,18,-1,-1,-1,-1,20,22,-1,24,26,28,30,-1,-1,-1,-1,-1,-1,-1,-1,-1,-1,-1],"split_conditions":[1.3E1,1.1E1,1.5E1,3E0,1.2E1,1.4E1,2.2E1,1E0,9E0,3.2654116E-1,3.619464E-1,3.997536E-1,4.3465045E-1,2.1E1,2.3E1,3.6236095E-1,2E0,4E0,1E1,1.6E1,4.654901E-1,4.3459967E-1,4.0079388E-1,3.2481554E-1,2.930545E-1,2.576188E-1,2.2579663E-1,2.5687695E-1,2.9046023E-1,4.668509E-1,4.9936533E-1],"split_indices":[1,1,1,1,1,1,1,1,1,0,0,0,0,1,1,0,1,1,1,1,0,0,0,0,0,0,0,0,0,0,0],"split_type":[0,0,0,0,0,0,0,0,0,0,0,0,0,0,0,0,0,0,0,0,0,0,0,0,0,0,0,0,0,0,0],"sum_hessian":[2.7033E4,1.4625E4,1.2408E4,1.2369E4,2.256E3,2.256E3,1.0152E4,3.384E3,8.985E3,1.128E3,1.128E3,1.128E3,1.128E3,7.896E3,2.256E3,1.128E3,2.256E3,6.729E3,2.256E3,6.768E3,1.128E3,1.128E3,1.128E3,1.128E3,1.128E3,1.126E3,5.603E3,1.128E3,1.128E3,1.128E3,5.64E3],"tree_param":{"num_deleted":"0","num_feature":"5","num_nodes":"31","size_leaf_vector":"1"}},{"base_weights":[3.5933624E1,2.7465324E1,4.5911983E1,2.625337E1,3.4095543E1,4.132167E1,4.6927883E1,3.2367023E1,2.3947454E1,3.2327864E-1,3.5833016E-1,3.957596E-1,4.303078E-1,4.851022E1,4.1370674E1,3.5874054E-1,3.0598389E1,2.288482E1,2.7105436E1,4.890773E1,4.6083933E-1,4.3025756E-1,3.9678946E-1,3.2157025E-1,2.9012653E-1,2.4548101E-1,2.2045106E-1,2.5431046E-1,2.8755817E-1,4.7200552E-1,4.975067E-1],"categories":[],"categories_nodes":[],"categories_segments":[],"categories_sizes":[],"default_left":[0,0,0,0,0,0,0,0,0,0,0,0,0,0,0,0,0,0,0,0,0,0,0,0,0,0,0,0,0,0,0],"id":32,"left_children":[1,3,5,7,9,11,13,15,17,-1,-1,-1,-1,19,21,-1,23,25,27,29,-1,-1,-1,-1,-1,-1,-1,-1,-1,-1,-1],"loss_changes":[2.283108E6,1.16632E5,5.5928E4,1.73612E5,5.77375E3,5.03075E3,8.7274E4,1.9898E4,2.95345E4,0E0,0E0,0E0,0E0,5.36E3,4.61225E3,0E0,4.6455E3,8.8585E3,5.505625E3,7.393E3,0E0,0E0,0E0,0E0,0E0,0E0,0E0,0E0,0E0,0E0,0E0],"parents":[2147483647,0,0,1,1,2,2,3,3,4,4,5,5,6,6,7,7,8,8,13,13,14,14,16,16,17,17,18,18,19,19],"right_children":[2,4,6,8,10,12,14,16,18,-1,-1,-1,-1,20,22,-1,24,26,28,30,-1,-1,-1,-1,-1,-1,-1,-1,-1,-1,-1],"split_conditions":[1.3E1,1.1E1,1.5E1,3E0,1.2E1,1.4E1,2.2E1,1E0,9E0,3.2327864E-1,3.5833016E-1,3.957596E-1,4.303078E-1,2.1E1,2.3E1,3.5874054E-1,2E0,5E0,1E1,1.7E1,4.6083933E-1,4.3025756E-1,3.9678946E-1,3.2157025E-1,2.9012653E-1,2.4548101E-1,2.2045106E-1,2.5431046E-1,2.8755817E-1,4.7200552E-1,4.975067E-1],"split_indices":[1,1,1,1,1,1,1,1,1,0,0,0,0,1,1,0,1,1,1,1,0,0,0,0,0,0,0,0,0,0,0],"split_type":[0,0,0,0,0,0,0,0,0,0,0,0,0,0,0,0,0,0,0,0,0,0,0,0,0,0,0,0,0,0,0],"sum_hessian":[2.7033E4,1.4625E4,1.2408E4,1.2369E4,2.256E3,2.256E3,1.0152E4,3.384E3,8.985E3,1.128E3,1.128E3,1.128E3,1.128E3,7.896E3,2.256E3,1.128E3,2.256E3,6.729E3,2.256E3,6.768E3,1.128E3,1.128E3,1.128E3,1.128E3,1.128E3,2.248E3,4.481E3,1.128E3,1.128E3,2.256E3,4.512E3],"tree_param":{"num_deleted":"0","num_feature":"5","num_nodes":"31","size_leaf_vector":"1"}},{"base_weights":[3.55745E1,2.7190853E1,4.5453114E1,2.5990997E1,3.375489E1,4.0908817E1,4.6458828E1,3.204364E1,2.3708092E1,3.2004875E-1,3.5475007E-1,3.918055E-1,4.2600852E-1,4.8025295E1,4.0957333E1,3.5515633E-1,3.0292677E1,2.2656042E1,2.6834621E1,4.8418797E1,4.56235E-1,4.2595878E-1,3.9282507E-1,3.1835738E-1,2.872278E-1,2.5259227E-1,2.2128482E-1,2.517696E-1,2.8468513E-1,4.5747066E-1,4.8944938E-1],"categories":[],"categories_nodes":[],"categories_segments":[],"categories_sizes":[],"default_left":[0,0,0,0,0,0,0,0,0,0,0,0,0,0,0,0,0,0,0,0,0,0,0,0,0,0,0,0,0,0,0],"id":33,"left_children":[1,3,5,7,9,11,13,15,17,-1,-1,-1,-1,19,21,-1,23,25,27,29,-1,-1,-1,-1,-1,-1,-1,-1,-1,-1,-1],"loss_changes":[2.237688E6,1.14316E5,5.4812E4,1.70164E5,5.65875E3,4.931E3,8.5532E4,1.95025E4,2.89495E4,0E0,0E0,0E0,0E0,5.252E3,4.5205E3,0E0,4.553E3,8.6835E3,5.396125E3,7.275E3,0E0,0E0,0E0,0E0,0E0,0E0,0E0,0E0,0E0,0E0,0E0],"parents":[2147483647,0,0,1,1,2,2,3,3,4,4,5,5,6,6,7,7,8,8,13,13,14,14,16,16,17,17,18,18,19,19],"right_children":[2,4,6,8,10,12,14,16,18,-1,-1,-1,-1,20,22,-1,24,26,28,30,-1,-1,-1,-1,-1,-1,-1,-1,-1,-1,-1],"split_conditions":[1.3E1,1.1E1,1.5E1,3E0,1.2E1,1.4E1,2.2E1,1E0,9E0,3.2004875E-1,3.5475007E-1,3.918055E-1,4.2600852E-1,2.1E1,2.3E1,3.5515633E-1,2E0,4E0,1E1,1.6E1,4.56235E-1,4.2595878E-1,3.9282507E-1,3.1835738E-1,2.872278E-1,2.5259227E-1,2.2128482E-1,2.517696E-1,2.8468513E-1,4.5747066E-1,4.8944938E-1],"split_indices":[1,1,1,1,1,1,1,1,1,0,0,0,0,1,1,0,1,1,1,1,0,0,0,0,0,0,0,0,0,0,0],"split_type":[0,0,0,0,0,0,0,0,0,0,0,0,0,0,0,0,0,0,0,0,0,0,0,0,0,0,0,0,0,0,0],"sum_hessian":[2.7033E4,1.4625E4,1.2408E4,1.2369E4,2.256E3,2.256E3,1.0152E4,3.384E3,8.985E3,1.128E3,1.128E3,1.128E3,1.128E3,7.896E3,2.256E3,1.128E3,2.256E3,6.729E3,2.256E3,6.768E3,1.128E3,1.128E3,1.128E3,1.128E3,1.128E3,1.126E3,5.603E3,1.128E3,1.128E3,1.128E3,5.64E3],"tree_param":{"num_deleted":"0","num_feature":"5","num_nodes":"31","size_leaf_vector":"1"}},{"base_weights":[3.5218967E1,2.6919125E1,4.4998825E1,2.5731247E1,3.341764E1,4.0500095E1,4.5994457E1,3.1723488E1,2.3471123E1,3.1685108E-1,3.512057E-1,3.8789093E-1,4.2175218E-1,4.7545223E1,4.0548122E1,3.516079E-1,2.9990019E1,2.2429552E1,2.6566513E1,4.793475E1,4.516767E-1,4.2170298E-1,3.8890028E-1,3.1517664E-1,2.8435808E-1,2.4065869E-1,2.160347E-1,2.4925412E-1,2.818408E-1,4.6255508E-1,4.8763934E-1],"categories":[],"categories_nodes":[],"categories_segments":[],"categories_sizes":[],"default_left":[0,0,0,0,0,0,0,0,0,0,0,0,0,0,0,0,0,0,0,0,0,0,0,0,0,0,0,0,0,0,0],"id":34,"left_children":[1,3,5,7,9,11,13,15,17,-1,-1,-1,-1,19,21,-1,23,25,27,29,-1,-1,-1,-1,-1,-1,-1,-1,-1,-1,-1],"loss_changes":[2.193172E6,1.12045E5,5.372E4,1.667845E5,5.54625E3,4.833E3,8.3824E4,1.911475E4,2.83755E4,0E0,0E0,0E0,0E0,5.148E3,4.43075E3,0E0,4.462625E3,8.577E3,5.288875E3,7.171E3,0E0,0E0,0E0,0E0,0E0,0E0,0E0,0E0,0E0,0E0,0E0],"parents":[2147483647,0,0,1,1,2,2,3,3,4,4,5,5,6,6,7,7,8,8,13,13,14,14,16,16,17,17,18,18,19,19],"right_children":[2,4,6,8,10,12,14,16,18,-1,-1,-1,-1,20,22,-1,24,26,28,30,-1,-1,-1,-1,-1,-1,-1,-1,-1,-1,-1],"split_conditions":[1.3E1,1.1E1,1.5E1,3E0,1.2E1,1.4E1,2.2E1,1E0,9E0,3.1685108E-1,3.512057E-1,3.8789093E-1,4.2175218E-1,2.1E1,2.3E1,3.516079E-1,2E0,5E0,1E1,1.7E1,4.516767E-1,4.2170298E-1,3.8890028E-1,3.1517664E-1,2.8435808E-1,2.4065869E-1,2.160347E-1,2.4925412E-1,2.818408E-1,4.6255508E-1,4.8763934E-1],"split_indices":[1,1,1,1,1,1,1,1,1,0,0,0,0,1,1,0,1,1,1,1,0,0,0,0,0,0,0,0,0,0,0],"split_type":[0,0,0,0,0,0,0,0,0,0,0,0,0,0,0,0,0,0,0,0,0,0,0,0,0,0,0,0,0,0,0],"sum_hessian":[2.7033E4,1.4625E4,1.2408E4,1.2369E4,2.256E3,2.256E3,1.0152E4,3.384E3,8.985E3,1.128E3,1.128E3,1.128E3,1.128E3,7.896E3,2.256E3,1.128E3,2.256E3,6.729E3,2.256E3,6.768E3,1.128E3,1.128E3,1.128E3,1.128E3,1.128E3,2.248E3,4.481E3,1.128E3,1.128E3,2.256E3,4.512E3],"tree_param":{"num_deleted":"0","num_feature":"5","num_nodes":"31","size_leaf_vector":"1"}},{"base_weights":[3.4866985E1,2.6650112E1,4.4549084E1,2.547409E1,3.308376E1,4.009545E1,4.5534733E1,3.1406532E1,2.323652E1,3.136854E-1,3.4769675E-1,3.8401547E-1,4.175384E-1,4.706995E1,4.0143E1,3.4809494E-1,2.9690384E1,2.2205324E1,2.6301083E1,4.7455544E1,4.471639E-1,4.1748968E-1,3.8501474E-1,3.1202763E-1,2.8151703E-1,2.4766414E-1,2.168631E-1,2.4676378E-1,2.790249E-1,4.4827858E-1,4.797304E-1],"categories":[],"categories_nodes":[],"categories_segments":[],"categories_sizes":[],"default_left":[0,0,0,0,0,0,0,0,0,0,0,0,0,0,0,0,0,0,0,0,0,0,0,0,0,0,0,0,0,0,0],"id":35,"left_children":[1,3,5,7,9,11,13,15,17,-1,-1,-1,-1,19,21,-1,23,25,27,29,-1,-1,-1,-1,-1,-1,-1,-1,-1,-1,-1],"loss_changes":[2.149544E6,1.09819E5,5.2646E4,1.63473E5,5.436E3,4.737E3,8.2152E4,1.8735E4,2.78135E4,0E0,0E0,0E0,0E0,5.044E3,4.3425E3,0E0,4.3735E3,8.40875E3,5.183875E3,7.053E3,0E0,0E0,0E0,0E0,0E0,0E0,0E0,0E0,0E0,0E0,0E0],"parents":[2147483647,0,0,1,1,2,2,3,3,4,4,5,5,6,6,7,7,8,8,13,13,14,14,16,16,17,17,18,18,19,19],"right_children":[2,4,6,8,10,12,14,16,18,-1,-1,-1,-1,20,22,-1,24,26,28,30,-1,-1,-1,-1,-1,-1,-1,-1,-1,-1,-1],"split_conditions":[1.3E1,1.1E1,1.5E1,3E0,1.2E1,1.4E1,2.2E1,1E0,9E0,3.136854E-1,3.4769675E-1,3.8401547E-1,4.175384E-1,2.1E1,2.3E1,3.4809494E-1,2E0,4E0,1E1,1.6E1,4.471639E-1,4.1748968E-1,3.8501474E-1,3.1202763E-1,2.8151703E-1,2.4766414E-1,2.168631E-1,2.4676378E-1,2.790249E-1,4.4827858E-1,4.797304E-1],"split_indices":[1,1,1,1,1,1,1,1,1,0,0,0,0,1,1,0,1,1,1,1,0,0,0,0,0,0,0,0,0,0,0],"split_type":[0,0,0,0,0,0,0,0,0,0,0,0,0,0,0,0,0,0,0,0,0,0,0,0,0,0,0,0,0,0,0],"sum_hessian":[2.7033E4,1.4625E4,1.2408E4,1.2369E4,2.256E3,2.256E3,1.0152E4,3.384E3,8.985E3,1.128E3,1.128E3,1.128E3,1.128E3,7.896E3,2.256E3,1.128E3,2.256E3,6.729E3,2.256E3,6.768E3,1.128E3,1.128E3,1.128E3,1.128E3,1.128E3,1.126E3,5.603E3,1.128E3,1.128E3,1.128E3,5.64E3],"tree_param":{"num_deleted":"0","num_feature":"5","num_nodes":"31","size_leaf_vector":"1"}},{"base_weights":[3.4518524E1,2.638379E1,4.4103832E1,2.5219505E1,3.2753216E1,3.969485E1,4.5079597E1,3.1092747E1,2.3004267E1,3.1055132E-1,3.4422287E-1,3.8017872E-1,4.1336673E-1,4.6599422E1,3.9741924E1,3.4461707E-1,2.9393744E1,2.1983341E1,2.6038305E1,4.6981125E1,4.426962E-1,4.1331849E-1,3.81168E-1,3.0891013E-1,2.7870435E-1,2.3593129E-1,2.117067E-1,2.4429834E-1,2.7623713E-1,4.5329356E-1,4.779678E-1],"categories":[],"categories_nodes":[],"categories_segments":[],"categories_sizes":[],"default_left":[0,0,0,0,0,0,0,0,0,0,0,0,0,0,0,0,0,0,0,0,0,0,0,0,0,0,0,0,0,0,0],"id":36,"left_children":[1,3,5,7,9,11,13,15,17,-1,-1,-1,-1,19,21,-1,23,25,27,29,-1,-1,-1,-1,-1,-1,-1,-1,-1,-1,-1],"loss_changes":[2.106782E6,1.07638E5,5.1596E4,1.60226E5,5.328E3,4.64275E3,8.0512E4,1.83625E4,2.72625E4,0E0,0E0,0E0,0E0,4.942E3,4.25625E3,0E0,4.286625E3,8.30475E3,5.080625E3,6.954E3,0E0,0E0,0E0,0E0,0E0,0E0,0E0,0E0,0E0,0E0,0E0],"parents":[2147483647,0,0,1,1,2,2,3,3,4,4,5,5,6,6,7,7,8,8,13,13,14,14,16,16,17,17,18,18,19,19],"right_children":[2,4,6,8,10,12,14,16,18,-1,-1,-1,-1,20,22,-1,24,26,28,30,-1,-1,-1,-1,-1,-1,-1,-1,-1,-1,-1],"split_conditions":[1.3E1,1.1E1,1.5E1,3E0,1.2E1,1.4E1,2.2E1,1E0,9E0,3.1055132E-1,3.4422287E-1,3.8017872E-1,4.1336673E-1,2.1E1,2.3E1,3.4461707E-1,2E0,5E0,1E1,1.7E1,4.426962E-1,4.1331849E-1,3.81168E-1,3.0891013E-1,2.7870435E-1,2.3593129E-1,2.117067E-1,2.4429834E-1,2.7623713E-1,4.5329356E-1,4.779678E-1],"split_indices":[1,1,1,1,1,1,1,1,1,0,0,0,0,1,1,0,1,1,1,1,0,0,0,0,0,0,0,0,0,0,0],"split_type":[0,0,0,0,0,0,0,0,0,0,0,0,0,0,0,0,0,0,0,0,0,0,0,0,0,0,0,0,0,0,0],"sum_hessian":[2.7033E4,1.4625E4,1.2408E4,1.2369E4,2.256E3,2.256E3,1.0152E4,3.384E3,8.985E3,1.128E3,1.128E3,1.128E3,1.128E3,7.896E3,2.256E3,1.128E3,2.256E3,6.729E3,2.256E3,6.768E3,1.128E3,1.128E3,1.128E3,1.128E3,1.128E3,2.248E3,4.481E3,1.128E3,1.128E3,2.256E3,4.512E3],"tree_param":{"num_deleted":"0","num_feature":"5","num_nodes":"31","size_leaf_vector":"1"}},{"base_weights":[3.4173542E1,2.6120125E1,4.3663033E1,2.4967464E1,3.2425972E1,3.9298256E1,4.4629017E1,3.0782095E1,2.277433E1,3.0744857E-1,3.407837E-1,3.7638026E-1,4.0923676E-1,4.6133602E1,3.9344856E1,3.4117398E-1,2.9100067E1,2.1763573E1,2.5778152E1,4.651145E1,4.382732E-1,4.0918896E-1,3.773597E-1,3.0582377E-1,2.759198E-1,2.4283248E-1,2.1252967E-1,2.418575E-1,2.734772E-1,4.3927085E-1,4.7020444E-1],"categories":[],"categories_nodes":[],"categories_segments":[],"categories_sizes":[],"default_left":[0,0,0,0,0,0,0,0,0,0,0,0,0,0,0,0,0,0,0,0,0,0,0,0,0,0,0,0,0,0,0],"id":37,"left_children":[1,3,5,7,9,11,13,15,17,-1,-1,-1,-1,19,21,-1,23,25,27,29,-1,-1,-1,-1,-1,-1,-1,-1,-1,-1,-1],"loss_changes":[2.064876E6,1.05499E5,5.0568E4,1.570445E5,5.22175E3,4.55075E3,7.8904E4,1.7997E4,2.67215E4,0E0,0E0,0E0,0E0,4.844E3,4.17175E3,0E0,4.20175E3,8.14275E3,4.979625E3,6.838E3,0E0,0E0,0E0,0E0,0E0,0E0,0E0,0E0,0E0,0E0,0E0],"parents":[2147483647,0,0,1,1,2,2,3,3,4,4,5,5,6,6,7,7,8,8,13,13,14,14,16,16,17,17,18,18,19,19],"right_children":[2,4,6,8,10,12,14,16,18,-1,-1,-1,-1,20,22,-1,24,26,28,30,-1,-1,-1,-1,-1,-1,-1,-1,-1,-1,-1],"split_conditions":[1.3E1,1.1E1,1.5E1,3E0,1.2E1,1.4E1,2.2E1,1E0,9E0,3.0744857E-1,3.407837E-1,3.7638026E-1,4.0923676E-1,2.1E1,2.3E1,3.4117398E-1,2E0,4E0,1E1,1.6E1,4.382732E-1,4.0918896E-1,3.773597E-1,3.0582377E-1,2.759198E-1,2.4283248E-1,2.1252967E-1,2.418575E-1,2.734772E-1,4.3927085E-1,4.7020444E-1],"split_indices":[1,1,1,1,1,1,1,1,1,0,0,0,0,1,1,0,1,1,1,1,0,0,0,0,0,0,0,0,0,0,0],"split_type":[0,0,0,0,0,0,0,0,0,0,0,0,0,0,0,0,0,0,0,0,0,0,0,0,0,0,0,0,0,0,0],"sum_hessian":[2.7033E4,1.4625E4,1.2408E4,1.2369E4,2.256E3,2.256E3,1.0152E4,3.384E3,8.985E3,1.128E3,1.128E3,1.128E3,1.128E3,7.896E3,2.256E3,1.128E3,2.256E3,6.729E3,2.256E3,6.768E3,1.128E3,1.128E3,1.128E3,1.128E3,1.128E3,1.126E3,5.603E3,1.128E3,1.128E3,1.128E3,5.64E3],"tree_param":{"num_deleted":"0","num_feature":"5","num_nodes":"31","size_leaf_vector":"1"}},{"base_weights":[3.383201E1,2.5859098E1,4.3226635E1,2.4717943E1,3.2102E1,3.890562E1,4.4182934E1,3.0474546E1,2.2546696E1,3.0437678E-1,3.373789E-1,3.726198E-1,4.05148E-1,4.5672436E1,3.895176E1,3.3776522E-1,2.8809322E1,2.1546005E1,2.55206E1,4.604647E1,4.3389434E-1,4.051007E-1,3.7358943E-1,3.0276823E-1,2.7316302E-1,2.3129696E-1,2.0746526E-1,2.3944108E-1,2.7074486E-1,4.442173E-1,4.6848816E-1],"categories":[],"categories_nodes":[],"categories_segments":[],"categories_sizes":[],"default_left":[0,0,0,0,0,0,0,0,0,0,0,0,0,0,0,0,0,0,0,0,0,0,0,0,0,0,0,0,0,0,0],"id":38,"left_children":[1,3,5,7,9,11,13,15,17,-1,-1,-1,-1,19,21,-1,23,25,27,29,-1,-1,-1,-1,-1,-1,-1,-1,-1,-1,-1],"loss_changes":[2.023796E6,1.03404E5,4.9558E4,1.539255E5,5.11825E3,4.45975E3,7.7332E4,1.76395E4,2.6192E4,0E0,0E0,0E0,0E0,4.746E3,4.08875E3,0E0,4.118E3,8.04125E3,4.880625E3,6.742E3,0E0,0E0,0E0,0E0,0E0,0E0,0E0,0E0,0E0,0E0,0E0],"parents":[2147483647,0,0,1,1,2,2,3,3,4,4,5,5,6,6,7,7,8,8,13,13,14,14,16,16,17,17,18,18,19,19],"right_children":[2,4,6,8,10,12,14,16,18,-1,-1,-1,-1,20,22,-1,24,26,28,30,-1,-1,-1,-1,-1,-1,-1,-1,-1,-1,-1],"split_conditions":[1.3E1,1.1E1,1.5E1,3E0,1.2E1,1.4E1,2.2E1,1E0,9E0,3.0437678E-1,3.373789E-1,3.726198E-1,4.05148E-1,2.1E1,2.3E1,3.3776522E-1,2E0,5E0,1E1,1.7E1,4.3389434E-1,4.051007E-1,3.7358943E-1,3.0276823E-1,2.7316302E-1,2.3129696E-1,2.0746526E-1,2.3944108E-1,2.7074486E-1,4.442173E-1,4.6848816E-1],"split_indices":[1,1,1,1,1,1,1,1,1,0,0,0,0,1,1,0,1,1,1,1,0,0,0,0,0,0,0,0,0,0,0],"split_type":[0,0,0,0,0,0,0,0,0,0,0,0,0,0,0,0,0,0,0,0,0,0,0,0,0,0,0,0,0,0,0],"sum_hessian":[2.7033E4,1.4625E4,1.2408E4,1.2369E4,2.256E3,2.256E3,1.0152E4,3.384E3,8.985E3,1.128E3,1.128E3,1.128E3,1.128E3,7.896E3,2.256E3,1.128E3,2.256E3,6.729E3,2.256E3,6.768E3,1.128E3,1.128E3,1.128E3,1.128E3,1.128E3,2.248E3,4.481E3,1.128E3,1.128E3,2.256E3,4.512E3],"tree_param":{"num_deleted":"0","num_feature":"5","num_nodes":"31","size_leaf_vector":"1"}},{"base_weights":[3.349389E1,2.5600677E1,4.2794605E1,2.4470913E1,3.1781265E1,3.851691E1,4.3741318E1,3.017007E1,2.2321335E1,3.0133572E-1,3.3400807E-1,3.688969E-1,4.011001E-1,4.521588E1,3.8562588E1,3.3439058E-1,2.8521486E1,2.133061E1,2.526562E1,4.558614E1,4.2955923E-1,4.0105328E-1,3.6985686E-1,2.9974324E-1,2.704338E-1,2.3809539E-1,2.0828275E-1,2.370488E-1,2.680398E-1,4.304438E-1,4.6086773E-1],"categories":[],"categories_nodes":[],"categories_segments":[],"categories_sizes":[],"default_left":[0,0,0,0,0,0,0,0,0,0,0,0,0,0,0,0,0,0,0,0,0,0,0,0,0,0,0,0,0,0,0],"id":39,"left_children":[1,3,5,7,9,11,13,15,17,-1,-1,-1,-1,19,21,-1,23,25,27,29,-1,-1,-1,-1,-1,-1,-1,-1,-1,-1,-1],"loss_changes":[1.983534E6,1.01351E5,4.8572E4,1.508685E5,5.0165E3,4.3715E3,7.5788E4,1.72885E4,2.5673E4,0E0,0E0,0E0,0E0,4.649E3,4.00725E3,0E0,4.036125E3,7.8845E3,4.783625E3,6.629E3,0E0,0E0,0E0,0E0,0E0,0E0,0E0,0E0,0E0,0E0,0E0],"parents":[2147483647,0,0,1,1,2,2,3,3,4,4,5,5,6,6,7,7,8,8,13,13,14,14,16,16,17,17,18,18,19,19],"right_children":[2,4,6,8,10,12,14,16,18,-1,-1,-1,-1,20,22,-1,24,26,28,30,-1,-1,-1,-1,-1,-1,-1,-1,-1,-1,-1],"split_conditions":[1.3E1,1.1E1,1.5E1,3E0,1.2E1,1.4E1,2.2E1,1E0,9E0,3.0133572E-1,3.3400807E-1,3.688969E-1,4.011001E-1,2.1E1,2.3E1,3.3439058E-1,2E0,4E0,1E1,1.6E1,4.2955923E-1,4.0105328E-1,3.6985686E-1,2.9974324E-1,2.704338E-1,2.3809539E-1,2.0828275E-1,2.370488E-1,2.680398E-1,4.304438E-1,4.6086773E-1],"split_indices":[1,1,1,1,1,1,1,1,1,0,0,0,0,1,1,0,1,1,1,1,0,0,0,0,0,0,0,0,0,0,0],"split_type":[0,0,0,0,0,0,0,0,0,0,0,0,0,0,0,0,0,0,0,0,0,0,0,0,0,0,0,0,0,0,0],"sum_hessian":[2.7033E4,1.4625E4,1.2408E4,1.2369E4,2.256E3,2.256E3,1.0152E4,3.384E3,8.985E3,1.128E3,1.128E3,1.128E3,1.128E3,7.896E3,2.256E3,1.128E3,2.256E3,6.729E3,2.256E3,6.768E3,1.128E3,1.128E3,1.128E3,1.128E3,1.128E3,1.126E3,5.603E3,1.128E3,1.128E3,1.128E3,5.64E3],"tree_param":{"num_deleted":"0","num_feature":"5","num_nodes":"31","size_leaf_vector":"1"}},{"base_weights":[3.315915E1,2.5344841E1,4.236689E1,2.4226355E1,3.1463734E1,3.813208E1,4.3304108E1,2.9868637E1,2.2098227E1,2.98325E-1,3.3067095E-1,3.6521122E-1,3.9709267E-1,4.4763893E1,3.8177303E1,3.3104965E-1,2.8236523E1,2.111737E1,2.5013187E1,4.5130413E1,4.2526743E-1,3.970463E-1,3.6616156E-1,2.967485E-1,2.6773188E-1,2.2675386E-1,2.0330872E-1,2.3468041E-1,2.6536176E-1,4.353225E-1,4.591967E-1],"categories":[],"categories_nodes":[],"categories_segments":[],"categories_sizes":[],"default_left":[0,0,0,0,0,0,0,0,0,0,0,0,0,0,0,0,0,0,0,0,0,0,0,0,0,0,0,0,0,0,0],"id":40,"left_children":[1,3,5,7,9,11,13,15,17,-1,-1,-1,-1,19,21,-1,23,25,27,29,-1,-1,-1,-1,-1,-1,-1,-1,-1,-1,-1],"loss_changes":[1.94408E6,9.9337E4,4.76E4,1.478725E5,4.9165E3,4.28425E3,7.4276E4,1.6945E4,2.51635E4,0E0,0E0,0E0,0E0,4.557E3,3.92775E3,0E0,3.95575E3,7.78575E3,4.688625E3,6.538E3,0E0,0E0,0E0,0E0,0E0,0E0,0E0,0E0,0E0,0E0,0E0],"parents":[2147483647,0,0,1,1,2,2,3,3,4,4,5,5,6,6,7,7,8,8,13,13,14,14,16,16,17,17,18,18,19,19],"right_children":[2,4,6,8,10,12,14,16,18,-1,-1,-1,-1,20,22,-1,24,26,28,30,-1,-1,-1,-1,-1,-1,-1,-1,-1,-1,-1],"split_conditions":[1.3E1,1.1E1,1.5E1,3E0,1.2E1,1.4E1,2.2E1,1E0,9E0,2.98325E-1,3.3067095E-1,3.6521122E-1,3.9709267E-1,2.1E1,2.3E1,3.3104965E-1,2E0,5E0,1E1,1.7E1,4.2526743E-1,3.970463E-1,3.6616156E-1,2.967485E-1,2.6773188E-1,2.2675386E-1,2.0330872E-1,2.3468041E-1,2.6536176E-1,4.353225E-1,4.591967E-1],"split_indices":[1,1,1,1,1,1,1,1,1,0,0,0,0,1,1,0,1,1,1,1,0,0,0,0,0,0,0,0,0,0,0],"split_type":[0,0,0,0,0,0,0,0,0,0,0,0,0,0,0,0,0,0,0,0,0,0,0,0,0,0,0,0,0,0,0],"sum_hessian":[2.7033E4,1.4625E4,1.2408E4,1.2369E4,2.256E3,2.256E3,1.0152E4,3.384E3,8.985E3,1.128E3,1.128E3,1.128E3,1.128E3,7.896E3,2.256E3,1.128E3,2.256E3,6.729E3,2.256E3,6.768E3,1.128E3,1.128E3,1.128E3,1.128E3,1.128E3,2.248E3,4.481E3,1.128E3,1.128E3,2.256E3,4.512E3],"tree_param":{"num_deleted":"0","num_feature":"5","num_nodes":"31","size_leaf_vector":"1"}},{"base_weights":[3.282775E1,2.509156E1,4.194345E1,2.398424E1,3.1149376E1,3.77511E1,4.2871273E1,2.9570217E1,2.1877348E1,2.953444E-1,3.2736716E-1,3.6156234E-1,3.9312527E-1,4.431642E1,3.7795868E1,3.2774207E-1,2.7954409E1,2.0906261E1,2.4763277E1,4.488409E1,4.287799E-1,3.9307934E-1,3.625032E-1,2.937836E-1,2.6505694E-1,2.3345102E-1,2.0412064E-1,2.323357E-1,2.6271048E-1,4.309712E-1,4.6062315E-1],"categories":[],"categories_nodes":[],"categories_segments":[],"categories_sizes":[],"default_left":[0,0,0,0,0,0,0,0,0,0,0,0,0,0,0,0,0,0,0,0,0,0,0,0,0,0,0,0,0,0,0],"id":41,"left_children":[1,3,5,7,9,11,13,15,17,-1,-1,-1,-1,19,21,-1,23,25,27,29,-1,-1,-1,-1,-1,-1,-1,-1,-1,-1,-1],"loss_changes":[1.905404E6,9.7363E4,4.6652E4,1.449365E5,4.819E3,4.19925E3,7.2792E4,1.660825E4,2.46655E4,0E0,0E0,0E0,0E0,4.524E3,3.8495E3,0E0,3.877125E3,7.635E3,4.59525E3,9.892E3,0E0,0E0,0E0,0E0,0E0,0E0,0E0,0E0,0E0,0E0,0E0],"parents":[2147483647,0,0,1,1,2,2,3,3,4,4,5,5,6,6,7,7,8,8,13,13,14,14,16,16,17,17,18,18,19,19],"right_children":[2,4,6,8,10,12,14,16,18,-1,-1,-1,-1,20,22,-1,24,26,28,30,-1,-1,-1,-1,-1,-1,-1,-1,-1,-1,-1],"split_conditions":[1.3E1,1.1E1,1.5E1,3E0,1.2E1,1.4E1,2.2E1,1E0,9E0,2.953444E-1,3.2736716E-1,3.6156234E-1,3.9312527E-1,2E1,2.3E1,3.2774207E-1,2E0,4E0,1E1,1.7E1,4.287799E-1,3.9307934E-1,3.625032E-1,2.937836E-1,2.6505694E-1,2.3345102E-1,2.0412064E-1,2.323357E-1,2.6271048E-1,4.309712E-1,4.6062315E-1],"split_indices":[1,1,1,1,1,1,1,1,1,0,0,0,0,1,1,0,1,1,1,1,0,0,0,0,0,0,0,0,0,0,0],"split_type":[0,0,0,0,0,0,0,0,0,0,0,0,0,0,0,0,0,0,0,0,0,0,0,0,0,0,0,0,0,0,0],"sum_hessian":[2.7033E4,1.4625E4,1.2408E4,1.2369E4,2.256E3,2.256E3,1.0152E4,3.384E3,8.985E3,1.128E3,1.128E3,1.128E3,1.128E3,7.896E3,2.256E3,1.128E3,2.256E3,6.729E3,2.256E3,5.64E3,2.256E3,1.128E3,1.128E3,1.128E3,1.128E3,1.126E3,5.603E3,1.128E3,1.128E3,2.256E3,3.384E3],"tree_param":{"num_deleted":"0","num_feature":"5","num_nodes":"31","size_leaf_vector":"1"}},{"base_weights":[3.249967E1,2.4840813E1,4.1524242E1,2.3744543E1,3.0838158E1,3.737392E1,4.2442764E1,2.9274776E1,2.1658678E1,2.923936E-1,3.240964E-1,3.5794988E-1,3.891975E-1,4.387342E1,3.7418243E1,3.2446757E-1,2.7675112E1,2.0697264E1,2.4515862E1,4.4435406E1,4.24494E-1,3.8915202E-1,3.5888138E-1,2.9084837E-1,2.624087E-1,2.2230016E-1,1.9923532E-1,2.3001437E-1,2.600857E-1,4.2666343E-1,4.5601824E-1],"categories":[],"categories_nodes":[],"categories_segments":[],"categories_sizes":[],"default_left":[0,0,0,0,0,0,0,0,0,0,0,0,0,0,0,0,0,0,0,0,0,0,0,0,0,0,0,0,0,0,0],"id":42,"left_children":[1,3,5,7,9,11,13,15,17,-1,-1,-1,-1,19,21,-1,23,25,27,29,-1,-1,-1,-1,-1,-1,-1,-1,-1,-1,-1],"loss_changes":[1.867502E6,9.5429E4,4.5718E4,1.42058E5,4.72325E3,4.1155E3,7.1342E4,1.6278E4,2.41765E4,0E0,0E0,0E0,0E0,4.434E3,3.773E3,0E0,3.800125E3,7.53825E3,4.504E3,9.694E3,0E0,0E0,0E0,0E0,0E0,0E0,0E0,0E0,0E0,0E0,0E0],"parents":[2147483647,0,0,1,1,2,2,3,3,4,4,5,5,6,6,7,7,8,8,13,13,14,14,16,16,17,17,18,18,19,19],"right_children":[2,4,6,8,10,12,14,16,18,-1,-1,-1,-1,20,22,-1,24,26,28,30,-1,-1,-1,-1,-1,-1,-1,-1,-1,-1,-1],"split_conditions":[1.3E1,1.1E1,1.5E1,3E0,1.2E1,1.4E1,2.2E1,1E0,9E0,2.923936E-1,3.240964E-1,3.5794988E-1,3.891975E-1,2E1,2.3E1,3.2446757E-1,2E0,5E0,1E1,1.7E1,4.24494E-1,3.8915202E-1,3.5888138E-1,2.9084837E-1,2.624087E-1,2.2230016E-1,1.9923532E-1,2.3001437E-1,2.600857E-1,4.2666343E-1,4.5601824E-1],"split_indices":[1,1,1,1,1,1,1,1,1,0,0,0,0,1,1,0,1,1,1,1,0,0,0,0,0,0,0,0,0,0,0],"split_type":[0,0,0,0,0,0,0,0,0,0,0,0,0,0,0,0,0,0,0,0,0,0,0,0,0,0,0,0,0,0,0],"sum_hessian":[2.7033E4,1.4625E4,1.2408E4,1.2369E4,2.256E3,2.256E3,1.0152E4,3.384E3,8.985E3,1.128E3,1.128E3,1.128E3,1.128E3,7.896E3,2.256E3,1.128E3,2.256E3,6.729E3,2.256E3,5.64E3,2.256E3,1.128E3,1.128E3,1.128E3,1.128E3,2.248E3,4.481E3,1.128E3,1.128E3,2.256E3,3.384E3],"tree_param":{"num_deleted":"0","num_feature":"5","num_nodes":"31","size_leaf_vector":"1"}},{"base_weights":[3.2174866E1,2.459257E1,4.1109226E1,2.3507242E1,3.053005E1,3.7000515E1,4.201854E1,2.8982288E1,2.1442194E1,2.8947228E-1,3.208583E-1,3.5437357E-1,3.8530895E-1,4.3434856E1,3.704439E1,3.2122576E-1,2.7398607E1,2.0490355E1,2.427092E1,4.379296E1,4.1249335E-1,3.8526392E-1,3.5529575E-1,2.8794247E-1,2.5978696E-1,2.2889754E-1,2.000416E-1,2.2771627E-1,2.5748715E-1,4.1322505E-1,4.4279635E-1],"categories":[],"categories_nodes":[],"categories_segments":[],"categories_sizes":[],"default_left":[0,0,0,0,0,0,0,0,0,0,0,0,0,0,0,0,0,0,0,0,0,0,0,0,0,0,0,0,0,0,0],"id":43,"left_children":[1,3,5,7,9,11,13,15,17,-1,-1,-1,-1,19,21,-1,23,25,27,29,-1,-1,-1,-1,-1,-1,-1,-1,-1,-1,-1],"loss_changes":[1.83035E6,9.3535E4,4.4808E4,1.392365E5,4.629E3,4.03375E3,6.9918E4,1.59545E4,2.36975E4,0E0,0E0,0E0,0E0,4.373E3,3.69825E3,0E0,3.7245E3,7.3935E3,4.414375E3,6.309E3,0E0,0E0,0E0,0E0,0E0,0E0,0E0,0E0,0E0,0E0,0E0],"parents":[2147483647,0,0,1,1,2,2,3,3,4,4,5,5,6,6,7,7,8,8,13,13,14,14,16,16,17,17,18,18,19,19],"right_children":[2,4,6,8,10,12,14,16,18,-1,-1,-1,-1,20,22,-1,24,26,28,30,-1,-1,-1,-1,-1,-1,-1,-1,-1,-1,-1],"split_conditions":[1.3E1,1.1E1,1.5E1,3E0,1.2E1,1.4E1,2.2E1,1E0,9E0,2.8947228E-1,3.208583E-1,3.5437357E-1,3.8530895E-1,2.1E1,2.3E1,3.2122576E-1,2E0,4E0,1E1,1.6E1,4.1249335E-1,3.8526392E-1,3.5529575E-1,2.8794247E-1,2.5978696E-1,2.2889754E-1,2.000416E-1,2.2771627E-1,2.5748715E-1,4.1322505E-1,4.4279635E-1],"split_indices":[1,1,1,1,1,1,1,1,1,0,0,0,0,1,1,0,1,1,1,1,0,0,0,0,0,0,0,0,0,0,0],"split_type":[0,0,0,0,0,0,0,0,0,0,0,0,0,0,0,0,0,0,0,0,0,0,0,0,0,0,0,0,0,0,0],"sum_hessian":[2.7033E4,1.4625E4,1.2408E4,1.2369E4,2.256E3,2.256E3,1.0152E4,3.384E3,8.985E3,1.128E3,1.128E3,1.128E3,1.128E3,7.896E3,2.256E3,1.128E3,2.256E3,6.729E3,2.256E3,6.768E3,1.128E3,1.128E3,1.128E3,1.128E3,1.128E3,1.126E3,5.603E3,1.128E3,1.128E3,1.128E3,5.64E3],"tree_param":{"num_deleted":"0","num_feature":"5","num_nodes":"31","size_leaf_vector":"1"}},{"base_weights":[3.1853308E1,2.4346807E1,4.0698357E1,2.3272314E1,3.022502E1,3.6630836E1,4.1598553E1,2.8692722E1,2.1227873E1,2.865801E-1,3.1765255E-1,3.5083297E-1,3.8145927E-1,4.3000668E1,3.6674274E1,3.1801638E-1,2.7124863E1,2.0285515E1,2.4028427E1,4.3554405E1,4.159764E-1,3.814147E-1,3.5174593E-1,2.8506562E-1,2.571914E-1,2.1793416E-1,1.9524345E-1,2.2544113E-1,2.5491458E-1,4.1812044E-1,4.470328E-1],"categories":[],"categories_nodes":[],"categories_segments":[],"categories_sizes":[],"default_left":[0,0,0,0,0,0,0,0,0,0,0,0,0,0,0,0,0,0,0,0,0,0,0,0,0,0,0,0,0,0,0],"id":44,"left_children":[1,3,5,7,9,11,13,15,17,-1,-1,-1,-1,19,21,-1,23,25,27,29,-1,-1,-1,-1,-1,-1,-1,-1,-1,-1,-1],"loss_changes":[1.79394E6,9.1676E4,4.3912E4,1.36472E5,4.537125E3,3.9535E3,6.8524E4,1.5637E4,2.322775E4,0E0,0E0,0E0,0E0,4.323E3,3.6245E3,0E0,3.6505E3,7.299E3,4.326625E3,9.423E3,0E0,0E0,0E0,0E0,0E0,0E0,0E0,0E0,0E0,0E0,0E0],"parents":[2147483647,0,0,1,1,2,2,3,3,4,4,5,5,6,6,7,7,8,8,13,13,14,14,16,16,17,17,18,18,19,19],"right_children":[2,4,6,8,10,12,14,16,18,-1,-1,-1,-1,20,22,-1,24,26,28,30,-1,-1,-1,-1,-1,-1,-1,-1,-1,-1,-1],"split_conditions":[1.3E1,1.1E1,1.5E1,3E0,1.2E1,1.4E1,2.2E1,1E0,9E0,2.865801E-1,3.1765255E-1,3.5083297E-1,3.8145927E-1,2E1,2.3E1,3.1801638E-1,2E0,5E0,1E1,1.7E1,4.159764E-1,3.814147E-1,3.5174593E-1,2.8506562E-1,2.571914E-1,2.1793416E-1,1.9524345E-1,2.2544113E-1,2.5491458E-1,4.1812044E-1,4.470328E-1],"split_indices":[1,1,1,1,1,1,1,1,1,0,0,0,0,1,1,0,1,1,1,1,0,0,0,0,0,0,0,0,0,0,0],"split_type":[0,0,0,0,0,0,0,0,0,0,0,0,0,0,0,0,0,0,0,0,0,0,0,0,0,0,0,0,0,0,0],"sum_hessian":[2.7033E4,1.4625E4,1.2408E4,1.2369E4,2.256E3,2.256E3,1.0152E4,3.384E3,8.985E3,1.128E3,1.128E3,1.128E3,1.128E3,7.896E3,2.256E3,1.128E3,2.256E3,6.729E3,2.256E3,5.64E3,2.256E3,1.128E3,1.128E3,1.128E3,1.128E3,2.248E3,4.481E3,1.128E3,1.128E3,2.256E3,3.384E3],"tree_param":{"num_deleted":"0","num_feature":"5","num_nodes":"31","size_leaf_vector":"1"}},{"base_weights":[3.1534962E1,2.41035E1,4.029159E1,2.3039734E1,2.9923038E1,3.626485E1,4.1182766E1,2.840605E1,2.1015694E1,2.8371686E-1,3.1447884E-1,3.4732777E-1,3.7764803E-1,4.257082E1,3.6307858E1,3.14839E-1,2.6853855E1,2.008272E1,2.3788355E1,4.2923E1,4.0421602E-1,3.7760395E-1,3.482316E-1,2.8221747E-1,2.5462177E-1,2.2443318E-1,1.9604404E-1,2.2318871E-1,2.5236768E-1,4.0491894E-1,4.3401954E-1],"categories":[],"categories_nodes":[],"categories_segments":[],"categories_sizes":[],"default_left":[0,0,0,0,0,0,0,0,0,0,0,0,0,0,0,0,0,0,0,0,0,0,0,0,0,0,0,0,0,0,0],"id":45,"left_children":[1,3,5,7,9,11,13,15,17,-1,-1,-1,-1,19,21,-1,23,25,27,29,-1,-1,-1,-1,-1,-1,-1,-1,-1,-1,-1],"loss_changes":[1.758254E6,8.9855E4,4.3038E4,1.33761E5,4.44675E3,3.875E3,6.7156E4,1.5326E4,2.27675E4,0E0,0E0,0E0,0E0,4.243E3,3.5525E3,0E0,3.578E3,7.15875E3,4.240625E3,6.124E3,0E0,0E0,0E0,0E0,0E0,0E0,0E0,0E0,0E0,0E0,0E0],"parents":[2147483647,0,0,1,1,2,2,3,3,4,4,5,5,6,6,7,7,8,8,13,13,14,14,16,16,17,17,18,18,19,19],"right_children":[2,4,6,8,10,12,14,16,18,-1,-1,-1,-1,20,22,-1,24,26,28,30,-1,-1,-1,-1,-1,-1,-1,-1,-1,-1,-1],"split_conditions":[1.3E1,1.1E1,1.5E1,3E0,1.2E1,1.4E1,2.2E1,1E0,9E0,2.8371686E-1,3.1447884E-1,3.4732777E-1,3.7764803E-1,2.1E1,2.3E1,3.14839E-1,2E0,4E0,1E1,1.6E1,4.0421602E-1,3.7760395E-1,3.482316E-1,2.8221747E-1,2.5462177E-1,2.2443318E-1,1.9604404E-1,2.2318871E-1,2.5236768E-1,4.0491894E-1,4.3401954E-1],"split_indices":[1,1,1,1,1,1,1,1,1,0,0,0,0,1,1,0,1,1,1,1,0,0,0,0,0,0,0,0,0,0,0],"split_type":[0,0,0,0,0,0,0,0,0,0,0,0,0,0,0,0,0,0,0,0,0,0,0,0,0,0,0,0,0,0,0],"sum_hessian":[2.7033E4,1.4625E4,1.2408E4,1.2369E4,2.256E3,2.256E3,1.0152E4,3.384E3,8.985E3,1.128E3,1.128E3,1.128E3,1.128E3,7.896E3,2.256E3,1.128E3,2.256E3,6.729E3,2.256E3,6.768E3,1.128E3,1.128E3,1.128E3,1.128E3,1.128E3,1.126E3,5.603E3,1.128E3,1.128E3,1.128E3,5.64E3],"tree_param":{"num_deleted":"0","num_feature":"5","num_nodes":"31","size_leaf_vector":"1"}},{"base_weights":[3.1219799E1,2.3862625E1,3.9888893E1,2.2809477E1,2.9624073E1,3.5902523E1,4.0771133E1,2.812224E1,2.0805635E1,2.808822E-1,3.1133685E-1,3.4385753E-1,3.7387493E-1,4.214527E1,3.5945103E1,3.1169343E-1,2.6585554E1,1.9881956E1,2.3550682E1,4.2690887E1,4.0762916E-1,3.7383127E-1,3.4475234E-1,2.7939782E-1,2.520778E-1,2.136541E-1,1.9133145E-1,2.209588E-1,2.4984625E-1,4.0974826E-1,4.3822485E-1],"categories":[],"categories_nodes":[],"categories_segments":[],"categories_sizes":[],"default_left":[0,0,0,0,0,0,0,0,0,0,0,0,0,0,0,0,0,0,0,0,0,0,0,0,0,0,0,0,0,0,0],"id":46,"left_children":[1,3,5,7,9,11,13,15,17,-1,-1,-1,-1,19,21,-1,23,25,27,29,-1,-1,-1,-1,-1,-1,-1,-1,-1,-1,-1],"loss_changes":[1.723276E6,8.80695E4,4.218E4,1.311055E5,4.358625E3,3.79775E3,6.5816E4,1.50215E4,2.231625E4,0E0,0E0,0E0,0E0,4.216E3,3.482E3,0E0,3.506875E3,7.067E3,4.15625E3,9.159E3,0E0,0E0,0E0,0E0,0E0,0E0,0E0,0E0,0E0,0E0,0E0],"parents":[2147483647,0,0,1,1,2,2,3,3,4,4,5,5,6,6,7,7,8,8,13,13,14,14,16,16,17,17,18,18,19,19],"right_children":[2,4,6,8,10,12,14,16,18,-1,-1,-1,-1,20,22,-1,24,26,28,30,-1,-1,-1,-1,-1,-1,-1,-1,-1,-1,-1],"split_conditions":[1.3E1,1.1E1,1.5E1,3E0,1.2E1,1.4E1,2.2E1,1E0,9E0,2.808822E-1,3.1133685E-1,3.4385753E-1,3.7387493E-1,2E1,2.3E1,3.1169343E-1,2E0,5E0,1E1,1.7E1,4.0762916E-1,3.7383127E-1,3.4475234E-1,2.7939782E-1,2.520778E-1,2.136541E-1,1.9133145E-1,2.209588E-1,2.4984625E-1,4.0974826E-1,4.3822485E-1],"split_indices":[1,1,1,1,1,1,1,1,1,0,0,0,0,1,1,0,1,1,1,1,0,0,0,0,0,0,0,0,0,0,0],"split_type":[0,0,0,0,0,0,0,0,0,0,0,0,0,0,0,0,0,0,0,0,0,0,0,0,0,0,0,0,0,0,0],"sum_hessian":[2.7033E4,1.4625E4,1.2408E4,1.2369E4,2.256E3,2.256E3,1.0152E4,3.384E3,8.985E3,1.128E3,1.128E3,1.128E3,1.128E3,7.896E3,2.256E3,1.128E3,2.256E3,6.729E3,2.256E3,5.64E3,2.256E3,1.128E3,1.128E3,1.128E3,1.128E3,2.248E3,4.481E3,1.128E3,1.128E3,2.256E3,3.384E3],"tree_param":{"num_deleted":"0","num_feature":"5","num_nodes":"31","size_leaf_vector":"1"}},{"base_weights":[3.0907785E1,2.3624157E1,3.9490223E1,2.258152E1,2.9328094E1,3.5543816E1,4.0363613E1,2.7841267E1,2.0597677E1,2.7807587E-1,3.0822626E-1,3.40422E-1,3.7013945E-1,4.1723976E1,3.5585968E1,3.0857924E-1,2.6319935E1,1.9683195E1,2.3315384E1,4.226413E1,4.0355468E-1,3.7009627E-1,3.413079E-1,2.766063E-1,2.4955924E-1,2.200562E-1,1.9212627E-1,2.1875116E-1,2.4734998E-1,4.0565258E-1,4.338439E-1],"categories":[],"categories_nodes":[],"categories_segments":[],"categories_sizes":[],"default_left":[0,0,0,0,0,0,0,0,0,0,0,0,0,0,0,0,0,0,0,0,0,0,0,0,0,0,0,0,0,0,0],"id":47,"left_children":[1,3,5,7,9,11,13,15,17,-1,-1,-1,-1,19,21,-1,23,25,27,29,-1,-1,-1,-1,-1,-1,-1,-1,-1,-1,-1],"loss_changes":[1.688996E6,8.632E4,4.1338E4,1.28502E5,4.271875E3,3.7225E3,6.4502E4,1.472275E4,2.1874E4,0E0,0E0,0E0,0E0,4.132E3,3.4125E3,0E0,3.437125E3,6.93225E3,4.073625E3,8.976E3,0E0,0E0,0E0,0E0,0E0,0E0,0E0,0E0,0E0,0E0,0E0],"parents":[2147483647,0,0,1,1,2,2,3,3,4,4,5,5,6,6,7,7,8,8,13,13,14,14,16,16,17,17,18,18,19,19],"right_children":[2,4,6,8,10,12,14,16,18,-1,-1,-1,-1,20,22,-1,24,26,28,30,-1,-1,-1,-1,-1,-1,-1,-1,-1,-1,-1],"split_conditions":[1.3E1,1.1E1,1.5E1,3E0,1.2E1,1.4E1,2.2E1,1E0,9E0,2.7807587E-1,3.0822626E-1,3.40422E-1,3.7013945E-1,2E1,2.3E1,3.0857924E-1,2E0,4E0,1E1,1.7E1,4.0355468E-1,3.7009627E-1,3.413079E-1,2.766063E-1,2.4955924E-1,2.200562E-1,1.9212627E-1,2.1875116E-1,2.4734998E-1,4.0565258E-1,4.338439E-1],"split_indices":[1,1,1,1,1,1,1,1,1,0,0,0,0,1,1,0,1,1,1,1,0,0,0,0,0,0,0,0,0,0,0],"split_type":[0,0,0,0,0,0,0,0,0,0,0,0,0,0,0,0,0,0,0,0,0,0,0,0,0,0,0,0,0,0,0],"sum_hessian":[2.7033E4,1.4625E4,1.2408E4,1.2369E4,2.256E3,2.256E3,1.0152E4,3.384E3,8.985E3,1.128E3,1.128E3,1.128E3,1.128E3,7.896E3,2.256E3,1.128E3,2.256E3,6.729E3,2.256E3,5.64E3,2.256E3,1.128E3,1.128E3,1.128E3,1.128E3,1.126E3,5.603E3,1.128E3,1.128E3,2.256E3,3.384E3],"tree_param":{"num_deleted":"0","num_feature":"5","num_nodes":"31","size_leaf_vector":"1"}},{"base_weights":[3.0598892E1,2.3388073E1,3.9095535E1,2.2355844E1,2.9035074E1,3.5188694E1,3.996017E1,2.7563103E1,2.0391798E1,2.7529758E-1,3.0514672E-1,3.370208E-1,3.6644134E-1,4.1306896E1,3.5230423E1,3.0549622E-1,2.6056969E1,1.9486425E1,2.3082438E1,4.165099E1,3.920728E-1,3.6639857E-1,3.3789784E-1,2.738427E-1,2.4706586E-1,2.0945825E-1,1.8749772E-1,2.1656561E-1,2.448787E-1,3.9272654E-1,4.211961E-1],"categories":[],"categories_nodes":[],"categories_segments":[],"categories_sizes":[],"default_left":[0,0,0,0,0,0,0,0,0,0,0,0,0,0,0,0,0,0,0,0,0,0,0,0,0,0,0,0,0,0,0],"id":48,"left_children":[1,3,5,7,9,11,13,15,17,-1,-1,-1,-1,19,21,-1,23,25,27,29,-1,-1,-1,-1,-1,-1,-1,-1,-1,-1,-1],"loss_changes":[1.6554E6,8.46055E4,4.0512E4,1.259495E5,4.186875E3,3.64825E3,6.3216E4,1.443E4,2.144E4,0E0,0E0,0E0,0E0,4.072E3,3.3445E3,0E0,3.36875E3,6.8425E3,3.992625E3,5.891E3,0E0,0E0,0E0,0E0,0E0,0E0,0E0,0E0,0E0,0E0,0E0],"parents":[2147483647,0,0,1,1,2,2,3,3,4,4,5,5,6,6,7,7,8,8,13,13,14,14,16,16,17,17,18,18,19,19],"right_children":[2,4,6,8,10,12,14,16,18,-1,-1,-1,-1,20,22,-1,24,26,28,30,-1,-1,-1,-1,-1,-1,-1,-1,-1,-1,-1],"split_conditions":[1.3E1,1.1E1,1.5E1,3E0,1.2E1,1.4E1,2.2E1,1E0,9E0,2.7529758E-1,3.0514672E-1,3.370208E-1,3.6644134E-1,2.1E1,2.3E1,3.0549622E-1,2E0,5E0,1E1,1.6E1,3.920728E-1,3.6639857E-1,3.3789784E-1,2.738427E-1,2.4706586E-1,2.0945825E-1,1.8749772E-1,2.1656561E-1,2.448787E-1,3.9272654E-1,4.211961E-1],"split_indices":[1,1,1,1,1,1,1,1,1,0,0,0,0,1,1,0,1,1,1,1,0,0,0,0,0,0,0,0,0,0,0],"split_type":[0,0,0,0,0,0,0,0,0,0,0,0,0,0,0,0,0,0,0,0,0,0,0,0,0,0,0,0,0,0,0],"sum_hessian":[2.7033E4,1.4625E4,1.2408E4,1.2369E4,2.256E3,2.256E3,1.0152E4,3.384E3,8.985E3,1.128E3,1.128E3,1.128E3,1.128E3,7.896E3,2.256E3,1.128E3,2.256E3,6.729E3,2.256E3,6.768E3,1.128E3,1.128E3,1.128E3,1.128E3,1.128E3,2.248E3,4.481E3,1.128E3,1.128E3,1.128E3,5.64E3],"tree_param":{"num_deleted":"0","num_feature":"5","num_nodes":"31","size_leaf_vector":"1"}},{"base_weights":[3.0293083E1,2.3154346E1,3.8704792E1,2.2132421E1,2.874498E1,3.4837116E1,3.9560757E1,2.7287716E1,2.0187975E1,2.7254704E-1,3.0209798E-1,3.336536E-1,3.6278018E-1,4.089398E1,3.4878433E1,3.0244395E-1,2.5796629E1,1.9291618E1,2.2851816E1,4.142621E1,3.9545637E-1,3.6273783E-1,3.3452183E-1,2.711067E-1,2.4459739E-1,2.1576488E-1,1.8828674E-1,2.1440186E-1,2.4243206E-1,3.9753005E-1,4.2529604E-1],"categories":[],"categories_nodes":[],"categories_segments":[],"categories_sizes":[],"default_left":[0,0,0,0,0,0,0,0,0,0,0,0,0,0,0,0,0,0,0,0,0,0,0,0,0,0,0,0,0,0,0],"id":49,"left_children":[1,3,5,7,9,11,13,15,17,-1,-1,-1,-1,19,21,-1,23,25,27,29,-1,-1,-1,-1,-1,-1,-1,-1,-1,-1,-1],"loss_changes":[1.622466E6,8.29255E4,3.9704E4,1.234485E5,4.103625E3,3.576E3,6.1955E4,1.4143E4,2.101525E4,0E0,0E0,0E0,0E0,4.03E3,3.27825E3,0E0,3.30175E3,6.71275E3,3.913125E3,8.723E3,0E0,0E0,0E0,0E0,0E0,0E0,0E0,0E0,0E0,0E0,0E0],"parents":[2147483647,0,0,1,1,2,2,3,3,4,4,5,5,6,6,7,7,8,8,13,13,14,14,16,16,17,17,18,18,19,19],"right_children":[2,4,6,8,10,12,14,16,18,-1,-1,-1,-1,20,22,-1,24,26,28,30,-1,-1,-1,-1,-1,-1,-1,-1,-1,-1,-1],"split_conditions":[1.3E1,1.1E1,1.5E1,3E0,1.2E1,1.4E1,2.2E1,1E0,9E0,2.7254704E-1,3.0209798E-1,3.336536E-1,3.6278018E-1,2E1,2.3E1,3.0244395E-1,2E0,4E0,1E1,1.7E1,3.9545637E-1,3.6273783E-1,3.3452183E-1,2.711067E-1,2.4459739E-1,2.1576488E-1,1.8828674E-1,2.1440186E-1,2.4243206E-1,3.9753005E-1,4.2529604E-1],"split_indices":[1,1,1,1,1,1,1,1,1,0,0,0,0,1,1,0,1,1,1,1,0,0,0,0,0,0,0,0,0,0,0],"split_type":[0,0,0,0,0,0,0,0,0,0,0,0,0,0,0,0,0,0,0,0,0,0,0,0,0,0,0,0,0,0,0],"sum_hessian":[2.7033E4,1.4625E4,1.2408E4,1.2369E4,2.256E3,2.256E3,1.0152E4,3.384E3,8.985E3,1.128E3,1.128E3,1.128E3,1.128E3,7.896E3,2.256E3,1.128E3,2.256E3,6.729E3,2.256E3,