{"learner":{"attributes":{"best_iteration":"981","best_score":"14.952904107426471","scikit_learn":"{\"_estimator_type\": \"regressor\"}"},"feature_names":["dayofyear","hour","dayofweek","quarter","month"],"feature_types":["int","int","int","int","int"],"gradient_booster":{"model":{"gbtree_model_param":{"num_parallel_tree":"1","num_trees":"1000"},"iteration_indptr":[0,1,2,3,4,5,6,7,8,9,10,11,12,13,14,15,16,17,18,19,20,21,22,23,24,25,26,27,28,29,30,31,32,33,34,35,36,37,38,39,40,41,42,43,44,45,46,47,48,49,50,51,52,53,54,55,56,57,58,59,60,61,62,63,64,65,66,67,68,69,70,71,72,73,74,75,76,77,78,79,80,81,82,83,84,85,86,87,88,89,90,91,92,93,94,95,96,97,98,99,100,101,102,103,104,105,106,107,108,109,110,111,112,113,114,115,116,117,118,119,120,121,122,123,124,125,126,127,128,129,130,131,132,133,134,135,136,137,138,139,140,141,142,143,144,145,146,147,148,149,150,151,152,153,154,155,156,157,158,159,160,161,162,163,164,165,166,167,168,169,170,171,172,173,174,175,176,177,178,179,180,181,182,183,184,185,186,187,188,189,190,191,192,193,194,195,196,197,198,199,200,201,202,203,204,205,206,207,208,209,210,211,212,213,214,215,216,217,218,219,220,221,222,223,224,225,226,227,228,229,230,231,232,233,234,235,236,237,238,239,240,241,242,243,244,245,246,247,248,249,250,251,252,253,254,255,256,257,258,259,260,261,262,263,264,265,266,267,268,269,270,271,272,273,274,275,276,277,278,279,280,281,282,283,284,285,286,287,288,289,290,291,292,293,294,295,296,297,298,299,300,301,302,303,304,305,306,307,308,309,310,311,312,313,314,315,316,317,318,319,320,321,322,323,324,325,326,327,328,329,330,331,332,333,334,335,336,337,338,339,340,341,342,343,344,345,346,347,348,349,350,351,352,353,354,355,356,357,358,359,360,361,362,363,364,365,366,367,368,369,370,371,372,373,374,375,376,377,378,379,380,381,382,383,384,385,386,387,388,389,390,391,392,393,394,395,396,397,398,399,400,401,402,403,404,405,406,407,408,409,410,411,412,413,414,415,416,417,418,419,420,421,422,423,424,425,426,427,428,429,430,431,432,433,434,435,436,437,438,439,440,441,442,443,444,445,446,447,448,449,450,451,452,453,454,455,456,457,458,459,460,461,462,463,464,465,466,467,468,469,470,471,472,473,474,475,476,477,478,479,480,481,482,483,484,485,486,487,488,489,490,491,492,493,494,495,496,497,498,499,500,501,502,503,504,505,506,507,508,509,510,511,512,513,514,515,516,517,518,519,520,521,522,523,524,525,526,527,528,529,530,531,532,533,534,535,536,537,538,539,540,541,542,543,544,545,546,547,548,549,550,551,552,553,554,555,556,557,558,559,560,561,562,563,564,565,566,567,568,569,570,571,572,573,574,575,576,577,578,579,580,581,582,583,584,585,586,587,588,589,590,591,592,593,594,595,596,597,598,599,600,601,602,603,604,605,606,607,608,609,610,611,612,613,614,615,616,617,618,619,620,621,622,623,624,625,626,627,628,629,630,631,632,633,634,635,636,637,638,639,640,641,642,643,644,645,646,647,648,649,650,651,652,653,654,655,656,657,658,659,660,661,662,663,664,665,666,667,668,669,670,671,672,673,674,675,676,677,678,679,680,681,682,683,684,685,686,687,688,689,690,691,692,693,694,695,696,697,698,699,700,701,702,703,704,705,706,707,708,709,710,711,712,713,714,715,716,717,718,719,720,721,722,723,724,725,726,727,728,729,730,731,732,733,734,735,736,737,738,739,740,741,742,743,744,745,746,747,748,749,750,751,752,753,754,755,756,757,758,759,760,761,762,763,764,765,766,767,768,769,770,771,772,773,774,775,776,777,778,779,780,781,782,783,784,785,786,787,788,789,790,791,792,793,794,795,796,797,798,799,800,801,802,803,804,805,806,807,808,809,810,811,812,813,814,815,816,817,818,819,820,821,822,823,824,825,826,827,828,829,830,831,832,833,834,835,836,837,838,839,840,841,842,843,844,845,846,847,848,849,850,851,852,853,854,855,856,857,858,859,860,861,862,863,864,865,866,867,868,869,870,871,872,873,874,875,876,877,878,879,880,881,882,883,884,885,886,887,888,889,890,891,892,893,894,895,896,897,898,899,900,901,902,903,904,905,906,907,908,909,910,911,912,913,914,915,916,917,918,919,920,921,922,923,924,925,926,927,928,929,930,931,932,933,934,935,936,937,938,939,940,941,942,943,944,945,946,947,948,949,950,951,952,953,954,955,956,957,958,959,960,961,962,963,964,965,966,967,968,969,970,971,972,973,974,975,976,977,978,979,980,981,982,983,984,985,986,987,988,989,990,991,992,993,994,995,996,997,998,999,1000],"tree_info":[0,0,0,0,0,0,0,0,0,0,0,0,0,0,0,0,0,0,0,0,0,0,0,0,0,0,0,0,0,0,0,0,0,0,0,0,0,0,0,0,0,0,0,0,0,0,0,0,0,0,0,0,0,0,0,0,0,0,0,0,0,0,0,0,0,0,0,0,0,0,0,0,0,0,0,0,0,0,0,0,0,0,0,0,0,0,0,0,0,0,0,0,0,0,0,0,0,0,0,0,0,0,0,0,0,0,0,0,0,0,0,0,0,0,0,0,0,0,0,0,0,0,0,0,0,0,0,0,0,0,0,0,0,0,0,0,0,0,0,0,0,0,0,0,0,0,0,0,0,0,0,0,0,0,0,0,0,0,0,0,0,0,0,0,0,0,0,0,0,0,0,0,0,0,0,0,0,0,0,0,0,0,0,0,0,0,0,0,0,0,0,0,0,0,0,0,0,0,0,0,0,0,0,0,0,0,0,0,0,0,0,0,0,0,0,0,0,0,0,0,0,0,0,0,0,0,0,0,0,0,0,0,0,0,0,0,0,0,0,0,0,0,0,0,0,0,0,0,0,0,0,0,0,0,0,0,0,0,0,0,0,0,0,0,0,0,0,0,0,0,0,0,0,0,0,0,0,0,0,0,0,0,0,0,0,0,0,0,0,0,0,0,0,0,0,0,0,0,0,0,0,0,0,0,0,0,0,0,0,0,0,0,0,0,0,0,0,0,0,0,0,0,0,0,0,0,0,0,0,0,0,0,0,0,0,0,0,0,0,0,0,0,0,0,0,0,0,0,0,0,0,0,0,0,0,0,0,0,0,0,0,0,0,0,0,0,0,0,0,0,0,0,0,0,0,0,0,0,0,0,0,0,0,0,0,0,0,0,0,0,0,0,0,0,0,0,0,0,0,0,0,0,0,0,0,0,0,0,0,0,0,0,0,0,0,0,0,0,0,0,0,0,0,0,0,0,0,0,0,0,0,0,0,0,0,0,0,0,0,0,0,0,0,0,0,0,0,0,0,0,0,0,0,0,0,0,0,0,0,0,0,0,0,0,0,0,0,0,0,0,0,0,0,0,0,0,0,0,0,0,0,0,0,0,0,0,0,0,0,0,0,0,0,0,0,0,0,0,0,0,0,0,0,0,0,0,0,0,0,0,0,0,0,0,0,0,0,0,0,0,0,0,0,0,0,0,0,0,0,0,0,0,0,0,0,0,0,0,0,0,0,0,0,0,0,0,0,0,0,0,0,0,0,0,0,0,0,0,0,0,0,0,0,0,0,0,0,0,0,0,0,0,0,0,0,0,0,0,0,0,0,0,0,0,0,0,0,0,0,0,0,0,0,0,0,0,0,0,0,0,0,0,0,0,0,0,0,0,0,0,0,0,0,0,0,0,0,0,0,0,0,0,0,0,0,0,0,0,0,0,0,0,0,0,0,0,0,0,0,0,0,0,0,0,0,0,0,0,0,0,0,0,0,0,0,0,0,0,0,0,0,0,0,0,0,0,0,0,0,0,0,0,0,0,0,0,0,0,0,0,0,0,0,0,0,0,0,0,0,0,0,0,0,0,0,0,0,0,0,0,0,0,0,0,0,0,0,0,0,0,0,0,0,0,0,0,0,0,0,0,0,0,0,0,0,0,0,0,0,0,0,0,0,0,0,0,0,0,0,0,0,0,0,0,0,0,0,0,0,0,0,0,0,0,0,0,0,0,0,0,0,0,0,0,0,0,0,0,0,0,0,0,0,0,0,0,0,0,0,0,0,0,0,0,0,0,0,0,0,0,0,0,0,0,0,0,0,0,0,0,0,0,0,0,0,0,0,0,0,0,0,0,0,0,0,0,0,0,0,0,0,0,0,0,0,0,0,0,0,0,0,0,0,0,0,0,0,0,0,0,0,0,0,0,0,0,0,0,0,0,0,0,0,0,0,0,0,0,0,0,0,0,0,0,0,0,0,0,0,0,0,0,0,0,0,0,0,0,0,0,0,0,0,0,0,0,0,0,0,0,0,0,0,0,0,0,0,0,0,0,0,0,0,0,0,0,0,0,0,0,0,0,0,0,0,0,0,0,0,0,0,0,0,0,0,0,0,0,0,0,0,0,0,0,0,0,0,0,0,0,0,0,0,0,0,0,0,0,0,0,0,0,0,0,0,0,0,0,0,0,0,0,0,0,0,0,0,0,0,0,0,0,0,0,0,0,0,0,0,0,0,0,0,0,0,0,0,0,0,0,0,0,0,0,0,0,0,0,0,0],"trees":[{"base_weights":[4.376466E1,1.4989749E0,6.116719E1,-2.4996304E-3,1.3482201E1,9.9344376E1,6.622677E0,4.7034574E-1,2.9161585E1,6.909624E1,1.2642445E2,3.5253544E1,1.8463628E0,-3.617106E-1,1.0824649E1,3.5624557E1,6.025741E0,2.1985336E1,8.086604E1,7.617463E1,1.3896826E2,7.8218126E0,6.0839966E1,1.3567785E1,-2.4995569E-3,-2.427987E-3,1.638063E-2,3.792129E-2,6.318445E-2,1.200424E-1,1.880192E-1,5.9336316E-2,5.1460518E-3,3.6497913E-2,1.8314958E-1,4.531438E-1,2.5760195E-1,2.9874575E-1,4.623615E-1,7.263456E-1,4.7346297E-1,2.6322862E-2,1.2567918E-1,3.2784352E-1,1.9933662E-1,1.3893413E-3,1.4538203E-1],"categories":[],"categories_nodes":[],"categories_segments":[],"categories_sizes":[],"default_left":[0,0,0,0,0,0,0,0,0,0,0,0,0,0,0,0,0,0,0,0,0,0,0,0,0,0,0,0,0,0,0,0,0,0,0,0,0,0,0,0,0,0,0,0,0,0,0],"id":0,"left_children":[1,3,5,-1,7,9,11,13,15,17,19,21,23,25,27,29,31,33,35,37,39,41,43,45,-1,-1,-1,-1,-1,-1,-1,-1,-1,-1,-1,-1,-1,-1,-1,-1,-1,-1,-1,-1,-1,-1,-1],"loss_changes":[1.9912908E7,1.8916583E5,3.993268E7,0E0,2.3032245E5,9.231776E6,1.0798498E6,5.32821E3,7.634278E4,2.954188E6,3.74048E6,7.919466E5,1.861656E5,2.5983057E2,1.7428711E2,8.2938125E3,3.2859556E3,2.2920884E5,1.217226E6,3.133015E5,1.31444E6,2.4042434E4,5.53035E4,2.3268819E5,0E0,0E0,0E0,0E0,0E0,0E0,0E0,0E0,0E0,0E0,0E0,0E0,0E0,0E0,0E0,0E0,0E0,0E0,0E0,0E0,0E0,0E0,0E0],"parents":[2147483647,0,0,1,1,2,2,4,4,5,5,6,6,7,7,8,8,9,9,10,10,11,11,12,12,13,13,14,14,15,15,16,16,17,17,18,18,19,19,20,20,21,21,22,22,23,23],"right_children":[2,4,6,-1,8,10,12,14,16,18,20,22,24,26,28,30,32,34,36,38,40,42,44,46,-1,-1,-1,-1,-1,-1,-1,-1,-1,-1,-1,-1,-1,-1,-1,-1,-1,-1,-1,-1,-1,-1,-1],"split_conditions":[7E0,6E0,1.7E1,-2.4996304E-3,1.96E2,1.68E2,1.8E1,1.81E2,3.29E2,9E0,9E0,1.72E2,1.9E1,1.75E2,1.87E2,2.16E2,3.46E2,8E0,1.5E1,8E0,1.6E1,1.49E2,3.3E2,1.93E2,-2.4995569E-3,-2.427987E-3,1.638063E-2,3.792129E-2,6.318445E-2,1.200424E-1,1.880192E-1,5.9336316E-2,5.1460518E-3,3.6497913E-2,1.8314958E-1,4.531438E-1,2.5760195E-1,2.9874575E-1,4.623615E-1,7.263456E-1,4.7346297E-1,2.6322862E-2,1.2567918E-1,3.2784352E-1,1.9933662E-1,1.3893413E-3,1.4538203E-1],"split_indices":[1,1,1,0,0,0,1,0,0,1,1,0,1,0,0,0,0,1,1,1,1,0,0,0,0,0,0,0,0,0,0,0,0,0,0,0,0,0,0,0,0,0,0,0,0,0,0],"split_type":[0,0,0,0,0,0,0,0,0,0,0,0,0,0,0,0,0,0,0,0,0,0,0,0,0,0,0,0,0,0,0,0,0,0,0,0,0,0,0,0,0,0,0,0,0,0,0],"sum_hessian":[2.7072E4,7.896E3,1.9176E4,6.768E3,1.128E3,1.128E4,7.896E3,6.17E2,5.11E2,5.33E3,5.95E3,1.128E3,6.768E3,5.72E2,4.5E1,3.99E2,1.12E2,1.066E3,4.264E3,1.19E3,4.76E3,5.45E2,5.83E2,1.128E3,5.64E3,5.54E2,1.8E1,1.8E1,2.7E1,6E1,3.39E2,5.1E1,6.1E1,5.33E2,5.33E2,3.198E3,1.066E3,5.95E2,5.95E2,4.165E3,5.95E2,4.76E2,6.9E1,4.74E2,1.09E2,6.08E2,5.2E2],"tree_param":{"num_deleted":"0","num_feature":"5","num_nodes":"47","size_leaf_vector":"1"}},{"base_weights":[4.354599E1,1.4915415E0,6.086155E1,-2.4871342E-3,1.3415222E1,9.8847916E1,6.589668E0,4.6818018E-1,2.9016504E1,6.875093E1,1.25792656E2,3.5077877E1,1.8371524E0,-3.598777E-1,1.0772723E1,3.5447205E1,5.996183E0,2.1875616E1,8.046188E1,7.5794395E1,1.3827368E2,7.782982E0,6.053667E1,1.3500076E1,-2.4870613E-3,-2.415869E-3,1.6303038E-2,3.774167E-2,6.287981E-2,1.1945202E-1,1.8708187E-1,5.9045337E-2,5.120736E-3,3.6315765E-2,1.8223555E-1,4.5087883E-1,2.5631514E-1,2.9725453E-1,4.600536E-1,7.2271466E-1,4.7109962E-1,2.6191525E-2,1.2505977E-1,3.2620776E-1,1.98349E-1,1.382406E-3,1.4465652E-1],"categories":[],"categories_nodes":[],"categories_segments":[],"categories_sizes":[],"default_left":[0,0,0,0,0,0,0,0,0,0,0,0,0,0,0,0,0,0,0,0,0,0,0,0,0,0,0,0,0,0,0,0,0,0,0,0,0,0,0,0,0,0,0,0,0,0,0],"id":1,"left_children":[1,3,5,-1,7,9,11,13,15,17,19,21,23,25,27,29,31,33,35,37,39,41,43,45,-1,-1,-1,-1,-1,-1,-1,-1,-1,-1,-1,-1,-1,-1,-1,-1,-1,-1,-1,-1,-1,-1,-1],"loss_changes":[1.9714364E7,1.8729053E5,3.9534496E7,0E0,2.2803364E5,9.139736E6,1.0691156E6,5.2771216E3,7.558228E4,2.924716E6,3.703112E6,7.8406525E5,1.8431203E5,2.573579E2,1.7253223E2,8.209E3,3.253817E3,2.2692672E5,1.205078E6,3.10182E5,1.301304E6,2.38068E4,5.474675E4,2.303716E5,0E0,0E0,0E0,0E0,0E0,0E0,0E0,0E0,0E0,0E0,0E0,0E0,0E0,0E0,0E0,0E0,0E0,0E0,0E0,0E0,0E0,0E0,0E0],"parents":[2147483647,0,0,1,1,2,2,4,4,5,5,6,6,7,7,8,8,9,9,10,10,11,11,12,12,13,13,14,14,15,15,16,16,17,17,18,18,19,19,20,20,21,21,22,22,23,23],"right_children":[2,4,6,-1,8,10,12,14,16,18,20,22,24,26,28,30,32,34,36,38,40,42,44,46,-1,-1,-1,-1,-1,-1,-1,-1,-1,-1,-1,-1,-1,-1,-1,-1,-1,-1,-1,-1,-1,-1,-1],"split_conditions":[7E0,6E0,1.7E1,-2.4871342E-3,1.96E2,1.68E2,1.8E1,1.81E2,3.29E2,9E0,9E0,1.72E2,1.9E1,1.75E2,1.87E2,2.16E2,3.46E2,8E0,1.5E1,8E0,1.6E1,1.49E2,3.3E2,1.93E2,-2.4870613E-3,-2.415869E-3,1.6303038E-2,3.774167E-2,6.287981E-2,1.1945202E-1,1.8708187E-1,5.9045337E-2,5.120736E-3,3.6315765E-2,1.8223555E-1,4.5087883E-1,2.5631514E-1,2.9725453E-1,4.600536E-1,7.2271466E-1,4.7109962E-1,2.6191525E-2,1.2505977E-1,3.2620776E-1,1.98349E-1,1.382406E-3,1.4465652E-1],"split_indices":[1,1,1,0,0,0,1,0,0,1,1,0,1,0,0,0,0,1,1,1,1,0,0,0,0,0,0,0,0,0,0,0,0,0,0,0,0,0,0,0,0,0,0,0,0,0,0],"split_type":[0,0,0,0,0,0,0,0,0,0,0,0,0,0,0,0,0,0,0,0,0,0,0,0,0,0,0,0,0,0,0,0,0,0,0,0,0,0,0,0,0,0,0,0,0,0,0],"sum_hessian":[2.7072E4,7.896E3,1.9176E4,6.768E3,1.128E3,1.128E4,7.896E3,6.17E2,5.11E2,5.33E3,5.95E3,1.128E3,6.768E3,5.72E2,4.5E1,3.99E2,1.12E2,1.066E3,4.264E3,1.19E3,4.76E3,5.45E2,5.83E2,1.128E3,5.64E3,5.54E2,1.8E1,1.8E1,2.7E1,6E1,3.39E2,5.1E1,6.1E1,5.33E2,5.33E2,3.198E3,1.066E3,5.95E2,5.95E2,4.165E3,5.95E2,4.76E2,6.9E1,4.74E2,1.09E2,6.08E2,5.2E2],"tree_param":{"num_deleted":"0","num_feature":"5","num_nodes":"47","size_leaf_vector":"1"}},{"base_weights":[4.3328415E1,1.4841449E0,6.0557434E1,-2.4747006E-3,1.3348576E1,9.835393E1,6.5568233E0,4.6602458E-1,2.8872145E1,6.840735E1,1.25164024E2,3.4903084E1,1.8279878E0,-3.5805407E-1,1.0721047E1,3.5270733E1,5.96677E0,2.1766441E1,8.005974E1,7.541606E1,1.3758257E2,7.744344E0,6.0234882E1,1.3432706E1,-2.4746282E-3,-2.4038116E-3,1.6225813E-2,3.7562888E-2,6.257664E-2,1.1886456E-1,1.861492E-1,5.8755793E-2,5.0955457E-3,3.613453E-2,1.8132608E-1,4.486251E-1,2.5503477E-1,2.9577073E-1,4.5775717E-1,7.19102E-1,4.6874803E-1,2.606084E-2,1.244434E-1,3.2458013E-1,1.9736627E-1,1.3755055E-3,1.4393462E-1],"categories":[],"categories_nodes":[],"categories_segments":[],"categories_sizes":[],"default_left":[0,0,0,0,0,0,0,0,0,0,0,0,0,0,0,0,0,0,0,0,0,0,0,0,0,0,0,0,0,0,0,0,0,0,0,0,0,0,0,0,0,0,0,0,0,0,0],"id":2,"left_children":[1,3,5,-1,7,9,11,13,15,17,19,21,23,25,27,29,31,33,35,37,39,41,43,45,-1,-1,-1,-1,-1,-1,-1,-1,-1,-1,-1,-1,-1,-1,-1,-1,-1,-1,-1,-1,-1,-1,-1],"loss_changes":[1.95178E7,1.8543383E5,3.9140256E7,0E0,2.2576755E5,9.048616E6,1.0584881E6,5.2265225E3,7.482934E4,2.895538E6,3.666144E6,7.762625E5,1.8247692E5,2.5490886E2,1.7079443E2,8.125125E3,3.2219932E3,2.2466731E5,1.193052E6,3.070935E5,1.28828E6,2.3573486E4,5.41955E4,2.2807803E5,0E0,0E0,0E0,0E0,0E0,0E0,0E0,0E0,0E0,0E0,0E0,0E0,0E0,0E0,0E0,0E0,0E0,0E0,0E0,0E0,0E0,0E0,0E0],"parents":[2147483647,0,0,1,1,2,2,4,4,5,5,6,6,7,7,8,8,9,9,10,10,11,11,12,12,13,13,14,14,15,15,16,16,17,17,18,18,19,19,20,20,21,21,22,22,23,23],"right_children":[2,4,6,-1,8,10,12,14,16,18,20,22,24,26,28,30,32,34,36,38,40,42,44,46,-1,-1,-1,-1,-1,-1,-1,-1,-1,-1,-1,-1,-1,-1,-1,-1,-1,-1,-1,-1,-1,-1,-1],"split_conditions":[7E0,6E0,1.7E1,-2.4747006E-3,1.96E2,1.68E2,1.8E1,1.81E2,3.29E2,9E0,9E0,1.72E2,1.9E1,1.75E2,1.87E2,2.16E2,3.46E2,8E0,1.5E1,8E0,1.6E1,1.49E2,3.3E2,1.93E2,-2.4746282E-3,-2.4038116E-3,1.6225813E-2,3.7562888E-2,6.257664E-2,1.1886456E-1,1.861492E-1,5.8755793E-2,5.0955457E-3,3.613453E-2,1.8132608E-1,4.486251E-1,2.5503477E-1,2.9577073E-1,4.5775717E-1,7.19102E-1,4.6874803E-1,2.606084E-2,1.244434E-1,3.2458013E-1,1.9736627E-1,1.3755055E-3,1.4393462E-1],"split_indices":[1,1,1,0,0,0,1,0,0,1,1,0,1,0,0,0,0,1,1,1,1,0,0,0,0,0,0,0,0,0,0,0,0,0,0,0,0,0,0,0,0,0,0,0,0,0,0],"split_type":[0,0,0,0,0,0,0,0,0,0,0,0,0,0,0,0,0,0,0,0,0,0,0,0,0,0,0,0,0,0,0,0,0,0,0,0,0,0,0,0,0,0,0,0,0,0,0],"sum_hessian":[2.7072E4,7.896E3,1.9176E4,6.768E3,1.128E3,1.128E4,7.896E3,6.17E2,5.11E2,5.33E3,5.95E3,1.128E3,6.768E3,5.72E2,4.5E1,3.99E2,1.12E2,1.066E3,4.264E3,1.19E3,4.76E3,5.45E2,5.83E2,1.128E3,5.64E3,5.54E2,1.8E1,1.8E1,2.7E1,6E1,3.39E2,5.1E1,6.1E1,5.33E2,5.33E2,3.198E3,1.066E3,5.95E2,5.95E2,4.165E3,5.95E2,4.76E2,6.9E1,4.74E2,1.09E2,6.08E2,5.2E2],"tree_param":{"num_deleted":"0","num_feature":"5","num_nodes":"47","size_leaf_vector":"1"}},{"base_weights":[4.3111927E1,1.4767851E0,6.0254837E1,-2.4623289E-3,1.3282261E1,9.786241E1,6.5241423E0,4.6387887E-1,2.8728506E1,6.869225E1,1.251148E2,3.4729168E1,1.818869E0,-3.5623968E-1,1.0669619E1,3.5095142E1,5.937501E0,2.2229626E1,8.030015E1,7.560287E1,1.3747392E2,7.705898E0,5.9934605E1,1.3365671E1,-2.4622572E-3,-2.440453E-3,1.4841063E-2,3.738496E-2,6.2274933E-2,1.1827998E-1,1.852212E-1,5.8467664E-2,5.0704787E-3,3.836213E-2,1.8373054E-1,4.4952303E-1,2.5715384E-1,2.9735148E-1,4.5802993E-1,7.184335E-1,4.690646E-1,2.5930809E-2,1.23830065E-1,3.2296064E-1,1.9638841E-1,1.3686392E-3,1.4321633E-1],"categories":[],"categories_nodes":[],"categories_segments":[],"categories_sizes":[],"default_left":[0,0,0,0,0,0,0,0,0,0,0,0,0,0,0,0,0,0,0,0,0,0,0,0,0,0,0,0,0,0,0,0,0,0,0,0,0,0,0,0,0,0,0,0,0,0,0],"id":3,"left_children":[1,3,5,-1,7,9,11,13,15,17,19,21,23,25,27,29,31,33,35,37,39,41,43,45,-1,-1,-1,-1,-1,-1,-1,-1,-1,-1,-1,-1,-1,-1,-1,-1,-1,-1,-1,-1,-1,-1,-1],"loss_changes":[1.9323196E7,1.8359555E5,3.874996E7,0E0,2.2352398E5,8.959304E6,1.04796625E6,5.1764097E3,7.4083875E4,2.938122E6,3.557736E6,7.685376E5,1.8066006E5,2.5261304E2,1.690747E2,8.0420938E3,3.1904802E3,2.3026744E5,1.204574E6,2.95838E5,1.251928E6,2.3342453E4,5.365E4,2.2580733E5,0E0,0E0,0E0,0E0,0E0,0E0,0E0,0E0,0E0,0E0,0E0,0E0,0E0,0E0,0E0,0E0,0E0,0E0,0E0,0E0,0E0,0E0,0E0],"parents":[2147483647,0,0,1,1,2,2,4,4,5,5,6,6,7,7,8,8,9,9,10,10,11,11,12,12,13,13,14,14,15,15,16,16,17,17,18,18,19,19,20,20,21,21,22,22,23,23],"right_children":[2,4,6,-1,8,10,12,14,16,18,20,22,24,26,28,30,32,34,36,38,40,42,44,46,-1,-1,-1,-1,-1,-1,-1,-1,-1,-1,-1,-1,-1,-1,-1,-1,-1,-1,-1,-1,-1,-1,-1],"split_conditions":[7E0,6E0,1.7E1,-2.4623289E-3,1.96E2,1.72E2,1.8E1,1.81E2,3.29E2,9E0,9E0,1.72E2,1.9E1,1.74E2,1.87E2,2.16E2,3.46E2,8E0,1.5E1,8E0,1.6E1,1.49E2,3.3E2,1.93E2,-2.4622572E-3,-2.440453E-3,1.4841063E-2,3.738496E-2,6.2274933E-2,1.1827998E-1,1.852212E-1,5.8467664E-2,5.0704787E-3,3.836213E-2,1.8373054E-1,4.4952303E-1,2.5715384E-1,2.9735148E-1,4.5802993E-1,7.184335E-1,4.690646E-1,2.5930809E-2,1.23830065E-1,3.2296064E-1,1.9638841E-1,1.3686392E-3,1.4321633E-1],"split_indices":[1,1,1,0,0,0,1,0,0,1,1,0,1,0,0,0,0,1,1,1,1,0,0,0,0,0,0,0,0,0,0,0,0,0,0,0,0,0,0,0,0,0,0,0,0,0,0],"split_type":[0,0,0,0,0,0,0,0,0,0,0,0,0,0,0,0,0,0,0,0,0,0,0,0,0,0,0,0,0,0,0,0,0,0,0,0,0,0,0,0,0,0,0,0,0,0,0],"sum_hessian":[2.7072E4,7.896E3,1.9176E4,6.768E3,1.128E3,1.128E4,7.896E3,6.17E2,5.11E2,5.45E3,5.83E3,1.128E3,6.768E3,5.72E2,4.5E1,3.99E2,1.12E2,1.09E3,4.36E3,1.166E3,4.664E3,5.45E2,5.83E2,1.128E3,5.64E3,5.51E2,2.1E1,1.8E1,2.7E1,6E1,3.39E2,5.1E1,6.1E1,5.45E2,5.45E2,3.27E3,1.09E3,5.83E2,5.83E2,4.081E3,5.83E2,4.76E2,6.9E1,4.74E2,1.09E2,6.08E2,5.2E2],"tree_param":{"num_deleted":"0","num_feature":"5","num_nodes":"47","size_leaf_vector":"1"}},{"base_weights":[4.2896523E1,1.4694614E0,5.9953754E1,-2.4500191E-3,1.3216273E1,9.737335E1,6.4916244E0,4.617408E-1,2.8585579E1,6.772219E1,1.23918976E2,3.4556114E1,1.8097955E0,-3.544368E-1,1.0618438E1,3.4920425E1,5.9083757E0,2.1546871E1,7.925826E1,7.466762E1,1.3621355E2,7.667643E0,5.963582E1,1.329897E1,-2.4499479E-3,-2.3801008E-3,1.6078655E-2,3.720787E-2,6.197468E-2,1.17698275E-1,1.842978E-1,5.8180947E-2,5.045535E-3,3.5762742E-2,1.7950422E-1,4.441358E-1,2.5247622E-1,2.928362E-1,4.5321354E-1,7.1194595E-1,4.640882E-1,2.580143E-2,1.23219766E-1,3.2134926E-1,1.9541539E-1,1.3618071E-3,1.4250162E-1],"categories":[],"categories_nodes":[],"categories_segments":[],"categories_sizes":[],"default_left":[0,0,0,0,0,0,0,0,0,0,0,0,0,0,0,0,0,0,0,0,0,0,0,0,0,0,0,0,0,0,0,0,0,0,0,0,0,0,0,0,0,0,0,0,0,0,0],"id":4,"left_children":[1,3,5,-1,7,9,11,13,15,17,19,21,23,25,27,29,31,33,35,37,39,41,43,45,-1,-1,-1,-1,-1,-1,-1,-1,-1,-1,-1,-1,-1,-1,-1,-1,-1,-1,-1,-1,-1,-1,-1],"loss_changes":[1.913054E7,1.8177544E5,3.836356E7,0E0,2.2130277E5,8.870984E6,1.03754906E6,5.126779E3,7.334584E4,2.838018E6,3.593304E6,7.608894E5,1.7886133E5,2.5025452E2,1.6737207E2,7.9599062E3,3.1592747E3,2.2020219E5,1.169374E6,3.01022E5,1.26272E6,2.311369E4,5.3109625E4,2.235592E5,0E0,0E0,0E0,0E0,0E0,0E0,0E0,0E0,0E0,0E0,0E0,0E0,0E0,0E0,0E0,0E0,0E0,0E0,0E0,0E0,0E0,0E0,0E0],"parents":[2147483647,0,0,1,1,2,2,4,4,5,5,6,6,7,7,8,8,9,9,10,10,11,11,12,12,13,13,14,14,15,15,16,16,17,17,18,18,19,19,20,20,21,21,22,22,23,23],"right_children":[2,4,6,-1,8,10,12,14,16,18,20,22,24,26,28,30,32,34,36,38,40,42,44,46,-1,-1,-1,-1,-1,-1,-1,-1,-1,-1,-1,-1,-1,-1,-1,-1,-1,-1,-1,-1,-1,-1,-1],"split_conditions":[7E0,6E0,1.7E1,-2.4500191E-3,1.96E2,1.68E2,1.8E1,1.81E2,3.29E2,9E0,9E0,1.72E2,1.9E1,1.75E2,1.87E2,2.16E2,3.46E2,8E0,1.5E1,8E0,1.6E1,1.49E2,3.3E2,1.93E2,-2.4499479E-3,-2.3801008E-3,1.6078655E-2,3.720787E-2,6.197468E-2,1.17698275E-1,1.842978E-1,5.8180947E-2,5.045535E-3,3.5762742E-2,1.7950422E-1,4.441358E-1,2.5247622E-1,2.928362E-1,4.5321354E-1,7.1194595E-1,4.640882E-1,2.580143E-2,1.23219766E-1,3.2134926E-1,1.9541539E-1,1.3618071E-3,1.4250162E-1],"split_indices":[1,1,1,0,0,0,1,0,0,1,1,0,1,0,0,0,0,1,1,1,1,0,0,0,0,0,0,0,0,0,0,0,0,0,0,0,0,0,0,0,0,0,0,0,0,0,0],"split_type":[0,0,0,0,0,0,0,0,0,0,0,0,0,0,0,0,0,0,0,0,0,0,0,0,0,0,0,0,0,0,0,0,0,0,0,0,0,0,0,0,0,0,0,0,0,0,0],"sum_hessian":[2.7072E4,7.896E3,1.9176E4,6.768E3,1.128E3,1.128E4,7.896E3,6.17E2,5.11E2,5.33E3,5.95E3,1.128E3,6.768E3,5.72E2,4.5E1,3.99E2,1.12E2,1.066E3,4.264E3,1.19E3,4.76E3,5.45E2,5.83E2,1.128E3,5.64E3,5.54E2,1.8E1,1.8E1,2.7E1,6E1,3.39E2,5.1E1,6.1E1,5.33E2,5.33E2,3.198E3,1.066E3,5.95E2,5.95E2,4.165E3,5.95E2,4.76E2,6.9E1,4.74E2,1.09E2,6.08E2,5.2E2],"tree_param":{"num_deleted":"0","num_feature":"5","num_nodes":"47","size_leaf_vector":"1"}},{"base_weights":[4.268219E1,1.4621743E0,5.965418E1,-2.4377708E-3,1.3150615E1,9.688674E1,6.4592686E0,4.5961475E-1,2.8443365E1,6.800433E1,1.2387029E2,3.4383923E1,1.8007675E0,-3.5264075E-1,1.0567501E1,3.474658E1,5.8793936E0,2.2005308E1,7.9496414E1,7.48528E1,1.3610599E2,7.6295776E0,5.9338528E1,1.3232603E1,-2.4377003E-3,-2.416394E-3,1.4706077E-2,3.7031624E-2,6.1675865E-2,1.2016144E-1,1.839591E-1,5.7895634E-2,5.0207144E-3,3.7963934E-2,1.8188763E-1,4.450266E-1,2.545711E-1,2.9440558E-1,4.5348153E-1,7.112833E-1,4.6440676E-1,2.5672691E-2,1.2261246E-1,3.197459E-1,1.944472E-1,1.3550094E-3,1.4179048E-1],"categories":[],"categories_nodes":[],"categories_segments":[],"categories_sizes":[],"default_left":[0,0,0,0,0,0,0,0,0,0,0,0,0,0,0,0,0,0,0,0,0,0,0,0,0,0,0,0,0,0,0,0,0,0,0,0,0,0,0,0,0,0,0,0,0,0,0],"id":5,"left_children":[1,3,5,-1,7,9,11,13,15,17,19,21,23,25,27,29,31,33,35,37,39,41,43,45,-1,-1,-1,-1,-1,-1,-1,-1,-1,-1,-1,-1,-1,-1,-1,-1,-1,-1,-1,-1,-1,-1,-1],"loss_changes":[1.8939788E7,1.7997339E5,3.798101E7,0E0,2.1910358E5,8.783424E6,1.02723544E6,5.0776216E3,7.261519E4,2.879782E6,3.487032E6,7.5331725E5,1.770805E5,2.4798497E2,1.6568604E2,7.8811562E3,3.1283748E3,2.2571338E5,1.180726E6,2.89966E5,1.227032E6,2.2887162E4,5.2574625E4,2.2133345E5,0E0,0E0,0E0,0E0,0E0,0E0,0E0,0E0,0E0,0E0,0E0,0E0,0E0,0E0,0E0,0E0,0E0,0E0,0E0,0E0,0E0,0E0,0E0],"parents":[2147483647,0,0,1,1,2,2,4,4,5,5,6,6,7,7,8,8,9,9,10,10,11,11,12,12,13,13,14,14,15,15,16,16,17,17,18,18,19,19,20,20,21,21,22,22,23,23],"right_children":[2,4,6,-1,8,10,12,14,16,18,20,22,24,26,28,30,32,34,36,38,40,42,44,46,-1,-1,-1,-1,-1,-1,-1,-1,-1,-1,-1,-1,-1,-1,-1,-1,-1,-1,-1,-1,-1,-1,-1],"split_conditions":[7E0,6E0,1.7E1,-2.4377708E-3,1.96E2,1.72E2,1.8E1,1.81E2,3.29E2,9E0,9E0,1.72E2,1.9E1,1.74E2,1.87E2,2.18E2,3.46E2,8E0,1.5E1,8E0,1.6E1,1.49E2,3.3E2,1.93E2,-2.4377003E-3,-2.416394E-3,1.4706077E-2,3.7031624E-2,6.1675865E-2,1.2016144E-1,1.839591E-1,5.7895634E-2,5.0207144E-3,3.7963934E-2,1.8188763E-1,4.450266E-1,2.545711E-1,2.9440558E-1,4.5348153E-1,7.112833E-1,4.6440676E-1,2.5672691E-2,1.2261246E-1,3.197459E-1,1.944472E-1,1.3550094E-3,1.4179048E-1],"split_indices":[1,1,1,0,0,0,1,0,0,1,1,0,1,0,0,0,0,1,1,1,1,0,0,0,0,0,0,0,0,0,0,0,0,0,0,0,0,0,0,0,0,0,0,0,0,0,0],"split_type":[0,0,0,0,0,0,0,0,0,0,0,0,0,0,0,0,0,0,0,0,0,0,0,0,0,0,0,0,0,0,0,0,0,0,0,0,0,0,0,0,0,0,0,0,0,0,0],"sum_hessian":[2.7072E4,7.896E3,1.9176E4,6.768E3,1.128E3,1.128E4,7.896E3,6.17E2,5.11E2,5.45E3,5.83E3,1.128E3,6.768E3,5.72E2,4.5E1,3.99E2,1.12E2,1.09E3,4.36E3,1.166E3,4.664E3,5.45E2,5.83E2,1.128E3,5.64E3,5.51E2,2.1E1,1.8E1,2.7E1,6.6E1,3.33E2,5.1E1,6.1E1,5.45E2,5.45E2,3.27E3,1.09E3,5.83E2,5.83E2,4.081E3,5.83E2,4.76E2,6.9E1,4.74E2,1.09E2,6.08E2,5.2E2],"tree_param":{"num_deleted":"0","num_feature":"5","num_nodes":"47","size_leaf_vector":"1"}},{"base_weights":[4.2468933E1,1.4549237E0,5.93561E1,-2.4255838E-3,1.3085286E1,9.640256E1,6.427074E0,4.574963E-1,2.8301865E1,6.70439E1,1.2268631E2,3.421259E1,1.7917845E0,-3.5085607E-1,1.0516809E1,3.532834E1,8.217277E0,2.1329515E1,7.846482E1,7.392659E1,1.3485815E2,7.591701E0,5.9042713E1,1.3166567E1,-2.425514E-3,-2.3566242E-3,1.5932832E-2,3.685621E-2,6.13785E-2,1.1956959E-1,1.8829404E-1,7.117565E-2,4.9960157E-3,3.53948E-2,1.7770065E-1,4.396914E-1,2.4994336E-1,2.8993073E-1,4.48715E-1,7.0486104E-1,4.5947465E-1,2.5544597E-2,1.2200816E-1,3.1815052E-1,1.934838E-1,1.3482455E-3,1.410829E-1],"categories":[],"categories_nodes":[],"categories_segments":[],"categories_sizes":[],"default_left":[0,0,0,0,0,0,0,0,0,0,0,0,0,0,0,0,0,0,0,0,0,0,0,0,0,0,0,0,0,0,0,0,0,0,0,0,0,0,0,0,0,0,0,0,0,0,0],"id":6,"left_children":[1,3,5,-1,7,9,11,13,15,17,19,21,23,25,27,29,31,33,35,37,39,41,43,45,-1,-1,-1,-1,-1,-1,-1,-1,-1,-1,-1,-1,-1,-1,-1,-1,-1,-1,-1,-1,-1,-1,-1],"loss_changes":[1.8750956E7,1.781893E5,3.760227E7,0E0,2.169264E5,8.696816E6,1.0170241E6,5.0289375E3,7.196506E4,2.781642E6,3.521928E6,7.4582075E5,1.7531739E5,2.4568524E2,1.6401807E2,9.1811875E3,5.806377E3,2.1582562E5,1.146164E6,2.95072E5,1.237664E6,2.2662855E4,5.2045375E4,2.1912992E5,0E0,0E0,0E0,0E0,0E0,0E0,0E0,0E0,0E0,0E0,0E0,0E0,0E0,0E0,0E0,0E0,0E0,0E0,0E0,0E0,0E0,0E0,0E0],"parents":[2147483647,0,0,1,1,2,2,4,4,5,5,6,6,7,7,8,8,9,9,10,10,11,11,12,12,13,13,14,14,15,15,16,16,17,17,18,18,19,19,20,20,21,21,22,22,23,23],"right_children":[2,4,6,-1,8,10,12,14,16,18,20,22,24,26,28,30,32,34,36,38,40,42,44,46,-1,-1,-1,-1,-1,-1,-1,-1,-1,-1,-1,-1,-1,-1,-1,-1,-1,-1,-1,-1,-1,-1,-1],"split_conditions":[7E0,6E0,1.7E1,-2.4255838E-3,1.96E2,1.68E2,1.8E1,1.81E2,3.22E2,9E0,9E0,1.72E2,1.9E1,1.75E2,1.87E2,2.18E2,3.46E2,8E0,1.5E1,8E0,1.6E1,1.49E2,3.3E2,1.93E2,-2.425514E-3,-2.3566242E-3,1.5932832E-2,3.685621E-2,6.13785E-2,1.1956959E-1,1.8829404E-1,7.117565E-2,4.9960157E-3,3.53948E-2,1.7770065E-1,4.396914E-1,2.4994336E-1,2.8993073E-1,4.48715E-1,7.0486104E-1,4.5947465E-1,2.5544597E-2,1.2200816E-1,3.1815052E-1,1.934838E-1,1.3482455E-3,1.410829E-1],"split_indices":[1,1,1,0,0,0,1,0,0,1,1,0,1,0,0,0,0,1,1,1,1,0,0,0,0,0,0,0,0,0,0,0,0,0,0,0,0,0,0,0,0,0,0,0,0,0,0],"split_type":[0,0,0,0,0,0,0,0,0,0,0,0,0,0,0,0,0,0,0,0,0,0,0,0,0,0,0,0,0,0,0,0,0,0,0,0,0,0,0,0,0,0,0,0,0,0,0],"sum_hessian":[2.7072E4,7.896E3,1.9176E4,6.768E3,1.128E3,1.128E4,7.896E3,6.17E2,5.11E2,5.33E3,5.95E3,1.128E3,6.768E3,5.72E2,4.5E1,3.78E2,1.33E2,1.066E3,4.264E3,1.19E3,4.76E3,5.45E2,5.83E2,1.128E3,5.64E3,5.54E2,1.8E1,1.8E1,2.7E1,6.6E1,3.12E2,7.2E1,6.1E1,5.33E2,5.33E2,3.198E3,1.066E3,5.95E2,5.95E2,4.165E3,5.95E2,4.76E2,6.9E1,4.74E2,1.09E2,6.08E2,5.2E2],"tree_param":{"num_deleted":"0","num_feature":"5","num_nodes":"47","size_leaf_vector":"1"}},{"base_weights":[4.225674E1,1.4477115E0,5.9059505E1,-2.4134575E-3,1.3020298E1,9.592079E1,6.3950396E0,4.553897E-1,2.8161104E1,6.732331E1,1.2263816E2,3.404211E1,1.7828462E0,-3.4907812E-1,1.0466361E1,3.5152508E1,8.176759E0,2.178325E1,7.8700714E1,7.411017E1,1.3475168E2,7.5540133E0,5.8748375E1,1.3100861E1,-2.4133883E-3,-2.392572E-3,1.4572315E-2,3.668163E-2,6.108257E-2,1.1898067E-1,1.8735558E-1,7.0824645E-2,4.971438E-3,3.7569843E-2,1.8006319E-1,4.405752E-1,2.520143E-1,2.9148892E-1,4.4897822E-1,7.042044E-1,4.597953E-1,2.5417142E-2,1.2140684E-1,3.1656313E-1,1.9252518E-1,1.3415155E-3,1.4037883E-1],"categories":[],"categories_nodes":[],"categories_segments":[],"categories_sizes":[],"default_left":[0,0,0,0,0,0,0,0,0,0,0,0,0,0,0,0,0,0,0,0,0,0,0,0,0,0,0,0,0,0,0,0,0,0,0,0,0,0,0,0,0,0,0,0,0,0,0],"id":7,"left_children":[1,3,5,-1,7,9,11,13,15,17,19,21,23,25,27,29,31,33,35,37,39,41,43,45,-1,-1,-1,-1,-1,-1,-1,-1,-1,-1,-1,-1,-1,-1,-1,-1,-1,-1,-1,-1,-1,-1,-1],"loss_changes":[1.8563992E7,1.7642333E5,3.722731E7,0E0,2.1477136E5,8.610992E6,1.0069145E6,4.980719E3,7.12485E4,2.8226E6,3.417736E6,7.383985E5,1.7357183E5,2.4344168E2,1.6236523E2,9.08775E3,5.7492373E3,2.212495E5,1.157354E6,2.842105E5,1.202624E6,2.2440754E4,5.1521375E4,2.169483E5,0E0,0E0,0E0,0E0,0E0,0E0,0E0,0E0,0E0,0E0,0E0,0E0,0E0,0E0,0E0,0E0,0E0,0E0,0E0,0E0,0E0,0E0,0E0],"parents":[2147483647,0,0,1,1,2,2,4,4,5,5,6,6,7,7,8,8,9,9,10,10,11,11,12,12,13,13,14,14,15,15,16,16,17,17,18,18,19,19,20,20,21,21,22,22,23,23],"right_children":[2,4,6,-1,8,10,12,14,16,18,20,22,24,26,28,30,32,34,36,38,40,42,44,46,-1,-1,-1,-1,-1,-1,-1,-1,-1,-1,-1,-1,-1,-1,-1,-1,-1,-1,-1,-1,-1,-1,-1],"split_conditions":[7E0,6E0,1.7E1,-2.4134575E-3,1.96E2,1.72E2,1.8E1,1.81E2,3.22E2,9E0,9E0,1.72E2,1.9E1,1.74E2,1.87E2,2.18E2,3.46E2,8E0,1.5E1,8E0,1.6E1,1.49E2,3.3E2,1.93E2,-2.4133883E-3,-2.392572E-3,1.4572315E-2,3.668163E-2,6.108257E-2,1.1898067E-1,1.8735558E-1,7.0824645E-2,4.971438E-3,3.7569843E-2,1.8006319E-1,4.405752E-1,2.520143E-1,2.9148892E-1,4.4897822E-1,7.042044E-1,4.597953E-1,2.5417142E-2,1.2140684E-1,3.1656313E-1,1.9252518E-1,1.3415155E-3,1.4037883E-1],"split_indices":[1,1,1,0,0,0,1,0,0,1,1,0,1,0,0,0,0,1,1,1,1,0,0,0,0,0,0,0,0,0,0,0,0,0,0,0,0,0,0,0,0,0,0,0,0,0,0],"split_type":[0,0,0,0,0,0,0,0,0,0,0,0,0,0,0,0,0,0,0,0,0,0,0,0,0,0,0,0,0,0,0,0,0,0,0,0,0,0,0,0,0,0,0,0,0,0,0],"sum_hessian":[2.7072E4,7.896E3,1.9176E4,6.768E3,1.128E3,1.128E4,7.896E3,6.17E2,5.11E2,5.45E3,5.83E3,1.128E3,6.768E3,5.72E2,4.5E1,3.78E2,1.33E2,1.09E3,4.36E3,1.166E3,4.664E3,5.45E2,5.83E2,1.128E3,5.64E3,5.51E2,2.1E1,1.8E1,2.7E1,6.6E1,3.12E2,7.2E1,6.1E1,5.45E2,5.45E2,3.27E3,1.09E3,5.83E2,5.83E2,4.081E3,5.83E2,4.76E2,6.9E1,4.74E2,1.09E2,6.08E2,5.2E2],"tree_param":{"num_deleted":"0","num_feature":"5","num_nodes":"47","size_leaf_vector":"1"}},{"base_weights":[4.204561E1,1.440535E0,5.8764397E1,-2.4013922E-3,1.2955632E1,9.544144E1,6.3631654E0,4.5329067E-1,2.8021046E1,6.6372406E1,1.21465904E2,3.3872482E1,1.7739526E0,-3.4731147E-1,1.0416154E1,3.4233784E1,5.781084E0,2.1114355E1,7.767931E1,7.3192924E1,1.3351625E2,7.516512E0,5.8455505E1,1.3035481E1,-2.4013238E-3,-2.3333796E-3,1.5788333E-2,3.6507875E-2,6.078807E-2,1.1535527E-1,1.8067908E-1,5.6915376E-2,4.946982E-3,3.503066E-2,1.7591518E-1,4.352914E-1,2.4743593E-1,2.8705406E-1,4.4426113E-1,6.978467E-1,4.549069E-1,2.5290322E-2,1.20808475E-1,3.1498364E-1,1.9157131E-1,1.3348188E-3,1.3967828E-1],"categories":[],"categories_nodes":[],"categories_segments":[],"categories_sizes":[],"default_left":[0,0,0,0,0,0,0,0,0,0,0,0,0,0,0,0,0,0,0,0,0,0,0,0,0,0,0,0,0,0,0,0,0,0,0,0,0,0,0,0,0,0,0,0,0,0,0],"id":8,"left_children":[1,3,5,-1,7,9,11,13,15,17,19,21,23,25,27,29,31,33,35,37,39,41,43,45,-1,-1,-1,-1,-1,-1,-1,-1,-1,-1,-1,-1,-1,-1,-1,-1,-1,-1,-1,-1,-1,-1,-1],"loss_changes":[1.8378896E7,1.7467488E5,3.68561E7,0E0,2.1263775E5,8.52608E6,9.969054E5,4.932965E3,7.054566E4,2.726386E6,3.451968E6,7.310505E5,1.7184364E5,2.4119954E2,1.6072998E2,7.6590938E3,3.0219956E3,2.1153606E5,1.123414E6,2.89239E5,1.213104E6,2.222082E4,5.100225E4,2.1478838E5,0E0,0E0,0E0,0E0,0E0,0E0,0E0,0E0,0E0,0E0,0E0,0E0,0E0,0E0,0E0,0E0,0E0,0E0,0E0,0E0,0E0,0E0,0E0],"parents":[2147483647,0,0,1,1,2,2,4,4,5,5,6,6,7,7,8,8,9,9,10,10,11,11,12,12,13,13,14,14,15,15,16,16,17,17,18,18,19,19,20,20,21,21,22,22,23,23],"right_children":[2,4,6,-1,8,10,12,14,16,18,20,22,24,26,28,30,32,34,36,38,40,42,44,46,-1,-1,-1,-1,-1,-1,-1,-1,-1,-1,-1,-1,-1,-1,-1,-1,-1,-1,-1,-1,-1,-1,-1],"split_conditions":[7E0,6E0,1.7E1,-2.4013922E-3,1.96E2,1.68E2,1.8E1,1.81E2,3.29E2,9E0,9E0,1.72E2,1.9E1,1.75E2,1.87E2,2.16E2,3.46E2,8E0,1.5E1,8E0,1.6E1,1.49E2,3.3E2,1.93E2,-2.4013238E-3,-2.3333796E-3,1.5788333E-2,3.6507875E-2,6.078807E-2,1.1535527E-1,1.8067908E-1,5.6915376E-2,4.946982E-3,3.503066E-2,1.7591518E-1,4.352914E-1,2.4743593E-1,2.8705406E-1,4.4426113E-1,6.978467E-1,4.549069E-1,2.5290322E-2,1.20808475E-1,3.1498364E-1,1.9157131E-1,1.3348188E-3,1.3967828E-1],"split_indices":[1,1,1,0,0,0,1,0,0,1,1,0,1,0,0,0,0,1,1,1,1,0,0,0,0,0,0,0,0,0,0,0,0,0,0,0,0,0,0,0,0,0,0,0,0,0,0],"split_type":[0,0,0,0,0,0,0,0,0,0,0,0,0,0,0,0,0,0,0,0,0,0,0,0,0,0,0,0,0,0,0,0,0,0,0,0,0,0,0,0,0,0,0,0,0,0,0],"sum_hessian":[2.7072E4,7.896E3,1.9176E4,6.768E3,1.128E3,1.128E4,7.896E3,6.17E2,5.11E2,5.33E3,5.95E3,1.128E3,6.768E3,5.72E2,4.5E1,3.99E2,1.12E2,1.066E3,4.264E3,1.19E3,4.76E3,5.45E2,5.83E2,1.128E3,5.64E3,5.54E2,1.8E1,1.8E1,2.7E1,6E1,3.39E2,5.1E1,6.1E1,5.33E2,5.33E2,3.198E3,1.066E3,5.95E2,5.95E2,4.165E3,5.95E2,4.76E2,6.9E1,4.74E2,1.09E2,6.08E2,5.2E2],"tree_param":{"num_deleted":"0","num_feature":"5","num_nodes":"47","size_leaf_vector":"1"}},{"base_weights":[4.183553E1,1.4333913E0,5.847076E1,-2.389387E-3,1.289127E1,9.496448E1,6.3314495E0,4.512034E-1,2.788164E1,6.66491E1,1.2141829E2,3.3703697E1,1.7651032E0,-3.4555143E-1,1.0366189E1,3.4807693E1,8.084211E0,2.1563435E1,7.7912994E1,7.337491E1,1.3341083E2,7.479197E0,5.8164093E1,1.2970428E1,-2.3893192E-3,-2.368985E-3,1.4439768E-2,3.6334943E-2,6.0494978E-2,1.17797226E-1,1.8552127E-1,7.0016675E-2,4.922646E-3,3.717981E-2,1.7825708E-1,4.361683E-1,2.4948315E-1,2.8860116E-1,4.4451967E-1,6.971958E-1,4.552296E-1,2.5164137E-2,1.20213054E-1,3.1341204E-1,1.9062215E-1,1.3281555E-3,1.3898124E-1],"categories":[],"categories_nodes":[],"categories_segments":[],"categories_sizes":[],"default_left":[0,0,0,0,0,0,0,0,0,0,0,0,0,0,0,0,0,0,0,0,0,0,0,0,0,0,0,0,0,0,0,0,0,0,0,0,0,0,0,0,0,0,0,0,0,0,0],"id":9,"left_children":[1,3,5,-1,7,9,11,13,15,17,19,21,23,25,27,29,31,33,35,37,39,41,43,45,-1,-1,-1,-1,-1,-1,-1,-1,-1,-1,-1,-1,-1,-1,-1,-1,-1,-1,-1,-1,-1,-1,-1],"loss_changes":[1.8195644E7,1.7294322E5,3.6488576E7,0E0,2.105247E5,8.441936E6,9.869956E5,4.885666E3,6.992303E4,2.766554E6,3.349816E6,7.237751E5,1.7013266E5,2.389815E2,1.5911133E2,8.9163125E3,5.617416E3,2.1687397E5,1.134442E6,2.785685E5,1.178688E6,2.2003047E4,5.0489E4,2.1264997E5,0E0,0E0,0E0,0E0,0E0,0E0,0E0,0E0,0E0,0E0,0E0,0E0,0E0,0E0,0E0,0E0,0E0,0E0,0E0,0E0,0E0,0E0,0E0],"parents":[2147483647,0,0,1,1,2,2,4,4,5,5,6,6,7,7,8,8,9,9,10,10,11,11,12,12,13,13,14,14,15,15,16,16,17,17,18,18,19,19,20,20,21,21,22,22,23,23],"right_children":[2,4,6,-1,8,10,12,14,16,18,20,22,24,26,28,30,32,34,36,38,40,42,44,46,-1,-1,-1,-1,-1,-1,-1,-1,-1,-1,-1,-1,-1,-1,-1,-1,-1,-1,-1,-1,-1,-1,-1],"split_conditions":[7E0,6E0,1.7E1,-2.389387E-3,1.96E2,1.72E2,1.8E1,1.81E2,3.22E2,9E0,9E0,1.72E2,1.9E1,1.74E2,1.87E2,2.18E2,3.46E2,8E0,1.5E1,8E0,1.6E1,1.49E2,3.3E2,1.93E2,-2.3893192E-3,-2.368985E-3,1.4439768E-2,3.6334943E-2,6.0494978E-2,1.17797226E-1,1.8552127E-1,7.0016675E-2,4.922646E-3,3.717981E-2,1.7825708E-1,4.361683E-1,2.4948315E-1,2.8860116E-1,4.4451967E-1,6.971958E-1,4.552296E-1,2.5164137E-2,1.20213054E-1,3.1341204E-1,1.9062215E-1,1.3281555E-3,1.3898124E-1],"split_indices":[1,1,1,0,0,0,1,0,0,1,1,0,1,0,0,0,0,1,1,1,1,0,0,0,0,0,0,0,0,0,0,0,0,0,0,0,0,0,0,0,0,0,0,0,0,0,0],"split_type":[0,0,0,0,0,0,0,0,0,0,0,0,0,0,0,0,0,0,0,0,0,0,0,0,0,0,0,0,0,0,0,0,0,0,0,0,0,0,0,0,0,0,0,0,0,0,0],"sum_hessian":[2.7072E4,7.896E3,1.9176E4,6.768E3,1.128E3,1.128E4,7.896E3,6.17E2,5.11E2,5.45E3,5.83E3,1.128E3,6.768E3,5.72E2,4.5E1,3.78E2,1.33E2,1.09E3,4.36E3,1.166E3,4.664E3,5.45E2,5.83E2,1.128E3,5.64E3,5.51E2,2.1E1,1.8E1,2.7E1,6.6E1,3.12E2,7.2E1,6.1E1,5.45E2,5.45E2,3.27E3,1.09E3,5.83E2,5.83E2,4.081E3,5.83E2,4.76E2,6.9E1,4.74E2,1.09E2,6.08E2,5.2E2],"tree_param":{"num_deleted":"0","num_feature":"5","num_nodes":"47","size_leaf_vector":"1"}},{"base_weights":[4.16265E1,1.4262857E0,5.817859E1,-2.3774419E-3,1.2827245E1,9.44899E1,6.299892E0,4.4912362E-1,2.7742971E1,6.5707634E1,1.2025764E2,3.3535755E1,1.7562982E0,-3.4380263E-1,1.03164625E1,3.4634453E1,8.04435E0,2.0901363E1,7.690167E1,7.246654E1,1.3218768E2,7.442067E0,5.7874138E1,1.2905701E1,-2.3773748E-3,-2.3103645E-3,1.5645146E-2,3.616283E-2,6.0203306E-2,1.17217034E-1,1.8459664E-1,6.967139E-2,4.89843E-3,3.4670282E-2,1.7414764E-1,4.3093547E-1,2.4495366E-1,2.842059E-1,4.398515E-1,6.909022E-1,4.503846E-1,2.5038578E-2,1.1962058E-1,3.1184828E-1,1.8967772E-1,1.3215255E-3,1.3828766E-1],"categories":[],"categories_nodes":[],"categories_segments":[],"categories_sizes":[],"default_left":[0,0,0,0,0,0,0,0,0,0,0,0,0,0,0,0,0,0,0,0,0,0,0,0,0,0,0,0,0,0,0,0,0,0,0,0,0,0,0,0,0,0,0,0,0,0,0],"id":10,"left_children":[1,3,5,-1,7,9,11,13,15,17,19,21,23,25,27,29,31,33,35,37,39,41,43,45,-1,-1,-1,-1,-1,-1,-1,-1,-1,-1,-1,-1,-1,-1,-1,-1,-1,-1,-1,-1,-1,-1,-1],"loss_changes":[1.8014224E7,1.7122923E5,3.612473E7,0E0,2.084333E5,8.358696E6,9.7718456E5,4.838823E3,6.922678E4,2.672226E6,3.383376E6,7.165726E5,1.6843873E5,2.3679578E2,1.575083E2,8.8255625E3,5.5621377E3,2.0733153E5,1.101114E6,2.83522E5,1.189048E6,2.1787406E4,4.9980375E4,2.1053283E5,0E0,0E0,0E0,0E0,0E0,0E0,0E0,0E0,0E0,0E0,0E0,0E0,0E0,0E0,0E0,0E0,0E0,0E0,0E0,0E0,0E0,0E0,0E0],"parents":[2147483647,0,0,1,1,2,2,4,4,5,5,6,6,7,7,8,8,9,9,10,10,11,11,12,12,13,13,14,14,15,15,16,16,17,17,18,18,19,19,20,20,21,21,22,22,23,23],"right_children":[2,4,6,-1,8,10,12,14,16,18,20,22,24,26,28,30,32,34,36,38,40,42,44,46,-1,-1,-1,-1,-1,-1,-1,-1,-1,-1,-1,-1,-1,-1,-1,-1,-1,-1,-1,-1,-1,-1,-1],"split_conditions":[7E0,6E0,1.7E1,-2.3774419E-3,1.96E2,1.68E2,1.8E1,1.81E2,3.22E2,9E0,9E0,1.72E2,1.9E1,1.75E2,1.87E2,2.18E2,3.46E2,8E0,1.5E1,8E0,1.6E1,1.49E2,3.3E2,1.93E2,-2.3773748E-3,-2.3103645E-3,1.5645146E-2,3.616283E-2,6.0203306E-2,1.17217034E-1,1.8459664E-1,6.967139E-2,4.89843E-3,3.4670282E-2,1.7414764E-1,4.3093547E-1,2.4495366E-1,2.842059E-1,4.398515E-1,6.909022E-1,4.503846E-1,2.5038578E-2,1.1962058E-1,3.1184828E-1,1.8967772E-1,1.3215255E-3,1.3828766E-1],"split_indices":[1,1,1,0,0,0,1,0,0,1,1,0,1,0,0,0,0,1,1,1,1,0,0,0,0,0,0,0,0,0,0,0,0,0,0,0,0,0,0,0,0,0,0,0,0,0,0],"split_type":[0,0,0,0,0,0,0,0,0,0,0,0,0,0,0,0,0,0,0,0,0,0,0,0,0,0,0,0,0,0,0,0,0,0,0,0,0,0,0,0,0,0,0,0,0,0,0],"sum_hessian":[2.7072E4,7.896E3,1.9176E4,6.768E3,1.128E3,1.128E4,7.896E3,6.17E2,5.11E2,5.33E3,5.95E3,1.128E3,6.768E3,5.72E2,4.5E1,3.78E2,1.33E2,1.066E3,4.264E3,1.19E3,4.76E3,5.45E2,5.83E2,1.128E3,5.64E3,5.54E2,1.8E1,1.8E1,2.7E1,6.6E1,3.12E2,7.2E1,6.1E1,5.33E2,5.33E2,3.198E3,1.066E3,5.95E2,5.95E2,4.165E3,5.95E2,4.76E2,6.9E1,4.74E2,1.09E2,6.08E2,5.2E2],"tree_param":{"num_deleted":"0","num_feature":"5","num_nodes":"47","size_leaf_vector":"1"}},{"base_weights":[4.1418514E1,1.4192156E0,5.7887882E1,-2.365556E-3,1.2763539E1,9.40177E1,6.2684917E0,4.470555E-1,2.760499E1,6.598165E1,1.2021054E2,3.3368645E1,1.7475369E0,-3.4206033E-1,1.0266975E1,3.446208E1,8.004684E0,2.1345835E1,7.713315E1,7.264694E1,1.3208333E2,7.405122E0,5.7585625E1,1.2841296E1,-2.36549E-3,-2.3456307E-3,1.4308424E-2,3.599153E-2,5.9913043E-2,1.16639696E-1,1.836766E-1,6.932781E-2,4.874333E-3,3.6793794E-2,1.7646907E-1,4.3180552E-1,2.4697742E-1,2.85742E-1,4.4010538E-1,6.90257E-1,4.5070928E-1,2.4913648E-2,1.1903103E-1,3.102923E-1,1.8873794E-1,1.3149286E-3,1.3759755E-1],"categories":[],"categories_nodes":[],"categories_segments":[],"categories_sizes":[],"default_left":[0,0,0,0,0,0,0,0,0,0,0,0,0,0,0,0,0,0,0,0,0,0,0,0,0,0,0,0,0,0,0,0,0,0,0,0,0,0,0,0,0,0,0,0,0,0,0],"id":11,"left_children":[1,3,5,-1,7,9,11,13,15,17,19,21,23,25,27,29,31,33,35,37,39,41,43,45,-1,-1,-1,-1,-1,-1,-1,-1,-1,-1,-1,-1,-1,-1,-1,-1,-1,-1,-1,-1,-1,-1,-1],"loss_changes":[1.7834612E7,1.6953227E5,3.5764496E7,0E0,2.0636264E5,8.2762E6,9.674709E5,4.7924272E3,6.853744E4,2.711624E6,3.28324E6,7.094415E5,1.6676167E5,2.3460304E2,1.5592236E2,8.73575E3,5.5074033E3,2.1258503E5,1.111984E6,2.73038E5,1.155256E6,2.1573879E4,4.9477125E4,2.0843681E5,0E0,0E0,0E0,0E0,0E0,0E0,0E0,0E0,0E0,0E0,0E0,0E0,0E0,0E0,0E0,0E0,0E0,0E0,0E0,0E0,0E0,0E0,0E0],"parents":[2147483647,0,0,1,1,2,2,4,4,5,5,6,6,7,7,8,8,9,9,10,10,11,11,12,12,13,13,14,14,15,15,16,16,17,17,18,18,19,19,20,20,21,21,22,22,23,23],"right_children":[2,4,6,-1,8,10,12,14,16,18,20,22,24,26,28,30,32,34,36,38,40,42,44,46,-1,-1,-1,-1,-1,-1,-1,-1,-1,-1,-1,-1,-1,-1,-1,-1,-1,-1,-1,-1,-1,-1,-1],"split_conditions":[7E0,6E0,1.7E1,-2.365556E-3,1.96E2,1.72E2,1.8E1,1.81E2,3.22E2,9E0,9E0,1.72E2,1.9E1,1.74E2,1.87E2,2.18E2,3.46E2,8E0,1.5E1,8E0,1.6E1,1.49E2,3.3E2,1.93E2,-2.36549E-3,-2.3456307E-3,1.4308424E-2,3.599153E-2,5.9913043E-2,1.16639696E-1,1.836766E-1,6.932781E-2,4.874333E-3,3.6793794E-2,1.7646907E-1,4.3180552E-1,2.4697742E-1,2.85742E-1,4.4010538E-1,6.90257E-1,4.5070928E-1,2.4913648E-2,1.1903103E-1,3.102923E-1,1.8873794E-1,1.3149286E-3,1.3759755E-1],"split_indices":[1,1,1,0,0,0,1,0,0,1,1,0,1,0,0,0,0,1,1,1,1,0,0,0,0,0,0,0,0,0,0,0,0,0,0,0,0,0,0,0,0,0,0,0,0,0,0],"split_type":[0,0,0,0,0,0,0,0,0,0,0,0,0,0,0,0,0,0,0,0,0,0,0,0,0,0,0,0,0,0,0,0,0,0,0,0,0,0,0,0,0,0,0,0,0,0,0],"sum_hessian":[2.7072E4,7.896E3,1.9176E4,6.768E3,1.128E3,1.128E4,7.896E3,6.17E2,5.11E2,5.45E3,5.83E3,1.128E3,6.768E3,5.72E2,4.5E1,3.78E2,1.33E2,1.09E3,4.36E3,1.166E3,4.664E3,5.45E2,5.83E2,1.128E3,5.64E3,5.51E2,2.1E1,1.8E1,2.7E1,6.6E1,3.12E2,7.2E1,6.1E1,5.45E2,5.45E2,3.27E3,1.09E3,5.83E2,5.83E2,4.081E3,5.83E2,4.76E2,6.9E1,4.74E2,1.09E2,6.08E2,5.2E2],"tree_param":{"num_deleted":"0","num_feature":"5","num_nodes":"47","size_leaf_vector":"1"}},{"base_weights":[4.121157E1,1.4121803E0,5.759863E1,-2.3537301E-3,1.2700149E1,9.354785E1,6.237248E0,4.4499478E-1,2.7467697E1,6.4589455E1,1.1865585E2,3.3202374E1,1.7388195E0,-3.4032917E-1,1.0217726E1,3.3562397E1,5.650459E0,2.0106646E1,7.5702705E1,7.149381E1,1.3042914E2,7.3683596E0,5.7298553E1,1.2777213E1,-2.3536645E-3,-2.2875767E-3,1.5503262E-2,3.5821047E-2,5.9624176E-2,1.1305851E-1,1.7714186E-1,5.561129E-2,4.850354E-3,3.18624E-2,1.6901256E-1,4.2429215E-1,2.4090414E-1,2.7983767E-1,4.3450958E-1,6.9760525E-1,5.153026E-1,2.4789343E-2,1.1844436E-1,3.0874413E-1,1.8780285E-1,1.6409288E-3,1.3730331E-1],"categories":[],"categories_nodes":[],"categories_segments":[],"categories_sizes":[],"default_left":[0,0,0,0,0,0,0,0,0,0,0,0,0,0,0,0,0,0,0,0,0,0,0,0,0,0,0,0,0,0,0,0,0,0,0,0,0,0,0,0,0,0,0,0,0,0,0],"id":12,"left_children":[1,3,5,-1,7,9,11,13,15,17,19,21,23,25,27,29,31,33,35,37,39,41,43,45,-1,-1,-1,-1,-1,-1,-1,-1,-1,-1,-1,-1,-1,-1,-1,-1,-1,-1,-1,-1,-1,-1,-1],"loss_changes":[1.7656788E7,1.6785206E5,3.5407868E7,0E0,2.0431261E5,8.194608E6,9.578538E5,4.746479E3,6.789078E4,2.589358E6,3.344944E6,7.023815E5,1.651013E5,2.324725E2,1.5435156E2,7.372375E3,2.8831565E3,1.9710284E5,1.052474E6,2.843665E5,1.18824E6,2.1362445E4,4.8979E4,2.0636616E5,0E0,0E0,0E0,0E0,0E0,0E0,0E0,0E0,0E0,0E0,0E0,0E0,0E0,0E0,0E0,0E0,0E0,0E0,0E0,0E0,0E0,0E0,0E0],"parents":[2147483647,0,0,1,1,2,2,4,4,5,5,6,6,7,7,8,8,9,9,10,10,11,11,12,12,13,13,14,14,15,15,16,16,17,17,18,18,19,19,20,20,21,21,22,22,23,23],"right_children":[2,4,6,-1,8,10,12,14,16,18,20,22,24,26,28,30,32,34,36,38,40,42,44,46,-1,-1,-1,-1,-1,-1,-1,-1,-1,-1,-1,-1,-1,-1,-1,-1,-1,-1,-1,-1,-1,-1,-1],"split_conditions":[7E0,6E0,1.7E1,-2.3537301E-3,1.96E2,1.65E2,1.8E1,1.81E2,3.29E2,9E0,9E0,1.72E2,1.9E1,1.75E2,1.87E2,2.16E2,3.46E2,8E0,1.5E1,8E0,1.5E1,1.49E2,3.3E2,1.94E2,-2.3536645E-3,-2.2875767E-3,1.5503262E-2,3.5821047E-2,5.9624176E-2,1.1305851E-1,1.7714186E-1,5.561129E-2,4.850354E-3,3.18624E-2,1.6901256E-1,4.2429215E-1,2.4090414E-1,2.7983767E-1,4.3450958E-1,6.9760525E-1,5.153026E-1,2.4789343E-2,1.1844436E-1,3.0874413E-1,1.8780285E-1,1.6409288E-3,1.3730331E-1],"split_indices":[1,1,1,0,0,0,1,0,0,1,1,0,1,0,0,0,0,1,1,1,1,0,0,0,0,0,0,0,0,0,0,0,0,0,0,0,0,0,0,0,0,0,0,0,0,0,0],"split_type":[0,0,0,0,0,0,0,0,0,0,0,0,0,0,0,0,0,0,0,0,0,0,0,0,0,0,0,0,0,0,0,0,0,0,0,0,0,0,0,0,0,0,0,0,0,0,0],"sum_hessian":[2.7072E4,7.896E3,1.9176E4,6.768E3,1.128E3,1.128E4,7.896E3,6.17E2,5.11E2,5.24E3,6.04E3,1.128E3,6.768E3,5.72E2,4.5E1,3.99E2,1.12E2,1.048E3,4.192E3,1.208E3,4.832E3,5.45E2,5.83E2,1.128E3,5.64E3,5.54E2,1.8E1,1.8E1,2.7E1,6E1,3.39E2,5.1E1,6.1E1,5.24E2,5.24E2,3.144E3,1.048E3,6.04E2,6.04E2,3.624E3,1.208E3,4.76E2,6.9E1,4.74E2,1.09E2,6.11E2,5.17E2],"tree_param":{"num_deleted":"0","num_feature":"5","num_nodes":"47","size_leaf_vector":"1"}},{"base_weights":[4.100566E1,1.4051774E0,5.731082E1,-2.3419634E-3,1.2637055E1,9.308036E1,6.20616E0,4.429456E-1,2.7331045E1,6.575554E1,1.1943705E2,3.3036926E1,1.7301455E0,-3.3860445E-1,1.0168712E1,3.412403E1,7.91408E0,2.1583443E1,7.679121E1,7.2284706E1,1.3120683E2,7.3317804E0,5.701291E1,1.27134495E1,-2.3418984E-3,-2.3225066E-3,1.417827E-2,3.5651367E-2,5.9336703E-2,1.1547965E-1,1.8187828E-1,6.853686E-2,4.8264936E-3,3.85896E-2,1.7705038E-1,4.138022E-1,1.7466351E-1,2.8466734E-1,4.375511E-1,6.8563527E-1,4.4799402E-1,2.4665654E-2,1.1786061E-1,3.0720365E-1,1.8687235E-1,1.3001737E-3,1.3622959E-1],"categories":[],"categories_nodes":[],"categories_segments":[],"categories_sizes":[],"default_left":[0,0,0,0,0,0,0,0,0,0,0,0,0,0,0,0,0,0,0,0,0,0,0,0,0,0,0,0,0,0,0,0,0,0,0,0,0,0,0,0,0,0,0,0,0,0,0],"id":13,"left_children":[1,3,5,-1,7,9,11,13,15,17,19,21,23,25,27,29,31,33,35,37,39,41,43,45,-1,-1,-1,-1,-1,-1,-1,-1,-1,-1,-1,-1,-1,-1,-1,-1,-1,-1,-1,-1,-1,-1,-1],"loss_changes":[1.748074E7,1.661881E5,3.505479E7,0E0,2.0228225E5,8.11664E6,9.483324E5,4.7009683E3,6.726234E4,2.699404E6,3.176608E6,6.9539175E5,1.6345747E5,2.3030472E2,1.5279688E2,8.570844E3,5.381115E3,2.12337E5,1.104756E6,2.635735E5,1.119112E6,2.1153082E4,4.84855E4,2.0431805E5,0E0,0E0,0E0,0E0,0E0,0E0,0E0,0E0,0E0,0E0,0E0,0E0,0E0,0E0,0E0,0E0,0E0,0E0,0E0,0E0,0E0,0E0,0E0],"parents":[2147483647,0,0,1,1,2,2,4,4,5,5,6,6,7,7,8,8,9,9,10,10,11,11,12,12,13,13,14,14,15,15,16,16,17,17,18,18,19,19,20,20,21,21,22,22,23,23],"right_children":[2,4,6,-1,8,10,12,14,16,18,20,22,24,26,28,30,32,34,36,38,40,42,44,46,-1,-1,-1,-1,-1,-1,-1,-1,-1,-1,-1,-1,-1,-1,-1,-1,-1,-1,-1,-1,-1,-1,-1],"split_conditions":[7E0,6E0,1.7E1,-2.3419634E-3,1.96E2,1.75E2,1.8E1,1.81E2,3.22E2,9E0,9E0,1.72E2,1.9E1,1.74E2,1.87E2,2.18E2,3.46E2,8E0,1.6E1,8E0,1.6E1,1.49E2,3.3E2,1.93E2,-2.3418984E-3,-2.3225066E-3,1.417827E-2,3.5651367E-2,5.9336703E-2,1.1547965E-1,1.8187828E-1,6.853686E-2,4.8264936E-3,3.85896E-2,1.7705038E-1,4.138022E-1,1.7466351E-1,2.8466734E-1,4.375511E-1,6.8563527E-1,4.4799402E-1,2.4665654E-2,1.1786061E-1,3.0720365E-1,1.8687235E-1,1.3001737E-3,1.3622959E-1],"split_indices":[1,1,1,0,0,0,1,0,0,1,1,0,1,0,0,0,0,1,1,1,1,0,0,0,0,0,0,0,0,0,0,0,0,0,0,0,0,0,0,0,0,0,0,0,0,0,0],"split_type":[0,0,0,0,0,0,0,0,0,0,0,0,0,0,0,0,0,0,0,0,0,0,0,0,0,0,0,0,0,0,0,0,0,0,0,0,0,0,0,0,0,0,0,0,0,0,0],"sum_hessian":[2.7072E4,7.896E3,1.9176E4,6.768E3,1.128E3,1.128E4,7.896E3,6.17E2,5.11E2,5.54E3,5.74E3,1.128E3,6.768E3,5.72E2,4.5E1,3.78E2,1.33E2,1.108E3,4.432E3,1.148E3,4.592E3,5.45E2,5.83E2,1.128E3,5.64E3,5.51E2,2.1E1,1.8E1,2.7E1,6.6E1,3.12E2,7.2E1,6.1E1,5.54E2,5.54E2,3.878E3,5.54E2,5.74E2,5.74E2,4.018E3,5.74E2,4.76E2,6.9E1,4.74E2,1.09E2,6.08E2,5.2E2],"tree_param":{"num_deleted":"0","num_feature":"5","num_nodes":"47","size_leaf_vector":"1"}},{"base_weights":[4.0800777E1,1.3982116E0,5.7024445E1,-2.3302552E-3,1.2574292E1,9.26152E1,6.175227E0,5.05574E-1,2.72739E1,6.439354E1,1.1788104E2,3.2872307E1,1.7215148E0,-3.3689076E-1,1.0346936E1,3.411478E1,7.875057E0,2.0478127E1,7.536502E1,7.103861E1,1.2957426E2,7.6980243E0,5.7113792E1,1.2650004E1,-2.330191E-3,-2.2650138E-3,1.5362665E-2,3.5482492E-2,6.0026836E-2,1.1705646E-1,1.8097179E-1,6.8198875E-2,4.8027504E-3,3.3941135E-2,1.7064838E-1,4.2241088E-1,2.3979999E-1,2.7861157E-1,4.3117854E-1,6.772904E-1,4.411469E-1,2.5133789E-2,1.263342E-1,3.084722E-1,1.859465E-1,1.6229404E-3,1.3593829E-1],"categories":[],"categories_nodes":[],"categories_segments":[],"categories_sizes":[],"default_left":[0,0,0,0,0,0,0,0,0,0,0,0,0,0,0,0,0,0,0,0,0,0,0,0,0,0,0,0,0,0,0,0,0,0,0,0,0,0,0,0,0,0,0,0,0,0,0],"id":14,"left_children":[1,3,5,-1,7,9,11,13,15,17,19,21,23,25,27,29,31,33,35,37,39,41,43,45,-1,-1,-1,-1,-1,-1,-1,-1,-1,-1,-1,-1,-1,-1,-1,-1,-1,-1,-1,-1,-1,-1,-1],"loss_changes":[1.7306448E7,1.6454105E5,3.470523E7,0E0,2.0027692E5,8.036256E6,9.3890556E5,5.1521973E3,6.727828E4,2.567022E6,3.250392E6,6.8854625E5,1.6183E5,2.2822824E2,1.7894482E2,7.5219062E3,5.328163E3,1.9917819E5,1.061584E6,2.72416E5,1.146232E6,2.5919691E4,5.0184125E4,2.0228834E5,0E0,0E0,0E0,0E0,0E0,0E0,0E0,0E0,0E0,0E0,0E0,0E0,0E0,0E0,0E0,0E0,0E0,0E0,0E0,0E0,0E0,0E0,0E0],"parents":[2147483647,0,0,1,1,2,2,4,4,5,5,6,6,7,7,8,8,9,9,10,10,11,11,12,12,13,13,14,14,15,15,16,16,17,17,18,18,19,19,20,20,21,21,22,22,23,23],"right_children":[2,4,6,-1,8,10,12,14,16,18,20,22,24,26,28,30,32,34,36,38,40,42,44,46,-1,-1,-1,-1,-1,-1,-1,-1,-1,-1,-1,-1,-1,-1,-1,-1,-1,-1,-1,-1,-1,-1,-1],"split_conditions":[7E0,6E0,1.7E1,-2.3302552E-3,1.97E2,1.68E2,1.8E1,1.81E2,3.22E2,9E0,9E0,1.75E2,1.9E1,1.75E2,1.87E2,2.18E2,3.46E2,8E0,1.5E1,8E0,1.6E1,1.51E2,3.3E2,1.94E2,-2.330191E-3,-2.2650138E-3,1.5362665E-2,3.5482492E-2,6.0026836E-2,1.1705646E-1,1.8097179E-1,6.8198875E-2,4.8027504E-3,3.3941135E-2,1.7064838E-1,4.2241088E-1,2.3979999E-1,2.7861157E-1,4.3117854E-1,6.772904E-1,4.411469E-1,2.5133789E-2,1.263342E-1,3.084722E-1,1.859465E-1,1.6229404E-3,1.3593829E-1],"split_indices":[1,1,1,0,0,0,1,0,0,1,1,0,1,0,0,0,0,1,1,1,1,0,0,0,0,0,0,0,0,0,0,0,0,0,0,0,0,0,0,0,0,0,0,0,0,0,0],"split_type":[0,0,0,0,0,0,0,0,0,0,0,0,0,0,0,0,0,0,0,0,0,0,0,0,0,0,0,0,0,0,0,0,0,0,0,0,0,0,0,0,0,0,0,0,0,0,0],"sum_hessian":[2.7072E4,7.896E3,1.9176E4,6.768E3,1.128E3,1.128E4,7.896E3,6.2E2,5.08E2,5.33E3,5.95E3,1.128E3,6.768E3,5.72E2,4.8E1,3.75E2,1.33E2,1.066E3,4.264E3,1.19E3,4.76E3,5.54E2,5.74E2,1.128E3,5.64E3,5.54E2,1.8E1,1.8E1,3E1,6.3E1,3.12E2,7.2E1,6.1E1,5.33E2,5.33E2,3.198E3,1.066E3,5.95E2,5.95E2,4.165E3,5.95E2,4.82E2,7.2E1,4.65E2,1.09E2,6.11E2,5.17E2],"tree_param":{"num_deleted":"0","num_feature":"5","num_nodes":"47","size_leaf_vector":"1"}},{"base_weights":[4.059692E1,1.391281E0,5.6739506E1,-2.3186058E-3,1.2511847E1,9.215236E1,6.1444497E0,5.0322104E-1,2.713826E1,6.509497E1,1.1825109E2,3.270852E1,1.7129271E0,-3.3518344E-1,1.0297151E1,3.3945E1,7.836227E0,2.136395E1,7.602044E1,7.156932E1,1.2990341E2,7.6598067E0,5.6829082E1,1.2586876E1,-2.318542E-3,-2.2996108E-3,1.4049298E-2,3.5314415E-2,5.9736382E-2,1.1648033E-1,1.8006982E-1,6.7862555E-2,4.7791237E-3,3.8181312E-2,1.7526573E-1,4.253397E-1,2.4412858E-1,2.8185585E-1,4.3321502E-1,6.943759E-1,5.144533E-1,2.500838E-2,1.2571119E-1,3.0693313E-1,1.8502522E-1,6.2361755E-4,1.3411172E-1],"categories":[],"categories_nodes":[],"categories_segments":[],"categories_sizes":[],"default_left":[0,0,0,0,0,0,0,0,0,0,0,0,0,0,0,0,0,0,0,0,0,0,0,0,0,0,0,0,0,0,0,0,0,0,0,0,0,0,0,0,0,0,0,0,0,0,0],"id":15,"left_children":[1,3,5,-1,7,9,11,13,15,17,19,21,23,25,27,29,31,33,35,37,39,41,43,45,-1,-1,-1,-1,-1,-1,-1,-1,-1,-1,-1,-1,-1,-1,-1,-1,-1,-1,-1,-1,-1,-1,-1],"loss_changes":[1.7133888E7,1.6291044E5,3.4359156E7,0E0,1.9828739E5,7.958536E6,9.29573E5,5.102653E3,6.660847E4,2.645764E6,3.11352E6,6.8169425E5,1.6021875E5,2.2608514E2,1.7712842E2,7.445125E3,5.2757305E3,2.0813672E5,1.086562E6,2.583425E5,1.09884E6,2.5665428E4,4.9679E4,2.002864E5,0E0,0E0,0E0,0E0,0E0,0E0,0E0,0E0,0E0,0E0,0E0,0E0,0E0,0E0,0E0,0E0,0E0,0E0,0E0,0E0,0E0,0E0,0E0],"parents":[2147483647,0,0,1,1,2,2,4,4,5,5,6,6,7,7,8,8,9,9,10,10,11,11,12,12,13,13,14,14,15,15,16,16,17,17,18,18,19,19,20,20,21,21,22,22,23,23],"right_children":[2,4,6,-1,8,10,12,14,16,18,20,22,24,26,28,30,32,34,36,38,40,42,44,46,-1,-1,-1,-1,-1,-1,-1,-1,-1,-1,-1,-1,-1,-1,-1,-1,-1,-1,-1,-1,-1,-1,-1],"split_conditions":[7E0,6E0,1.7E1,-2.3186058E-3,1.97E2,1.75E2,1.8E1,1.81E2,3.22E2,9E0,9E0,1.75E2,1.9E1,1.74E2,1.87E2,2.18E2,3.46E2,8E0,1.5E1,8E0,1.5E1,1.51E2,3.3E2,1.91E2,-2.318542E-3,-2.2996108E-3,1.4049298E-2,3.5314415E-2,5.9736382E-2,1.1648033E-1,1.8006982E-1,6.7862555E-2,4.7791237E-3,3.8181312E-2,1.7526573E-1,4.253397E-1,2.4412858E-1,2.8185585E-1,4.3321502E-1,6.943759E-1,5.144533E-1,2.500838E-2,1.2571119E-1,3.0693313E-1,1.8502522E-1,6.2361755E-4,1.3411172E-1],"split_indices":[1,1,1,0,0,0,1,0,0,1,1,0,1,0,0,0,0,1,1,1,1,0,0,0,0,0,0,0,0,0,0,0,0,0,0,0,0,0,0,0,0,0,0,0,0,0,0],"split_type":[0,0,0,0,0,0,0,0,0,0,0,0,0,0,0,0,0,0,0,0,0,0,0,0,0,0,0,0,0,0,0,0,0,0,0,0,0,0,0,0,0,0,0,0,0,0,0],"sum_hessian":[2.7072E4,7.896E3,1.9176E4,6.768E3,1.128E3,1.128E4,7.896E3,6.2E2,5.08E2,5.54E3,5.74E3,1.128E3,6.768E3,5.72E2,4.8E1,3.75E2,1.33E2,1.108E3,4.432E3,1.148E3,4.592E3,5.54E2,5.74E2,1.128E3,5.64E3,5.51E2,2.1E1,1.8E1,3E1,6.3E1,3.12E2,7.2E1,6.1E1,5.54E2,5.54E2,3.324E3,1.108E3,5.74E2,5.74E2,3.444E3,1.148E3,4.82E2,7.2E1,4.65E2,1.09E2,6.02E2,5.26E2],"tree_param":{"num_deleted":"0","num_feature":"5","num_nodes":"47","size_leaf_vector":"1"}},{"base_weights":[4.0394085E1,1.3843845E0,5.6455994E1,-2.3070143E-3,1.2449709E1,9.169185E1,6.113826E0,5.008769E-1,2.7003294E1,6.3290924E1,1.163165E2,3.2545544E1,1.7043821E0,-3.3348703E-1,1.0247604E1,3.3776062E1,7.797588E0,1.9689768E1,7.418392E1,7.009306E1,1.2785546E2,7.6217794E0,5.6545795E1,1.2524061E1,-2.3069514E-3,-2.2426737E-3,1.5223346E-2,3.5147138E-2,5.9447333E-2,1.1590702E-1,1.7917235E-1,6.752788E-2,4.755614E-3,3.1150889E-2,1.6555926E-1,4.004219E-1,1.6403398E-1,2.7436173E-1,4.2598957E-1,6.839878E-1,5.0469106E-1,2.4883596E-2,1.2509124E-1,3.0540177E-1,1.841085E-1,1.6019107E-3,1.3459064E-1],"categories":[],"categories_nodes":[],"categories_segments":[],"categories_sizes":[],"default_left":[0,0,0,0,0,0,0,0,0,0,0,0,0,0,0,0,0,0,0,0,0,0,0,0,0,0,0,0,0,0,0,0,0,0,0,0,0,0,0,0,0,0,0,0,0,0,0],"id":16,"left_children":[1,3,5,-1,7,9,11,13,15,17,19,21,23,25,27,29,31,33,35,37,39,41,43,45,-1,-1,-1,-1,-1,-1,-1,-1,-1,-1,-1,-1,-1,-1,-1,-1,-1,-1,-1,-1,-1,-1,-1],"loss_changes":[1.696306E7,1.6129595E5,3.401655E7,0E0,1.9631767E5,7.882136E6,9.203335E5,5.0535874E3,6.594522E4,2.487738E6,3.213136E6,6.7491025E5,1.586235E5,2.2406158E2,1.7533008E2,7.3691875E3,5.2238145E3,1.8930166E5,1.02107E6,2.73282E5,1.14948E6,2.5413652E4,4.9179E4,1.9831219E5,0E0,0E0,0E0,0E0,0E0,0E0,0E0,0E0,0E0,0E0,0E0,0E0,0E0,0E0,0E0,0E0,0E0,0E0,0E0,0E0,0E0,0E0,0E0],"parents":[2147483647,0,0,1,1,2,2,4,4,5,5,6,6,7,7,8,8,9,9,10,10,11,11,12,12,13,13,14,14,15,15,16,16,17,17,18,18,19,19,20,20,21,21,22,22,23,23],"right_children":[2,4,6,-1,8,10,12,14,16,18,20,22,24,26,28,30,32,34,36,38,40,42,44,46,-1,-1,-1,-1,-1,-1,-1,-1,-1,-1,-1,-1,-1,-1,-1,-1,-1,-1,-1,-1,-1,-1,-1],"split_conditions":[7E0,6E0,1.7E1,-2.3070143E-3,1.97E2,1.65E2,1.8E1,1.81E2,3.22E2,9E0,9E0,1.75E2,1.9E1,1.75E2,1.87E2,2.18E2,3.46E2,8E0,1.6E1,8E0,1.5E1,1.51E2,3.3E2,1.94E2,-2.3069514E-3,-2.2426737E-3,1.5223346E-2,3.5147138E-2,5.9447333E-2,1.1590702E-1,1.7917235E-1,6.752788E-2,4.755614E-3,3.1150889E-2,1.6555926E-1,4.004219E-1,1.6403398E-1,2.7436173E-1,4.2598957E-1,6.839878E-1,5.0469106E-1,2.4883596E-2,1.2509124E-1,3.0540177E-1,1.841085E-1,1.6019107E-3,1.3459064E-1],"split_indices":[1,1,1,0,0,0,1,0,0,1,1,0,1,0,0,0,0,1,1,1,1,0,0,0,0,0,0,0,0,0,0,0,0,0,0,0,0,0,0,0,0,0,0,0,0,0,0],"split_type":[0,0,0,0,0,0,0,0,0,0,0,0,0,0,0,0,0,0,0,0,0,0,0,0,0,0,0,0,0,0,0,0,0,0,0,0,0,0,0,0,0,0,0,0,0,0,0],"sum_hessian":[2.7072E4,7.896E3,1.9176E4,6.768E3,1.128E3,1.128E4,7.896E3,6.2E2,5.08E2,5.24E3,6.04E3,1.128E3,6.768E3,5.72E2,4.8E1,3.75E2,1.33E2,1.048E3,4.192E3,1.208E3,4.832E3,5.54E2,5.74E2,1.128E3,5.64E3,5.54E2,1.8E1,1.8E1,3E1,6.3E1,3.12E2,7.2E1,6.1E1,5.24E2,5.24E2,3.668E3,5.24E2,6.04E2,6.04E2,3.624E3,1.208E3,4.82E2,7.2E1,4.65E2,1.09E2,6.11E2,5.17E2],"tree_param":{"num_deleted":"0","num_feature":"5","num_nodes":"47","size_leaf_vector":"1"}},{"base_weights":[4.0192257E1,1.3775225E0,5.6173893E1,-2.295481E-3,1.238788E1,9.123362E1,6.0833545E0,4.3471134E-1,2.6791534E1,6.4438995E1,1.170789E2,3.238338E1,1.6958799E0,-3.3179694E-1,9.973288E0,3.274236E1,5.4895782E0,2.1145433E1,7.525517E1,7.086223E1,1.2861513E2,7.185635E0,5.58861E1,1.2461561E1,-2.2954189E-3,-2.2769405E-3,1.3921496E-2,3.498065E-2,5.8186565E-2,1.10257834E-1,1.7282054E-1,5.4004114E-2,4.7322195E-3,3.776954E-2,1.734943E-1,4.0563124E-1,1.7042762E-1,2.7907962E-1,4.289265E-1,6.7218876E-1,4.384692E-1,2.4168244E-2,1.1555045E-1,3.0112803E-1,1.831963E-1,6.1250816E-4,1.3278212E-1],"categories":[],"categories_nodes":[],"categories_segments":[],"categories_sizes":[],"default_left":[0,0,0,0,0,0,0,0,0,0,0,0,0,0,0,0,0,0,0,0,0,0,0,0,0,0,0,0,0,0,0,0,0,0,0,0,0,0,0,0,0,0,0,0,0,0,0],"id":17,"left_children":[1,3,5,-1,7,9,11,13,15,17,19,21,23,25,27,29,31,33,35,37,39,41,43,45,-1,-1,-1,-1,-1,-1,-1,-1,-1,-1,-1,-1,-1,-1,-1,-1,-1,-1,-1,-1,-1,-1,-1],"loss_changes":[1.679392E7,1.5969748E5,3.367734E7,0E0,1.943675E5,7.804712E6,9.111855E5,4.521753E3,6.472353E4,2.593098E6,3.0518E6,6.6820975E5,1.5704419E5,2.2194281E2,1.464707E2,7.0281875E3,2.7164343E3,2.040286E5,1.068736E6,2.53205E5,1.082576E6,2.0338238E4,4.657E4,1.9634944E5,0E0,0E0,0E0,0E0,0E0,0E0,0E0,0E0,0E0,0E0,0E0,0E0,0E0,0E0,0E0,0E0,0E0,0E0,0E0,0E0,0E0,0E0,0E0],"parents":[2147483647,0,0,1,1,2,2,4,4,5,5,6,6,7,7,8,8,9,9,10,10,11,11,12,12,13,13,14,14,15,15,16,16,17,17,18,18,19,19,20,20,21,21,22,22,23,23],"right_children":[2,4,6,-1,8,10,12,14,16,18,20,22,24,26,28,30,32,34,36,38,40,42,44,46,-1,-1,-1,-1,-1,-1,-1,-1,-1,-1,-1,-1,-1,-1,-1,-1,-1,-1,-1,-1,-1,-1,-1],"split_conditions":[7E0,6E0,1.7E1,-2.295481E-3,1.96E2,1.75E2,1.8E1,1.81E2,3.29E2,9E0,9E0,1.72E2,1.9E1,1.74E2,1.87E2,2.16E2,3.46E2,8E0,1.6E1,8E0,1.6E1,1.49E2,3.3E2,1.91E2,-2.2954189E-3,-2.2769405E-3,1.3921496E-2,3.498065E-2,5.8186565E-2,1.10257834E-1,1.7282054E-1,5.4004114E-2,4.7322195E-3,3.776954E-2,1.734943E-1,4.0563124E-1,1.7042762E-1,2.7907962E-1,4.289265E-1,6.7218876E-1,4.384692E-1,2.4168244E-2,1.1555045E-1,3.0112803E-1,1.831963E-1,6.1250816E-4,1.3278212E-1],"split_indices":[1,1,1,0,0,0,1,0,0,1,1,0,1,0,0,0,0,1,1,1,1,0,0,0,0,0,0,0,0,0,0,0,0,0,0,0,0,0,0,0,0,0,0,0,0,0,0],"split_type":[0,0,0,0,0,0,0,0,0,0,0,0,0,0,0,0,0,0,0,0,0,0,0,0,0,0,0,0,0,0,0,0,0,0,0,0,0,0,0,0,0,0,0,0,0,0,0],"sum_hessian":[2.7072E4,7.896E3,1.9176E4,6.768E3,1.128E3,1.128E4,7.896E3,6.17E2,5.11E2,5.54E3,5.74E3,1.128E3,6.768E3,5.72E2,4.5E1,3.99E2,1.12E2,1.108E3,4.432E3,1.148E3,4.592E3,5.45E2,5.83E2,1.128E3,5.64E3,5.51E2,2.1E1,1.8E1,2.7E1,6E1,3.39E2,5.1E1,6.1E1,5.54E2,5.54E2,3.878E3,5.54E2,5.74E2,5.74E2,4.018E3,5.74E2,4.76E2,6.9E1,4.74E2,1.09E2,6.02E2,5.26E2],"tree_param":{"num_deleted":"0","num_feature":"5","num_nodes":"47","size_leaf_vector":"1"}},{"base_weights":[3.999144E1,1.3706912E0,5.58932E1,-2.2840053E-3,1.2326337E1,9.077769E1,6.0530334E0,4.9601883E-1,2.6735573E1,6.2652565E1,1.1516321E2,3.222202E1,1.6874199E0,-3.3011764E-1,1.0146635E1,3.344509E1,7.7093477E0,1.9485975E1,7.3437E1,6.940179E1,1.2658684E2,7.543964E0,5.598567E1,1.2399372E1,-2.2839438E-3,-2.220554E-3,1.5085291E-2,3.4814954E-2,5.8852945E-2,1.1476454E-1,1.7741802E-1,6.675765E-2,4.70894E-3,3.0806942E-2,1.6386722E-1,4.1183662E-1,2.329651E-1,2.7165893E-1,4.2178538E-1,6.77275E-1,4.9946165E-1,2.463317E-2,1.23790115E-1,3.0237564E-1,1.8228866E-1,1.5811382E-3,1.3325636E-1],"categories":[],"categories_nodes":[],"categories_segments":[],"categories_sizes":[],"default_left":[0,0,0,0,0,0,0,0,0,0,0,0,0,0,0,0,0,0,0,0,0,0,0,0,0,0,0,0,0,0,0,0,0,0,0,0,0,0,0,0,0,0,0,0,0,0,0],"id":18,"left_children":[1,3,5,-1,7,9,11,13,15,17,19,21,23,25,27,29,31,33,35,37,39,41,43,45,-1,-1,-1,-1,-1,-1,-1,-1,-1,-1,-1,-1,-1,-1,-1,-1,-1,-1,-1,-1,-1,-1,-1],"loss_changes":[1.6626476E7,1.5811428E5,3.3341512E7,0E0,1.9244269E5,7.729816E6,9.02128E5,4.954412E3,6.471947E4,2.438396E6,3.149216E6,6.616691E5,1.5548053E5,2.1997108E2,1.7137646E2,7.2275938E3,5.104056E3,1.855236E5,1.00133E6,2.678965E5,1.130584E6,2.488348E4,4.8205375E4,1.9441414E5,0E0,0E0,0E0,0E0,0E0,0E0,0E0,0E0,0E0,0E0,0E0,0E0,0E0,0E0,0E0,0E0,0E0,0E0,0E0,0E0,0E0,0E0,0E0],"parents":[2147483647,0,0,1,1,2,2,4,4,5,5,6,6,7,7,8,8,9,9,10,10,11,11,12,12,13,13,14,14,15,15,16,16,17,17,18,18,19,19,20,20,21,21,22,22,23,23],"right_children":[2,4,6,-1,8,10,12,14,16,18,20,22,24,26,28,30,32,34,36,38,40,42,44,46,-1,-1,-1,-1,-1,-1,-1,-1,-1,-1,-1,-1,-1,-1,-1,-1,-1,-1,-1,-1,-1,-1,-1],"split_conditions":[7E0,6E0,1.7E1,-2.2840053E-3,1.97E2,1.65E2,1.8E1,1.81E2,3.22E2,9E0,9E0,1.75E2,1.9E1,1.75E2,1.87E2,2.18E2,3.46E2,8E0,1.5E1,8E0,1.5E1,1.51E2,3.3E2,1.94E2,-2.2839438E-3,-2.220554E-3,1.5085291E-2,3.4814954E-2,5.8852945E-2,1.1476454E-1,1.7741802E-1,6.675765E-2,4.70894E-3,3.0806942E-2,1.6386722E-1,4.1183662E-1,2.329651E-1,2.7165893E-1,4.2178538E-1,6.77275E-1,4.9946165E-1,2.463317E-2,1.23790115E-1,3.0237564E-1,1.8228866E-1,1.5811382E-3,1.3325636E-1],"split_indices":[1,1,1,0,0,0,1,0,0,1,1,0,1,0,0,0,0,1,1,1,1,0,0,0,0,0,0,0,0,0,0,0,0,0,0,0,0,0,0,0,0,0,0,0,0,0,0],"split_type":[0,0,0,0,0,0,0,0,0,0,0,0,0,0,0,0,0,0,0,0,0,0,0,0,0,0,0,0,0,0,0,0,0,0,0,0,0,0,0,0,0,0,0,0,0,0,0],"sum_hessian":[2.7072E4,7.896E3,1.9176E4,6.768E3,1.128E3,1.128E4,7.896E3,6.2E2,5.08E2,5.24E3,6.04E3,1.128E3,6.768E3,5.72E2,4.8E1,3.75E2,1.33E2,1.048E3,4.192E3,1.208E3,4.832E3,5.54E2,5.74E2,1.128E3,5.64E3,5.54E2,1.8E1,1.8E1,3E1,6.3E1,3.12E2,7.2E1,6.1E1,5.24E2,5.24E2,3.144E3,1.048E3,6.04E2,6.04E2,3.624E3,1.208E3,4.82E2,7.2E1,4.65E2,1.09E2,6.11E2,5.17E2],"tree_param":{"num_deleted":"0","num_feature":"5","num_nodes":"47","size_leaf_vector":"1"}},{"base_weights":[3.9791626E1,1.363897E0,5.5613914E1,-2.272587E-3,1.2265121E1,9.0324036E1,6.0228653E0,4.9371028E-1,2.660261E1,6.3789627E1,1.1591833E2,3.206147E1,1.6790023E0,-3.284446E-1,1.0097813E1,3.327864E1,7.6713343E0,2.0929155E1,7.449761E1,7.016212E1,1.27339615E2,7.506511E0,5.5706585E1,1.2337494E1,-2.2725263E-3,-2.2094713E-3,1.5013835E-2,3.4650043E-2,5.8568172E-2,1.1419968E-1,1.7653376E-1,6.642844E-2,4.685775E-3,3.736218E-2,1.7174082E-1,4.0160078E-1,1.6834228E-1,2.763307E-1,4.2468032E-1,6.6557014E-1,4.3378767E-1,2.4510259E-2,1.23179644E-1,3.00867E-1,1.8138549E-1,6.0155813E-4,1.3146567E-1],"categories":[],"categories_nodes":[],"categories_segments":[],"categories_sizes":[],"default_left":[0,0,0,0,0,0,0,0,0,0,0,0,0,0,0,0,0,0,0,0,0,0,0,0,0,0,0,0,0,0,0,0,0,0,0,0,0,0,0,0,0,0,0,0,0,0,0],"id":19,"left_children":[1,3,5,-1,7,9,11,13,15,17,19,21,23,25,27,29,31,33,35,37,39,41,43,45,-1,-1,-1,-1,-1,-1,-1,-1,-1,-1,-1,-1,-1,-1,-1,-1,-1,-1,-1,-1,-1,-1,-1],"loss_changes":[1.6460708E7,1.5654736E5,3.3009048E7,0E0,1.9053097E5,7.653864E6,8.9316094E5,4.90677E3,6.4075094E4,2.541476E6,2.99128E6,6.5508475E5,1.539325E5,2.1787787E2,1.6963623E2,7.1538125E3,5.053828E3,2.000019E5,1.051152E6,2.48169E5,1.064768E6,2.4639383E4,4.7720125E4,1.9248978E5,0E0,0E0,0E0,0E0,0E0,0E0,0E0,0E0,0E0,0E0,0E0,0E0,0E0,0E0,0E0,0E0,0E0,0E0,0E0,0E0,0E0,0E0,0E0],"parents":[2147483647,0,0,1,1,2,2,4,4,5,5,6,6,7,7,8,8,9,9,10,10,11,11,12,12,13,13,14,14,15,15,16,16,17,17,18,18,19,19,20,20,21,21,22,22,23,23],"right_children":[2,4,6,-1,8,10,12,14,16,18,20,22,24,26,28,30,32,34,36,38,40,42,44,46,-1,-1,-1,-1,-1,-1,-1,-1,-1,-1,-1,-1,-1,-1,-1,-1,-1,-1,-1,-1,-1,-1,-1],"split_conditions":[7E0,6E0,1.7E1,-2.272587E-3,1.97E2,1.75E2,1.8E1,1.81E2,3.22E2,9E0,9E0,1.75E2,1.9E1,1.75E2,1.87E2,2.18E2,3.46E2,8E0,1.6E1,8E0,1.6E1,1.51E2,3.3E2,1.91E2,-2.2725263E-3,-2.2094713E-3,1.5013835E-2,3.4650043E-2,5.8568172E-2,1.1419968E-1,1.7653376E-1,6.642844E-2,4.685775E-3,3.736218E-2,1.7174082E-1,4.0160078E-1,1.6834228E-1,2.763307E-1,4.2468032E-1,6.6557014E-1,4.3378767E-1,2.4510259E-2,1.23179644E-1,3.00867E-1,1.8138549E-1,6.0155813E-4,1.3146567E-1],"split_indices":[1,1,1,0,0,0,1,0,0,1,1,0,1,0,0,0,0,1,1,1,1,0,0,0,0,0,0,0,0,0,0,0,0,0,0,0,0,0,0,0,0,0,0,0,0,0,0],"split_type":[0,0,0,0,0,0,0,0,0,0,0,0,0,0,0,0,0,0,0,0,0,0,0,0,0,0,0,0,0,0,0,0,0,0,0,0,0,0,0,0,0,0,0,0,0,0,0],"sum_hessian":[2.7072E4,7.896E3,1.9176E4,6.768E3,1.128E3,1.128E4,7.896E3,6.2E2,5.08E2,5.54E3,5.74E3,1.128E3,6.768E3,5.72E2,4.8E1,3.75E2,1.33E2,1.108E3,4.432E3,1.148E3,4.592E3,5.54E2,5.74E2,1.128E3,5.64E3,5.54E2,1.8E1,1.8E1,3E1,6.3E1,3.12E2,7.2E1,6.1E1,5.54E2,5.54E2,3.878E3,5.54E2,5.74E2,5.74E2,4.018E3,5.74E2,4.82E2,7.2E1,4.65E2,1.09E2,6.02E2,5.26E2],"tree_param":{"num_deleted":"0","num_feature":"5","num_nodes":"47","size_leaf_vector":"1"}},{"base_weights":[3.9592808E1,1.3571364E0,5.5336018E1,-2.2612256E-3,1.220421E1,8.987264E1,5.992847E0,4.9141246E-1,2.6470306E1,6.202066E1,1.14021355E2,3.190172E1,1.6706265E0,-2.9000223E-1,1.0499965E1,3.240169E1,5.397468E0,1.9284279E1,7.269761E1,6.871735E1,1.253308E2,7.469245E0,5.5428886E1,1.2275924E1,-2.2611655E-3,-2.198444E-3,1.6673043E-2,3.704426E-2,5.828478E-2,1.7230457E-1,1.1313988E-1,5.0474856E-2,2.1790676E-3,3.0466745E-2,1.6219237E-1,4.0777072E-1,2.3037788E-1,2.6898277E-1,4.1762275E-1,6.7062813E-1,4.9428594E-1,2.438796E-2,1.2257218E-1,2.9936588E-1,1.8048683E-1,1.5606205E-3,1.3193531E-1],"categories":[],"categories_nodes":[],"categories_segments":[],"categories_sizes":[],"default_left":[0,0,0,0,0,0,0,0,0,0,0,0,0,0,0,0,0,0,0,0,0,0,0,0,0,0,0,0,0,0,0,0,0,0,0,0,0,0,0,0,0,0,0,0,0,0,0],"id":20,"left_children":[1,3,5,-1,7,9,11,13,15,17,19,21,23,25,27,29,31,33,35,37,39,41,43,45,-1,-1,-1,-1,-1,-1,-1,-1,-1,-1,-1,-1,-1,-1,-1,-1,-1,-1,-1,-1,-1,-1,-1],"loss_changes":[1.6296576E7,1.5499595E5,3.2679884E7,0E0,1.8863827E5,7.580408E6,8.8428325E5,4.8597803E3,6.3445625E4,2.390036E6,3.086568E6,6.485656E5,1.5239983E5,3.145208E2,7.4572754E1,7.2103438E3,2.6293357E3,1.8182075E5,9.84864E5,2.62617E5,1.112016E6,2.4397674E4,4.723975E4,1.9059273E5,0E0,0E0,0E0,0E0,0E0,0E0,0E0,0E0,0E0,0E0,0E0,0E0,0E0,0E0,0E0,0E0,0E0,0E0,0E0,0E0,0E0,0E0,0E0],"parents":[2147483647,0,0,1,1,2,2,4,4,5,5,6,6,7,7,8,8,9,9,10,10,11,11,12,12,13,13,14,14,15,15,16,16,17,17,18,18,19,19,20,20,21,21,22,22,23,23],"right_children":[2,4,6,-1,8,10,12,14,16,18,20,22,24,26,28,30,32,34,36,38,40,42,44,46,-1,-1,-1,-1,-1,-1,-1,-1,-1,-1,-1,-1,-1,-1,-1,-1,-1,-1,-1,-1,-1,-1,-1],"split_conditions":[7E0,6E0,1.7E1,-2.2612256E-3,1.97E2,1.65E2,1.8E1,3E0,3.29E2,9E0,9E0,1.75E2,1.9E1,1.75E2,1.87E2,1.1E1,3.48E2,8E0,1.5E1,8E0,1.5E1,1.51E2,3.3E2,1.94E2,-2.2611655E-3,-2.198444E-3,1.6673043E-2,3.704426E-2,5.828478E-2,1.7230457E-1,1.1313988E-1,5.0474856E-2,2.1790676E-3,3.0466745E-2,1.6219237E-1,4.0777072E-1,2.3037788E-1,2.6898277E-1,4.1762275E-1,6.7062813E-1,4.9428594E-1,2.438796E-2,1.2257218E-1,2.9936588E-1,1.8048683E-1,1.5606205E-3,1.3193531E-1],"split_indices":[1,1,1,0,0,0,1,3,0,1,1,0,1,0,0,4,0,1,1,1,1,0,0,0,0,0,0,0,0,0,0,0,0,0,0,0,0,0,0,0,0,0,0,0,0,0,0],"split_type":[0,0,0,0,0,0,0,0,0,0,0,0,0,0,0,0,0,0,0,0,0,0,0,0,0,0,0,0,0,0,0,0,0,0,0,0,0,0,0,0,0,0,0,0,0,0,0],"sum_hessian":[2.7072E4,7.896E3,1.9176E4,6.768E3,1.128E3,1.128E4,7.896E3,6.2E2,5.08E2,5.24E3,6.04E3,1.128E3,6.768E3,5.76E2,4.4E1,3.96E2,1.12E2,1.048E3,4.192E3,1.208E3,4.832E3,5.54E2,5.74E2,1.128E3,5.64E3,5.54E2,2.2E1,1.4E1,3E1,3.25E2,7.1E1,5.7E1,5.5E1,5.24E2,5.24E2,3.144E3,1.048E3,6.04E2,6.04E2,3.624E3,1.208E3,4.82E2,7.2E1,4.65E2,1.09E2,6.11E2,5.17E2],"tree_param":{"num_deleted":"0","num_feature":"5","num_nodes":"47","size_leaf_vector":"1"}},{"base_weights":[3.939499E1,1.3504071E0,5.5059517E1,-2.2499212E-3,1.2143586E1,8.942352E1,5.962979E0,4.8913223E-1,2.633862E1,6.31468E1,1.1476926E2,3.1742767E1,1.6622927E0,-3.2517824E-1,1.0001596E1,3.2949043E1,7.5934124E0,2.0715094E1,7.3747665E1,6.946891E1,1.2607675E2,7.4321637E0,5.515258E1,1.2214663E1,-2.2498618E-3,-2.232494E-3,1.3668232E-2,3.433188E-2,5.8002755E-2,1.1278954E-1,1.7484239E-1,7.125411E-2,1.0014668E-2,3.6959186E-2,1.7000513E-1,3.9761046E-1,1.6628094E-1,2.736089E-1,4.2047614E-1,6.590167E-1,4.2915538E-1,2.4266273E-2,1.2196771E-1,2.9787228E-1,1.7959258E-1,5.9076527E-4,1.301623E-1],"categories":[],"categories_nodes":[],"categories_segments":[],"categories_sizes":[],"default_left":[0,0,0,0,0,0,0,0,0,0,0,0,0,0,0,0,0,0,0,0,0,0,0,0,0,0,0,0,0,0,0,0,0,0,0,0,0,0,0,0,0,0,0,0,0,0,0],"id":21,"left_children":[1,3,5,-1,7,9,11,13,15,17,19,21,23,25,27,29,31,33,35,37,39,41,43,45,-1,-1,-1,-1,-1,-1,-1,-1,-1,-1,-1,-1,-1,-1,-1,-1,-1,-1,-1,-1,-1,-1,-1],"loss_changes":[1.6134096E7,1.5345953E5,3.2354008E7,0E0,1.8676362E5,7.505928E6,8.754938E5,4.81358E3,6.2821938E4,2.490884E6,2.931976E6,6.421115E5,1.5088245E5,2.1385997E2,1.6598682E2,7.10125E3,4.9586826E3,1.9605488E5,1.033858E6,2.43233E5,1.047232E6,2.415834E4,4.676425E4,1.8870602E5,0E0,0E0,0E0,0E0,0E0,0E0,0E0,0E0,0E0,0E0,0E0,0E0,0E0,0E0,0E0,0E0,0E0,0E0,0E0,0E0,0E0,0E0,0E0],"parents":[2147483647,0,0,1,1,2,2,4,4,5,5,6,6,7,7,8,8,9,9,10,10,11,11,12,12,13,13,14,14,15,15,16,16,17,17,18,18,19,19,20,20,21,21,22,22,23,23],"right_children":[2,4,6,-1,8,10,12,14,16,18,20,22,24,26,28,30,32,34,36,38,40,42,44,46,-1,-1,-1,-1,-1,-1,-1,-1,-1,-1,-1,-1,-1,-1,-1,-1,-1,-1,-1,-1,-1,-1,-1],"split_conditions":[7E0,6E0,1.7E1,-2.2499212E-3,1.97E2,1.75E2,1.8E1,1.81E2,3.22E2,9E0,9E0,1.75E2,1.9E1,1.74E2,1.87E2,2.18E2,3.42E2,8E0,1.6E1,8E0,1.6E1,1.51E2,3.3E2,1.91E2,-2.2498618E-3,-2.232494E-3,1.3668232E-2,3.433188E-2,5.8002755E-2,1.1278954E-1,1.7484239E-1,7.125411E-2,1.0014668E-2,3.6959186E-2,1.7000513E-1,3.9761046E-1,1.6628094E-1,2.736089E-1,4.2047614E-1,6.590167E-1,4.2915538E-1,2.4266273E-2,1.2196771E-1,2.9787228E-1,1.7959258E-1,5.9076527E-4,1.301623E-1],"split_indices":[1,1,1,0,0,0,1,0,0,1,1,0,1,0,0,0,0,1,1,1,1,0,0,0,0,0,0,0,0,0,0,0,0,0,0,0,0,0,0,0,0,0,0,0,0,0,0],"split_type":[0,0,0,0,0,0,0,0,0,0,0,0,0,0,0,0,0,0,0,0,0,0,0,0,0,0,0,0,0,0,0,0,0,0,0,0,0,0,0,0,0,0,0,0,0,0,0],"sum_hessian":[2.7072E4,7.896E3,1.9176E4,6.768E3,1.128E3,1.128E4,7.896E3,6.2E2,5.08E2,5.54E3,5.74E3,1.128E3,6.768E3,5.72E2,4.8E1,3.75E2,1.33E2,1.108E3,4.432E3,1.148E3,4.592E3,5.54E2,5.74E2,1.128E3,5.64E3,5.51E2,2.1E1,1.8E1,3E1,6.3E1,3.12E2,6E1,7.3E1,5.54E2,5.54E2,3.878E3,5.54E2,5.74E2,5.74E2,4.018E3,5.74E2,4.82E2,7.2E1,4.65E2,1.09E2,6.02E2,5.26E2],"tree_param":{"num_deleted":"0","num_feature":"5","num_nodes":"47","size_leaf_vector":"1"}},{"base_weights":[3.9198154E1,1.3437147E0,5.4784393E1,-2.2386732E-3,1.2083286E1,8.897662E1,5.933259E0,4.8685366E-1,2.6207651E1,6.1395123E1,1.1289083E2,3.1584604E1,1.6540003E0,-2.8713068E-1,1.0400234E1,3.208133E1,5.3398848E0,1.9084658E1,7.196567E1,6.803966E1,1.2408722E2,7.006916E0,5.4508976E1,1.2153706E1,-2.2386145E-3,-2.1767588E-3,1.6509963E-2,3.671117E-2,5.77221E-2,1.7063412E-1,1.11871034E-1,4.9971733E-2,2.1191875E-3,3.0130258E-2,1.6053455E-1,4.0374506E-1,2.2781871E-1,2.6633295E-1,4.1350132E-1,6.6404665E-1,4.8916346E-1,2.1896852E-2,1.03161655E-1,2.9370296E-1,1.7870279E-1,1.5403539E-3,1.3062735E-1],"categories":[],"categories_nodes":[],"categories_segments":[],"categories_sizes":[],"default_left":[0,0,0,0,0,0,0,0,0,0,0,0,0,0,0,0,0,0,0,0,0,0,0,0,0,0,0,0,0,0,0,0,0,0,0,0,0,0,0,0,0,0,0,0,0,0,0],"id":22,"left_children":[1,3,5,-1,7,9,11,13,15,17,19,21,23,25,27,29,31,33,35,37,39,41,43,45,-1,-1,-1,-1,-1,-1,-1,-1,-1,-1,-1,-1,-1,-1,-1,-1,-1,-1,-1,-1,-1,-1,-1],"loss_changes":[1.5973224E7,1.5193895E5,3.203138E7,0E0,1.8490867E5,7.433896E6,8.6679175E5,4.767796E3,6.2217094E4,2.342636E6,3.025168E6,6.3572825E5,1.4938017E5,3.0839224E2,7.268945E1,7.1192188E3,2.5813796E3,1.781916E5,9.68668E5,2.57442E5,1.093744E6,1.9457207E4,4.428225E4,1.8684647E5,0E0,0E0,0E0,0E0,0E0,0E0,0E0,0E0,0E0,0E0,0E0,0E0,0E0,0E0,0E0,0E0,0E0,0E0,0E0,0E0,0E0,0E0,0E0],"parents":[2147483647,0,0,1,1,2,2,4,4,5,5,6,6,7,7,8,8,9,9,10,10,11,11,12,12,13,13,14,14,15,15,16,16,17,17,18,18,19,19,20,20,21,21,22,22,23,23],"right_children":[2,4,6,-1,8,10,12,14,16,18,20,22,24,26,28,30,32,34,36,38,40,42,44,46,-1,-1,-1,-1,-1,-1,-1,-1,-1,-1,-1,-1,-1,-1,-1,-1,-1,-1,-1,-1,-1,-1,-1],"split_conditions":[7E0,6E0,1.7E1,-2.2386732E-3,1.97E2,1.65E2,1.8E1,3E0,3.29E2,9E0,9E0,1.72E2,1.9E1,1.75E2,1.87E2,1.1E1,3.48E2,8E0,1.5E1,8E0,1.5E1,1.43E2,3.3E2,1.94E2,-2.2386145E-3,-2.1767588E-3,1.6509963E-2,3.671117E-2,5.77221E-2,1.7063412E-1,1.11871034E-1,4.9971733E-2,2.1191875E-3,3.0130258E-2,1.6053455E-1,4.0374506E-1,2.2781871E-1,2.6633295E-1,4.1350132E-1,6.6404665E-1,4.8916346E-1,2.1896852E-2,1.03161655E-1,2.9370296E-1,1.7870279E-1,1.5403539E-3,1.3062735E-1],"split_indices":[1,1,1,0,0,0,1,3,0,1,1,0,1,0,0,4,0,1,1,1,1,0,0,0,0,0,0,0,0,0,0,0,0,0,0,0,0,0,0,0,0,0,0,0,0,0,0],"split_type":[0,0,0,0,0,0,0,0,0,0,0,0,0,0,0,0,0,0,0,0,0,0,0,0,0,0,0,0,0,0,0,0,0,0,0,0,0,0,0,0,0,0,0,0,0,0,0],"sum_hessian":[2.7072E4,7.896E3,1.9176E4,6.768E3,1.128E3,1.128E4,7.896E3,6.2E2,5.08E2,5.24E3,6.04E3,1.128E3,6.768E3,5.76E2,4.4E1,3.96E2,1.12E2,1.048E3,4.192E3,1.208E3,4.832E3,5.45E2,5.83E2,1.128E3,5.64E3,5.54E2,2.2E1,1.4E1,3E1,3.25E2,7.1E1,5.7E1,5.5E1,5.24E2,5.24E2,3.144E3,1.048E3,6.04E2,6.04E2,3.624E3,1.208E3,4.58E2,8.7E1,4.74E2,1.09E2,6.11E2,5.17E2],"tree_param":{"num_deleted":"0","num_feature":"5","num_nodes":"47","size_leaf_vector":"1"}},{"base_weights":[3.9002304E1,1.3370519E0,5.4510647E1,-2.2274815E-3,1.2023263E1,8.853198E1,5.903685E0,4.2264235E-1,2.600209E1,6.2510452E1,1.1363157E2,3.1427212E1,1.6457494E0,-3.2194644E-1,9.688441E0,3.1781572E1,5.313647E0,2.0503225E1,7.3005264E1,6.878255E1,1.2482641E2,7.3562627E0,5.4606255E1,1.2093054E1,-2.2274235E-3,-2.2104876E-3,1.353694E-2,3.4016624E-2,5.650091E-2,1.6883934E-1,1.11319445E-1,4.972618E-2,2.108781E-3,3.6560502E-2,1.6828702E-1,3.9365986E-1,1.6424336E-1,2.7091387E-1,4.163135E-1,6.525279E-1,4.2457178E-1,2.4015745E-2,1.2074004E-1,2.9492074E-1,1.778174E-1,5.8012747E-4,1.2887186E-1],"categories":[],"categories_nodes":[],"categories_segments":[],"categories_sizes":[],"default_left":[0,0,0,0,0,0,0,0,0,0,0,0,0,0,0,0,0,0,0,0,0,0,0,0,0,0,0,0,0,0,0,0,0,0,0,0,0,0,0,0,0,0,0,0,0,0,0],"id":23,"left_children":[1,3,5,-1,7,9,11,13,15,17,19,21,23,25,27,29,31,33,35,37,39,41,43,45,-1,-1,-1,-1,-1,-1,-1,-1,-1,-1,-1,-1,-1,-1,-1,-1,-1,-1,-1,-1,-1,-1,-1],"loss_changes":[1.581396E7,1.5043283E5,3.171198E7,0E0,1.8307116E5,7.360848E6,8.581747E5,4.266831E3,6.1050156E4,2.441296E6,2.87384E6,6.295144E5,1.4789288E5,2.0975629E2,1.3702393E2,6.8101875E3,2.5560725E3,1.9218578E5,1.01685E6,2.383955E5,1.03E6,2.3677547E4,4.58385E4,1.8499669E5,0E0,0E0,0E0,0E0,0E0,0E0,0E0,0E0,0E0,0E0,0E0,0E0,0E0,0E0,0E0,0E0,0E0,0E0,0E0,0E0,0E0,0E0,0E0],"parents":[2147483647,0,0,1,1,2,2,4,4,5,5,6,6,7,7,8,8,9,9,10,10,11,11,12,12,13,13,14,14,15,15,16,16,17,17,18,18,19,19,20,20,21,21,22,22,23,23],"right_children":[2,4,6,-1,8,10,12,14,16,18,20,22,24,26,28,30,32,34,36,38,40,42,44,46,-1,-1,-1,-1,-1,-1,-1,-1,-1,-1,-1,-1,-1,-1,-1,-1,-1,-1,-1,-1,-1,-1,-1],"split_conditions":[7E0,6E0,1.7E1,-2.2274815E-3,1.96E2,1.75E2,1.8E1,1.81E2,3.29E2,9E0,9E0,1.75E2,1.9E1,1.74E2,1.87E2,1.1E1,3.48E2,8E0,1.6E1,8E0,1.6E1,1.51E2,3.3E2,1.91E2,-2.2274235E-3,-2.2104876E-3,1.353694E-2,3.4016624E-2,5.650091E-2,1.6883934E-1,1.11319445E-1,4.972618E-2,2.108781E-3,3.6560502E-2,1.6828702E-1,3.9365986E-1,1.6424336E-1,2.7091387E-1,4.163135E-1,6.525279E-1,4.2457178E-1,2.4015745E-2,1.2074004E-1,2.9492074E-1,1.778174E-1,5.8012747E-4,1.2887186E-1],"split_indices":[1,1,1,0,0,0,1,0,0,1,1,0,1,0,0,4,0,1,1,1,1,0,0,0,0,0,0,0,0,0,0,0,0,0,0,0,0,0,0,0,0,0,0,0,0,0,0],"split_type":[0,0,0,0,0,0,0,0,0,0,0,0,0,0,0,0,0,0,0,0,0,0,0,0,0,0,0,0,0,0,0,0,0,0,0,0,0,0,0,0,0,0,0,0,0,0,0],"sum_hessian":[2.7072E4,7.896E3,1.9176E4,6.768E3,1.128E3,1.128E4,7.896E3,6.17E2,5.11E2,5.54E3,5.74E3,1.128E3,6.768E3,5.72E2,4.5E1,3.99E2,1.12E2,1.108E3,4.432E3,1.148E3,4.592E3,5.54E2,5.74E2,1.128E3,5.64E3,5.51E2,2.1E1,1.8E1,2.7E1,3.28E2,7.1E1,5.7E1,5.5E1,5.54E2,5.54E2,3.878E3,5.54E2,5.74E2,5.74E2,4.018E3,5.74E2,4.82E2,7.2E1,4.65E2,1.09E2,6.02E2,5.26E2],"tree_param":{"num_deleted":"0","num_feature":"5","num_nodes":"47","size_leaf_vector":"1"}},{"base_weights":[3.880743E1,1.3304213E0,5.4238262E1,-2.2163459E-3,1.1963531E1,8.808955E1,5.874261E0,4.818399E-1,2.5948141E1,6.0775894E1,1.1177151E2,3.1270622E1,1.6375395E0,-2.8428778E-1,1.0294592E1,3.2461956E1,7.47693E0,1.888709E1,7.12411E1,6.736866E1,1.2285598E2,7.3197417E0,5.4334045E1,1.2032703E1,-2.2162884E-3,-2.1552877E-3,1.6348453E-2,3.6381107E-2,5.711505E-2,1.1056356E-1,1.723719E-1,6.6062704E-2,5.9254365E-3,2.9797439E-2,1.5889359E-1,3.9975935E-1,2.2528727E-1,2.6370925E-1,4.0942058E-1,6.5752983E-1,4.8409355E-1,2.3895916E-2,1.20144606E-1,2.934493E-1,1.7693639E-1,1.5203354E-3,1.2933236E-1],"categories":[],"categories_nodes":[],"categories_segments":[],"categories_sizes":[],"default_left":[0,0,0,0,0,0,0,0,0,0,0,0,0,0,0,0,0,0,0,0,0,0,0,0,0,0,0,0,0,0,0,0,0,0,0,0,0,0,0,0,0,0,0,0,0,0,0],"id":24,"left_children":[1,3,5,-1,7,9,11,13,15,17,19,21,23,25,27,29,31,33,35,37,39,41,43,45,-1,-1,-1,-1,-1,-1,-1,-1,-1,-1,-1,-1,-1,-1,-1,-1,-1,-1,-1,-1,-1,-1,-1],"loss_changes":[1.565628E7,1.489415E5,3.1395756E7,0E0,1.8126764E5,7.290216E6,8.4964475E5,4.6714937E3,6.0999125E4,2.296176E6,2.964984E6,6.2324975E5,1.4642034E5,3.023822E2,7.015234E1,7.0686562E3,4.8200757E3,1.7463466E5,9.52736E5,2.523695E5,1.075768E6,2.3445271E4,4.5377E4,1.831738E5,0E0,0E0,0E0,0E0,0E0,0E0,0E0,0E0,0E0,0E0,0E0,0E0,0E0,0E0,0E0,0E0,0E0,0E0,0E0,0E0,0E0,0E0,0E0],"parents":[2147483647,0,0,1,1,2,2,4,4,5,5,6,6,7,7,8,8,9,9,10,10,11,11,12,12,13,13,14,14,15,15,16,16,17,17,18,18,19,19,20,20,21,21,22,22,23,23],"right_children":[2,4,6,-1,8,10,12,14,16,18,20,22,24,26,28,30,32,34,36,38,40,42,44,46,-1,-1,-1,-1,-1,-1,-1,-1,-1,-1,-1,-1,-1,-1,-1,-1,-1,-1,-1,-1,-1,-1,-1],"split_conditions":[7E0,6E0,1.7E1,-2.2163459E-3,1.97E2,1.65E2,1.8E1,3E0,3.22E2,9E0,9E0,1.75E2,1.9E1,1.75E2,1.87E2,2.18E2,3.45E2,8E0,1.5E1,8E0,1.5E1,1.51E2,3.3E2,1.94E2,-2.2162884E-3,-2.1552877E-3,1.6348453E-2,3.6381107E-2,5.711505E-2,1.1056356E-1,1.723719E-1,6.6062704E-2,5.9254365E-3,2.9797439E-2,1.5889359E-1,3.9975935E-1,2.2528727E-1,2.6370925E-1,4.0942058E-1,6.5752983E-1,4.8409355E-1,2.3895916E-2,1.20144606E-1,2.934493E-1,1.7693639E-1,1.5203354E-3,1.2933236E-1],"split_indices":[1,1,1,0,0,0,1,3,0,1,1,0,1,0,0,0,0,1,1,1,1,0,0,0,0,0,0,0,0,0,0,0,0,0,0,0,0,0,0,0,0,0,0,0,0,0,0],"split_type":[0,0,0,0,0,0,0,0,0,0,0,0,0,0,0,0,0,0,0,0,0,0,0,0,0,0,0,0,0,0,0,0,0,0,0,0,0,0,0,0,0,0,0,0,0,0,0],"sum_hessian":[2.7072E4,7.896E3,1.9176E4,6.768E3,1.128E3,1.128E4,7.896E3,6.2E2,5.08E2,5.24E3,6.04E3,1.128E3,6.768E3,5.76E2,4.4E1,3.75E2,1.33E2,1.048E3,4.192E3,1.208E3,4.832E3,5.54E2,5.74E2,1.128E3,5.64E3,5.54E2,2.2E1,1.4E1,3E1,6.3E1,3.12E2,6.9E1,6.4E1,5.24E2,5.24E2,3.144E3,1.048E3,6.04E2,6.04E2,3.624E3,1.208E3,4.82E2,7.2E1,4.65E2,1.09E2,6.11E2,5.17E2],"tree_param":{"num_deleted":"0","num_feature":"5","num_nodes":"47","size_leaf_vector":"1"}},{"base_weights":[3.8613533E1,1.3238275E0,5.3967247E1,-2.2052657E-3,1.1904123E1,8.764933E1,5.8449836E0,4.796041E-1,2.5819098E1,6.188051E1,1.1250517E2,3.1114813E1,1.6293708E0,-3.187467E-1,9.805633E0,3.1607E1,5.256119E0,2.0293528E1,7.227033E1,6.810296E1,1.2358848E2,7.283403E0,5.406319E1,1.1972655E1,-2.2052089E-3,-2.1886984E-3,1.3406922E-2,3.3704247E-2,5.6838684E-2,1.6814247E-1,1.1007573E-1,4.9203876E-2,2.0693273E-3,3.6166094E-2,1.6658635E-1,3.8974857E-1,1.6222927E-1,2.682454E-1,4.12192E-1,6.4610314E-1,4.2003638E-1,2.3776684E-2,1.1955211E-1,2.919852E-1,1.7605975E-1,5.6964246E-4,1.275942E-1],"categories":[],"categories_nodes":[],"categories_segments":[],"categories_sizes":[],"default_left":[0,0,0,0,0,0,0,0,0,0,0,0,0,0,0,0,0,0,0,0,0,0,0,0,0,0,0,0,0,0,0,0,0,0,0,0,0,0,0,0,0,0,0,0,0,0,0],"id":25,"left_children":[1,3,5,-1,7,9,11,13,15,17,19,21,23,25,27,29,31,33,35,37,39,41,43,45,-1,-1,-1,-1,-1,-1,-1,-1,-1,-1,-1,-1,-1,-1,-1,-1,-1,-1,-1,-1,-1,-1,-1],"loss_changes":[1.5500184E7,1.4746562E5,3.108268E7,0E0,1.7946688E5,7.218584E6,8.411995E5,4.626745E3,6.041328E4,2.392696E6,2.816872E6,6.170475E5,1.4496252E5,2.0573166E2,1.5795996E2,6.9574375E3,2.504535E3,1.883934E5,1.000118E6,2.33653E5,1.013048E6,2.3215281E4,4.4920375E4,1.8136022E5,0E0,0E0,0E0,0E0,0E0,0E0,0E0,0E0,0E0,0E0,0E0,0E0,0E0,0E0,0E0,0E0,0E0,0E0,0E0,0E0,0E0,0E0,0E0],"parents":[2147483647,0,0,1,1,2,2,4,4,5,5,6,6,7,7,8,8,9,9,10,10,11,11,12,12,13,13,14,14,15,15,16,16,17,17,18,18,19,19,20,20,21,21,22,22,23,23],"right_children":[2,4,6,-1,8,10,12,14,16,18,20,22,24,26,28,30,32,34,36,38,40,42,44,46,-1,-1,-1,-1,-1,-1,-1,-1,-1,-1,-1,-1,-1,-1,-1,-1,-1,-1,-1,-1,-1,-1,-1],"split_conditions":[7E0,6E0,1.7E1,-2.2052657E-3,1.97E2,1.75E2,1.8E1,1.81E2,3.29E2,9E0,9E0,1.75E2,1.9E1,1.74E2,1.87E2,1.1E1,3.48E2,8E0,1.6E1,8E0,1.6E1,1.51E2,3.3E2,1.91E2,-2.2052089E-3,-2.1886984E-3,1.3406922E-2,3.3704247E-2,5.6838684E-2,1.6814247E-1,1.1007573E-1,4.9203876E-2,2.0693273E-3,3.6166094E-2,1.6658635E-1,3.8974857E-1,1.6222927E-1,2.682454E-1,4.12192E-1,6.4610314E-1,4.2003638E-1,2.3776684E-2,1.1955211E-1,2.919852E-1,1.7605975E-1,5.6964246E-4,1.275942E-1],"split_indices":[1,1,1,0,0,0,1,0,0,1,1,0,1,0,0,4,0,1,1,1,1,0,0,0,0,0,0,0,0,0,0,0,0,0,0,0,0,0,0,0,0,0,0,0,0,0,0],"split_type":[0,0,0,0,0,0,0,0,0,0,0,0,0,0,0,0,0,0,0,0,0,0,0,0,0,0,0,0,0,0,0,0,0,0,0,0,0,0,0,0,0,0,0,0,0,0,0],"sum_hessian":[2.7072E4,7.896E3,1.9176E4,6.768E3,1.128E3,1.128E4,7.896E3,6.2E2,5.08E2,5.54E3,5.74E3,1.128E3,6.768E3,5.72E2,4.8E1,3.96E2,1.12E2,1.108E3,4.432E3,1.148E3,4.592E3,5.54E2,5.74E2,1.128E3,5.64E3,5.51E2,2.1E1,1.8E1,3E1,3.25E2,7.1E1,5.7E1,5.5E1,5.54E2,5.54E2,3.878E3,5.54E2,5.74E2,5.74E2,4.018E3,5.74E2,4.82E2,7.2E1,4.65E2,1.09E2,6.02E2,5.26E2],"tree_param":{"num_deleted":"0","num_feature":"5","num_nodes":"47","size_leaf_vector":"1"}},{"base_weights":[3.84206E1,1.3172626E0,5.3697582E1,-2.1942412E-3,1.1844984E1,8.72113E1,5.815852E0,4.7736996E-1,2.5690649E1,6.0162907E1,1.1066329E2,3.0959782E1,1.6212426E0,-2.8147328E-1,1.0196818E1,3.1449665E1,5.2302923E0,1.8691555E1,7.052381E1,6.670429E1,1.2163696E2,7.247244E0,5.379369E1,1.1912906E1,-2.1941848E-3,-2.1340284E-3,1.6188497E-2,3.605404E-2,5.6563657E-2,1.6730432E-1,1.0953299E-1,4.89621E-2,2.0591654E-3,2.946825E-2,1.5726928E-1,3.9581305E-1,2.2278327E-1,2.6111144E-1,4.053802E-1,6.510771E-1,4.7907573E-1,2.3658046E-2,1.1896254E-1,2.9052842E-1,1.7518747E-1,1.5005626E-3,1.2805021E-1],"categories":[],"categories_nodes":[],"categories_segments":[],"categories_sizes":[],"default_left":[0,0,0,0,0,0,0,0,0,0,0,0,0,0,0,0,0,0,0,0,0,0,0,0,0,0,0,0,0,0,0,0,0,0,0,0,0,0,0,0,0,0,0,0,0,0,0],"id":26,"left_children":[1,3,5,-1,7,9,11,13,15,17,19,21,23,25,27,29,31,33,35,37,39,41,43,45,-1,-1,-1,-1,-1,-1,-1,-1,-1,-1,-1,-1,-1,-1,-1,-1,-1,-1,-1,-1,-1,-1,-1],"loss_changes":[1.5345636E7,1.4600372E5,3.0772732E7,0E0,1.776835E5,7.149312E6,8.328382E5,4.5830786E3,5.981175E4,2.25064E6,2.906016E6,6.109071E5,1.4351916E5,2.964884E2,6.837207E1,6.8866562E3,2.4799817E3,1.7114856E5,9.37068E5,2.473975E5,1.058088E6,2.2987547E4,4.446825E4,1.7957331E5,0E0,0E0,0E0,0E0,0E0,0E0,0E0,0E0,0E0,0E0,0E0,0E0,0E0,0E0,0E0,0E0,0E0,0E0,0E0,0E0,0E0,0E0,0E0],"parents":[2147483647,0,0,1,1,2,2,4,4,5,5,6,6,7,7,8,8,9,9,10,10,11,11,12,12,13,13,14,14,15,15,16,16,17,17,18,18,19,19,20,20,21,21,22,22,23,23],"right_children":[2,4,6,-1,8,10,12,14,16,18,20,22,24,26,28,30,32,34,36,38,40,42,44,46,-1,-1,-1,-1,-1,-1,-1,-1,-1,-1,-1,-1,-1,-1,-1,-1,-1,-1,-1,-1,-1,-1,-1],"split_conditions":[7E0,6E0,1.7E1,-2.1942412E-3,1.97E2,1.65E2,1.8E1,3E0,3.29E2,9E0,9E0,1.75E2,1.9E1,1.75E2,1.87E2,1.1E1,3.48E2,8E0,1.5E1,8E0,1.5E1,1.51E2,3.3E2,1.94E2,-2.1941848E-3,-2.1340284E-3,1.6188497E-2,3.605404E-2,5.6563657E-2,1.6730432E-1,1.0953299E-1,4.89621E-2,2.0591654E-3,2.946825E-2,1.5726928E-1,3.9581305E-1,2.2278327E-1,2.6111144E-1,4.053802E-1,6.510771E-1,4.7907573E-1,2.3658046E-2,1.1896254E-1,2.9052842E-1,1.7518747E-1,1.5005626E-3,1.2805021E-1],"split_indices":[1,1,1,0,0,0,1,3,0,1,1,0,1,0,0,4,0,1,1,1,1,0,0,0,0,0,0,0,0,0,0,0,0,0,0,0,0,0,0,0,0,0,0,0,0,0,0],"split_type":[0,0,0,0,0,0,0,0,0,0,0,0,0,0,0,0,0,0,0,0,0,0,0,0,0,0,0,0,0,0,0,0,0,0,0,0,0,0,0,0,0,0,0,0,0,0,0],"sum_hessian":[2.7072E4,7.896E3,1.9176E4,6.768E3,1.128E3,1.128E4,7.896E3,6.2E2,5.08E2,5.24E3,6.04E3,1.128E3,6.768E3,5.76E2,4.4E1,3.96E2,1.12E2,1.048E3,4.192E3,1.208E3,4.832E3,5.54E2,5.74E2,1.128E3,5.64E3,5.54E2,2.2E1,1.4E1,3E1,3.25E2,7.1E1,5.7E1,5.5E1,5.24E2,5.24E2,3.144E3,1.048E3,6.04E2,6.04E2,3.624E3,1.208E3,4.82E2,7.2E1,4.65E2,1.09E2,6.11E2,5.17E2],"tree_param":{"num_deleted":"0","num_feature":"5","num_nodes":"47","size_leaf_vector":"1"}},{"base_weights":[3.8228638E1,1.3107312E0,5.3429268E1,-2.1832713E-3,1.1786144E1,8.6775475E1,5.786866E0,4.7515488E-1,2.556284E1,6.1256912E1,1.1138993E2,3.0805521E1,1.6131551E0,-2.8004155E-1,1.0147892E1,3.1981247E1,7.3622146E0,2.0085981E1,7.154279E1,6.7430084E1,1.2236282E2,7.2112646E0,5.352553E1,1.1853456E1,-2.1832157E-3,-2.1233775E-3,1.6111072E-2,3.588579E-2,5.6289963E-2,1.0836836E-1,1.6993345E-1,6.9184065E-2,9.627776E-3,3.5775907E-2,1.6490296E-1,3.8587618E-1,1.6023842E-1,2.6560324E-1,4.0811124E-1,6.3974166E-1,4.1554862E-1,2.354E-2,1.1837587E-1,2.890789E-1,1.7431949E-1,5.593087E-4,1.2632921E-1],"categories":[],"categories_nodes":[],"categories_segments":[],"categories_sizes":[],"default_left":[0,0,0,0,0,0,0,0,0,0,0,0,0,0,0,0,0,0,0,0,0,0,0,0,0,0,0,0,0,0,0,0,0,0,0,0,0,0,0,0,0,0,0,0,0,0,0],"id":27,"left_children":[1,3,5,-1,7,9,11,13,15,17,19,21,23,25,27,29,31,33,35,37,39,41,43,45,-1,-1,-1,-1,-1,-1,-1,-1,-1,-1,-1,-1,-1,-1,-1,-1,-1,-1,-1,-1,-1,-1,-1],"loss_changes":[1.5192632E7,1.4455644E5,3.0465876E7,0E0,1.7591773E5,7.079056E6,8.2455994E5,4.539133E3,5.9225438E4,2.345062E6,2.761016E6,6.0482775E5,1.4209022E5,2.93645E2,6.7601074E1,7.0357812E3,4.690181E3,1.84676E5,9.83666E5,2.290055E5,9.96368E5,2.2762041E4,4.40205E4,1.7779523E5,0E0,0E0,0E0,0E0,0E0,0E0,0E0,0E0,0E0,0E0,0E0,0E0,0E0,0E0,0E0,0E0,0E0,0E0,0E0,0E0,0E0,0E0,0E0],"parents":[2147483647,0,0,1,1,2,2,4,4,5,5,6,6,7,7,8,8,9,9,10,10,11,11,12,12,13,13,14,14,15,15,16,16,17,17,18,18,19,19,20,20,21,21,22,22,23,23],"right_children":[2,4,6,-1,8,10,12,14,16,18,20,22,24,26,28,30,32,34,36,38,40,42,44,46,-1,-1,-1,-1,-1,-1,-1,-1,-1,-1,-1,-1,-1,-1,-1,-1,-1,-1,-1,-1,-1,-1,-1],"split_conditions":[7E0,6E0,1.7E1,-2.1832713E-3,1.97E2,1.75E2,1.8E1,3E0,3.22E2,9E0,9E0,1.75E2,1.9E1,1.75E2,1.87E2,2.18E2,3.42E2,8E0,1.6E1,8E0,1.6E1,1.51E2,3.3E2,1.91E2,-2.1832157E-3,-2.1233775E-3,1.6111072E-2,3.588579E-2,5.6289963E-2,1.0836836E-1,1.6993345E-1,6.9184065E-2,9.627776E-3,3.5775907E-2,1.6490296E-1,3.8587618E-1,1.6023842E-1,2.6560324E-1,4.0811124E-1,6.3974166E-1,4.1554862E-1,2.354E-2,1.1837587E-1,2.890789E-1,1.7431949E-1,5.593087E-4,1.2632921E-1],"split_indices":[1,1,1,0,0,0,1,3,0,1,1,0,1,0,0,0,0,1,1,1,1,0,0,0,0,0,0,0,0,0,0,0,0,0,0,0,0,0,0,0,0,0,0,0,0,0,0],"split_type":[0,0,0,0,0,0,0,0,0,0,0,0,0,0,0,0,0,0,0,0,0,0,0,0,0,0,0,0,0,0,0,0,0,0,0,0,0,0,0,0,0,0,0,0,0,0,0],"sum_hessian":[2.7072E4,7.896E3,1.9176E4,6.768E3,1.128E3,1.128E4,7.896E3,6.2E2,5.08E2,5.54E3,5.74E3,1.128E3,6.768E3,5.76E2,4.4E1,3.75E2,1.33E2,1.108E3,4.432E3,1.148E3,4.592E3,5.54E2,5.74E2,1.128E3,5.64E3,5.54E2,2.2E1,1.4E1,3E1,6.3E1,3.12E2,6E1,7.3E1,5.54E2,5.54E2,3.878E3,5.54E2,5.74E2,5.74E2,4.018E3,5.74E2,4.82E2,7.2E1,4.65E2,1.09E2,6.02E2,5.26E2],"tree_param":{"num_deleted":"0","num_feature":"5","num_nodes":"47","size_leaf_vector":"1"}},{"base_weights":[3.803763E1,1.3042358E0,5.316229E1,-2.1723567E-3,1.1727624E1,8.634182E1,5.758024E0,4.7295007E-1,2.5435728E1,5.95561E1,1.09566055E2,3.0652029E1,1.6051079E0,-3.1403178E-1,9.666167E0,3.1138708E1,5.1744947E0,1.8498032E1,6.981376E1,6.604648E1,1.2043004E2,6.798186E0,5.2901253E1,1.1794301E1,-2.1723015E-3,-2.1565263E-3,1.32137025E-2,3.3245556E-2,5.6017593E-2,1.656828E-1,1.0830199E-1,4.7302477E-2,7.1959285E-4,2.9142652E-2,1.5566148E-1,3.9190584E-1,2.2030646E-1,2.585392E-1,4.0137976E-1,6.446879E-1,4.7410944E-1,2.119447E-2,1.0034982E-1,2.8503478E-1,1.7345582E-1,1.4810323E-3,1.2678076E-1],"categories":[],"categories_nodes":[],"categories_segments":[],"categories_sizes":[],"default_left":[0,0,0,0,0,0,0,0,0,0,0,0,0,0,0,0,0,0,0,0,0,0,0,0,0,0,0,0,0,0,0,0,0,0,0,0,0,0,0,0,0,0,0,0,0,0,0],"id":28,"left_children":[1,3,5,-1,7,9,11,13,15,17,19,21,23,25,27,29,31,33,35,37,39,41,43,45,-1,-1,-1,-1,-1,-1,-1,-1,-1,-1,-1,-1,-1,-1,-1,-1,-1,-1,-1,-1,-1,-1,-1],"loss_changes":[1.5041144E7,1.4312416E5,3.0162076E7,0E0,1.7417036E5,7.011136E6,8.163642E5,4.4959053E3,5.865353E4,2.206008E6,2.848208E6,5.98834E5,1.4067545E5,1.9982814E2,1.5278223E2,6.7999375E3,2.4350376E3,1.6773184E5,9.21656E5,2.42523E5,1.040696E6,1.8460555E4,4.1685375E4,1.7604364E5,0E0,0E0,0E0,0E0,0E0,0E0,0E0,0E0,0E0,0E0,0E0,0E0,0E0,0E0,0E0,0E0,0E0,0E0,0E0,0E0,0E0,0E0,0E0],"parents":[2147483647,0,0,1,1,2,2,4,4,5,5,6,6,7,7,8,8,9,9,10,10,11,11,12,12,13,13,14,14,15,15,16,16,17,17,18,18,19,19,20,20,21,21,22,22,23,23],"right_children":[2,4,6,-1,8,10,12,14,16,18,20,22,24,26,28,30,32,34,36,38,40,42,44,46,-1,-1,-1,-1,-1,-1,-1,-1,-1,-1,-1,-1,-1,-1,-1,-1,-1,-1,-1,-1,-1,-1,-1],"split_conditions":[7E0,6E0,1.7E1,-2.1723567E-3,1.97E2,1.65E2,1.8E1,1.81E2,3.29E2,9E0,9E0,1.72E2,1.9E1,1.74E2,1.87E2,1.1E1,3.49E2,8E0,1.5E1,8E0,1.5E1,1.43E2,3.3E2,1.94E2,-2.1723015E-3,-2.1565263E-3,1.32137025E-2,3.3245556E-2,5.6017593E-2,1.656828E-1,1.0830199E-1,4.7302477E-2,7.1959285E-4,2.9142652E-2,1.5566148E-1,3.9190584E-1,2.2030646E-1,2.585392E-1,4.0137976E-1,6.446879E-1,4.7410944E-1,2.119447E-2,1.0034982E-1,2.8503478E-1,1.7345582E-1,1.4810323E-3,1.2678076E-1],"split_indices":[1,1,1,0,0,0,1,0,0,1,1,0,1,0,0,4,0,1,1,1,1,0,0,0,0,0,0,0,0,0,0,0,0,0,0,0,0,0,0,0,0,0,0,0,0,0,0],"split_type":[0,0,0,0,0,0,0,0,0,0,0,0,0,0,0,0,0,0,0,0,0,0,0,0,0,0,0,0,0,0,0,0,0,0,0,0,0,0,0,0,0,0,0,0,0,0,0],"sum_hessian":[2.7072E4,7.896E3,1.9176E4,6.768E3,1.128E3,1.128E4,7.896E3,6.2E2,5.08E2,5.24E3,6.04E3,1.128E3,6.768E3,5.72E2,4.8E1,3.96E2,1.12E2,1.048E3,4.192E3,1.208E3,4.832E3,5.45E2,5.83E2,1.128E3,5.64E3,5.51E2,2.1E1,1.8E1,3E1,3.25E2,7.1E1,6E1,5.2E1,5.24E2,5.24E2,3.144E3,1.048E3,6.04E2,6.04E2,3.624E3,1.208E3,4.58E2,8.7E1,4.74E2,1.09E2,6.11E2,5.17E2],"tree_param":{"num_deleted":"0","num_feature":"5","num_nodes":"47","size_leaf_vector":"1"}},{"base_weights":[3.784758E1,1.2977679E0,5.289665E1,-2.1614968E-3,1.166936E1,8.591034E1,5.7293234E0,4.7074687E-1,2.5309181E1,6.06396E1,1.1028575E2,3.0499283E1,1.5971009E0,-2.7726912E-1,1.0051513E1,3.0983706E1,5.1490474E0,1.988056E1,7.082258E1,6.676385E1,1.2114933E2,7.1376214E0,5.2995323E1,1.1735443E1,-2.161442E-3,-2.1024318E-3,1.5953405E-2,3.556318E-2,5.574654E-2,1.6485693E-1,1.07768E-1,5.078046E-2,4.3327026E-3,3.53899E-2,1.6323659E-1,3.8204235E-1,1.5827052E-1,2.6298708E-1,4.0407085E-1,6.334429E-1,4.1110808E-1,2.3297125E-2,1.1718338E-1,2.8621447E-1,1.7259642E-1,5.4912374E-4,1.2507676E-1],"categories":[],"categories_nodes":[],"categories_segments":[],"categories_sizes":[],"default_left":[0,0,0,0,0,0,0,0,0,0,0,0,0,0,0,0,0,0,0,0,0,0,0,0,0,0,0,0,0,0,0,0,0,0,0,0,0,0,0,0,0,0,0,0,0,0,0],"id":29,"left_children":[1,3,5,-1,7,9,11,13,15,17,19,21,23,25,27,29,31,33,35,37,39,41,43,45,-1,-1,-1,-1,-1,-1,-1,-1,-1,-1,-1,-1,-1,-1,-1,-1,-1,-1,-1,-1,-1,-1,-1],"loss_changes":[1.4891184E7,1.4170528E5,2.9861308E7,0E0,1.7243956E5,6.94224E6,8.0824856E5,4.453225E3,5.8069656E4,2.298376E6,2.70628E6,5.92962E5,1.3927483E5,2.879204E2,6.5881836E1,6.7306875E3,2.4142253E3,1.8103216E5,9.6748E5,2.244495E5,9.79976E5,2.23085E4,4.3149E4,1.7430036E5,0E0,0E0,0E0,0E0,0E0,0E0,0E0,0E0,0E0,0E0,0E0,0E0,0E0,0E0,0E0,0E0,0E0,0E0,0E0,0E0,0E0,0E0,0E0],"parents":[2147483647,0,0,1,1,2,2,4,4,5,5,6,6,7,7,8,8,9,9,10,10,11,11,12,12,13,13,14,14,15,15,16,16,17,17,18,18,19,19,20,20,21,21,22,22,23,23],"right_children":[2,4,6,-1,8,10,12,14,16,18,20,22,24,26,28,30,32,34,36,38,40,42,44,46,-1,-1,-1,-1,-1,-1,-1,-1,-1,-1,-1,-1,-1,-1,-1,-1,-1,-1,-1,-1,-1,-1,-1],"split_conditions":[7E0,6E0,1.7E1,-2.1614968E-3,1.97E2,1.75E2,1.8E1,3E0,3.29E2,9E0,9E0,1.75E2,1.9E1,1.75E2,1.87E2,1.1E1,3.46E2,8E0,1.6E1,8E0,1.6E1,1.51E2,3.3E2,1.91E2,-2.161442E-3,-2.1024318E-3,1.5953405E-2,3.556318E-2,5.574654E-2,1.6485693E-1,1.07768E-1,5.078046E-2,4.3327026E-3,3.53899E-2,1.6323659E-1,3.8204235E-1,1.5827052E-1,2.6298708E-1,4.0407085E-1,6.334429E-1,4.1110808E-1,2.3297125E-2,1.1718338E-1,2.8621447E-1,1.7259642E-1,5.4912374E-4,1.2507676E-1],"split_indices":[1,1,1,0,0,0,1,3,0,1,1,0,1,0,0,4,0,1,1,1,1,0,0,0,0,0,0,0,0,0,0,0,0,0,0,0,0,0,0,0,0,0,0,0,0,0,0],"split_type":[0,0,0,0,0,0,0,0,0,0,0,0,0,0,0,0,0,0,0,0,0,0,0,0,0,0,0,0,0,0,0,0,0,0,0,0,0,0,0,0,0,0,0,0,0,0,0],"sum_hessian":[2.7072E4,7.896E3,1.9176E4,6.768E3,1.128E3,1.128E4,7.896E3,6.2E2,5.08E2,5.54E3,5.74E3,1.128E3,6.768E3,5.76E2,4.4E1,3.96E2,1.12E2,1.108E3,4.432E3,1.148E3,4.592E3,5.54E2,5.74E2,1.128E3,5.64E3,5.54E2,2.2E1,1.4E1,3E1,3.25E2,7.1E1,5.1E1,6.1E1,5.54E2,5.54E2,3.878E3,5.54E2,5.74E2,5.74E2,4.018E3,5.74E2,4.82E2,7.2E1,4.65E2,1.09E2,6.02E2,5.26E2],"tree_param":{"num_deleted":"0","num_feature":"5","num_nodes":"47","size_leaf_vector":"1"}},{"base_weights":[3.7658474E1,1.2913336E0,5.263233E1,-2.1506906E-3,1.1611396E1,8.548101E1,5.7007685E0,4.6856245E-1,2.5183279E1,5.895541E1,1.0847971E2,3.0347317E1,1.5891336E0,-2.7585876E-1,1.0003284E1,3.1507643E1,7.249371E0,1.83065E1,6.911085E1,6.5395164E1,1.1923509E2,7.102186E0,5.2731144E1,1.1676877E1,-2.1506366E-3,-2.0919386E-3,1.5877105E-2,3.5397213E-2,5.54768E-2,1.062081E-1,1.6753049E-1,6.815835E-2,9.45161E-3,2.8820602E-2,1.5407003E-1,3.8803732E-1,2.1785647E-1,2.559923E-1,3.974189E-1,6.383614E-1,4.6919426E-1,2.2604993E-2,1.1298715E-1,2.8478646E-1,1.7174129E-1,1.4617414E-3,1.2552391E-1],"categories":[],"categories_nodes":[],"categories_segments":[],"categories_sizes":[],"default_left":[0,0,0,0,0,0,0,0,0,0,0,0,0,0,0,0,0,0,0,0,0,0,0,0,0,0,0,0,0,0,0,0,0,0,0,0,0,0,0,0,0,0,0,0,0,0,0],"id":30,"left_children":[1,3,5,-1,7,9,11,13,15,17,19,21,23,25,27,29,31,33,35,37,39,41,43,45,-1,-1,-1,-1,-1,-1,-1,-1,-1,-1,-1,-1,-1,-1,-1,-1,-1,-1,-1,-1,-1,-1,-1],"loss_changes":[1.4742708E7,1.403007E5,2.9563532E7,0E0,1.7072598E5,6.875624E6,8.0021494E5,4.4105244E3,5.7502688E4,2.162258E6,2.791544E6,5.870611E5,1.3788811E5,2.8515912E2,6.513867E1,7.002375E3,4.5574414E3,1.6438312E5,9.065E5,2.37745E5,1.0236E6,2.2095693E4,4.2714625E4,1.7258331E5,0E0,0E0,0E0,0E0,0E0,0E0,0E0,0E0,0E0,0E0,0E0,0E0,0E0,0E0,0E0,0E0,0E0,0E0,0E0,0E0,0E0,0E0,0E0],"parents":[2147483647,0,0,1,1,2,2,4,4,5,5,6,6,7,7,8,8,9,9,10,10,11,11,12,12,13,13,14,14,15,15,16,16,17,17,18,18,19,19,20,20,21,21,22,22,23,23],"right_children":[2,4,6,-1,8,10,12,14,16,18,20,22,24,26,28,30,32,34,36,38,40,42,44,46,-1,-1,-1,-1,-1,-1,-1,-1,-1,-1,-1,-1,-1,-1,-1,-1,-1,-1,-1,-1,-1,-1,-1],"split_conditions":[7E0,6E0,1.7E1,-2.1506906E-3,1.97E2,1.65E2,1.8E1,3E0,3.22E2,9E0,9E0,1.75E2,1.9E1,1.75E2,1.87E2,2.18E2,3.42E2,8E0,1.5E1,8E0,1.5E1,1.49E2,3.3E2,1.94E2,-2.1506366E-3,-2.0919386E-3,1.5877105E-2,3.5397213E-2,5.54768E-2,1.062081E-1,1.6753049E-1,6.815835E-2,9.45161E-3,2.8820602E-2,1.5407003E-1,3.8803732E-1,2.1785647E-1,2.559923E-1,3.974189E-1,6.383614E-1,4.6919426E-1,2.2604993E-2,1.1298715E-1,2.8478646E-1,1.7174129E-1,1.4617414E-3,1.2552391E-1],"split_indices":[1,1,1,0,0,0,1,3,0,1,1,0,1,0,0,0,0,1,1,1,1,0,0,0,0,0,0,0,0,0,0,0,0,0,0,0,0,0,0,0,0,0,0,0,0,0,0],"split_type":[0,0,0,0,0,0,0,0,0,0,0,0,0,0,0,0,0,0,0,0,0,0,0,0,0,0,0,0,0,0,0,0,0,0,0,0,0,0,0,0,0,0,0,0,0,0,0],"sum_hessian":[2.7072E4,7.896E3,1.9176E4,6.768E3,1.128E3,1.128E4,7.896E3,6.2E2,5.08E2,5.24E3,6.04E3,1.128E3,6.768E3,5.76E2,4.4E1,3.75E2,1.33E2,1.048E3,4.192E3,1.208E3,4.832E3,5.54E2,5.74E2,1.128E3,5.64E3,5.54E2,2.2E1,1.4E1,3E1,6.3E1,3.12E2,6E1,7.3E1,5.24E2,5.24E2,3.144E3,1.048E3,6.04E2,6.04E2,3.624E3,1.208E3,4.76E2,7.8E1,4.65E2,1.09E2,6.11E2,5.17E2],"tree_param":{"num_deleted":"0","num_feature":"5","num_nodes":"47","size_leaf_vector":"1"}},{"base_weights":[3.7470318E1,1.2849344E0,5.236934E1,-2.1399388E-3,1.1553743E1,8.5053825E1,5.672355E0,4.663882E-1,2.5058054E1,6.0028503E1,1.0919252E2,3.0196104E1,1.5812064E0,-3.0938694E-1,9.528689E0,3.0677353E1,5.09416E0,1.9677246E1,7.0109604E1,6.610419E1,1.1994787E2,7.06692E0,5.246828E1,1.1618605E1,-2.1398854E-3,-2.1248292E-3,1.3023281E-2,3.279314E-2,5.5208363E-2,1.6325933E-1,1.06555544E-1,4.6620216E-2,6.484414E-4,3.500803E-2,1.6158716E-1,3.782467E-1,1.5632534E-1,2.603967E-1,4.0007034E-1,6.2720627E-1,4.067142E-1,2.3062477E-2,1.160483E-1,2.8336558E-1,1.7089039E-1,5.39086E-4,1.23836726E-1],"categories":[],"categories_nodes":[],"categories_segments":[],"categories_sizes":[],"default_left":[0,0,0,0,0,0,0,0,0,0,0,0,0,0,0,0,0,0,0,0,0,0,0,0,0,0,0,0,0,0,0,0,0,0,0,0,0,0,0,0,0,0,0,0,0,0,0],"id":31,"left_children":[1,3,5,-1,7,9,11,13,15,17,19,21,23,25,27,29,31,33,35,37,39,41,43,45,-1,-1,-1,-1,-1,-1,-1,-1,-1,-1,-1,-1,-1,-1,-1,-1,-1,-1,-1,-1,-1,-1,-1],"loss_changes":[1.4595712E7,1.3891058E5,2.9268732E7,0E0,1.6903022E5,6.808064E6,7.922607E5,4.368769E3,5.6944906E4,2.252618E6,2.652624E6,5.812193E5,1.3651525E5,1.9409442E2,1.47771E2,6.6461875E3,2.3716934E3,1.7746044E5,9.51562E5,2.199845E5,9.63844E5,2.1882672E4,4.2284625E4,1.7087411E5,0E0,0E0,0E0,0E0,0E0,0E0,0E0,0E0,0E0,0E0,0E0,0E0,0E0,0E0,0E0,0E0,0E0,0E0,0E0,0E0,0E0,0E0,0E0],"parents":[2147483647,0,0,1,1,2,2,4,4,5,5,6,6,7,7,8,8,9,9,10,10,11,11,12,12,13,13,14,14,15,15,16,16,17,17,18,18,19,19,20,20,21,21,22,22,23,23],"right_children":[2,4,6,-1,8,10,12,14,16,18,20,22,24,26,28,30,32,34,36,38,40,42,44,46,-1,-1,-1,-1,-1,-1,-1,-1,-1,-1,-1,-1,-1,-1,-1,-1,-1,-1,-1,-1,-1,-1,-1],"split_conditions":[7E0,6E0,1.7E1,-2.1399388E-3,1.97E2,1.75E2,1.8E1,1.81E2,3.29E2,9E0,9E0,1.75E2,1.9E1,1.74E2,1.87E2,1.1E1,3.49E2,8E0,1.6E1,8E0,1.6E1,1.51E2,3.3E2,1.91E2,-2.1398854E-3,-2.1248292E-3,1.3023281E-2,3.279314E-2,5.5208363E-2,1.6325933E-1,1.06555544E-1,4.6620216E-2,6.484414E-4,3.500803E-2,1.6158716E-1,3.782467E-1,1.5632534E-1,2.603967E-1,4.0007034E-1,6.2720627E-1,4.067142E-1,2.3062477E-2,1.160483E-1,2.8336558E-1,1.7089039E-1,5.39086E-4,1.23836726E-1],"split_indices":[1,1,1,0,0,0,1,0,0,1,1,0,1,0,0,4,0,1,1,1,1,0,0,0,0,0,0,0,0,0,0,0,0,0,0,0,0,0,0,0,0,0,0,0,0,0,0],"split_type":[0,0,0,0,0,0,0,0,0,0,0,0,0,0,0,0,0,0,0,0,0,0,0,0,0,0,0,0,0,0,0,0,0,0,0,0,0,0,0,0,0,0,0,0,0,0,0],"sum_hessian":[2.7072E4,7.896E3,1.9176E4,6.768E3,1.128E3,1.128E4,7.896E3,6.2E2,5.08E2,5.54E3,5.74E3,1.128E3,6.768E3,5.72E2,4.8E1,3.96E2,1.12E2,1.108E3,4.432E3,1.148E3,4.592E3,5.54E2,5.74E2,1.128E3,5.64E3,5.51E2,2.1E1,1.8E1,3E1,3.25E2,7.1E1,6E1,5.2E1,5.54E2,5.54E2,3.878E3,5.54E2,5.74E2,5.74E2,4.018E3,5.74E2,4.82E2,7.2E1,4.65E2,1.09E2,6.02E2,5.26E2],"tree_param":{"num_deleted":"0","num_feature":"5","num_nodes":"47","size_leaf_vector":"1"}},{"base_weights":[3.72831E1,1.2785622E0,5.2107655E1,-2.129241E-3,1.1496344E1,8.462878E1,5.644084E0,4.642155E-1,2.4933386E1,5.8360775E1,1.0740413E2,3.004565E1,1.5733185E0,-2.7312782E-1,9.908279E0,3.0524647E1,5.069108E0,1.8116936E1,6.8415016E1,6.475028E1,1.18051994E2,7.750049E0,5.2927757E1,1.1560622E1,-2.129188E-3,-2.0713024E-3,1.5721695E-2,3.507899E-2,5.4941222E-2,1.6244555E-1,1.06030166E-1,4.7543135E-2,1.9025736E-3,2.8502066E-2,1.5249476E-1,3.8420716E-1,2.1543308E-1,2.534705E-1,3.9349714E-1,6.3209707E-1,4.6432948E-1,2.2947405E-2,1.2220104E-1,2.8727454E-1,1.7004369E-1,1.4426878E-3,1.2427951E-1],"categories":[],"categories_nodes":[],"categories_segments":[],"categories_sizes":[],"default_left":[0,0,0,0,0,0,0,0,0,0,0,0,0,0,0,0,0,0,0,0,0,0,0,0,0,0,0,0,0,0,0,0,0,0,0,0,0,0,0,0,0,0,0,0,0,0,0],"id":32,"left_children":[1,3,5,-1,7,9,11,13,15,17,19,21,23,25,27,29,31,33,35,37,39,41,43,45,-1,-1,-1,-1,-1,-1,-1,-1,-1,-1,-1,-1,-1,-1,-1,-1,-1,-1,-1,-1,-1,-1,-1],"loss_changes":[1.445018E7,1.3753345E5,2.8976876E7,0E0,1.6735044E5,6.742744E6,7.8438594E5,4.3270503E3,5.637803E4,2.119378E6,2.736E6,5.755721E5,1.3515598E5,2.7959894E2,6.3478516E1,6.5785625E3,2.348488E3,1.6110106E5,8.91592E5,2.33061E5,1.006784E6,3.01138E4,4.5752625E4,1.6919098E5,0E0,0E0,0E0,0E0,0E0,0E0,0E0,0E0,0E0,0E0,0E0,0E0,0E0,0E0,0E0,0E0,0E0,0E0,0E0,0E0,0E0,0E0,0E0],"parents":[2147483647,0,0,1,1,2,2,4,4,5,5,6,6,7,7,8,8,9,9,10,10,11,11,12,12,13,13,14,14,15,15,16,16,17,17,18,18,19,19,20,20,21,21,22,22,23,23],"right_children":[2,4,6,-1,8,10,12,14,16,18,20,22,24,26,28,30,32,34,36,38,40,42,44,46,-1,-1,-1,-1,-1,-1,-1,-1,-1,-1,-1,-1,-1,-1,-1,-1,-1,-1,-1,-1,-1,-1,-1],"split_conditions":[7E0,6E0,1.7E1,-2.129241E-3,1.97E2,1.65E2,1.8E1,3E0,3.29E2,9E0,9E0,1.81E2,1.9E1,1.75E2,1.87E2,1.1E1,3.48E2,8E0,1.5E1,8E0,1.5E1,1.51E2,3.3E2,1.94E2,-2.129188E-3,-2.0713024E-3,1.5721695E-2,3.507899E-2,5.4941222E-2,1.6244555E-1,1.06030166E-1,4.7543135E-2,1.9025736E-3,2.8502066E-2,1.5249476E-1,3.8420716E-1,2.1543308E-1,2.534705E-1,3.9349714E-1,6.3209707E-1,4.6432948E-1,2.2947405E-2,1.2220104E-1,2.8727454E-1,1.7004369E-1,1.4426878E-3,1.2427951E-1],"split_indices":[1,1,1,0,0,0,1,3,0,1,1,0,1,0,0,4,0,1,1,1,1,0,0,0,0,0,0,0,0,0,0,0,0,0,0,0,0,0,0,0,0,0,0,0,0,0,0],"split_type":[0,0,0,0,0,0,0,0,0,0,0,0,0,0,0,0,0,0,0,0,0,0,0,0,0,0,0,0,0,0,0,0,0,0,0,0,0,0,0,0,0,0,0,0,0,0,0],"sum_hessian":[2.7072E4,7.896E3,1.9176E4,6.768E3,1.128E3,1.128E4,7.896E3,6.2E2,5.08E2,5.24E3,6.04E3,1.128E3,6.768E3,5.76E2,4.4E1,3.96E2,1.12E2,1.048E3,4.192E3,1.208E3,4.832E3,5.72E2,5.56E2,1.128E3,5.64E3,5.54E2,2.2E1,1.4E1,3E1,3.25E2,7.1E1,5.7E1,5.5E1,5.24E2,5.24E2,3.144E3,1.048E3,6.04E2,6.04E2,3.624E3,1.208E3,4.82E2,9E1,4.47E2,1.09E2,6.11E2,5.17E2],"tree_param":{"num_deleted":"0","num_feature":"5","num_nodes":"47","size_leaf_vector":"1"}},{"base_weights":[3.7096817E1,1.2722224E0,5.1847286E1,-2.1185963E-3,1.1439235E1,8.420586E1,5.6159554E0,4.6206135E-1,2.4809343E1,5.942357E1,1.0811013E2,2.9895956E1,1.5654701E0,-3.0631226E-1,9.437899E0,3.1041037E1,7.138257E0,1.9476015E1,6.940381E1,6.5451035E1,1.1875832E2,7.711552E0,5.266394E1,1.1502931E1,-2.1185437E-3,-2.1038868E-3,1.2898221E-2,3.2492016E-2,5.467538E-2,1.0408229E-1,1.6516256E-1,6.715621E-2,9.271668E-3,3.4630246E-2,1.5995444E-1,3.890018E-1,2.2083353E-1,2.578318E-1,3.9610943E-1,6.2103117E-1,4.0236655E-1,2.2832904E-2,1.21596746E-1,2.8855315E-1,1.7906015E-1,5.291937E-4,1.2260898E-1],"categories":[],"categories_nodes":[],"categories_segments":[],"categories_sizes":[],"default_left":[0,0,0,0,0,0,0,0,0,0,0,0,0,0,0,0,0,0,0,0,0,0,0,0,0,0,0,0,0,0,0,0,0,0,0,0,0,0,0,0,0,0,0,0,0,0,0],"id":33,"left_children":[1,3,5,-1,7,9,11,13,15,17,19,21,23,25,27,29,31,33,35,37,39,41,43,45,-1,-1,-1,-1,-1,-1,-1,-1,-1,-1,-1,-1,-1,-1,-1,-1,-1,-1,-1,-1,-1,-1,-1],"loss_changes":[1.4306108E7,1.3617014E5,2.8687924E7,0E0,1.6568734E5,6.676472E6,7.765899E5,4.285802E3,5.5829938E4,2.207768E6,2.60004E6,5.6984525E5,1.338103E5,1.9037102E2,1.4458545E2,6.9684688E3,4.430815E3,1.7395934E5,9.35938E5,2.156075E5,9.47976E5,2.9817328E4,4.5304125E4,1.6751528E5,0E0,0E0,0E0,0E0,0E0,0E0,0E0,0E0,0E0,0E0,0E0,0E0,0E0,0E0,0E0,0E0,0E0,0E0,0E0,0E0,0E0,0E0,0E0],"parents":[2147483647,0,0,1,1,2,2,4,4,5,5,6,6,7,7,8,8,9,9,10,10,11,11,12,12,13,13,14,14,15,15,16,16,17,17,18,18,19,19,20,20,21,21,22,22,23,23],"right_children":[2,4,6,-1,8,10,12,14,16,18,20,22,24,26,28,30,32,34,36,38,40,42,44,46,-1,-1,-1,-1,-1,-1,-1,-1,-1,-1,-1,-1,-1,-1,-1,-1,-1,-1,-1,-1,-1,-1,-1],"split_conditions":[7E0,6E0,1.7E1,-2.1185963E-3,1.97E2,1.75E2,1.8E1,1.81E2,3.22E2,9E0,9E0,1.81E2,1.9E1,1.74E2,1.87E2,2.18E2,3.42E2,8E0,1.5E1,8E0,1.6E1,1.51E2,3.23E2,1.91E2,-2.1185437E-3,-2.1038868E-3,1.2898221E-2,3.2492016E-2,5.467538E-2,1.0408229E-1,1.6516256E-1,6.715621E-2,9.271668E-3,3.4630246E-2,1.5995444E-1,3.890018E-1,2.2083353E-1,2.578318E-1,3.9610943E-1,6.2103117E-1,4.0236655E-1,2.2832904E-2,1.21596746E-1,2.8855315E-1,1.7906015E-1,5.291937E-4,1.2260898E-1],"split_indices":[1,1,1,0,0,0,1,0,0,1,1,0,1,0,0,0,0,1,1,1,1,0,0,0,0,0,0,0,0,0,0,0,0,0,0,0,0,0,0,0,0,0,0,0,0,0,0],"split_type":[0,0,0,0,0,0,0,0,0,0,0,0,0,0,0,0,0,0,0,0,0,0,0,0,0,0,0,0,0,0,0,0,0,0,0,0,0,0,0,0,0,0,0,0,0,0,0],"sum_hessian":[2.7072E4,7.896E3,1.9176E4,6.768E3,1.128E3,1.128E4,7.896E3,6.2E2,5.08E2,5.54E3,5.74E3,1.128E3,6.768E3,5.72E2,4.8E1,3.75E2,1.33E2,1.108E3,4.432E3,1.148E3,4.592E3,5.72E2,5.56E2,1.128E3,5.64E3,5.51E2,2.1E1,1.8E1,3E1,6.3E1,3.12E2,6E1,7.3E1,5.54E2,5.54E2,3.324E3,1.108E3,5.74E2,5.74E2,4.018E3,5.74E2,4.82E2,9E1,4.26E2,1.3E2,6.02E2,5.26E2],